  -0.90403,   0.05071,  -0.19939,   0.06892,  -0.11228,   0.69077,  -0.70133,   0.28308,   0.93750,   0.93750
  -0.02013,   0.87622,  -0.93750,   0.42347,   0.30452,   0.29604,   0.54776,   0.93750,   0.93750,  -0.78347
   0.93750,   0.93750,  -0.14452,   0.36993,  -0.93750,  -0.10494,   0.93750,  -0.01423,   0.93750,   0.93750
  -0.69560,  -0.20903,  -0.11022,   0.28993,  -0.69019,  -0.22650,   0.09580,  -0.26573,  -0.05544,  -0.88388
   0.69102,   0.93750,  -0.38187,   0.31349,   0.09277,  -0.05869,   0.41898,  -0.22285,   0.48916,  -0.58584
  -0.09795,   0.02478,   0.51553,   0.17041,   0.68970,   0.74472,  -0.26579,  -0.41839,  -0.04115,   0.54867
   0.19650,   0.42943,  -0.92315,   0.21226,   0.14367,  -0.84022,  -0.23822,   0.86427,   0.32386,  -0.75620
   0.13060,   0.28977,  -0.48763,   0.85584,   0.12198,   0.74302,  -0.29097,   0.03498,  -0.51354,   0.04175
  -0.38060,  -0.55761,   0.87939,  -0.87370,   0.87297,  -0.83744,  -0.45356,  -0.87678,  -0.93750,   0.65654
  -0.40329,   0.93750,  -0.78416,   0.60786,   0.93750,  -0.88772,  -0.39214,  -0.93750,  -0.93750,  -0.80859
  -0.62984,  -0.61355,   0.81830,   0.93750,  -0.63405,   0.93750,  -0.73545,  -0.44987,  -0.08397,  -0.40470
   0.30651,   0.61762,  -0.63096,   0.61330,   0.56021,  -0.56391,  -0.80848,   0.30338,  -0.70167,   0.28437
  -0.24164,   0.59031,  -0.91055,  -0.30124,   0.80095,  -0.55730,  -0.02051,   0.65690,  -0.19346,  -0.46585
  -0.18537,   0.80767,   0.12888,  -0.39126,   0.27719,   0.37309,  -0.28710,   0.31535,   0.93750,  -0.73170
   0.75016,   0.93750,   0.80361,   0.13484,   0.81648,   0.39454,  -0.93381,  -0.90441,   0.69516,   0.93750
   0.19341,   0.16323,  -0.90452,  -0.88155,   0.73852,   0.93750,   0.93750,   0.87523,  -0.87167,  -0.19746
  -0.87668,  -0.19615,  -0.86901,   0.93750,  -0.93750,   0.87820,   0.69185,  -0.93750,   0.43548,  -0.30859
  -0.38974,   0.93750,  -0.54941,  -0.53754,  -0.93750,   0.35502,  -0.80201,  -0.68963,   0.23177,  -0.57426
   0.22001,   0.93750,   0.20531,   0.88262,   0.00020,  -0.93750,  -0.38693,  -0.20410,  -0.18368,   0.81827
   0.46137,   0.11825,   0.24909,  -0.08796,  -0.02804,  -0.07164,  -0.23992,   0.50672,  -0.77802,   0.05611
  -0.31773,  -0.87987,   0.79320,  -0.93750,   0.93750,  -0.10866,   0.18347,  -0.79240,   0.67716,   0.87755
  -0.27606,  -0.60834,  -0.43354,   0.51724,  -0.81456,   0.12895,  -0.15264,  -0.93750,   0.16944,  -0.74067
   0.49990,  -0.81582,   0.88084,  -0.44579,   0.86592,   0.89254,  -0.76889,  -0.93750,   0.93750,  -0.29068
  -0.48230,   0.93750,  -0.93750,  -0.09547,   0.23108,  -0.17854,   0.93750,   0.93750,   0.46036,  -0.35561
  -0.47628,   0.66112,   0.74949,  -0.07677,   0.93750,   0.81310,  -0.21551,  -0.47799,   0.67608,  -0.11649
  -0.87185,   0.66156,   0.46078,   0.59498,   0.40716,  -0.18284,  -0.81133,  -0.79592,  -0.22295,  -0.17812
  -0.76705,  -0.42927,  -0.37938,  -0.70059,   0.66370,   0.16577,   0.04482,   0.86834,   0.04591,  -0.87627
   0.77276,  -0.05748,  -0.24812,   0.75969,  -0.47028,  -0.40696,  -0.43644,  -0.08623,   0.07819,   0.54169
  -0.93750,  -0.13524,  -0.93750,   0.18347,  -0.81918,  -0.06686,  -0.77226,   0.93750,   0.09126,   0.11944
   0.74772,   0.51392,  -0.14543,  -0.04621,  -0.54172,  -0.18943,  -0.30521,  -0.55485,   0.74440,   0.93750
  -0.19881,  -0.15487,   0.93128,  -0.65925,  -0.12100,  -0.55497,  -0.68286,  -0.30091,  -0.24455,  -0.20280
   0.55750,   0.58434,   0.05492,   0.83609,  -0.03490,   0.13286,   0.93750,  -0.93750,   0.93750,   0.54674
   0.86769,  -0.86759,  -0.06848,  -0.37978,   0.93750,   0.73624,   0.93750,  -0.23576,  -0.20908,  -0.20183
   0.73803,   0.34391,  -0.69052,   0.24025,   0.87951,   0.61025,  -0.57429,  -0.42481,  -0.75522,  -0.77541
   0.22380,  -0.23056,  -0.01405,  -0.29284,   0.93750,   0.16052,   0.93750,   0.81734,   0.88046,  -0.06890
  -0.63206,  -0.67985,   0.00559,  -0.00663,   0.24993,   0.63911,   0.55866,  -0.31163,  -0.24717,   0.74389
   0.56691,   0.87325,   0.87803,  -0.86922,  -0.93750,  -0.13447,   0.07886,  -0.15901,  -0.22222,   0.80598
   0.05288,   0.87874,  -0.56379,  -0.93750,  -0.93750,  -0.93750,   0.59656,   0.76017,   0.93750,   0.60443
  -0.55089,  -0.06834,   0.92771,  -0.32048,   0.45384,  -0.75219,  -0.79552,  -0.36997,   0.05262,   0.00221
   0.88791,   0.53644,   0.93750,  -0.21501,  -0.28641,  -0.85231,   0.01161,  -0.37121,   0.77102,  -0.04421
   0.79911,  -0.48672,  -0.90321,  -0.24990,  -0.35254,  -0.48438,  -0.18411,   0.93750,   0.87435,  -0.33518
   0.21753,   0.55656,   0.50540,  -0.63522,   0.74672,  -0.63582,  -0.13251,  -0.57007,  -0.10251,   0.71935
  -0.33976,  -0.11936,  -0.69787,   0.33694,   0.78463,  -0.35592,   0.93750,   0.02652,  -0.61896,   0.93750
   0.93750,   0.82951,   0.67799,   0.27623,   0.93750,  -0.93750,   0.93750,   0.93750,   0.26844,   0.93750
   0.29599,   0.21384,   0.19970,  -0.19844,   0.01392,   0.74921,  -0.64447,   0.43587,   0.20319,   0.34733
  -0.09705,   0.40799,   0.46736,  -0.32767,   0.63987,   0.16376,   0.06993,  -0.28581,   0.14300,   0.50084
   0.34035,   0.38412,  -0.06823,  -0.04549,   0.93750,   0.10865,  -0.11205,  -0.81788,  -0.14324,   0.57868
  -0.60329,  -0.65315,   0.74050,   0.28751,   0.51432,   0.80859,   0.79449,  -0.60539,   0.16797,  -0.73355
   0.05216,   0.47748,  -0.69684,  -0.65954,   0.32431,  -0.24943,   0.46162,   0.93750,  -0.08953,   0.01349
  -0.02735,   0.93750,   0.20752,  -0.29290,   0.26712,   0.01595,  -0.63159,   0.05709,  -0.87029,  -0.87528
  -0.20142,   0.11503,  -0.66331,  -0.38651,   0.80303,   0.00860,   0.75141,  -0.52755,   0.34389,   0.18112
  -0.56720,   0.74753,   0.52588,  -0.50664,  -0.38243,  -0.57895,  -0.32067,   0.80037,  -0.83933,   0.82927
   0.69641,   0.87113,  -0.92825,   0.14200,  -0.74865,   0.71351,   0.56895,   0.24462,   0.03439,   0.87508
   0.31547,   0.85700,   0.04888,   0.41190,   0.63950,   0.18824,  -0.46901,   0.41374,  -0.46451,  -0.52126
   0.33103,   0.29717,  -0.43149,  -0.17091,   0.24429,   0.48358,   0.32190,   0.75263,  -0.02239,  -0.22516
  -0.80362,   0.18199,  -0.74617,  -0.37435,   0.93739,   0.29755,  -0.82649,   0.48868,  -0.17437,  -0.27396
  -0.67459,   0.57451,   0.21549,  -0.39185,  -0.22251,  -0.19117,   0.78657,   0.67851,   0.93750,  -0.06064
  -0.37849,  -0.83148,  -0.72329,  -0.60977,   0.09319,  -0.68923,   0.88341,  -0.86949,   0.80956,  -0.81569
  -0.74976,  -0.05943,   0.09245,  -0.63534,  -0.88905,  -0.43527,  -0.86901,  -0.93565,   0.33034,  -0.93750
  -0.32098,  -0.66277,  -0.92274,  -0.74442,  -0.51344,   0.87493,  -0.60019,  -0.75280,  -0.78281,  -0.03444
  -0.82155,   0.78152,   0.45279,   0.36190,   0.38403,   0.24234,   0.74188,   0.82933,  -0.80261,   0.52789
  -0.93750,   0.22452,  -0.76273,   0.93750,   0.93750,  -0.88144,   0.93750,  -0.62677,   0.20416,  -0.29796
   0.04529,   0.19925,   0.56939,   0.05160,   0.66462,  -0.27310,   0.70250,   0.30717,  -0.27393,   0.24897
   0.67796,  -0.14233,   0.93750,  -0.51590,   0.81341,  -0.09275,   0.42939,  -0.93750,   0.25721,  -0.27078
  -0.03399,  -0.00325,   0.87551,  -0.58923,  -0.44628,  -0.46260,  -0.90070,  -0.17112,  -0.06184,  -0.16576
  -0.36233,  -0.53928,  -0.58475,  -0.59332,  -0.16306,   0.87461,  -0.32612,   0.73724,   0.91988,   0.22453
  -0.00832,   0.10193,   0.63330,  -0.67817,  -0.07951,   0.22980,  -0.30953,   0.74474,   0.62482,   0.45618
   0.75823,  -0.08378,  -0.80420,  -0.61768,  -0.01408,   0.91813,   0.12008,  -0.51451,   0.52545,   0.21997
   0.20641,  -0.37647,  -0.34411,   0.10616,  -0.33477,  -0.77475,  -0.36230,   0.93750,   0.84563,   0.15631
  -0.93750,  -0.05865,   0.93750,   0.26753,   0.56510,  -0.93750,  -0.67159,  -0.87542,  -0.68863,   0.17436
  -0.18880,  -0.58538,   0.92678,  -0.45992,   0.87114,  -0.51246,  -0.61953,  -0.12439,   0.34403,   0.33298
   0.93085,  -0.09364,   0.57254,  -0.09563,   0.09486,  -0.32241,   0.75751,  -0.30826,   0.29664,  -0.43239
   0.22626,  -0.80523,  -0.62307,  -0.06879,  -0.47010,  -0.74753,   0.24205,  -0.46180,  -0.93750,   0.93750
  -0.93750,  -0.86640,  -0.93750,   0.93750,  -0.74053,   0.62783,  -0.81495,   0.80698,   0.61815,  -0.93750
  -0.29105,   0.41519,   0.92037,  -0.09496,  -0.51525,   0.38424,   0.14994,  -0.50249,  -0.01767,   0.26911
  -0.30389,   0.93750,   0.03110,  -0.93750,  -0.93750,  -0.64672,   0.27606,   0.78869,   0.17305,  -0.74779
  -0.87024,   0.93750,  -0.65436,  -0.78482,  -0.93750,  -0.80313,   0.75109,   0.66520,   0.31745,   0.08164
  -0.77285,   0.93750,   0.72378,  -0.93750,   0.93750,   0.93750,  -0.24350,   0.93086,   0.08448,  -0.64364
  -0.68349,   0.00672,   0.52619,   0.87227,  -0.18664,  -0.50855,   0.93750,   0.93750,  -0.14807,   0.58749
   0.89209,  -0.39381,  -0.68656,  -0.75120,  -0.61090,   0.88008,  -0.61963,   0.53775,   0.87338,   0.75670
   0.68183,  -0.09382,  -0.52979,   0.86704,  -0.09330,  -0.37822,   0.38107,   0.00528,   0.67254,   0.50935
   0.88804,  -0.86717,  -0.00521,  -0.93750,  -0.82666,  -0.80242,   0.81821,  -0.87835,  -0.75088,  -0.87603
  -0.53306,   0.83942,   0.18609,  -0.37302,  -0.44374,   0.12475,   0.24625,  -0.20221,   0.87133,  -0.74387
  -0.51183,  -0.29412,   0.76002,  -0.49669,   0.93750,   0.18627,  -0.09044,  -0.32252,   0.13600,   0.06347
  -0.00070,   0.29697,  -0.16217,  -0.61516,   0.11913,  -0.16675,   0.93750,   0.06992,   0.04584,  -0.81146
   0.60629,  -0.93750,  -0.38848,   0.93750,   0.93750,   0.93750,  -0.81881,   0.89154,  -0.69097,  -0.88236
   0.50407,   0.73950,  -0.65007,  -0.47029,   0.37664,  -0.47498,   0.38338,  -0.63349,  -0.54709,  -0.36041
  -0.72904,   0.71312,   0.17266,  -0.60975,   0.86135,  -0.13428,   0.01306,  -0.44576,   0.24725,   0.03292
   0.42054,   0.65794,  -0.93750,   0.93750,  -0.33543,  -0.93750,  -0.87199,   0.93750,   0.93750,  -0.93750
   0.82390,  -0.29966,  -0.80178,  -0.12022,  -0.44806,  -0.11614,  -0.93750,  -0.54520,   0.03066,  -0.32064
  -0.93750,   0.93750,   0.86887,  -0.93750,   0.74961,  -0.75257,  -0.22807,   0.87921,  -0.37366,  -0.83636
   0.88143,   0.29770,   0.39414,   0.59437,  -0.93750,  -0.93750,   0.81471,   0.73928,   0.93750,  -0.23450
   0.91205,   0.81707,  -0.86921,  -0.02819,   0.14687,   0.11809,  -0.45003,  -0.02974,  -0.34106,  -0.25891
   0.22261,  -0.54784,  -0.08634,  -0.82372,   0.69822,  -0.89313,  -0.33130,  -0.62404,   0.65610,   0.93750
  -0.41787,   0.93750,   0.63323,   0.29008,   0.15777,  -0.12213,  -0.31599,   0.52053,  -0.55614,  -0.68738
   0.87045,   0.39928,  -0.33133,  -0.02512,   0.87857,  -0.57717,  -0.16765,  -0.92737,  -0.65322,  -0.17076
  -0.46352,  -0.10682,   0.30183,   0.09350,  -0.55854,   0.93077,  -0.56889,  -0.48309,  -0.55168,   0.42486
  -0.39101,  -0.61248,  -0.28813,  -0.20766,  -0.21958,   0.09752,  -0.82789,  -0.08928,   0.40320,   0.93042
  -0.41187,  -0.02207,   0.93185,  -0.16497,  -0.80931,  -0.43074,   0.22091,  -0.61391,   0.19128,  -0.08261
  -0.75595,   0.44532,  -0.18441,   0.93750,  -0.43436,   0.82664,   0.09335,  -0.80353,   0.81623,  -0.52497
  -0.12223,   0.13503,   0.73634,  -0.57569,  -0.18048,  -0.67270,  -0.60734,   0.93750,   0.09089,   0.19125
  -0.81150,  -0.57765,   0.56116,   0.93750,  -0.80545,   0.67953,  -0.68826,   0.93750,  -0.09769,  -0.73343
  -0.74728,  -0.93750,   0.85095,  -0.93750,  -0.66235,   0.93750,  -0.87151,  -0.37705,   0.20420,   0.93750
  -0.27502,   0.76833,   0.76001,  -0.67667,  -0.75509,  -0.25683,  -0.04523,   0.07105,  -0.65923,  -0.45420
   0.42954,   0.37994,   0.04670,  -0.25226,  -0.71363,  -0.09158,   0.93750,   0.29526,   0.01030,   0.22415
   0.41271,   0.47945,  -0.93750,  -0.63164,   0.22339,   0.06383,   0.93750,  -0.53489,  -0.93750,   0.45562
   0.30401,   0.16433,  -0.08954,  -0.20431,   0.87939,  -0.55215,   0.01339,  -0.78088,  -0.40721,   0.28852
   0.24519,  -0.49159,   0.87770,  -0.38002,  -0.76216,  -0.22604,  -0.26021,  -0.01987,  -0.18674,  -0.11424
   0.93750,  -0.93750,   0.75410,  -0.47030,   0.87688,   0.13633,  -0.20452,   0.22057,  -0.86744,   0.21851
   0.92966,   0.02893,  -0.44453,   0.78838,   0.75801,   0.04717,  -0.87648,  -0.37483,   0.87308,  -0.75726
   0.05770,  -0.47565,  -0.80754,  -0.63809,   0.68219,   0.04435,   0.86625,   0.89518,  -0.68019,   0.75868
   0.82764,  -0.79871,  -0.11290,  -0.14516,  -0.14152,  -0.81580,  -0.75918,  -0.65177,  -0.49778,   0.81540
  -0.88527,   0.93750,  -0.93750,   0.47627,   0.93750,  -0.93750,   0.27610,   0.93750,   0.68663,  -0.36135
   0.86956,   0.05292,   0.37900,   0.87085,  -0.08213,  -0.25745,   0.93750,  -0.81353,   0.42219,  -0.13603
   0.87927,   0.44750,  -0.63667,  -0.18639,  -0.02285,  -0.43815,  -0.28666,  -0.42010,   0.60500,   0.80516
  -0.29042,   0.61830,  -0.62072,   0.87671,   0.57598,   0.28654,   0.29510,  -0.42985,   0.89138,  -0.32761
   0.71524,   0.80012,  -0.00009,   0.17025,   0.89416,  -0.06853,   0.39756,  -0.42076,  -0.01583,  -0.37258
   0.87720,  -0.74797,  -0.73153,   0.32869,  -0.17082,   0.75436,   0.85765,   0.51093,   0.64521,  -0.79956
   0.86513,  -0.93750,   0.43122,   0.77504,  -0.81059,   0.06575,   0.88817,  -0.80602,  -0.48205,   0.31863
   0.91819,  -0.18805,   0.40871,   0.47955,  -0.03383,  -0.43781,  -0.71341,   0.13905,  -0.80293,  -0.62231
  -0.10635,   0.93750,  -0.87767,   0.49755,   0.43902,  -0.80218,   0.67979,   0.93750,   0.47499,  -0.86107
  -0.35394,  -0.03953,   0.87758,  -0.40763,   0.40203,  -0.92477,  -0.56739,  -0.53778,  -0.60916,   0.93750
   0.87241,   0.93750,  -0.74447,  -0.87599,   0.09400,  -0.88019,   0.93750,   0.74039,   0.86804,   0.86630
  -0.81480,  -0.05936,   0.33015,  -0.93750,  -0.93750,  -0.90261,  -0.70781,  -0.06744,  -0.74447,   0.93750
  -0.87110,  -0.75013,   0.93750,   0.03295,  -0.15341,   0.09749,   0.13194,   0.87241,  -0.93750,   0.74960
  -0.76523,  -0.87097,  -0.93750,   0.93750,   0.03212,  -0.37211,   0.93750,   0.10959,   0.93750,  -0.38948
   0.25647,   0.93750,   0.44074,  -0.08788,  -0.28491,   0.23359,   0.32801,  -0.57420,  -0.53217,  -0.72595
   0.91426,  -0.25445,  -0.92225,  -0.30936,   0.44889,  -0.42232,   0.01332,  -0.40499,   0.88956,   0.20699
  -0.26404,   0.32441,  -0.24456,  -0.05418,   0.81095,  -0.06290,   0.85827,  -0.14304,   0.54864,   0.26260
   0.87107,   0.36901,   0.04800,   0.87112,   0.93750,  -0.77579,   0.93750,  -0.55692,  -0.87182,   0.93750
   0.69098,  -0.87370,  -0.12916,   0.86816,   0.91410,  -0.81380,  -0.43806,  -0.44836,   0.37312,  -0.73013
  -0.26621,   0.27127,  -0.80068,  -0.44554,  -0.72221,   0.16423,   0.75230,   0.38999,   0.93750,   0.21622
  -0.37942,   0.09038,   0.81767,  -0.54123,  -0.87106,   0.93750,  -0.87046,  -0.93750,   0.48277,  -0.47980
   0.93542,   0.05472,  -0.25903,  -0.54504,   0.27538,  -0.17374,  -0.68112,   0.52722,   0.40945,   0.11576
  -0.40034,   0.57008,   0.87546,  -0.76899,   0.74401,  -0.22479,   0.54011,  -0.23975,  -0.21406,  -0.26372
   0.93320,   0.62216,  -0.76183,  -0.68492,   0.79202,  -0.20647,   0.69291,   0.87122,   0.48375,  -0.79604
  -0.66409,  -0.43785,  -0.43724,   0.41390,  -0.32389,   0.87951,  -0.65940,  -0.57084,   0.62228,  -0.67285
  -0.06813,   0.63344,  -0.69819,   0.78440,  -0.52047,   0.64361,  -0.93750,  -0.16330,   0.37542,  -0.75019
  -0.36266,   0.49675,  -0.93750,   0.28132,  -0.47675,  -0.44045,   0.93750,  -0.69061,   0.93750,  -0.30966
  -0.09230,   0.11170,  -0.06844,   0.86652,   0.24948,  -0.52814,  -0.35923,   0.51671,  -0.08240,  -0.31884
   0.08080,  -0.05251,   0.76317,   0.93750,   0.48670,   0.77381,  -0.93750,   0.93750,   0.93750,   0.07825
   0.93750,   0.68444,  -0.52717,   0.71444,   0.46540,   0.39079,   0.04662,  -0.80577,  -0.82537,  -0.69555
   0.64843,   0.69059,   0.39236,   0.64962,  -0.37200,   0.69475,  -0.18473,  -0.68099,   0.05984,  -0.31189
  -0.12079,   0.68715,   0.01528,  -0.51639,  -0.43960,  -0.13012,  -0.05273,   0.01634,   0.26845,   0.49810
   0.93750,  -0.41267,  -0.06779,  -0.17288,  -0.03128,  -0.53933,  -0.82068,  -0.47893,   0.82941,  -0.22246
   0.41653,   0.68512,   0.93750,  -0.61811,   0.93748,   0.33016,  -0.05291,  -0.90859,  -0.87963,   0.24903
  -0.58616,   0.21837,   0.93750,  -0.06375,   0.93750,  -0.60786,  -0.32278,   0.77830,   0.15028,   0.93750
  -0.45261,  -0.62368,   0.70053,  -0.74926,  -0.64003,  -0.03984,   0.05885,  -0.11964,   0.91790,   0.43895
   0.93750,  -0.32100,  -0.62645,   0.42700,  -0.08768,   0.39691,   0.22483,  -0.21964,  -0.28625,  -0.37728
   0.79942,  -0.76006,   0.49156,  -0.74144,  -0.57735,   0.60190,   0.75193,  -0.93750,   0.31787,   0.93750
  -0.24095,  -0.41440,  -0.61291,   0.38277,   0.01747,   0.21146,   0.52638,   0.51226,   0.11610,   0.04348
  -0.25383,   0.89279,  -0.56773,   0.41443,  -0.00336,   0.08677,  -0.48265,  -0.24283,   0.52755,  -0.63126
  -0.70627,  -0.45410,  -0.74923,  -0.53791,   0.12708,   0.55673,   0.00283,   0.32804,   0.12977,   0.23685
  -0.80964,   0.93750,  -0.93750,   0.93750,   0.93750,   0.93750,  -0.64109,   0.21693,  -0.37344,   0.93750
   0.37077,  -0.15785,  -0.87026,   0.36310,   0.88013,  -0.93750,   0.87500,  -0.53918,   0.48528,  -0.74533
  -0.45017,   0.61728,   0.09475,   0.61464,   0.27465,   0.46865,   0.73335,  -0.66910,  -0.87890,   0.93750
  -0.07861,   0.76826,   0.36002,   0.74483,   0.03717,   0.39764,  -0.14870,   0.64357,   0.52746,  -0.69375
  -0.31208,  -0.49289,  -0.37441,   0.08907,  -0.24325,  -0.25100,  -0.34733,  -0.33718,   0.85869,  -0.08956
   0.58563,   0.93750,   0.87796,  -0.57226,   0.61875,   0.29940,  -0.46441,   0.56365,  -0.55893,  -0.12950
   0.58397,   0.86692,  -0.69199,  -0.34550,   0.93750,  -0.43085,  -0.88591,   0.87386,   0.93750,  -0.22428
   0.81171,   0.77620,  -0.88002,  -0.12230,  -0.32407,  -0.31186,  -0.04955,   0.39267,   0.11663,   0.36066
   0.21439,  -0.40025,  -0.88101,  -0.75938,  -0.30478,  -0.49681,   0.93750,  -0.70652,   0.29924,  -0.14845
   0.50776,  -0.87690,   0.93750,  -0.33469,   0.87822,   0.91128,  -0.62239,  -0.21296,  -0.74015,  -0.88353
   0.62164,  -0.30628,  -0.56701,   0.32989,   0.56402,   0.26442,   0.61505,  -0.08162,   0.93750,   0.93750
  -0.35338,  -0.44964,  -0.47286,   0.93750,  -0.71801,  -0.34977,  -0.27449,  -0.13474,  -0.26116,  -0.27888
   0.86656,   0.93750,   0.64451,   0.48942,   0.19005,   0.79281,  -0.71836,   0.93750,  -0.62876,  -0.28921
  -0.68692,   0.85420,  -0.44251,   0.20141,  -0.33995,  -0.18083,   0.13551,  -0.72798,  -0.76801,   0.86160
   0.54092,   0.93750,  -0.50155,   0.49034,  -0.40365,  -0.87532,   0.29979,   0.02293,  -0.28444,   0.45573
  -0.57723,  -0.32097,   0.93750,   0.88179,   0.75337,  -0.82215,  -0.41893,  -0.28259,  -0.84960,  -0.20954
  -0.03378,   0.86673,   0.75893,   0.56291,  -0.05165,   0.22780,  -0.67377,   0.43291,   0.68520,  -0.65805
   0.38378,   0.09894,  -0.27589,   0.29881,   0.87264,   0.47125,   0.37621,   0.10222,  -0.30979,  -0.21633
   0.50660,   0.11685,  -0.58482,   0.81399,   0.00100,  -0.93750,  -0.43443,   0.87911,   0.82089,  -0.17264
  -0.30112,   0.01433,  -0.33462,  -0.43386,   0.52725,   0.85917,  -0.35345,   0.56159,   0.57012,  -0.40679
   0.07467,  -0.57734,  -0.19144,  -0.18667,   0.23349,   0.59646,   0.00036,  -0.46693,  -0.23078,   0.79890
  -0.87613,   0.00775,  -0.42969,   0.93750,  -0.93328,  -0.73677,   0.87558,   0.04773,   0.93750,   0.39252
   0.24230,   0.87864,   0.19756,   0.40651,  -0.80959,  -0.88084,   0.58894,  -0.00733,   0.42990,  -0.87292
  -0.36999,  -0.34641,  -0.15276,   0.21668,   0.08524,  -0.93750,   0.92325,   0.26988,   0.93750,   0.81278
  -0.84000,   0.40102,   0.54914,  -0.63016,   0.71773,  -0.36796,   0.89193,   0.81664,  -0.11640,   0.06250
   0.76040,   0.67379,  -0.23261,   0.23056,  -0.22804,   0.25431,  -0.25706,   0.68975,   0.87910,  -0.44693
  -0.42667,  -0.13126,   0.40452,  -0.49938,   0.45450,  -0.35390,  -0.93750,   0.76466,  -0.27914,   0.62329
  -0.93750,  -0.32207,   0.93208,  -0.11425,  -0.81839,  -0.00129,   0.29905,   0.45332,   0.00039,   0.33906
   0.81128,  -0.23440,   0.93508,   0.37185,   0.91642,   0.46063,   0.88322,  -0.81044,  -0.92896,  -0.37889
  -0.05527,  -0.88517,  -0.48266,   0.72613,  -0.38953,  -0.16164,   0.35241,  -0.26944,  -0.72930,   0.08171
  -0.74109,  -0.93750,   0.13384,  -0.81900,   0.87361,  -0.44803,   0.22592,   0.48235,   0.59126,   0.41180
   0.49277,  -0.19909,   0.40206,   0.75894,  -0.58606,   0.55241,   0.26494,   0.19268,   0.13782,   0.26194
  -0.61896,  -0.27977,   0.52779,   0.93750,  -0.82444,  -0.76557,   0.15349,   0.87267,   0.42342,   0.87390
  -0.87962,  -0.31021,  -0.32167,  -0.74540,  -0.27422,   0.93750,  -0.76172,  -0.40158,   0.35101,  -0.78089
  -0.69694,  -0.87203,  -0.23646,   0.51969,  -0.60247,  -0.24065,   0.74956,  -0.40547,   0.88024,   0.86810
   0.88253,   0.93750,   0.86942,   0.08341,  -0.44387,   0.14346,   0.79268,   0.31559,   0.87994,  -0.23553
  -0.06980,  -0.82054,   0.28668,  -0.71328,  -0.81562,   0.28345,  -0.21904,  -0.12602,  -0.08168,  -0.80101
  -0.61731,  -0.12891,  -0.93750,  -0.16038,   0.32737,  -0.76242,   0.09976,   0.57699,   0.93750,   0.64624
   0.93750,   0.46063,  -0.34055,   0.40172,  -0.74671,  -0.18473,   0.08656,   0.17679,  -0.04966,   0.20919
   0.35553,  -0.09775,  -0.26199,  -0.56958,  -0.61116,   0.87620,  -0.49067,   0.41355,  -0.75574,   0.87822
  -0.19369,   0.42089,   0.70756,  -0.41361,   0.69342,   0.11683,   0.34237,  -0.84576,   0.29979,   0.28010
  -0.09443,   0.41734,  -0.14756,  -0.80728,  -0.40833,   0.87096,   0.65501,  -0.02088,   0.04318,  -0.21883
   0.87947,   0.88094,   0.53078,   0.93750,  -0.12613,  -0.66773,   0.01991,  -0.17913,  -0.16380,  -0.87715
  -0.27994,  -0.01148,   0.76189,   0.86663,   0.72662,  -0.52661,  -0.13564,  -0.36150,  -0.82778,  -0.42095
   0.54189,   0.57655,   0.10852,  -0.87213,  -0.82628,  -0.03379,  -0.81801,   0.45116,   0.49974,   0.88250
  -0.44773,   0.87985,   0.05801,   0.32199,   0.60794,   0.12550,   0.12787,   0.39010,  -0.31335,  -0.55142
  -0.57821,   0.06737,   0.77362,  -0.40693,   0.90961,  -0.26979,  -0.37644,   0.68340,   0.03111,  -0.15204
   0.22945,   0.14375,   0.25145,  -0.10290,  -0.49505,   0.74641,   0.66290,   0.32696,   0.17177,   0.79213
   0.15475,  -0.39828,   0.69919,  -0.47607,  -0.21422,  -0.37120,   0.70260,   0.24918,   0.49923,  -0.47951
   0.35703,  -0.58009,   0.27376,  -0.92874,   0.87015,   0.93750,  -0.93750,  -0.28630,  -0.13613,  -0.36147
  -0.76216,   0.62953,  -0.05819,   0.87703,   0.36691,   0.19198,  -0.57495,  -0.73604,  -0.10611,  -0.36063
  -0.81402,   0.47526,   0.85725,  -0.51704,   0.20317,  -0.53125,   0.62576,  -0.43052,  -0.52440,  -0.31685
  -0.33842,   0.81777,   0.14690,  -0.14656,   0.72951,   0.07555,   0.66898,  -0.47374,   0.19307,  -0.63744
  -0.46016,   0.35687,  -0.46199,  -0.04478,  -0.40621,  -0.93750,  -0.09232,   0.93483,  -0.20553,   0.04204
  -0.25417,  -0.93006,   0.93750,  -0.74941,  -0.84453,  -0.93750,  -0.80588,  -0.81826,   0.93750,  -0.75385
  -0.80495,  -0.87367,   0.58104,   0.18765,   0.93750,   0.57532,   0.65339,   0.29471,  -0.39080,   0.93750
  -0.06713,  -0.01214,  -0.31664,   0.63914,  -0.48008,  -0.18572,   0.21986,   0.16532,   0.82617,   0.41700
  -0.54486,   0.05261,  -0.79620,   0.61512,  -0.75266,   0.60539,   0.86719,   0.37306,  -0.02576,   0.93750
   0.46950,   0.54269,  -0.28681,  -0.49600,   0.46999,  -0.38450,  -0.44684,   0.13533,  -0.55182,   0.74571
   0.93750,   0.78863,  -0.93750,  -0.87602,   0.41654,   0.13876,   0.93750,   0.87703,  -0.93750,   0.93750
   0.47144,   0.14388,   0.36320,   0.53630,   0.68682,   0.33393,  -0.58546,   0.28035,   0.58220,   0.09098
   0.92867,  -0.87618,   0.93750,   0.93750,   0.15432,   0.46759,  -0.50076,   0.32292,  -0.11874,   0.12313
  -0.70283,  -0.64250,   0.80744,   0.06751,   0.74214,  -0.64383,   0.43124,  -0.77631,  -0.93750,   0.81076
   0.09932,   0.02150,  -0.43930,  -0.66944,   0.15287,   0.87422,   0.53134,   0.46257,  -0.25318,   0.04175
  -0.30466,  -0.57931,  -0.12266,  -0.20892,  -0.18179,   0.14977,   0.87146,  -0.61377,  -0.14424,   0.14907
   0.04681,   0.43887,  -0.19087,  -0.60041,  -0.01223,  -0.85704,  -0.02852,  -0.51086,  -0.29052,   0.93750
   0.74163,  -0.48179,  -0.72132,  -0.08073,  -0.81635,   0.74537,  -0.18583,  -0.82875,   0.93750,   0.69963
   0.93750,   0.44466,   0.59714,  -0.50861,  -0.61490,   0.03576,   0.14509,   0.93207,   0.30896,  -0.27153
   0.93750,  -0.14746,   0.06089,   0.93750,   0.93750,  -0.93750,   0.93750,   0.88196,   0.18689,   0.73380
  -0.72086,  -0.88154,   0.51038,  -0.86936,  -0.07873,   0.87149,  -0.83561,   0.88349,  -0.06755,  -0.88038
  -0.81426,   0.78901,   0.70003,  -0.58889,  -0.10468,   0.17952,   0.07992,  -0.58607,  -0.31520,   0.93249
  -0.25447,   0.93750,  -0.41127,  -0.77387,  -0.02924,  -0.38898,  -0.25410,   0.28922,   0.46072,  -0.69889
   0.70390,   0.77638,   0.86676,  -0.57050,   0.93750,  -0.90568,   0.28390,   0.78717,  -0.17764,  -0.68910
  -0.56930,  -0.52065,   0.25244,   0.87543,  -0.00682,  -0.51880,   0.77037,   0.65864,   0.31399,  -0.12210
  -0.49929,   0.82291,  -0.24345,  -0.55438,  -0.65380,   0.72637,   0.00349,   0.86034,  -0.40560,  -0.18444
   0.02691,  -0.88159,  -0.71529,  -0.88462,  -0.93750,  -0.70514,   0.56971,  -0.01758,   0.12637,   0.83017
  -0.27358,   0.36307,   0.06457,   0.18368,  -0.53260,   0.72648,   0.68456,  -0.35464,   0.31542,   0.02560
   0.30229,  -0.00430,  -0.85355,   0.28662,  -0.26255,   0.86128,   0.37819,   0.69148,   0.33727,   0.21674
  -0.21504,  -0.43132,  -0.03144,   0.63078,   0.82709,  -0.12014,  -0.22532,  -0.64909,   0.01698,   0.13508
  -0.32895,  -0.18932,   0.03001,   0.93750,  -0.63093,   0.70333,   0.93750,  -0.84620,  -0.93750,   0.93750
   0.87735,   0.65271,   0.66797,  -0.08770,  -0.24661,   0.39834,   0.93750,  -0.69889,   0.06296,  -0.61004
  -0.93750,  -0.16298,   0.49079,   0.93750,   0.93750,  -0.00479,  -0.16351,   0.93750,  -0.78124,  -0.30585
   0.66309,   0.87653,   0.93750,   0.26537,   0.86960,   0.81693,   0.75563,  -0.93750,  -0.39070,  -0.93750
   0.22288,   0.55823,  -0.38716,  -0.35760,   0.54699,   0.28209,  -0.65290,   0.67291,  -0.74743,  -0.55868
   0.85010,  -0.15447,   0.56243,  -0.52096,   0.61754,   0.82495,  -0.56257,   0.07650,  -0.52918,  -0.38224
  -0.30675,  -0.49686,   0.93750,   0.04935,   0.15625,  -0.78856,  -0.02864,   0.44304,  -0.02004,   0.80340
   0.23555,  -0.08828,  -0.40591,  -0.84450,   0.25715,   0.93750,  -0.24047,  -0.13579,  -0.42246,   0.35405
  -0.43440,   0.02009,  -0.70340,   0.75712,   0.35657,   0.64635,   0.16134,   0.27338,  -0.36860,  -0.05747
   0.24240,   0.56667,  -0.02983,  -0.49614,  -0.49759,   0.29277,   0.38929,  -0.12562,  -0.31158,   0.83054
  -0.84959,   0.10074,   0.93046,   0.25117,  -0.03196,  -0.26920,  -0.08321,   0.16546,  -0.30729,  -0.20396
  -0.39683,   0.90975,  -0.33099,  -0.34823,  -0.01335,  -0.39938,   0.80093,  -0.33693,  -0.21198,  -0.51033
  -0.03885,   0.31802,  -0.56069,  -0.74957,  -0.09216,   0.82866,  -0.31514,  -0.56105,   0.75319,   0.81878
   0.93750,  -0.21101,   0.01326,   0.34550,   0.61259,   0.27629,   0.22445,  -0.25903,  -0.28637,  -0.36528
   0.81560,   0.12206,   0.06498,  -0.24956,   0.93750,  -0.27116,   0.17175,  -0.50588,   0.01058,   0.08964
   0.80521,  -0.61104,  -0.15948,   0.93750,  -0.93750,  -0.42296,   0.93750,  -0.81158,   0.74793,  -0.44305
   0.24937,   0.72631,  -0.80939,   0.87612,   0.33834,  -0.90799,  -0.01999,   0.93750,  -0.69724,  -0.69353
   0.46497,   0.93750,  -0.86923,   0.34527,   0.93750,  -0.21814,   0.42509,  -0.12308,   0.65330,  -0.87027
   0.93750,   0.25563,   0.00304,  -0.75780,   0.74448,  -0.93750,  -0.50548,   0.16541,  -0.80892,   0.87298
   0.50023,  -0.87420,   0.80139,  -0.54182,   0.38978,   0.72927,  -0.53102,  -0.75116,  -0.87579,   0.61482
   0.86412,  -0.56180,  -0.41893,  -0.61207,   0.02478,  -0.56750,   0.63682,  -0.34858,   0.93750,   0.79861
   0.93750,   0.85656,  -0.76821,  -0.24954,  -0.32094,  -0.11000,   0.04508,  -0.25274,  -0.15676,  -0.19677
   0.36882,  -0.32912,  -0.60490,   0.81970,   0.88441,  -0.23589,  -0.49191,  -0.02692,   0.36593,  -0.15213
   0.19455,  -0.82558,  -0.88647,   0.48059,   0.84805,   0.93750,   0.93750,  -0.62682,  -0.76791,  -0.93750
   0.25792,   0.41320,  -0.52899,  -0.29225,  -0.48772,  -0.60128,   0.16198,   0.93682,  -0.57367,   0.31541
   0.88751,   0.56478,   0.73725,  -0.20668,  -0.77828,  -0.11556,   0.32205,  -0.08946,  -0.62605,  -0.51115
   0.93750,  -0.88437,  -0.88663,   0.88508,   0.93750,   0.93750,  -0.48510,   0.93750,   0.60996,   0.61903
  -0.62581,   0.26501,   0.24573,  -0.01903,  -0.16917,  -0.17036,   0.12372,   0.12273,  -0.75166,   0.15779
  -0.55436,   0.47179,   0.93377,   0.10576,  -0.83240,   0.18545,  -0.46410,  -0.41029,   0.32852,   0.56696
  -0.55204,  -0.08459,  -0.74735,  -0.82777,   0.93750,   0.19881,   0.93750,   0.93750,  -0.46327,  -0.34111
   0.68847,  -0.93750,   0.93750,  -0.72455,  -0.93750,   0.93750,   0.00445,  -0.93750,  -0.60688,  -0.66187
  -0.64293,   0.18142,   0.36287,   0.86852,  -0.66156,  -0.07738,  -0.41393,   0.93750,   0.87804,   0.07284
   0.24382,   0.27244,   0.39626,   0.01933,  -0.41096,  -0.67723,   0.31000,   0.93750,  -0.59894,  -0.03880
  -0.73476,  -0.87181,  -0.87578,   0.55845,   0.88308,  -0.87446,  -0.74090,  -0.87269,  -0.68778,   0.88287
  -0.63379,  -0.14762,  -0.30588,  -0.41392,  -0.65601,   0.10542,   0.93701,   0.51731,   0.45816,  -0.09310
  -0.12788,  -0.43857,   0.49787,  -0.47867,   0.25184,  -0.28032,  -0.16431,   0.78847,  -0.55401,   0.63616
  -0.15974,   0.37116,   0.76345,   0.53006,  -0.54086,  -0.93750,  -0.82764,   0.53511,  -0.81002,  -0.93750
  -0.55671,  -0.83505,  -0.04144,   0.61215,   0.15621,  -0.15208,   0.01660,   0.07842,   0.87550,   0.93372
  -0.59289,   0.40050,  -0.47284,   0.64345,   0.42157,   0.38009,   0.41199,   0.16028,   0.87955,  -0.64174
  -0.37771,  -0.17972,   0.93026,  -0.25992,  -0.58271,   0.79835,  -0.63900,  -0.00276,   0.24912,  -0.01050
   0.52657,   0.44527,   0.22167,  -0.73428,  -0.65481,   0.56840,   0.21423,   0.81504,  -0.56278,  -0.74601
   0.38301,  -0.01096,   0.93750,   0.41229,  -0.63461,   0.73816,   0.01169,  -0.93750,   0.33081,   0.24528
   0.74958,   0.65556,  -0.93750,   0.60770,   0.00122,  -0.31787,   0.93750,   0.58159,   0.93750,   0.59808
  -0.93750,   0.87614,   0.64219,  -0.87509,  -0.93750,   0.75815,  -0.87288,   0.93750,  -0.73915,   0.68299
  -0.86968,   0.93750,  -0.81874,   0.93750,   0.22183,  -0.82858,  -0.72564,   0.93750,  -0.46608,  -0.87508
  -0.25575,  -0.62640,  -0.78602,  -0.18084,   0.80277,  -0.01356,   0.86521,  -0.26519,  -0.02621,   0.93750
  -0.27937,  -0.76442,   0.21905,  -0.63912,   0.02360,  -0.14860,  -0.63176,  -0.42809,   0.25158,   0.86985
   0.33930,   0.01596,   0.23821,   0.66561,   0.72458,  -0.07822,   0.00774,  -0.09492,   0.51572,   0.27391
   0.70274,  -0.15631,  -0.87292,   0.53883,  -0.93750,   0.93750,   0.93750,   0.13246,  -0.93750,   0.26629
  -0.93750,   0.93750,   0.22552,   0.93750,   0.93750,   0.93750,   0.93750,  -0.33786,   0.86710,   0.62985
   0.67369,  -0.31880,  -0.91774,  -0.69625,   0.27136,  -0.93750,   0.29216,  -0.29730,   0.54386,   0.81333
   0.63799,   0.05115,   0.66391,  -0.67376,   0.87174,  -0.27126,   0.19727,  -0.45215,  -0.57330,  -0.39755
  -0.64470,  -0.15797,   0.38564,   0.35538,  -0.03137,  -0.22942,   0.68083,   0.02805,  -0.35915,   0.89297
  -0.87291,  -0.80600,  -0.82643,  -0.93750,  -0.28433,   0.12420,   0.67578,   0.14998,   0.49011,  -0.67377
  -0.26800,   0.30705,  -0.93750,  -0.84346,   0.45273,   0.93750,   0.69206,  -0.47398,  -0.93750,  -0.93750
   0.60458,  -0.35707,   0.67022,  -0.74691,  -0.82541,   0.93750,  -0.54619,  -0.93750,   0.81974,  -0.45236
   0.15315,   0.75737,   0.76418,  -0.03303,  -0.33387,   0.00474,   0.20632,  -0.50957,   0.71209,  -0.57405
  -0.69321,   0.31692,  -0.87489,   0.29134,   0.63715,  -0.42345,   0.49518,  -0.93750,   0.47145,   0.40820
   0.93750,   0.32194,   0.49802,  -0.81158,   0.25806,   0.27013,   0.63290,  -0.26324,  -0.38639,  -0.40284
  -0.67739,   0.85033,   0.55892,  -0.14138,   0.16328,   0.08753,   0.12763,  -0.07138,   0.05951,  -0.67381
  -0.41436,   0.13645,   0.61367,   0.83644,  -0.63780,   0.41641,   0.64375,  -0.46534,  -0.23539,  -0.43109
  -0.01783,   0.93750,   0.93750,   0.93750,   0.93750,  -0.93750,   0.88457,   0.93750,   0.86256,  -0.93750
  -0.82216,  -0.88218,  -0.87276,   0.86386,   0.93750,   0.86628,   0.27795,  -0.09307,  -0.27773,   0.07808
   0.09477,   0.74102,   0.41037,  -0.69588,  -0.11135,  -0.52205,   0.13671,   0.91810,  -0.26737,   0.74070
   0.46560,  -0.14306,   0.81983,  -0.87711,   0.56044,  -0.45650,   0.73757,   0.87061,   0.78383,  -0.68933
   0.79451,   0.86937,  -0.75672,   0.03236,   0.62480,   0.22078,   0.82274,  -0.00609,   0.93750,  -0.87029
  -0.65078,   0.54315,  -0.19076,  -0.31541,  -0.28899,   0.63779,  -0.42913,  -0.58642,  -0.35254,   0.86082
  -0.40864,   0.93750,  -0.14290,   0.25762,  -0.69187,  -0.30454,   0.49007,  -0.33909,  -0.75407,  -0.77080
   0.18480,  -0.14295,   0.93750,  -0.34463,  -0.36929,   0.16071,   0.44393,  -0.73078,  -0.16031,   0.46043
  -0.33459,  -0.21192,  -0.06570,  -0.75133,  -0.32841,   0.86274,  -0.33438,  -0.33725,  -0.30182,  -0.41328
   0.87816,   0.86166,  -0.41806,   0.04936,  -0.65542,   0.05165,   0.27646,   0.35512,  -0.31111,  -0.73475
  -0.83120,   0.52380,   0.93750,  -0.76703,  -0.65375,  -0.45934,  -0.66892,  -0.79864,  -0.11069,  -0.93750
   0.21466,   0.07638,  -0.17035,  -0.84370,   0.13195,   0.75546,   0.56775,  -0.74976,   0.19986,   0.45425
  -0.11631,   0.13317,   0.44918,   0.86312,  -0.18540,  -0.28762,  -0.32623,   0.13451,   0.25781,   0.16421
  -0.55530,  -0.51478,   0.12224,  -0.65816,  -0.68673,   0.76898,  -0.65848,   0.76705,   0.93750,   0.37804
   0.10476,   0.09244,   0.61207,   0.12425,   0.78871,  -0.12595,   0.65469,  -0.92248,   0.58148,   0.43145
  -0.64356,  -0.87777,  -0.38656,  -0.93750,  -0.93750,  -0.87231,  -0.93750,  -0.87002,   0.12297,  -0.87807
   0.29948,  -0.15868,  -0.11463,  -0.52945,  -0.30245,  -0.93750,  -0.04817,   0.93750,   0.85514,   0.11739
  -0.87318,   0.52215,   0.87585,  -0.93731,  -0.52387,  -0.22971,   0.66080,   0.87035,  -0.63901,  -0.52669
   0.87601,  -0.64014,  -0.64043,   0.78724,  -0.58242,  -0.06018,   0.86333,  -0.52374,  -0.67444,   0.81677
  -0.41953,   0.28159,   0.87514,   0.93750,   0.04359,  -0.49121,   0.86670,   0.83172,   0.65052,  -0.54295
   0.60572,  -0.32518,  -0.53927,   0.86503,  -0.45848,   0.72545,  -0.46502,  -0.81848,  -0.10469,  -0.34029
   0.87238,  -0.32914,   0.82541,  -0.80486,  -0.88472,   0.52465,   0.93750,   0.93750,   0.87416,   0.06426
  -0.88014,   0.17066,  -0.87463,  -0.32580,   0.93750,  -0.93750,  -0.35464,  -0.66049,  -0.87061,   0.88119
   0.51193,   0.93642,  -0.25062,   0.12293,  -0.03228,   0.18257,  -0.69331,   0.54450,  -0.64164,  -0.43183
  -0.43359,   0.46517,  -0.39728,  -0.31062,  -0.42435,  -0.03250,  -0.44811,   0.92148,  -0.22010,  -0.47345
   0.19411,   0.14852,   0.17045,   0.18901,  -0.20241,   0.01166,  -0.08015,   0.21982,  -0.05201,   0.72671
  -0.15790,  -0.09794,   0.73273,  -0.70632,   0.20860,   0.52144,  -0.33688,  -0.16199,   0.64251,  -0.07508
  -0.50076,  -0.32928,  -0.58846,  -0.24343,  -0.37008,   0.49858,   0.54067,   0.56811,  -0.66475,  -0.92468
   0.69464,  -0.45913,   0.80773,  -0.04981,  -0.75618,   0.00360,   0.75445,  -0.05889,  -0.36183,  -0.36506
  -0.76918,   0.79649,   0.93750,   0.72718,   0.88331,  -0.87329,  -0.93204,   0.70771,   0.70604,  -0.06441
  -0.67040,   0.15091,  -0.30768,   0.83798,   0.81185,   0.71563,  -0.68222,   0.36488,   0.82198,   0.77667
  -0.00104,  -0.02809,  -0.56903,   0.91738,   0.87738,  -0.03902,  -0.76729,  -0.43241,  -0.22618,   0.15617
   0.82100,  -0.22686,  -0.37627,   0.17868,   0.55443,  -0.28203,  -0.06633,  -0.87127,   0.06998,  -0.37796
   0.37199,  -0.24957,   0.22631,  -0.70622,   0.38685,   0.21895,   0.77785,   0.82129,  -0.14998,  -0.10001
   0.50622,   0.93750,  -0.80659,  -0.05281,  -0.75862,  -0.93750,  -0.93750,  -0.93750,  -0.72825,  -0.50213
  -0.67269,  -0.19905,   0.30203,  -0.63027,  -0.58140,  -0.87038,  -0.93366,  -0.93750,  -0.93750,  -0.16402
   0.71995,   0.10168,   0.91331,   0.16059,  -0.30006,   0.14199,   0.33652,   0.39092,  -0.16357,   0.03152
  -0.62481,   0.52399,  -0.42955,  -0.67195,   0.85384,  -0.41564,  -0.19160,   0.81921,  -0.00419,   0.86459
  -0.57203,  -0.33238,  -0.33907,  -0.27436,   0.68809,  -0.12462,  -0.36805,  -0.46739,   0.93693,  -0.14223
  -0.49976,   0.93750,  -0.36133,   0.11197,   0.93750,  -0.35593,   0.52881,   0.74563,  -0.06760,   0.09012
  -0.86368,   0.61679,   0.27470,   0.93750,   0.30656,   0.70554,  -0.93750,  -0.25031,  -0.93750,   0.91175
  -0.66040,  -0.24877,   0.51081,   0.72842,   0.79304,   0.25461,   0.79169,   0.21096,  -0.46434,  -0.77412
  -0.43002,  -0.06486,  -0.52274,   0.61643,  -0.00648,   0.75992,  -0.00966,  -0.74548,   0.59847,   0.55158
  -0.25207,   0.68220,  -0.86729,   0.49679,   0.55701,   0.47226,   0.44052,  -0.04132,   0.53283,  -0.87243
   0.93750,  -0.59374,   0.01323,  -0.29436,  -0.53961,  -0.13105,   0.35855,   0.05592,  -0.87907,   0.80211
  -0.61859,  -0.51016,   0.48999,  -0.48481,   0.25302,  -0.68897,  -0.93428,   0.87846,  -0.37546,  -0.75127
   0.03359,  -0.24475,  -0.11212,   0.93026,  -0.21329,   0.02263,   0.02326,   0.47551,   0.34821,   0.87196
   0.49096,   0.08170,   0.17657,  -0.04271,   0.49738,  -0.53311,  -0.07445,   0.93638,   0.23650,  -0.20580
   0.58027,   0.32592,   0.36871,  -0.23957,  -0.20755,   0.86112,   0.89377,   0.03495,   0.43844,  -0.11015
  -0.32205,  -0.64092,   0.40817,  -0.62364,   0.76382,   0.05385,  -0.22194,  -0.06509,   0.50487,   0.88954
  -0.42730,  -0.12060,  -0.51012,  -0.42369,  -0.16897,  -0.70298,   0.87508,   0.38792,  -0.15037,  -0.03969
  -0.24493,   0.33712,  -0.03491,   0.75066,   0.59194,  -0.62699,  -0.62562,  -0.21192,  -0.52085,   0.50165
   0.67268,  -0.51577,   0.68244,  -0.60505,  -0.08586,   0.58191,   0.40702,  -0.01885,   0.73581,  -0.00696
  -0.69318,  -0.66996,   0.46551,  -0.12166,  -0.93750,  -0.67603,   0.55232,   0.93750,   0.93750,   0.81523
  -0.79916,   0.93750,   0.58372,  -0.06390,   0.93750,   0.60464,  -0.22374,   0.02969,   0.16466,  -0.80622
  -0.02931,  -0.67677,   0.50322,  -0.66150,  -0.72844,   0.82782,  -0.86877,   0.54439,   0.81631,  -0.41393
   0.63750,  -0.70667,   0.25399,   0.22449,  -0.18632,   0.76203,   0.22097,  -0.22080,  -0.40868,   0.93613
  -0.41088,  -0.41622,  -0.25832,  -0.20614,   0.31984,  -0.69707,  -0.24020,   0.93750,  -0.38063,  -0.27822
  -0.32635,   0.92565,  -0.87434,   0.85935,  -0.72260,   0.93750,   0.18073,  -0.06801,   0.81403,  -0.93750
   0.62478,  -0.38738,   0.39264,   0.64795,  -0.24373,  -0.12787,   0.22520,   0.50510,  -0.80943,   0.13058
  -0.42869,  -0.44384,   0.89578,  -0.71581,   0.15835,  -0.58874,  -0.10125,  -0.26920,   0.87399,  -0.59314
   0.07044,   0.53957,  -0.81802,  -0.26686,   0.75075,   0.43528,  -0.84742,   0.93750,  -0.27354,  -0.93750
   0.12288,   0.27414,  -0.47511,  -0.52462,  -0.25746,   0.79535,   0.43195,   0.10590,   0.28691,   0.43951
  -0.57391,   0.82114,  -0.46632,   0.93750,  -0.87613,   0.82003,   0.41180,  -0.55165,   0.37044,  -0.93750
  -0.37600,   0.04508,  -0.64931,  -0.17430,   0.93750,   0.33878,  -0.30408,  -0.87795,  -0.14938,   0.02280
   0.21883,   0.93750,  -0.51947,  -0.30355,   0.37265,  -0.36256,   0.35981,   0.39088,  -0.44729,  -0.70446
  -0.47642,  -0.48949,  -0.63341,  -0.33405,   0.58092,   0.37614,   0.55753,  -0.67879,  -0.48803,   0.10077
   0.80684,  -0.42144,  -0.48012,   0.70239,   0.83636,   0.93750,  -0.80753,   0.80658,  -0.16284,  -0.93750
   0.56294,   0.44366,  -0.07921,   0.63319,  -0.93750,   0.64016,  -0.83977,   0.62356,  -0.26463,   0.58523
   0.34839,  -0.62142,  -0.72329,  -0.05126,   0.93750,   0.12508,  -0.77996,   0.24975,   0.05672,  -0.32637
  -0.27843,  -0.39870,  -0.87538,   0.93750,  -0.70550,  -0.08190,   0.93750,  -0.00029,  -0.04539,  -0.93750
   0.87888,  -0.86594,   0.75892,   0.87130,   0.00229,  -0.11665,   0.05252,  -0.36248,   0.75978,   0.51161
   0.55705,   0.75294,   0.46384,  -0.65807,  -0.67975,  -0.86348,   0.93750,  -0.93750,   0.67570,  -0.24725
   0.70282,   0.87833,   0.73820,   0.49413,  -0.86908,  -0.41975,  -0.31209,  -0.65692,   0.14411,   0.30872
   0.74840,   0.29823,   0.29011,  -0.57861,   0.50687,   0.20304,  -0.53723,  -0.28060,  -0.88166,   0.70183
  -0.93750,   0.49106,  -0.86890,  -0.82507,   0.93750,  -0.87785,   0.93750,   0.06616,  -0.76976,  -0.70459
   0.32251,   0.12346,  -0.80886,   0.00338,   0.33141,  -0.80952,   0.59260,   0.41545,   0.61319,  -0.58057
  -0.86151,   0.43536,  -0.74106,   0.93750,   0.14264,  -0.56139,   0.93750,   0.93750,   0.09089,  -0.87064
   0.62160,   0.39830,  -0.16557,  -0.14169,   0.25067,  -0.55178,   0.15286,   0.79720,   0.19256,   0.39098
   0.56078,   0.00680,   0.93750,  -0.26325,   0.38858,  -0.41343,  -0.36965,  -0.20770,  -0.37420,  -0.27980
  -0.88039,  -0.57164,   0.82901,  -0.62309,   0.93750,  -0.37650,   0.36937,  -0.93750,   0.84888,  -0.28303
  -0.43262,  -0.30881,  -0.69712,   0.71605,  -0.34440,  -0.66471,  -0.39705,   0.42563,   0.87622,   0.74432
   0.11441,  -0.50671,  -0.55496,  -0.47029,   0.23581,  -0.57625,   0.33232,   0.51867,   0.92346,   0.08933
  -0.10553,   0.70671,  -0.37554,   0.61893,  -0.42534,   0.33684,   0.33439,   0.00058,  -0.34790,   0.08882
   0.48136,  -0.43696,   0.93750,   0.09304,  -0.92682,   0.40082,   0.87940,   0.13256,  -0.59250,   0.44143
  -0.56691,  -0.70907,   0.75428,  -0.06780,   0.45185,  -0.18219,   0.87181,   0.93750,  -0.78796,  -0.72251
  -0.64299,  -0.33167,  -0.10481,   0.05016,  -0.11374,  -0.81800,   0.64315,  -0.12441,  -0.48153,   0.87914
  -0.36486,   0.93750,   0.43150,   0.59837,  -0.58580,   0.04818,  -0.41428,  -0.77814,  -0.15964,  -0.72010
  -0.06837,   0.09900,   0.38185,   0.58322,   0.31170,   0.34564,   0.37709,   0.01963,   0.24200,   0.40585
   0.87162,  -0.69450,  -0.52842,   0.44739,  -0.80485,   0.12028,  -0.62232,  -0.87872,  -0.61447,   0.08249
  -0.61503,   0.93750,   0.31776,  -0.48216,   0.19267,   0.36857,  -0.30485,   0.12596,  -0.61623,  -0.57515
  -0.32591,  -0.87421,   0.47162,  -0.56424,   0.28766,   0.82039,   0.93750,  -0.60435,  -0.75243,   0.69384
   0.93750,   0.81031,   0.93750,   0.87718,  -0.82638,  -0.81242,  -0.53106,  -0.33221,   0.93750,  -0.93750
   0.93750,   0.77336,  -0.55717,  -0.41421,   0.26959,   0.21421,   0.46201,  -0.92995,   0.19339,  -0.39451
  -0.04967,  -0.03919,  -0.84257,   0.13758,   0.93575,  -0.29338,  -0.41794,  -0.57166,  -0.52336,   0.66975
  -0.14784,   0.52723,  -0.09696,   0.24628,  -0.32323,   0.54098,   0.12212,   0.41561,   0.81173,   0.80309
  -0.42911,   0.15228,   0.87191,   0.60317,  -0.46454,   0.43221,   0.29389,  -0.58579,   0.93750,  -0.66422
  -0.34603,  -0.21893,   0.10302,   0.31754,  -0.43922,  -0.58741,   0.49264,   0.87071,   0.29728,   0.17289
  -0.12340,   0.06618,  -0.30542,   0.57701,   0.10208,  -0.86914,   0.77089,  -0.74603,  -0.76346,  -0.43718
   0.93480,   0.12313,  -0.02577,   0.70267,   0.39771,   0.09991,  -0.06728,  -0.45887,  -0.68551,   0.36492
   0.76467,   0.14468,  -0.55676,  -0.65606,   0.69643,  -0.47387,  -0.25443,   0.87895,   0.04152,  -0.32304
  -0.39873,  -0.87671,   0.50101,   0.07875,  -0.75442,  -0.60641,  -0.68626,   0.54563,  -0.81786,   0.54190
   0.78522,   0.46033,   0.38782,   0.93750,  -0.21111,  -0.73006,   0.60871,  -0.35573,  -0.32692,   0.93750
  -0.48050,  -0.10585,   0.87342,   0.42779,  -0.05933,  -0.42712,   0.37786,  -0.86492,  -0.48219,   0.66978
  -0.74630,  -0.54702,  -0.18115,  -0.63923,  -0.25867,   0.57601,   0.22343,  -0.93750,   0.72971,  -0.68154
  -0.65150,   0.87632,  -0.93268,   0.93750,  -0.41562,   0.63889,  -0.30280,  -0.87368,   0.35072,   0.76068
   0.02169,  -0.74875,  -0.17413,  -0.58088,   0.06606,  -0.51057,  -0.03459,  -0.70257,   0.67445,   0.78623
  -0.38758,   0.34922,   0.88232,   0.18732,  -0.79860,   0.00704,  -0.32414,  -0.70392,   0.18619,  -0.37379
   0.67782,  -0.26059,   0.75301,   0.25348,  -0.61678,  -0.47811,  -0.29224,  -0.35643,   0.01261,  -0.31007
   0.64712,   0.38394,   0.80817,  -0.50684,   0.87970,  -0.34801,  -0.14708,  -0.31213,  -0.69424,  -0.58620
   0.15106,  -0.87613,  -0.54585,  -0.30200,  -0.91036,  -0.25325,   0.60042,   0.63188,   0.03817,  -0.73614
   0.14052,  -0.54590,  -0.63997,   0.58181,  -0.93750,  -0.06825,   0.93750,   0.74434,  -0.19640,   0.93750
  -0.57175,   0.04903,   0.14844,   0.93474,  -0.60010,  -0.28420,  -0.11225,  -0.38053,   0.14066,  -0.23555
   0.17198,  -0.08548,   0.33536,  -0.56792,   0.40036,  -0.06572,   0.08344,  -0.64278,  -0.68053,   0.49119
   0.07836,   0.93750,   0.00991,  -0.54508,  -0.62295,  -0.18062,  -0.62945,   0.21631,  -0.09105,   0.66207
  -0.02155,  -0.65954,  -0.69185,  -0.65151,   0.33892,   0.19959,   0.80499,  -0.01870,  -0.00706,   0.48874
  -0.48030,  -0.87549,   0.93750,  -0.88221,   0.87307,   0.39582,   0.93750,  -0.80887,   0.87605,  -0.74088
  -0.65103,   0.62746,  -0.80264,  -0.78397,   0.26700,   0.15082,  -0.59601,   0.32421,  -0.37197,  -0.81177
   0.75791,  -0.51133,  -0.73412,   0.93750,   0.18155,  -0.93750,  -0.41396,  -0.23851,  -0.93750,   0.88410
   0.14975,   0.29999,  -0.64339,   0.17010,  -0.60865,   0.63911,   0.92288,  -0.43188,  -0.11135,  -0.03777
   0.45149,   0.78463,  -0.59431,  -0.69614,  -0.08267,  -0.67903,   0.82972,  -0.19891,   0.63705,   0.41360
  -0.66558,   0.24767,  -0.26814,  -0.65305,  -0.09338,  -0.37805,   0.93750,   0.03025,   0.77365,  -0.13672
   0.61106,   0.06501,  -0.60817,   0.47298,   0.63801,  -0.93750,  -0.12624,  -0.93750,   0.49852,  -0.60195
   0.87825,  -0.55965,  -0.54812,  -0.31770,   0.16134,  -0.49237,   0.56984,  -0.80779,   0.41530,   0.00329
  -0.64643,  -0.08894,  -0.54130,  -0.21927,  -0.55446,   0.74622,   0.85998,  -0.75743,  -0.63887,   0.74540
   0.93750,  -0.03332,   0.81506,  -0.78387,   0.27342,  -0.77323,  -0.32828,   0.59876,  -0.25469,   0.81198
  -0.79847,   0.22220,   0.93750,   0.22056,  -0.57336,  -0.60849,   0.22820,   0.06099,  -0.00817,   0.87053
  -0.76862,  -0.14285,   0.65869,  -0.88091,  -0.09112,  -0.93750,   0.30760,  -0.63721,  -0.93750,   0.77997
  -0.19195,   0.01776,  -0.14858,   0.33035,   0.86407,  -0.18603,  -0.62342,  -0.44493,   0.07487,  -0.24102
   0.86928,   0.87329,  -0.56785,   0.92568,  -0.55972,   0.17801,   0.54534,   0.41768,  -0.12702,  -0.56279
   0.13889,   0.43646,  -0.88957,  -0.46118,  -0.15720,   0.77621,   0.81465,   0.31471,   0.29658,   0.19935
   0.12191,  -0.09515,   0.34405,   0.87908,  -0.27330,  -0.85157,  -0.42524,  -0.37047,   0.35536,   0.22726
  -0.90012,   0.01562,  -0.87016,   0.85655,   0.50538,  -0.25117,   0.67221,   0.17309,   0.25987,  -0.41682
   0.05951,   0.83804,   0.93750,   0.20948,  -0.19793,  -0.42832,  -0.44274,  -0.10363,  -0.37666,  -0.60417
   0.16787,  -0.47429,   0.93664,  -0.46439,  -0.44022,   0.09297,   0.07939,   0.75664,   0.04796,   0.93750
  -0.93750,   0.80724,   0.29032,  -0.00214,   0.10278,  -0.17405,  -0.22007,   0.40616,   0.59808,  -0.06644
   0.39421,  -0.00768,   0.53210,   0.61245,   0.16781,   0.88342,   0.63843,  -0.10433,  -0.37443,  -0.59680
  -0.37314,   0.25072,   0.03175,  -0.36022,   0.93589,  -0.30497,  -0.34034,   0.18573,  -0.86829,   0.59240
   0.02606,  -0.10929,  -0.29333,  -0.90534,  -0.35339,  -0.73209,   0.93750,   0.24990,  -0.90191,  -0.00832
  -0.54683,  -0.31955,  -0.18735,  -0.65164,   0.14517,   0.37783,  -0.19456,   0.75294,   0.93750,  -0.51897
  -0.69247,   0.37716,   0.92657,  -0.55673,  -0.16369,  -0.11802,   0.02993,  -0.20918,  -0.75544,   0.08270
   0.93750,  -0.41656,  -0.64484,  -0.01976,  -0.64311,  -0.51087,   0.69956,  -0.40765,  -0.45842,  -0.37967
   0.34274,  -0.73031,  -0.82263,   0.17842,   0.76476,   0.93750,  -0.18046,  -0.53750,   0.07586,   0.81655
  -0.88188,   0.21567,  -0.49678,  -0.17602,  -0.44710,   0.71943,   0.93750,  -0.93750,  -0.93750,  -0.55119
  -0.08140,  -0.54596,   0.11697,   0.04427,  -0.60038,   0.06145,  -0.78736,   0.93750,   0.35333,  -0.67366
   0.21877,  -0.66815,   0.93750,  -0.04613,  -0.60006,   0.93750,  -0.40604,  -0.87608,   0.29131,  -0.93750
   0.50015,   0.66046,   0.20769,   0.93750,  -0.27865,  -0.80125,   0.49662,   0.29166,  -0.59931,  -0.06310
  -0.68140,  -0.51166,   0.87836,  -0.45491,  -0.06169,  -0.11515,   0.09627,   0.43272,  -0.26883,   0.59878
  -0.35463,   0.93750,   0.87334,   0.33096,  -0.20682,  -0.68901,  -0.05176,  -0.93750,  -0.87750,  -0.25804
  -0.63546,   0.81012,  -0.32090,   0.32186,  -0.09276,   0.13957,  -0.15587,   0.07029,  -0.36341,  -0.29562
   0.90270,  -0.69776,   0.93750,   0.93750,  -0.50094,   0.82633,   0.93750,  -0.93750,   0.48569,  -0.64423
  -0.87704,  -0.66244,   0.74947,   0.78694,   0.23280,  -0.35455,   0.00207,   0.40364,   0.02196,  -0.12223
  -0.27636,   0.47763,   0.16377,   0.92030,   0.34061,  -0.82547,   0.73975,  -0.59338,   0.01907,  -0.11649
  -0.25323,   0.14606,  -0.86851,   0.88310,   0.10051,  -0.65032,   0.62998,  -0.19764,   0.02450,   0.44908
  -0.28727,   0.11814,  -0.79960,  -0.82867,  -0.31721,   0.72935,  -0.85160,  -0.45848,  -0.93750,  -0.81694
  -0.40142,  -0.63646,   0.49405,  -0.37443,   0.38206,  -0.26276,   0.17254,  -0.06480,  -0.52916,   0.80630
   0.93576,   0.41127,  -0.87254,  -0.66522,   0.32209,   0.29155,  -0.20230,  -0.62487,   0.34418,   0.87905
   0.93750,   0.10260,   0.08736,  -0.73943,   0.21277,   0.28897,   0.07448,  -0.42169,  -0.73318,  -0.43328
   0.10726,  -0.49394,   0.12320,  -0.33194,  -0.13082,  -0.81816,   0.56203,  -0.05707,   0.52479,  -0.85926
  -0.38464,   0.27812,   0.26071,   0.92513,   0.44198,  -0.47254,  -0.47541,   0.49660,  -0.30709,   0.04485
  -0.22312,  -0.41225,   0.93750,  -0.53971,  -0.31804,  -0.62333,   0.08533,   0.11542,  -0.11418,  -0.07105
  -0.26856,  -0.32386,  -0.82414,   0.67591,   0.93750,  -0.40081,  -0.58169,  -0.71208,   0.40575,  -0.21745
   0.93750,  -0.50732,   0.58948,  -0.74962,   0.44655,   0.39907,   0.62083,  -0.00495,   0.74839,  -0.83233
   0.22130,   0.60953,   0.93750,  -0.87462,   0.93750,  -0.93750,  -0.93750,  -0.60448,   0.35583,   0.88141
  -0.46300,   0.17039,  -0.20842,   0.75470,   0.41890,   0.22506,  -0.17757,   0.82911,   0.17663,  -0.68517
   0.41159,  -0.31162,  -0.93750,  -0.01944,   0.52993,  -0.91464,   0.87744,  -0.93750,   0.81545,   0.67214
  -0.93750,  -0.93750,  -0.61868,   0.05035,  -0.41554,   0.24546,  -0.19789,  -0.01847,   0.67546,   0.14310
   0.05199,   0.43721,   0.87191,  -0.36460,  -0.28537,  -0.33693,   0.66478,   0.10670,   0.00236,   0.29270
  -0.11575,   0.20275,   0.81562,   0.48457,   0.37311,   0.86366,   0.30916,  -0.14910,  -0.73269,   0.49307
   0.93750,  -0.75488,  -0.19359,   0.93750,   0.93750,  -0.93750,   0.93750,   0.93750,  -0.09908,   0.87374
   0.90855,   0.70815,  -0.73927,  -0.77467,  -0.40370,   0.18416,   0.93750,  -0.08043,  -0.34431,   0.14619
  -0.93176,  -0.90182,  -0.70940,  -0.71775,  -0.75911,   0.40946,  -0.56342,   0.21958,  -0.46910,  -0.87790
   0.93102,   0.15982,  -0.54512,  -0.31722,  -0.12308,  -0.02329,  -0.07219,   0.26552,  -0.93171,  -0.52263
  -0.58588,   0.17255,  -0.31690,  -0.43583,  -0.41022,   0.92191,   0.03494,   0.20883,   0.16272,   0.18109
  -0.57941,  -0.67773,  -0.80768,   0.46783,   0.61912,   0.10884,  -0.93750,   0.93750,   0.16268,  -0.16424
  -0.36710,   0.04498,  -0.60561,   0.61250,  -0.61118,  -0.73265,   0.11574,   0.93750,  -0.44257,   0.36214
   0.93750,  -0.93750,  -0.56184,  -0.09921,   0.16532,   0.10545,  -0.68628,   0.93750,   0.70614,   0.26927
  -0.88114,   0.33386,   0.32536,   0.71263,  -0.46166,   0.07472,  -0.71139,  -0.02589,   0.93750,  -0.28599
   0.80901,  -0.55660,  -0.75794,   0.66565,  -0.86752,   0.93750,  -0.88012,  -0.27755,   0.61963,  -0.10105
   0.93750,   0.78546,   0.58675,  -0.93750,  -0.93750,   0.83926,  -0.77366,  -0.00207,  -0.93750,  -0.87358
   0.93750,   0.31870,   0.92240,   0.08511,  -0.15606,  -0.65374,  -0.29180,  -0.49712,  -0.51357,   0.38255
   0.12600,   0.93750,  -0.93750,   0.08738,  -0.93750,  -0.93750,  -0.93750,  -0.68655,  -0.93750,  -0.70004
  -0.70816,  -0.68786,  -0.08877,  -0.93750,   0.22972,   0.07974,  -0.81163,   0.84740,  -0.93750,   0.12017
   0.07352,  -0.08138,  -0.04176,   0.92722,  -0.15723,  -0.33728,  -0.51913,  -0.64361,   0.02665,   0.20849
  -0.81409,   0.87314,   0.85464,  -0.82344,   0.38837,  -0.58863,   0.75843,  -0.93750,   0.93750,  -0.45174
   0.22495,  -0.88115,  -0.84272,  -0.50992,  -0.79805,  -0.93750,   0.39682,  -0.81299,   0.08194,   0.24362
   0.35621,  -0.67220,  -0.93387,  -0.47326,  -0.16141,   0.93750,   0.49370,  -0.42115,   0.29050,  -0.87720
   0.47063,   0.07133,  -0.64821,  -0.60265,  -0.67778,  -0.66488,  -0.31755,  -0.24688,   0.93750,  -0.04471
   0.50410,   0.08532,  -0.93750,   0.62303,  -0.93750,  -0.87146,   0.93750,   0.93750,   0.02412,   0.14775
   0.01512,   0.93107,  -0.02746,  -0.35499,   0.93750,   0.17536,   0.73579,  -0.41239,  -0.21589,   0.20257
  -0.57985,   0.27291,   0.80992,  -0.61675,   0.89992,   0.89787,  -0.38569,   0.13596,  -0.73642,  -0.82557
   0.61959,  -0.15899,  -0.65725,  -0.39042,  -0.33809,  -0.93750,  -0.71304,   0.93750,   0.76873,  -0.17492
  -0.93750,   0.34649,  -0.87404,   0.03973,  -0.88038,   0.93750,  -0.93750,  -0.78728,  -0.60148,   0.32392
   0.87628,  -0.04231,  -0.75731,  -0.61831,   0.08539,  -0.40188,  -0.03333,  -0.52131,   0.37769,  -0.59870
  -0.68183,   0.78027,  -0.87702,   0.54847,   0.59568,  -0.48497,  -0.75528,  -0.65173,  -0.93750,   0.30200
  -0.93750,  -0.87633,   0.93750,  -0.53813,  -0.93750,   0.85309,  -0.67947,  -0.24682,  -0.93750,   0.16017
   0.79947,  -0.28934,   0.51180,  -0.13048,   0.35558,  -0.40561,  -0.00896,  -0.05178,   0.02333,  -0.30694
   0.51499,  -0.13812,  -0.93750,  -0.78650,  -0.15513,  -0.89772,   0.69724,  -0.13807,  -0.93750,  -0.93750
   0.55202,  -0.48639,   0.17286,   0.23969,  -0.56748,  -0.56203,   0.87340,  -0.59199,  -0.01553,  -0.39694
  -0.44299,   0.38339,   0.38646,   0.61611,   0.65090,   0.42332,  -0.61454,   0.56185,  -0.50458,  -0.09169
  -0.02002,   0.75365,  -0.16009,  -0.40532,   0.68889,   0.60782,  -0.22157,  -0.42211,  -0.86870,  -0.40628
  -0.93750,  -0.86963,   0.41043,   0.62110,  -0.63015,  -0.60466,  -0.41320,   0.93750,  -0.87216,  -0.74960
   0.82967,   0.24058,  -0.73753,  -0.56681,  -0.87505,   0.74741,  -0.12546,  -0.17138,  -0.03501,  -0.12614
   0.52180,   0.01857,  -0.10353,  -0.20734,  -0.40750,   0.91530,   0.42989,  -0.13456,   0.27133,  -0.40567
  -0.25815,  -0.41257,  -0.38533,  -0.43440,   0.82919,  -0.43930,  -0.05596,  -0.93750,  -0.13271,  -0.49267
   0.03087,   0.30188,  -0.45104,   0.86665,   0.41395,  -0.69836,  -0.44291,  -0.18146,   0.08057,   0.57597
   0.87751,  -0.28199,  -0.93750,   0.35587,   0.93750,  -0.81191,   0.93750,  -0.22065,  -0.78827,  -0.22246
   0.72301,   0.44091,   0.94310,  -0.21869,  -0.11044,   0.15122,   0.49637,  -0.27265,  -0.75938,  -0.09472
  -0.25393,   0.50469,   0.31540,  -0.87374,   0.19057,  -0.56519,  -0.03377,   0.93750,   0.29146,  -0.44424
   0.87832,   0.26891,   0.10711,  -0.43868,   0.93750,  -0.81864,   0.80334,  -0.82652,  -0.82638,  -0.84830
  -0.36825,  -0.74898,   0.78710,  -0.25268,  -0.73539,   0.29667,  -0.28631,   0.93660,   0.46309,  -0.59231
  -0.03762,  -0.21206,   0.81188,  -0.45918,  -0.13847,   0.93750,   0.07884,   0.17633,   0.15597,   0.08556
   0.93750,   0.05087,  -0.46398,  -0.34253,  -0.64802,   0.17287,   0.56927,   0.47601,  -0.60789,  -0.47227
  -0.62494,   0.93750,   0.50316,  -0.87640,  -0.90737,   0.01049,  -0.27118,  -0.21746,   0.92824,   0.15140
   0.24290,   0.45823,  -0.10858,  -0.56495,   0.26482,   0.76120,   0.34551,   0.91100,   0.18484,  -0.31046
  -0.17921,   0.33272,   0.42985,   0.81387,   0.57628,  -0.70258,  -0.01821,  -0.33096,  -0.19705,   0.01736
   0.91872,   0.66792,  -0.42254,  -0.36453,  -0.38907,  -0.21643,  -0.42213,   0.23726,   0.58254,   0.84283
  -0.93750,  -0.91971,   0.93750,  -0.93750,  -0.84897,   0.16740,   0.82027,   0.93750,   0.84027,  -0.26113
   0.88129,  -0.60792,  -0.72200,   0.34777,  -0.49430,   0.80595,   0.49903,   0.93750,   0.20931,   0.21412
   0.49620,  -0.28539,  -0.56463,  -0.60068,  -0.43900,  -0.20019,   0.93750,  -0.24960,   0.06319,   0.05397
  -0.67852,  -0.74258,  -0.45768,   0.24243,   0.32008,  -0.00389,   0.57977,   0.26356,   0.62532,   0.01636
   0.21548,   0.65595,  -0.10740,  -0.23812,  -0.49663,  -0.74686,  -0.00216,   0.93750,  -0.45302,   0.72291
   0.44526,   0.71618,   0.25460,  -0.34105,   0.46627,   0.04091,   0.48133,  -0.63201,   0.46614,  -0.21527
   0.60617,  -0.01861,   0.29959,   0.35078,   0.58001,  -0.17127,   0.01906,  -0.55690,   0.34873,  -0.51914
   0.34801,  -0.11724,   0.68594,   0.80978,  -0.49911,  -0.42409,   0.93750,   0.81224,  -0.45468,  -0.11827
   0.67217,   0.30141,   0.17505,   0.41310,   0.12357,   0.79714,   0.60777,  -0.43513,  -0.86902,  -0.56134
   0.11092,  -0.14215,  -0.12175,   0.93750,  -0.87621,   0.19941,   0.12196,  -0.93750,   0.87796,  -0.93750
  -0.93290,  -0.61867,  -0.56407,   0.45075,  -0.72362,  -0.19263,  -0.48496,   0.45277,   0.80744,   0.74999
  -0.51381,   0.60606,  -0.70784,   0.93750,  -0.88171,  -0.93750,  -0.80538,  -0.93750,   0.92135,   0.93750
   0.77310,   0.76057,  -0.65872,   0.10921,  -0.42343,   0.01112,   0.15543,  -0.23151,  -0.43776,   0.74887
  -0.72328,  -0.25526,  -0.71856,  -0.93750,   0.93750,   0.10882,   0.66676,  -0.38664,   0.81891,  -0.50563
  -0.50102,  -0.33471,  -0.66588,   0.48869,  -0.55578,   0.45413,   0.60325,  -0.74784,  -0.30281,  -0.62485
  -0.25413,  -0.49811,   0.31124,  -0.74901,   0.47880,   0.86909,  -0.12159,  -0.44665,   0.61752,  -0.54489
   0.64249,  -0.28091,   0.93750,  -0.42497,   0.54134,  -0.35640,  -0.19189,  -0.10358,  -0.25246,   0.10599
   0.50822,   0.08578,  -0.83536,   0.37234,   0.37560,   0.64921,  -0.14340,  -0.06392,   0.47083,  -0.13004
  -0.20910,   0.08759,   0.93750,  -0.88318,   0.75298,  -0.62555,  -0.74530,   0.74118,  -0.87450,   0.75489
  -0.29767,  -0.07762,  -0.29349,  -0.37165,   0.71973,   0.03338,   0.93750,   0.24136,  -0.48675,   0.48071
   0.18919,  -0.33392,  -0.44102,   0.80206,  -0.63834,  -0.42322,  -0.75755,  -0.11417,  -0.17411,  -0.73217
   0.30724,   0.85033,  -0.87904,  -0.70511,   0.93750,   0.93750,  -0.70001,   0.93750,   0.93750,  -0.20223
   0.52914,   0.45518,   0.57016,  -0.57747,  -0.50539,  -0.47455,  -0.67000,   0.50628,   0.85221,  -0.07771
   0.20257,   0.62653,  -0.42778,   0.40595,  -0.07303,   0.39157,  -0.40830,   0.34948,  -0.59572,   0.63378
   0.36356,  -0.70444,  -0.78697,   0.93750,   0.31220,  -0.86385,  -0.60975,  -0.39511,   0.41590,  -0.17964
  -0.06036,   0.05588,   0.78150,   0.76598,   0.27840,   0.37498,   0.62108,   0.08663,   0.52179,   0.43382
   0.44825,   0.40096,   0.93750,  -0.23542,  -0.34103,  -0.32802,   0.51462,  -0.32609,  -0.22243,  -0.57675
  -0.39108,   0.06520,   0.54944,   0.40756,  -0.22290,   0.48886,   0.85770,  -0.68213,   0.56045,  -0.10849
  -0.34690,  -0.93750,  -0.87009,  -0.62873,   0.93750,   0.33321,   0.90991,   0.93750,  -0.08185,   0.93750
   0.14722,  -0.89178,   0.09335,   0.56941,   0.63218,  -0.93750,  -0.83974,   0.93750,   0.60149,  -0.80110
  -0.53438,  -0.62529,   0.93750,  -0.93750,   0.86945,   0.87156,  -0.27531,   0.93750,   0.62152,  -0.16824
  -0.42533,   0.47794,  -0.11540,  -0.06984,   0.74453,  -0.37347,   0.81521,   0.93750,  -0.37867,   0.48523
   0.93750,   0.93750,  -0.46697,   0.87118,   0.47782,  -0.87977,   0.42580,   0.61812,  -0.70246,  -0.87506
  -0.66535,   0.56571,   0.08515,  -0.48751,   0.19096,  -0.87982,  -0.55239,  -0.63010,   0.86314,   0.81341
   0.08103,  -0.80584,   0.93750,   0.44065,   0.93386,  -0.93750,   0.76108,   0.93750,  -0.87044,  -0.93750
   0.50976,  -0.35815,   0.29394,  -0.45224,  -0.70831,  -0.83896,   0.93750,  -0.47958,   0.11189,  -0.61500
  -0.09059,   0.52442,  -0.10019,   0.52240,  -0.85219,   0.54640,  -0.53109,  -0.48321,  -0.36691,  -0.25184
  -0.09985,   0.25030,   0.85440,   0.41971,  -0.84790,   0.24111,   0.69085,  -0.14630,  -0.04301,  -0.32186
   0.93750,   0.09022,  -0.57911,   0.67272,  -0.71532,  -0.03727,   0.07157,   0.84748,   0.29683,  -0.55608
   0.40694,  -0.93750,   0.11109,   0.08483,  -0.73444,  -0.87621,  -0.70848,  -0.61380,  -0.93750,  -0.74579
  -0.48895,   0.44367,  -0.63805,  -0.47577,   0.73793,  -0.02493,   0.61870,   0.55813,  -0.72234,  -0.60890
   0.93750,  -0.68346,  -0.53308,  -0.68851,   0.93750,   0.07813,  -0.68942,   0.82583,   0.93750,   0.68934
   0.16723,   0.74600,   0.55680,   0.40785,  -0.93750,   0.39613,   0.11575,  -0.26757,  -0.16382,  -0.62289
  -0.02174,   0.18286,   0.16383,  -0.78026,   0.06590,   0.93750,  -0.27897,  -0.88887,  -0.17440,   0.15650
  -0.22386,  -0.12454,  -0.22446,  -0.24155,   0.80409,  -0.22959,  -0.48942,  -0.88138,   0.67255,  -0.87738
   0.93750,  -0.18839,   0.33229,  -0.59097,  -0.76352,   0.93750,  -0.31021,  -0.30834,   0.04031,  -0.80436
  -0.64694,  -0.19312,  -0.36531,  -0.86339,   0.03400,   0.93750,   0.33878,  -0.13554,   0.24652,  -0.47293
   0.61666,  -0.22418,   0.09888,  -0.93750,   0.23698,  -0.29649,   0.93750,  -0.93750,  -0.93750,  -0.93750
  -0.45185,   0.90620,   0.83228,   0.87250,   0.34679,  -0.93750,   0.67343,  -0.83245,   0.93750,   0.93750
   0.82921,   0.87996,   0.93750,   0.93750,  -0.72470,  -0.84451,   0.32395,   0.93750,  -0.83020,  -0.07815
  -0.33950,  -0.19686,   0.86996,   0.58122,  -0.37401,   0.70597,  -0.82675,  -0.87519,  -0.24339,   0.93750
   0.93750,  -0.50982,   0.32621,  -0.66694,  -0.24516,  -0.60610,   0.22010,   0.44540,  -0.33150,   0.09864
   0.77845,   0.07351,  -0.64546,   0.86941,  -0.07964,   0.12691,   0.93750,   0.09250,  -0.93750,   0.74771
  -0.26730,   0.23954,   0.22114,  -0.27087,   0.10024,   0.93476,   0.45819,  -0.37398,   0.87725,  -0.42611
  -0.61484,   0.03518,   0.93750,  -0.87772,  -0.18404,   0.81339,   0.87214,   0.83070,  -0.16308,   0.87051
   0.18252,   0.90991,  -0.58201,  -0.74382,   0.90941,  -0.75648,  -0.25299,   0.93750,   0.93750,   0.34425
  -0.81016,   0.67045,  -0.93750,   0.30971,   0.71988,  -0.79406,   0.70110,   0.80841,  -0.20640,  -0.78195
  -0.01239,   0.37632,  -0.42039,  -0.06616,   0.93750,  -0.78684,  -0.02813,  -0.56939,   0.65728,  -0.83252
   0.24522,  -0.36053,  -0.93750,  -0.88119,   0.93750,  -0.90002,  -0.44593,  -0.86558,   0.09014,   0.48881
   0.03138,   0.93750,   0.00827,   0.45740,  -0.10385,  -0.16766,  -0.70632,   0.77159,   0.00943,   0.38689
  -0.43177,   0.42790,   0.54084,  -0.35304,   0.56117,   0.66587,  -0.29409,  -0.67278,  -0.04313,   0.25966
   0.19739,  -0.17329,   0.52953,  -0.17881,   0.93605,  -0.93750,  -0.48905,  -0.79087,   0.27229,  -0.08400
  -0.82765,   0.93750,   0.93750,  -0.26815,   0.26327,  -0.30717,   0.12679,  -0.03856,  -0.30324,   0.24872
  -0.65180,   0.32036,  -0.01322,  -0.37383,   0.10439,   0.32783,  -0.27076,   0.93750,   0.60669,   0.75179
   0.03025,   0.18178,  -0.39410,  -0.72674,  -0.26631,   0.92872,   0.44176,   0.10079,   0.52509,   0.07394
  -0.70359,   0.55369,   0.36897,  -0.31158,   0.30812,   0.88370,  -0.48494,  -0.68625,   0.43804,  -0.35788
  -0.52148,  -0.71148,  -0.42488,   0.82135,  -0.49009,   0.05953,   0.14238,   0.06463,   0.87806,  -0.86743
   0.93750,  -0.52582,   0.15500,  -0.01220,  -0.70794,   0.21063,  -0.14503,  -0.20948,   0.69890,   0.29401
   0.20852,   0.03452,   0.02854,   0.90935,  -0.15082,  -0.24142,  -0.32874,   0.36987,  -0.07085,   0.45380
  -0.85452,   0.93750,  -0.07926,   0.86748,   0.54749,  -0.69520,  -0.86786,  -0.46665,   0.64040,  -0.93750
   0.93750,  -0.73920,  -0.37148,   0.45471,  -0.30475,  -0.59968,  -0.52591,  -0.16398,  -0.43283,   0.02358
   0.06200,   0.30550,   0.22717,   0.60109,   0.43802,   0.42923,  -0.44164,  -0.15547,   0.19935,  -0.54125
   0.67256,   0.65414,  -0.93750,  -0.93750,  -0.92030,   0.32880,   0.79950,   0.86476,   0.41404,   0.93750
   0.19117,   0.63184,   0.93125,  -0.12083,  -0.32694,   0.26688,   0.65362,   0.28578,   0.14432,  -0.29024
   0.11591,  -0.87088,   0.93750,   0.84949,   0.13372,  -0.93750,   0.73148,  -0.93750,   0.88346,   0.61621
   0.18707,  -0.62851,   0.54735,  -0.82363,  -0.80077,  -0.80540,   0.36002,   0.74626,   0.26588,  -0.02350
   0.25849,   0.24832,   0.77129,   0.70514,  -0.85614,   0.75456,   0.42051,  -0.80814,   0.23221,  -0.06233
   0.80043,  -0.48639,  -0.50445,  -0.81987,  -0.87192,   0.46577,  -0.22427,  -0.63048,   0.73743,  -0.87218
  -0.47771,  -0.93750,   0.41288,  -0.22007,  -0.81331,   0.17674,  -0.63631,   0.58408,   0.07287,  -0.81638
   0.87543,  -0.62052,   0.87805,   0.93750,   0.93750,   0.01635,  -0.80890,  -0.74428,  -0.50813,  -0.68932
   0.25095,  -0.05921,  -0.63085,  -0.69756,   0.71952,   0.81885,  -0.30424,   0.12594,   0.00619,   0.03490
  -0.47186,   0.93750,  -0.14551,   0.93750,   0.93750,   0.93750,   0.00187,  -0.21634,  -0.87922,  -0.87261
   0.47052,  -0.49262,   0.05479,   0.13594,   0.12276,  -0.11166,  -0.22623,   0.47310,  -0.87408,   0.61790
  -0.37659,  -0.73764,   0.18375,   0.12900,   0.03247,   0.06878,   0.69103,   0.09478,  -0.32539,   0.93750
   0.18425,   0.93750,  -0.93750,  -0.79970,   0.27342,   0.88656,   0.87829,   0.31167,   0.87774,  -0.54828
   0.81207,   0.93750,  -0.87880,  -0.62921,  -0.80943,   0.06688,  -0.30368,  -0.12417,   0.05396,   0.19321
   0.66174,  -0.52257,  -0.88461,   0.91988,  -0.63159,   0.64172,  -0.75414,  -0.87025,   0.93750,   0.23727
   0.93750,  -0.75769,   0.19817,   0.61431,   0.78940,  -0.20785,  -0.80797,   0.09623,  -0.86657,  -0.35960
  -0.51251,   0.07215,   0.45728,   0.52636,   0.61721,   0.37653,   0.07781,   0.22169,   0.25392,   0.02260
  -0.88110,  -0.87151,   0.21484,   0.80291,   0.70548,   0.77742,  -0.55709,  -0.13408,   0.81696,  -0.93750
   0.27183,   0.18574,  -0.50746,   0.06469,   0.85892,   0.37023,   0.41546,  -0.58841,  -0.64306,   0.40373
   0.93750,  -0.21704,  -0.35336,  -0.60833,   0.28152,  -0.56123,   0.32585,   0.70205,   0.08875,  -0.03253
   0.76006,  -0.31567,   0.55694,  -0.27912,  -0.29854,  -0.33652,  -0.03204,   0.76214,  -0.51265,   0.63150
   0.69571,   0.81361,  -0.84058,  -0.39839,   0.28998,  -0.91970,  -0.79539,   0.87984,  -0.70705,   0.76171
   0.85921,   0.21084,  -0.89797,  -0.07513,   0.54592,   0.31673,   0.93750,   0.07718,  -0.36770,   0.87946
  -0.11389,   0.87008,  -0.12086,   0.57476,  -0.07137,  -0.34845,   0.73606,   0.92275,   0.81769,  -0.11686
  -0.08023,  -0.11483,  -0.52622,   0.83768,  -0.53010,   0.74567,  -0.02171,   0.83223,  -0.00914,  -0.17237
  -0.31300,  -0.12741,  -0.21732,  -0.70060,  -0.82027,  -0.67967,  -0.87676,   0.93750,  -0.05132,  -0.02055
  -0.22091,   0.33323,   0.02994,   0.63784,  -0.90351,   0.07297,   0.00585,   0.93750,  -0.36925,   0.37737
   0.66427,   0.00505,   0.45268,  -0.73877,   0.25720,  -0.24715,  -0.39234,   0.24096,  -0.86427,  -0.27084
  -0.10643,  -0.70187,   0.23113,  -0.26894,  -0.10746,   0.27503,  -0.54023,  -0.65394,   0.26833,   0.88102
  -0.45594,   0.04705,   0.93750,  -0.18918,  -0.49197,   0.00742,  -0.42078,   0.02173,   0.75828,   0.50348
   0.02769,  -0.68148,   0.09590,   0.93750,   0.93750,  -0.93750,   0.93750,   0.58192,   0.93750,   0.31962
   0.85226,   0.34395,  -0.52249,   0.66721,   0.33543,  -0.46187,   0.14219,   0.80848,  -0.34662,  -0.04408
   0.93750,   0.93750,  -0.35978,  -0.87056,  -0.93750,   0.31560,   0.74666,   0.85755,  -0.02545,   0.93750
   0.31001,  -0.31935,   0.59724,  -0.36610,  -0.78638,   0.93750,  -0.34964,  -0.61594,   0.03598,  -0.33964
   0.87770,  -0.81639,  -0.37275,  -0.93750,   0.10531,  -0.92047,  -0.86482,  -0.70376,   0.55823,   0.93750
  -0.38176,  -0.19711,  -0.36110,   0.17992,   0.93750,  -0.55730,  -0.13599,  -0.21982,  -0.49945,  -0.08242
  -0.37568,   0.43183,  -0.73001,   0.18674,   0.19315,   0.33625,   0.80236,  -0.60966,  -0.30567,   0.41051
  -0.04897,  -0.76876,  -0.24293,  -0.43335,   0.93750,   0.02056,  -0.63442,  -0.61028,   0.16615,  -0.53209
   0.79925,  -0.30769,   0.29184,  -0.82137,   0.87205,   0.67092,   0.93750,   0.70397,  -0.29401,   0.93750
   0.86689,  -0.11724,  -0.31504,   0.14067,   0.54669,   0.04904,   0.28632,  -0.78969,  -0.43145,  -0.29715
   0.63207,   0.51671,  -0.23649,  -0.65862,  -0.23990,   0.31141,   0.47570,  -0.41761,  -0.17944,  -0.08727
   0.80226,  -0.11439,   0.93750,  -0.88012,   0.62074,  -0.93750,   0.16124,   0.45139,  -0.07506,  -0.93750
   0.75411,  -0.13149,  -0.47391,  -0.60886,   0.74079,   0.93750,  -0.67936,   0.34776,   0.48620,   0.07386
  -0.58341,   0.52824,  -0.73090,  -0.47666,   0.75082,   0.02731,   0.69508,  -0.09615,   0.93750,  -0.33473
   0.06764,   0.10801,   0.35019,  -0.72344,  -0.40505,  -0.26746,   0.39340,  -0.92487,   0.29711,   0.68578
  -0.24347,  -0.16212,   0.93750,  -0.47309,   0.63369,  -0.82208,   0.19078,  -0.53016,   0.11376,   0.05736
   0.87003,  -0.34634,   0.89181,  -0.16189,   0.93750,   0.93750,  -0.51417,  -0.79227,   0.93564,  -0.93750
  -0.35288,  -0.88702,   0.93750,   0.93750,   0.06381,  -0.93750,   0.29256,   0.93750,   0.31336,  -0.82765
  -0.40591,  -0.22358,  -0.88537,   0.93750,  -0.31732,  -0.32454,  -0.27387,  -0.06747,   0.38358,  -0.24107
  -0.06961,  -0.16529,  -0.93750,  -0.15745,   0.93750,  -0.80097,   0.73362,  -0.87452,   0.71088,   0.06202
  -0.93750,  -0.45856,   0.93750,  -0.87572,   0.93750,   0.28989,  -0.89362,  -0.13048,  -0.93133,  -0.93750
   0.93750,  -0.14547,  -0.01622,  -0.63030,   0.93750,  -0.27638,  -0.54081,   0.20187,   0.25685,   0.51767
   0.75853,   0.34031,  -0.86309,  -0.53971,  -0.77430,   0.22039,   0.11248,   0.15369,  -0.16334,   0.03683
   0.93741,  -0.62252,  -0.71691,  -0.27987,  -0.44469,  -0.05504,  -0.25264,  -0.71198,  -0.85904,  -0.15379
   0.93275,  -0.30550,  -0.80608,  -0.49166,  -0.17539,  -0.76983,  -0.75239,  -0.26066,  -0.27516,   0.29942
  -0.47422,   0.04663,   0.93750,   0.93750,   0.83541,   0.89280,  -0.88033,   0.38447,   0.07948,  -0.50542
  -0.23128,   0.58818,  -0.93750,  -0.93750,  -0.21573,   0.76352,  -0.93750,  -0.88434,   0.93750,   0.42953
   0.65880,  -0.08467,   0.48193,  -0.15476,   0.91913,  -0.19246,   0.02710,   0.13661,   0.43159,  -0.74537
  -0.66369,   0.04877,  -0.34397,   0.93750,   0.69939,  -0.77178,  -0.58109,  -0.04497,  -0.66679,  -0.68503
   0.31948,  -0.74574,  -0.75260,  -0.60530,   0.03311,  -0.01319,  -0.12480,  -0.75476,  -0.81332,   0.80761
  -0.53264,   0.93750,   0.87687,  -0.20600,   0.72903,   0.09783,   0.05972,  -0.93750,   0.10287,  -0.71288
  -0.23786,  -0.93750,   0.93750,   0.05571,   0.54460,  -0.66190,  -0.78601,   0.15928,   0.45246,   0.67859
   0.13933,  -0.31069,  -0.10829,   0.53987,  -0.14436,   0.07533,   0.59065,  -0.09927,   0.19464,   0.07481
   0.13680,  -0.02245,   0.58190,  -0.77164,   0.44944,  -0.01306,  -0.03110,   0.51025,  -0.59693,   0.93750
   0.68965,   0.15667,  -0.25096,  -0.59622,   0.93740,  -0.08272,  -0.13451,  -0.48055,   0.00494,  -0.08960
  -0.37820,  -0.52151,   0.93750,   0.12730,  -0.35187,   0.06428,   0.15637,  -0.13831,   0.18133,  -0.33130
   0.93750,   0.38864,  -0.87911,   0.87955,   0.53636,  -0.67521,  -0.45768,   0.86667,  -0.93750,  -0.93750
  -0.44765,   0.22432,  -0.18273,  -0.35525,   0.93750,  -0.30696,   0.75350,  -0.79003,  -0.32201,   0.69861
   0.82791,   0.93750,  -0.32962,  -0.16123,  -0.78188,  -0.87670,   0.24854,  -0.58569,   0.93750,   0.20668
  -0.23311,  -0.58583,   0.68080,  -0.54227,   0.90137,  -0.26428,  -0.23048,   0.86303,   0.65159,  -0.44248
  -0.13010,  -0.13149,  -0.80754,  -0.37496,  -0.34293,   0.91057,   0.13628,   0.93750,  -0.28539,   0.53359
  -0.76821,   0.85731,  -0.93750,  -0.81096,   0.93750,   0.93750,   0.18635,   0.13687,  -0.11588,  -0.70102
   0.93750,  -0.21280,  -0.93750,   0.13535,   0.26190,   0.93750,  -0.62788,   0.37329,  -0.61585,  -0.82314
  -0.61207,   0.29560,  -0.00189,  -0.16320,  -0.80377,   0.93750,   0.85828,   0.46240,   0.73999,   0.71490
   0.28026,  -0.49398,   0.93750,   0.80784,   0.93750,   0.38790,   0.93750,  -0.16307,  -0.20625,  -0.51486
  -0.81229,  -0.03350,  -0.62134,   0.93750,  -0.02624,  -0.48627,  -0.70133,  -0.10724,  -0.90666,  -0.77214
  -0.20459,  -0.71228,  -0.27135,  -0.74025,  -0.76053,  -0.36191,   0.30131,   0.75276,  -0.33310,   0.68176
  -0.74847,  -0.91303,  -0.79570,  -0.41325,   0.73486,  -0.75359,  -0.93750,  -0.93750,  -0.62055,  -0.54915
  -0.73544,   0.55490,  -0.09737,  -0.46726,   0.62160,  -0.36947,  -0.09270,  -0.45703,   0.85753,   0.52012
  -0.29012,  -0.78715,   0.22711,  -0.28075,  -0.54350,  -0.38630,   0.87222,  -0.40663,  -0.74294,  -0.12444
  -0.24681,  -0.44214,   0.93750,  -0.25701,  -0.69083,  -0.28248,  -0.34342,   0.18720,  -0.24405,   0.22976
  -0.41713,   0.55369,  -0.54158,   0.93422,  -0.59647,   0.39354,  -0.74612,  -0.10207,  -0.06825,  -0.82147
  -0.93750,   0.32436,  -0.93750,   0.77770,  -0.33325,   0.42140,  -0.88223,  -0.62360,  -0.31758,  -0.92703
   0.93750,  -0.79517,  -0.88010,   0.76563,  -0.55176,  -0.47554,   0.77570,   0.90809,   0.33924,  -0.93750
   0.50458,   0.48157,   0.35955,  -0.26070,   0.22729,  -0.50888,   0.92379,  -0.19932,  -0.39277,   0.24059
   0.31351,  -0.93750,   0.68655,  -0.08529,  -0.93750,  -0.93750,  -0.70527,   0.42018,  -0.77156,  -0.93750
   0.18387,  -0.93750,   0.93750,  -0.86226,   0.54797,   0.87290,  -0.50017,   0.57941,  -0.42702,   0.93750
   0.91340,   0.36912,   0.73691,  -0.25761,   0.66166,   0.15120,   0.46541,   0.00613,  -0.28388,  -0.09324
   0.03880,   0.56272,  -0.40259,   0.81425,  -0.48279,   0.75134,   0.80306,  -0.08877,  -0.10859,   0.57530
   0.93333,   0.43938,   0.46788,  -0.93750,   0.21714,  -0.32324,  -0.34901,  -0.02974,  -0.86626,   0.01051
   0.43489,  -0.33087,   0.07771,  -0.08766,   0.28455,  -0.53368,   0.34602,   0.47800,  -0.00912,   0.22235
  -0.42800,   0.21355,  -0.21654,   0.93750,   0.93750,  -0.50709,  -0.56631,  -0.82235,   0.24630,  -0.56292
   0.48006,  -0.22823,   0.34149,   0.88069,   0.58451,   0.73202,   0.37315,   0.18313,  -0.54639,   0.38538
   0.93750,  -0.09097,   0.63648,   0.78118,  -0.90890,   0.38444,  -0.76648,   0.66985,   0.87762,   0.86913
  -0.04673,  -0.32808,   0.19880,   0.27064,  -0.21407,  -0.06943,   0.93750,  -0.08518,   0.93615,  -0.33496
   0.64890,   0.80712,   0.35956,  -0.39993,  -0.16151,   0.36700,   0.17482,  -0.75059,  -0.19868,  -0.45211
  -0.25051,  -0.20762,   0.93750,  -0.54097,   0.13668,  -0.29866,   0.81698,   0.02317,  -0.74155,  -0.43691
   0.24967,   0.06487,  -0.93750,   0.93750,   0.45940,  -0.93750,   0.86923,   0.82438,   0.93750,   0.80882
   0.93382,  -0.71185,   0.83480,   0.87020,  -0.93750,   0.18527,   0.05694,  -0.60499,   0.78771,   0.93750
  -0.74929,  -0.77528,   0.14446,   0.75409,  -0.54782,  -0.93750,  -0.89747,   0.84687,   0.31500,  -0.29991
   0.09600,   0.91107,  -0.28255,   0.88269,   0.00351,  -0.48085,   0.23382,   0.76572,  -0.81250,  -0.00489
  -0.24193,  -0.51770,  -0.63622,   0.18266,   0.92172,  -0.05255,   0.30809,   0.93750,  -0.21710,  -0.19294
  -0.51246,   0.54393,  -0.45460,  -0.75326,  -0.65488,   0.78888,   0.44780,   0.78999,   0.53430,   0.62542
  -0.93750,  -0.84409,   0.86376,  -0.93750,   0.31434,   0.58673,   0.93750,   0.87372,   0.93750,   0.93750
   0.82309,  -0.57498,  -0.44723,  -0.60856,  -0.19652,   0.07966,   0.00665,   0.14160,   0.15107,   0.86008
  -0.47317,   0.62846,  -0.93750,   0.93750,   0.39091,  -0.50614,  -0.30781,   0.41762,  -0.40296,   0.88014
  -0.64926,  -0.73862,   0.75665,  -0.76305,  -0.34593,   0.52379,  -0.68520,  -0.69248,   0.89692,  -0.65134
   0.24225,   0.11221,   0.67116,   0.05240,  -0.50135,   0.05283,   0.59888,   0.62332,  -0.44574,   0.53104
  -0.30203,   0.63830,  -0.26627,  -0.84877,   0.38274,  -0.02801,   0.21247,  -0.58139,   0.91337,  -0.43791
   0.32628,   0.93750,   0.03747,  -0.93750,  -0.51910,  -0.43221,   0.34497,  -0.93750,   0.93750,   0.93750
   0.18301,   0.64178,  -0.15841,  -0.06951,   0.25527,  -0.80866,  -0.62082,   0.93750,  -0.87575,  -0.73962
  -0.18714,  -0.15400,  -0.33033,  -0.72286,   0.37684,  -0.19272,   0.93750,  -0.67017,  -0.41320,  -0.33083
  -0.37002,   0.93750,   0.21005,  -0.37708,   0.33008,   0.87024,  -0.14257,  -0.93341,   0.45914,   0.87888
  -0.04376,   0.81155,   0.62158,  -0.85957,  -0.50055,  -0.07009,  -0.36657,  -0.68583,   0.75489,   0.45469
   0.19552,   0.25341,   0.85847,  -0.51121,   0.15444,   0.83247,   0.29604,   0.34170,  -0.46464,   0.03593
  -0.50643,   0.10035,  -0.27509,   0.93750,   0.10635,  -0.72290,  -0.89081,  -0.25289,  -0.09722,  -0.40900
   0.36945,   0.09105,  -0.49842,  -0.53450,  -0.36356,   0.92626,  -0.62931,  -0.31059,   0.72866,   0.33093
  -0.81271,   0.88726,  -0.46608,   0.93750,  -0.81356,   0.12233,   0.76129,   0.57814,   0.46127,  -0.50377
   0.79500,   0.64774,  -0.32155,  -0.14182,  -0.73963,   0.47520,   0.86470,   0.88002,   0.93750,   0.13492
   0.10551,  -0.93750,   0.43476,  -0.29119,  -0.17792,   0.23707,   0.55844,   0.72559,   0.18827,   0.64782
  -0.35624,   0.16381,   0.24538,   0.21943,   0.93750,  -0.38919,   0.09564,  -0.93684,   0.88552,   0.37705
   0.28950,  -0.88146,  -0.93750,   0.65473,  -0.69475,  -0.37380,   0.21939,   0.62723,  -0.08454,  -0.87015
   0.93750,   0.80650,  -0.15299,  -0.18274,   0.61042,  -0.59978,  -0.66917,  -0.27067,   0.93750,  -0.11149
   0.48350,  -0.59333,  -0.35398,  -0.35850,  -0.02845,   0.10872,   0.80673,   0.04193,  -0.14039,   0.52898
   0.93750,   0.12194,  -0.41580,  -0.53985,   0.58687,  -0.48615,   0.20796,  -0.25856,   0.29435,   0.09919
   0.17198,   0.80491,  -0.87824,  -0.74243,  -0.84719,  -0.64216,  -0.29215,   0.16754,  -0.44217,   0.93750
  -0.39284,  -0.75561,   0.37574,  -0.02630,  -0.08170,   0.15163,   0.17056,   0.38972,   0.93083,   0.62879
  -0.69551,   0.04037,  -0.02425,   0.92232,  -0.61625,   0.43798,   0.43841,   0.05082,   0.93750,   0.93750
   0.03524,   0.86923,  -0.39336,   0.65090,   0.06153,   0.14170,  -0.55302,   0.52289,   0.61655,  -0.63975
   0.28690,  -0.88087,  -0.51363,   0.93750,   0.93750,  -0.93750,   0.84384,   0.22511,   0.60095,  -0.93750
   0.93002,  -0.09762,   0.05286,  -0.32946,   0.93750,   0.75521,  -0.81728,   0.49462,   0.32151,   0.93750
  -0.77709,   0.08699,  -0.41662,   0.93750,   0.03168,  -0.93750,   0.79842,  -0.80799,  -0.71564,  -0.80605
   0.14844,  -0.62312,   0.13096,   0.12642,  -0.29323,  -0.69052,  -0.34489,   0.86927,   0.27030,   0.87272
  -0.61416,  -0.36929,  -0.75572,  -0.78569,   0.37769,   0.27469,  -0.54581,  -0.21933,   0.27749,   0.60937
  -0.00116,   0.88105,   0.32765,  -0.11621,   0.81873,  -0.93750,   0.74907,  -0.93750,   0.15040,   0.59180
  -0.51010,   0.81601,  -0.62611,   0.50843,  -0.59158,   0.68628,  -0.59014,  -0.75598,   0.84455,  -0.65407
  -0.13284,   0.16493,  -0.69871,   0.61194,   0.93750,  -0.36771,  -0.08427,  -0.13911,   0.17061,  -0.81119
  -0.81362,  -0.54336,  -0.11921,   0.10838,  -0.87105,   0.58451,  -0.40642,   0.85829,  -0.61653,  -0.93750
   0.60555,  -0.65152,  -0.75049,   0.54828,  -0.57525,   0.93750,  -0.68767,   0.13114,  -0.56116,  -0.02794
  -0.52832,   0.77839,  -0.02711,  -0.31295,  -0.47866,   0.36172,   0.87587,  -0.56885,   0.17108,   0.88259
   0.88439,  -0.43018,  -0.06953,  -0.16331,   0.11218,  -0.50839,   0.28374,   0.29519,   0.76398,  -0.52469
  -0.87974,   0.02273,   0.74896,   0.54125,  -0.87334,   0.93750,  -0.18525,  -0.87226,   0.05642,  -0.00663
  -0.14797,  -0.33274,   0.50566,  -0.41283,  -0.10732,  -0.22821,  -0.13415,   0.93232,  -0.34223,  -0.06713
   0.81246,   0.93750,  -0.93750,  -0.92223,  -0.77546,   0.63037,  -0.93750,  -0.32540,  -0.93750,   0.04413
   0.01525,  -0.69455,  -0.69377,  -0.20303,   0.93750,  -0.56005,  -0.79607,   0.93750,   0.87327,   0.62713
  -0.44400,   0.33771,  -0.67556,  -0.62553,   0.93750,   0.10267,   0.18258,  -0.87564,   0.48637,  -0.49072
   0.74407,  -0.26756,  -0.31817,  -0.02979,  -0.52856,  -0.64363,   0.47159,   0.93750,   0.07443,  -0.06492
  -0.81831,   0.55903,  -0.93750,  -0.60485,  -0.46675,  -0.20605,  -0.74285,   0.93750,  -0.74681,   0.93750
   0.76113,   0.65165,   0.87818,   0.87192,  -0.76322,   0.93750,   0.58231,  -0.71270,   0.32362,  -0.54604
  -0.62011,   0.93750,   0.77893,  -0.43942,  -0.67534,   0.67750,   0.30323,  -0.78832,  -0.49900,  -0.93750
  -0.54913,  -0.74031,   0.07655,   0.08358,   0.53096,   0.93750,   0.31528,   0.44832,  -0.38413,   0.31406
  -0.26405,  -0.57134,  -0.69900,  -0.15051,   0.81081,  -0.34537,  -0.55549,   0.78635,  -0.06569,  -0.25422
   0.38346,  -0.49637,   0.06553,   0.45709,  -0.69065,  -0.62566,  -0.40668,   0.52943,  -0.86971,  -0.34326
   0.24187,   0.93750,  -0.45663,   0.14149,   0.08591,   0.05894,   0.06008,   0.20144,  -0.51531,  -0.93750
  -0.51586,  -0.30617,   0.92403,  -0.41394,  -0.68599,  -0.15619,  -0.09690,   0.43675,   0.30824,   0.19067
  -0.29937,   0.87360,   0.79839,   0.66995,   0.07771,  -0.02038,   0.93750,  -0.40496,   0.26302,   0.93750
   0.75277,   0.71831,   0.81752,  -0.61068,  -0.68489,  -0.60009,   0.80091,  -0.80719,  -0.10056,  -0.32720
  -0.07353,   0.01042,  -0.53238,  -0.25760,   0.05708,   0.68088,  -0.05348,   0.13252,   0.22316,  -0.16093
   0.47277,  -0.55138,   0.82789,  -0.74830,   0.93750,  -0.93750,  -0.59923,   0.28006,  -0.28087,   0.86817
   0.92506,  -0.62935,  -0.19381,  -0.67827,   0.05472,  -0.78141,  -0.40623,   0.06967,  -0.67774,  -0.33651
   0.14504,   0.93750,   0.93750,  -0.27802,   0.79436,  -0.69034,  -0.87691,  -0.34543,  -0.93750,   0.01427
  -0.59854,  -0.21864,   0.27767,  -0.84624,   0.06335,   0.87415,  -0.89485,  -0.28423,   0.04592,   0.24262
   0.80990,  -0.75556,  -0.02275,  -0.72285,  -0.92710,  -0.57330,  -0.20097,  -0.22672,  -0.89144,   0.67811
   0.68934,  -0.80997,   0.70720,   0.74490,   0.80237,  -0.64680,  -0.67107,   0.87397,   0.60128,   0.93750
  -0.34258,   0.59486,   0.93750,   0.08528,   0.36769,   0.93750,  -0.87308,  -0.93750,   0.21772,  -0.80422
   0.75104,   0.75017,   0.19690,   0.03891,  -0.45082,  -0.53149,   0.87850,   0.81178,  -0.89255,  -0.37009
   0.81288,   0.76972,  -0.06243,  -0.93750,  -0.81663,  -0.22266,   0.57865,  -0.27284,   0.49074,   0.55955
   0.93750,   0.82110,  -0.01673,  -0.76138,  -0.79738,   0.69578,   0.87447,   0.79175,  -0.93750,  -0.00785
   0.93750,  -0.93750,   0.83473,   0.46161,   0.93750,   0.82729,  -0.93750,  -0.56962,   0.33050,  -0.39203
  -0.39786,   0.23709,  -0.48332,   0.73284,  -0.79236,   0.66927,  -0.36961,   0.75363,   0.19075,  -0.50455
   0.27477,   0.26081,   0.58007,   0.66458,   0.70031,   0.34983,   0.22475,   0.19985,  -0.66855,   0.27320
   0.92622,   0.26560,  -0.62282,  -0.15727,  -0.80083,   0.42623,  -0.15635,   0.61997,  -0.40461,   0.60652
   0.73955,   0.93750,  -0.83919,   0.33001,   0.62523,  -0.49234,  -0.93750,  -0.22013,   0.28505,   0.73865
   0.53698,  -0.15545,  -0.87133,  -0.87749,  -0.33872,   0.93611,  -0.63812,   0.69286,   0.22053,  -0.48396
  -0.93750,  -0.51131,  -0.86278,   0.34561,   0.39934,   0.91566,   0.08795,  -0.17171,  -0.34084,   0.21331
   0.29553,   0.25067,   0.67392,   0.06508,  -0.19622,  -0.00973,  -0.79746,   0.36073,  -0.10618,  -0.49623
   0.70096,  -0.82232,   0.52259,   0.32220,   0.88737,  -0.37992,  -0.87714,  -0.43923,  -0.27687,   0.24297
  -0.46910,  -0.93151,   0.93750,   0.10931,  -0.75831,  -0.74172,  -0.35120,  -0.43963,   0.19923,  -0.75111
   0.93750,  -0.72745,  -0.35173,  -0.68337,   0.93750,  -0.87411,   0.93750,   0.93750,  -0.93750,  -0.72031
   0.68487,   0.75465,   0.86417,  -0.27429,  -0.20582,   0.02174,  -0.22405,   0.04214,  -0.59803,  -0.03688
  -0.38919,   0.93750,  -0.22124,   0.51084,  -0.62516,  -0.87439,   0.93750,  -0.83973,  -0.91789,  -0.43706
   0.87567,   0.06857,   0.04897,  -0.28955,  -0.75064,  -0.12711,   0.00295,  -0.67251,   0.20582,   0.40375
  -0.63530,  -0.60342,   0.52502,   0.65461,  -0.26058,   0.40987,  -0.64056,   0.82406,  -0.39945,  -0.55006
   0.87164,  -0.78481,  -0.87862,   0.34465,   0.80403,  -0.72879,  -0.66497,   0.63312,   0.31969,   0.75539
   0.20901,   0.65922,   0.18204,  -0.39473,   0.40618,   0.50212,   0.83144,   0.22868,   0.65426,  -0.54434
  -0.23022,   0.46241,  -0.56007,  -0.45061,   0.86497,  -0.05479,  -0.22334,   0.93750,   0.03391,  -0.09288
  -0.12876,   0.91673,  -0.68267,   0.50525,   0.45925,  -0.46549,  -0.33983,  -0.12293,   0.00664,  -0.08417
   0.77114,  -0.37141,   0.93750,  -0.20330,   0.41993,   0.29140,  -0.33437,  -0.69173,   0.37030,  -0.93060
   0.93750,   0.52112,   0.45711,   0.86613,  -0.47963,  -0.32787,  -0.23051,  -0.93750,   0.72378,   0.09698
  -0.88331,  -0.10115,  -0.12277,   0.14111,   0.93750,   0.77428,  -0.27219,   0.12910,   0.25966,   0.32306
   0.93750,  -0.03048,   0.31498,  -0.87716,  -0.93750,   0.44516,  -0.93750,   0.17044,   0.59096,  -0.93307
  -0.52094,   0.31475,  -0.60575,  -0.61910,  -0.12373,   0.93750,  -0.10686,  -0.11039,  -0.75304,  -0.28128
   0.42733,   0.15970,   0.11906,  -0.29352,   0.78035,  -0.59662,  -0.83457,   0.32771,  -0.07254,  -0.04948
  -0.30667,  -0.13925,   0.93750,  -0.58143,  -0.15421,  -0.38641,  -0.19302,  -0.59345,  -0.58329,   0.05637
   0.42994,   0.65482,  -0.56288,   0.16408,  -0.63915,   0.71267,  -0.01306,  -0.50423,   0.70673,  -0.32553
   0.21562,   0.66748,  -0.06572,  -0.35154,  -0.47751,  -0.15686,   0.86884,   0.50084,   0.19032,  -0.50692
   0.81985,   0.02542,  -0.25971,  -0.12487,   0.29662,   0.31348,   0.04629,  -0.34843,  -0.31238,  -0.90475
   0.82195,  -0.59993,  -0.64552,   0.14492,  -0.93750,  -0.25414,   0.73605,   0.93750,  -0.28756,   0.07840
  -0.74335,   0.44021,   0.34457,  -0.61654,  -0.24585,   0.85723,  -0.09105,   0.57116,  -0.37200,  -0.40110
   0.74443,  -0.28254,  -0.67406,  -0.22341,   0.00189,  -0.80709,   0.80303,  -0.87301,   0.70093,   0.33487
   0.80562,  -0.62138,   0.03204,  -0.81211,   0.25214,   0.88787,  -0.31737,  -0.80969,  -0.68006,  -0.49378
   0.86842,  -0.22868,   0.93750,   0.09192,  -0.93709,   0.26527,   0.93750,  -0.93750,   0.93750,  -0.59427
   0.22177,   0.86643,  -0.00086,  -0.75074,   0.40078,   0.06187,   0.11802,   0.56648,  -0.01824,  -0.47695
  -0.00297,   0.02735,  -0.27117,   0.80671,  -0.43172,  -0.53897,  -0.58408,  -0.32534,  -0.39293,  -0.49792
   0.41136,  -0.86004,  -0.26054,   0.08852,   0.18143,  -0.00737,  -0.05055,  -0.04276,  -0.31761,   0.27718
  -0.21702,  -0.87186,   0.37428,  -0.16079,  -0.34209,   0.29764,  -0.63006,   0.02338,   0.93569,  -0.21960
  -0.75829,  -0.08673,  -0.51201,  -0.01999,  -0.31895,  -0.10325,  -0.64854,  -0.52200,   0.93750,  -0.79340
   0.44346,   0.36411,  -0.69808,   0.13039,  -0.00720,  -0.24615,   0.93750,  -0.19850,   0.31742,   0.42737
   0.04719,   0.93750,  -0.82464,  -0.05473,  -0.63117,  -0.46338,  -0.41211,   0.20037,  -0.42939,  -0.75652
  -0.67145,   0.83096,  -0.80176,  -0.51097,  -0.93750,  -0.42256,   0.56403,   0.25565,   0.25351,  -0.48993
   0.65220,   0.38372,  -0.61697,   0.80866,   0.51875,  -0.86756,  -0.12390,   0.18889,   0.75168,  -0.55593
  -0.73280,  -0.29169,  -0.74793,  -0.40742,   0.93750,  -0.41589,   0.67762,   0.54151,  -0.93750,   0.80744
   0.29776,  -0.88513,   0.49581,   0.30028,  -0.64259,   0.93750,  -0.33773,  -0.81247,  -0.48220,  -0.93750
  -0.26988,   0.48850,   0.56805,  -0.47618,   0.60305,   0.34470,   0.01146,  -0.22431,   0.80105,   0.29789
  -0.56711,  -0.04660,  -0.93217,   0.18672,  -0.22438,   0.64860,   0.38270,  -0.93750,   0.33153,   0.03801
  -0.08872,  -0.40097,  -0.80014,  -0.39363,   0.87451,  -0.70648,  -0.51124,   0.73042,   0.40563,  -0.38405
  -0.72067,   0.39102,   0.92903,   0.02751,   0.75849,   0.42349,   0.29296,  -0.13367,  -0.72273,  -0.66695
   0.48231,  -0.06111,  -0.60823,   0.87414,  -0.48218,   0.34135,   0.93750,  -0.61461,   0.52434,   0.47436
   0.62039,   0.29524,  -0.65427,   0.41082,   0.93750,   0.41440,  -0.43859,  -0.68327,  -0.04131,   0.14180
   0.05376,   0.19383,  -0.08274,   0.80670,   0.06788,  -0.09760,   0.87567,   0.07180,  -0.42726,  -0.44656
  -0.69431,   0.44560,   0.74871,  -0.11965,   0.93750,  -0.93750,  -0.86433,  -0.72107,   0.86873,   0.70639
  -0.86187,  -0.30796,   0.53034,   0.93489,  -0.31504,   0.62830,   0.75103,   0.82176,  -0.18156,  -0.04366
  -0.38287,  -0.63792,   0.81906,  -0.87736,   0.13748,  -0.64009,  -0.62182,   0.86839,  -0.83209,   0.59133
   0.93750,   0.56908,  -0.93750,   0.93750,   0.93750,   0.12545,  -0.93750,  -0.92660,  -0.80313,   0.93750
  -0.34113,  -0.67289,   0.21219,   0.86577,  -0.56746,   0.00516,  -0.13950,   0.86685,   0.71991,  -0.14285
   0.30267,   0.32006,  -0.78879,  -0.51975,  -0.53705,   0.93750,   0.16705,  -0.65405,   0.06982,   0.35095
  -0.76425,  -0.52601,  -0.48481,  -0.27877,   0.88778,   0.31435,   0.31346,  -0.65236,   0.28661,  -0.04651
   0.24415,   0.91862,  -0.68764,   0.03527,   0.19422,  -0.14518,   0.27898,  -0.01412,  -0.36028,  -0.60364
   0.30044,   0.17146,  -0.18525,  -0.40327,  -0.41018,   0.74368,   0.03470,   0.93750,   0.70111,   0.11518
   0.72815,  -0.39282,   0.02661,  -0.40467,  -0.72186,   0.37837,  -0.02996,   0.91563,   0.71234,  -0.06117
  -0.12414,   0.22013,   0.93720,  -0.36565,   0.21546,  -0.45778,  -0.13058,  -0.49354,  -0.03778,   0.24288
  -0.93750,  -0.93750,  -0.93750,   0.93750,   0.87357,  -0.16440,  -0.61777,  -0.86546,   0.23746,   0.93750
  -0.91254,  -0.46394,  -0.40872,  -0.09879,   0.93750,   0.37781,  -0.75566,  -0.09503,  -0.00432,  -0.46539
   0.81080,   0.59345,   0.50867,  -0.22734,   0.44187,   0.25040,   0.48178,  -0.50579,  -0.40550,  -0.71866
   0.93750,   0.23932,   0.74250,  -0.93750,   0.93750,   0.47303,   0.93750,   0.24809,   0.60475,   0.93750
  -0.21344,   0.39461,  -0.23953,  -0.57110,  -0.57367,   0.93750,   0.49040,   0.93672,  -0.53717,  -0.48874
  -0.87250,   0.14730,  -0.93750,  -0.93750,   0.93750,  -0.87874,  -0.26122,   0.86560,   0.24711,   0.53743
  -0.24234,  -0.41799,   0.45960,  -0.56238,  -0.46085,   0.87973,  -0.42755,  -0.35956,  -0.58637,   0.34481
  -0.24062,   0.05656,   0.88140,  -0.82060,  -0.68232,   0.12764,  -0.43360,  -0.66684,   0.75087,   0.69127
  -0.45760,   0.28347,   0.81690,  -0.13993,   0.74157,  -0.18151,   0.67990,  -0.43141,  -0.18713,  -0.48242
   0.10313,   0.87427,  -0.51430,  -0.14213,   0.86982,  -0.93750,  -0.75463,  -0.93750,  -0.71577,   0.93750
  -0.78473,  -0.59703,   0.12039,   0.28542,   0.47954,   0.67494,   0.41374,   0.16049,   0.93750,  -0.24095
  -0.20909,   0.93750,  -0.43413,  -0.34447,  -0.49787,  -0.03887,  -0.03489,  -0.43162,  -0.53914,  -0.66243
   0.93750,  -0.50115,   0.87786,   0.19837,  -0.93750,  -0.27832,  -0.69856,  -0.00375,  -0.69549,  -0.93750
  -0.48602,  -0.08435,  -0.11217,  -0.71089,  -0.11957,  -0.63922,  -0.03377,   0.93750,   0.13322,  -0.30410
  -0.90041,   0.67574,   0.00403,  -0.87410,   0.08305,   0.62427,   0.93750,  -0.47323,   0.93750,  -0.93750
  -0.17632,  -0.45194,  -0.13853,   0.82167,   0.46148,  -0.91814,   0.17171,  -0.41431,   0.47501,  -0.06215
  -0.02937,  -0.88752,   0.87702,  -0.78495,  -0.73528,  -0.49147,   0.81250,  -0.69097,  -0.72274,   0.52352
  -0.35745,  -0.51594,   0.93750,  -0.81994,  -0.74728,   0.27372,  -0.46007,   0.93750,  -0.64141,   0.69034
  -0.78668,   0.17238,  -0.12150,   0.34685,  -0.69741,   0.32937,   0.93600,   0.11625,  -0.27212,  -0.09671
  -0.27862,  -0.10359,   0.83165,  -0.52204,  -0.02952,   0.93456,  -0.16804,   0.69055,   0.04782,   0.49280
   0.24366,   0.72454,   0.25880,   0.86612,   0.05440,  -0.08959,   0.93750,  -0.27090,   0.69524,  -0.33778
  -0.58479,  -0.88805,  -0.79672,   0.03803,  -0.18523,  -0.23654,   0.93750,   0.46189,  -0.38166,  -0.59523
  -0.16657,  -0.11145,  -0.48907,  -0.81429,   0.87452,   0.93750,  -0.93415,  -0.72327,  -0.36236,  -0.15089
   0.07952,  -0.25569,   0.92284,   0.45451,  -0.80818,  -0.43000,   0.81284,   0.17178,  -0.27130,   0.10262
  -0.40497,   0.11070,  -0.36483,  -0.93750,   0.92888,  -0.16890,  -0.24070,  -0.16347,   0.03897,   0.38889
   0.60243,  -0.30056,  -0.30858,  -0.62360,  -0.04294,   0.75413,   0.34496,   0.47789,   0.23500,   0.43288
   0.07867,  -0.00824,  -0.69184,   0.25674,   0.48813,   0.93562,  -0.27947,   0.36262,  -0.24814,  -0.17885
  -0.21095,  -0.88239,  -0.93750,  -0.93750,  -0.93750,   0.93750,   0.74323,  -0.93750,   0.30690,  -0.77508
  -0.18987,  -0.15453,   0.86579,  -0.28303,  -0.08248,   0.76943,   0.02581,  -0.33091,   0.15018,  -0.00611
   0.80982,  -0.09361,  -0.93750,  -0.78916,   0.10660,  -0.12351,  -0.93750,   0.93750,   0.80767,   0.81733
  -0.43209,  -0.28479,  -0.39328,  -0.55451,  -0.68694,   0.16389,  -0.46738,   0.76613,  -0.33680,   0.63318
   0.63162,  -0.72445,   0.88200,  -0.79780,  -0.17799,  -0.64756,  -0.11580,   0.93750,  -0.18784,   0.36080
   0.50016,   0.12234,  -0.30427,  -0.15940,   0.86758,   0.64526,  -0.53533,  -0.58125,   0.08587,   0.32873
   0.11412,   0.87610,   0.85793,   0.64263,  -0.02813,   0.34714,  -0.34576,  -0.22197,  -0.08074,  -0.13640
   0.93750,   0.11268,  -0.57000,   0.61435,  -0.81201,   0.08246,  -0.77281,   0.33437,  -0.10053,   0.36469
   0.21207,   0.93750,  -0.57884,   0.44383,  -0.93750,   0.93750,   0.91089,  -0.88212,   0.37451,   0.85016
  -0.18987,   0.93383,  -0.03042,  -0.09415,   0.16363,  -0.85550,  -0.36991,   0.70395,  -0.71719,  -0.20233
  -0.40258,   0.15097,  -0.53566,   0.93750,   0.02080,  -0.93750,   0.93750,   0.93750,   0.48841,  -0.93750
  -0.67478,  -0.49395,  -0.32728,   0.49207,  -0.60173,   0.86984,   0.80959,   0.93750,  -0.36971,   0.24086
  -0.51769,   0.10149,  -0.48366,   0.93750,  -0.13921,  -0.54676,  -0.81759,   0.38481,   0.80425,   0.00915
   0.35589,  -0.74409,   0.81332,  -0.20481,   0.87208,  -0.75888,   0.93750,  -0.86748,  -0.49745,   0.87362
   0.15526,   0.12505,  -0.93750,  -0.80559,   0.10075,   0.38595,  -0.87670,   0.41170,  -0.50704,   0.39429
  -0.42876,   0.93750,  -0.31528,  -0.56043,   0.93750,   0.31204,  -0.69248,  -0.68077,  -0.93750,  -0.80685
   0.93750,   0.27554,  -0.81899,  -0.87792,   0.93750,  -0.79943,   0.81706,   0.36220,  -0.55672,  -0.88163
   0.64033,  -0.24421,  -0.80278,   0.93750,   0.49901,   0.56395,  -0.03530,  -0.48052,  -0.48872,  -0.48733
   0.93750,  -0.56975,  -0.13687,   0.14433,  -0.28058,   0.19348,   0.16667,  -0.27067,  -0.79145,  -0.93750
   0.13470,  -0.71773,  -0.47734,  -0.64016,  -0.10634,   0.41830,  -0.62875,  -0.46031,  -0.44206,   0.83129
  -0.80842,  -0.47790,   0.64409,   0.81009,  -0.25601,   0.33992,   0.63723,   0.30134,  -0.00528,   0.93750
  -0.18193,   0.54338,  -0.01015,   0.63061,  -0.14057,  -0.20734,  -0.52778,   0.52963,   0.16313,   0.52358
   0.39696,  -0.81205,  -0.81849,   0.81771,   0.25328,   0.93750,  -0.68501,  -0.37955,  -0.66962,   0.55812
   0.56357,  -0.93750,   0.93750,  -0.93750,   0.04784,  -0.87441,   0.80927,   0.82829,   0.85802,  -0.93750
   0.64640,  -0.49917,   0.74777,  -0.68810,  -0.20882,  -0.67509,   0.87608,  -0.36089,   0.02602,  -0.81140
   0.00370,  -0.44861,  -0.56738,   0.93750,  -0.67630,   0.24811,   0.00369,  -0.23918,  -0.27819,   0.80437
  -0.43877,  -0.57633,   0.38134,   0.86290,  -0.69138,  -0.20374,  -0.13041,   0.93750,   0.06381,  -0.62136
  -0.16364,   0.33439,  -0.17428,  -0.53101,   0.75378,  -0.75462,   0.44794,   0.57497,   0.08920,   0.35400
  -0.78582,   0.93306,  -0.32253,  -0.52557,   0.88086,  -0.19662,  -0.59589,   0.14493,  -0.18803,   0.93750
  -0.38048,  -0.86279,   0.58275,   0.00745,   0.27893,  -0.10922,   0.93750,   0.22469,  -0.31738,  -0.14595
  -0.37410,   0.32831,   0.93393,  -0.23711,  -0.74138,  -0.42213,   0.11863,  -0.15612,   0.43988,  -0.12197
   0.04790,   0.03165,  -0.40404,  -0.40494,  -0.52867,  -0.60201,   0.87598,  -0.33839,   0.16481,  -0.17009
   0.53905,  -0.16961,   0.21700,  -0.93750,  -0.66906,   0.93750,  -0.63670,  -0.77908,   0.93750,   0.18526
   0.38372,  -0.49665,  -0.93750,  -0.85196,  -0.02103,   0.84237,   0.93750,  -0.68472,  -0.93750,  -0.70096
   0.27779,   0.43425,  -0.13820,   0.60023,  -0.70952,  -0.31036,  -0.66131,   0.06668,  -0.04160,   0.70135
  -0.00647,   0.40365,  -0.53836,   0.35968,   0.92989,  -0.08977,  -0.29751,  -0.08111,   0.29717,   0.13646
   0.28132,  -0.93750,  -0.23126,  -0.53831,   0.93750,   0.93750,  -0.01087,  -0.58351,   0.76968,   0.62191
   0.93201,  -0.76603,  -0.66122,  -0.51242,  -0.19934,   0.66735,   0.12754,  -0.47327,   0.93750,  -0.57890
   0.07261,   0.82072,  -0.12179,  -0.56941,  -0.44173,   0.62261,  -0.21501,  -0.15001,   0.75833,   0.33600
   0.58560,  -0.77703,  -0.93750,  -0.92355,   0.93750,   0.75270,  -0.93750,  -0.27886,  -0.39935,   0.87729
   0.88686,   0.30289,  -0.80566,   0.38666,  -0.34587,   0.29736,   0.68398,   0.13689,  -0.75655,  -0.64135
   0.93750,   0.82075,  -0.21617,   0.93594,  -0.87535,  -0.21174,  -0.03247,   0.68125,  -0.93750,   0.81694
   0.79991,  -0.79950,   0.81892,  -0.27247,  -0.13926,   0.18111,  -0.86649,   0.43302,   0.93750,  -0.82352
  -0.21449,  -0.24927,   0.13767,  -0.31745,  -0.14171,   0.69285,  -0.63892,  -0.65264,  -0.21504,  -0.00408
   0.68744,   0.06612,   0.63776,  -0.21886,   0.30662,  -0.44238,   0.62021,   0.59430,   0.73792,   0.22184
  -0.02973,   0.19966,   0.93750,  -0.16258,   0.56598,  -0.87784,  -0.77248,   0.17869,  -0.11918,  -0.00503
  -0.05571,   0.71930,  -0.53560,   0.56049,   0.27410,  -0.54300,  -0.91931,   0.55670,  -0.42047,   0.74275
   0.10028,   0.41928,   0.00947,   0.05172,  -0.02967,   0.87698,  -0.64930,   0.00045,   0.01778,   0.64412
   0.56515,   0.13111,   0.82913,   0.12109,   0.61102,   0.04469,  -0.30092,   0.81342,  -0.43340,  -0.86692
  -0.73010,   0.48300,  -0.82058,   0.02243,   0.93750,   0.77800,  -0.93750,  -0.87113,  -0.88326,   0.93750
  -0.93750,   0.00165,  -0.06536,  -0.58709,  -0.93750,  -0.10558,  -0.93750,   0.22214,  -0.93750,  -0.69327
   0.01324,  -0.05710,   0.93273,   0.17848,  -0.33472,  -0.87255,   0.22380,  -0.37304,   0.08815,  -0.44878
  -0.83401,  -0.67541,   0.72161,   0.58919,   0.50916,   0.54540,   0.56512,  -0.20490,  -0.57223,   0.40412
   0.08846,  -0.62717,   0.31816,   0.23922,   0.14722,   0.31471,   0.18846,  -0.81723,   0.30727,  -0.74060
  -0.38848,  -0.53968,  -0.32880,  -0.38269,  -0.49246,   0.69268,  -0.09392,   0.02749,  -0.18701,   0.13354
   0.44219,  -0.46585,  -0.08039,   0.93750,  -0.03608,  -0.90776,  -0.64479,   0.07761,  -0.35714,  -0.08928
  -0.80564,   0.17838,  -0.17806,   0.21491,  -0.87729,  -0.61398,   0.26993,   0.93498,   0.31189,  -0.34553
  -0.36215,  -0.08321,   0.92279,  -0.47961,   0.53416,  -0.51136,  -0.53405,  -0.12778,  -0.14044,   0.17264
  -0.73564,  -0.00987,   0.84410,  -0.18688,   0.92891,  -0.60621,  -0.24449,  -0.06345,   0.12929,   0.54382
   0.51860,  -0.48366,  -0.01009,   0.88223,   0.69686,   0.92888,  -0.22904,  -0.60678,  -0.08679,  -0.50084
  -0.56309,   0.86669,   0.33258,  -0.18659,   0.42285,  -0.80886,  -0.64412,  -0.66427,  -0.40210,  -0.60208
   0.54976,   0.46700,   0.48949,   0.93750,  -0.82717,  -0.08674,  -0.56152,   0.13410,  -0.02807,  -0.09521
  -0.29410,  -0.93750,  -0.10403,  -0.00132,  -0.52435,   0.56097,  -0.93750,   0.85294,   0.49515,  -0.13031
  -0.36061,  -0.33872,  -0.49794,   0.87386,  -0.53164,  -0.18581,  -0.45586,  -0.63580,  -0.70669,   0.93750
  -0.93284,   0.40339,  -0.93750,  -0.68220,  -0.93750,   0.93750,   0.24240,  -0.35003,   0.87811,  -0.41994
  -0.82955,  -0.46269,  -0.93750,   0.10701,   0.93750,   0.24385,   0.09815,  -0.87158,  -0.39104,  -0.42909
  -0.74131,  -0.35749,  -0.11571,   0.40331,   0.53722,   0.25473,   0.04792,  -0.58080,   0.93750,  -0.37915
   0.54079,   0.93391,   0.53691,   0.38747,  -0.57074,   0.93550,   0.35273,  -0.24058,  -0.22989,  -0.03084
   0.93750,  -0.57990,  -0.49035,   0.52919,  -0.82206,  -0.20088,  -0.14176,  -0.04777,  -0.54796,   0.03528
