  -0.40166,  -0.36868,  -0.39033,  -0.56857,   0.17458,   0.23587,  -0.10873,   0.55709,  -0.51474,  -0.44362,   0.12038,   0.43044,  -0.49506,  -0.07128,   0.92454,  -0.44522,   0.71861,  -0.22832,  -0.42247,  -0.40463,   0.42768,   0.74615,   0.39341,   0.00481,  -0.06693,  -0.24623,  -0.27891,   0.26498,  -0.22556,  -0.84194,   0.10531,   0.76163,  -0.41170,   0.03164,  -0.31448,   0.09731,   0.04295,  -0.18543,  -0.33135,   0.52335,  -0.55714,  -0.38757,  -0.36434,  -0.54595,  -0.09809,   0.71697,   0.35568,   0.60912,  -0.40732,   0.09839,   0.55965,  -0.42364,   0.10685,  -0.35590,  -0.46372,  -0.22648,  -0.47548,  -0.47233,   0.06037,   0.01696,   0.51380,   0.66400,  -0.37536,   0.46568,  -0.61564,   0.03731,   0.11661,   0.30077,  -0.15571,   0.05094,   0.45621,  -0.30566,  -0.31718,  -0.14777,   0.73411,  -0.26890,   0.08894,  -0.05464,  -0.37418,   0.03225,   0.48609,   0.23596,   0.40954,  -0.64733,  -0.29241,   0.01026,   0.44158,   0.13652,   0.80926,  -0.00171,   0.75482,  -0.10893,  -0.36207,   0.60818,  -0.47598,   0.55758,  -0.31667,   0.00050,  -0.14065,   0.18272,   0.60444,   0.27910,  -0.41212,  -0.17915,   0.27724,  -0.63621,  -0.30377,  -0.26369,   0.53658,  -0.47859,   0.76644,  -0.66053,  -0.10727,  -0.44832,  -0.35896,  -0.20460,   0.78282,   0.29587,  -0.50122,  -0.50855,   0.52983,   0.82825,  -0.23223,  -0.59414,  -0.21402,   0.67046,  -0.45889,  -0.26381
   0.45392,  -0.46970,   0.69461,   0.76307,   0.19482,   0.77535,  -0.33462,  -0.62819,   0.17048,  -0.35539,   0.80992,   0.39206,  -0.09164,  -0.50159,  -0.35060,  -0.39715,   0.42136,  -0.07126,  -0.91325,   0.29729,   0.11183,   0.65933,   0.16931,   0.04948,   0.66248,   0.77897,  -0.21918,  -0.54456,  -0.32326,   0.47018,   0.39533,   0.47819,  -0.53268,  -0.32040,  -0.88867,   0.85528,   0.06172,  -0.27090,   0.84219,   0.19278,  -0.20672,  -0.10866,  -0.19520,   0.44293,  -0.05686,  -0.55004,   0.61218,  -0.39858,  -0.33388,   0.83756,   0.34364,  -0.25528,  -0.42175,   0.41181,  -0.20585,   0.43034,   0.08771,   0.60885,   0.40168,  -0.35097,   0.58482,  -0.05843,  -0.24849,   0.09241,  -0.50431,  -0.47365,   0.86400,   0.69948,  -0.71249,   0.27674,  -0.41846,  -0.13283,   0.18469,  -0.45991,  -0.80006,  -0.00820,   0.24246,  -0.69261,   0.93750,  -0.53422,  -0.28133,   0.82853,  -0.01780,  -0.39348,  -0.43138,  -0.22320,   0.40191,   0.84968,  -0.42007,  -0.42514,   0.89344,   0.58042,  -0.16737,   0.69586,  -0.37587,   0.76024,  -0.29078,   0.80276,  -0.47348,   0.63903,  -0.59124,  -0.12117,   0.29208,  -0.06664,  -0.51504,  -0.36662,  -0.50774,   0.05087,   0.02355,   0.42792,   0.75024,  -0.36794,  -0.07410,  -0.68210,   0.11599,  -0.18940,   0.38680,   0.59758,   0.58342,   0.79474,  -0.47084,  -0.42898,  -0.21199,  -0.47835,   0.01673,   0.16305,  -0.20700,   0.58076
  -0.39346,  -0.16117,   0.60178,  -0.07803,  -0.18354,  -0.28171,  -0.29301,  -0.17212,  -0.33983,  -0.00589,   0.52678,   0.80651,   0.00396,  -0.04127,  -0.49843,  -0.52357,   0.33149,  -0.14739,  -0.32799,  -0.37990,   0.37969,  -0.04902,  -0.53179,   0.20097,  -0.37548,   0.91766,  -0.61677,   0.53119,  -0.53619,   0.20787,   0.62010,   0.73470,  -0.43646,  -0.49609,   0.60943,   0.68873,  -0.08799,   0.74455,  -0.24928,   0.33160,  -0.25153,  -0.02302,   0.48752,   0.29331,  -0.40053,   0.31255,   0.46932,  -0.25515,   0.81306,   0.35717,   0.12553,   0.51886,   0.13853,  -0.49549,  -0.47356,  -0.37436,  -0.12544,  -0.16371,  -0.68049,   0.54200,   0.18392,   0.43822,   0.03597,  -0.09141,   0.26240,  -0.16180,  -0.15261,   0.06373,  -0.16091,   0.18467,   0.57436,   0.76980,  -0.51484,  -0.39336,   0.84090,   0.87536,  -0.49292,  -0.18117,   0.16416,  -0.21248,  -0.10073,  -0.36304,  -0.03288,  -0.30398,  -0.36130,  -0.47827,  -0.27401,   0.12698,   0.13153,   0.39084,   0.25683,  -0.22190,  -0.04385,  -0.32048,  -0.25244,  -0.15551,  -0.33494,   0.79486,  -0.45233,   0.50944,   0.65570,   0.49181,  -0.64176,  -0.13576,   0.22195,  -0.34976,  -0.19726,  -0.52762,  -0.08249,  -0.65704,   0.34812,  -0.41206,  -0.52212,  -0.49441,   0.46662,  -0.31605,   0.73299,   0.40468,   0.10488,   0.13143,   0.52287,  -0.66440,   0.36257,   0.11513,  -0.41061,   0.60801,  -0.66897,  -0.15391
  -0.64610,  -0.40057,  -0.84414,   0.87434,  -0.58059,  -0.29419,   0.93750,  -0.13070,  -0.63354,  -0.35151,  -0.28191,   0.13803,  -0.70398,   0.49314,   0.80784,   0.27725,  -0.16757,  -0.47117,   0.49691,  -0.38873,   0.47385,  -0.25199,  -0.20741,   0.37491,   0.37301,  -0.55602,  -0.16610,   0.64928,  -0.48580,  -0.16428,   0.01304,  -0.70313,  -0.38951,   0.62687,   0.15322,  -0.49937,  -0.06873,  -0.34404,  -0.64211,  -0.06455,  -0.41478,  -0.34674,  -0.43653,  -0.00363,  -0.57850,   0.86602,   0.08667,   0.89555,  -0.15760,   0.02503,  -0.20808,  -0.21841,   0.93750,  -0.24299,   0.01356,   0.17624,  -0.44820,   0.18888,   0.02531,   0.55313,  -0.50874,   0.25926,  -0.70976,   0.42533,  -0.56754,   0.29792,  -0.36213,  -0.00268,  -0.03503,   0.03022,  -0.38023,   0.17570,  -0.25985,  -0.17609,   0.67435,   0.93676,   0.36712,  -0.16378,  -0.54735,   0.22647,   0.72052,  -0.31644,   0.52473,  -0.72878,   0.36457,   0.81869,   0.93526,   0.00648,   0.77102,  -0.35648,  -0.07005,  -0.46406,   0.06355,  -0.36305,  -0.22182,   0.50614,  -0.37908,  -0.26409,  -0.45390,   0.78726,   0.93750,  -0.36411,  -0.11427,  -0.08548,   0.19981,   0.45288,   0.07519,  -0.44311,  -0.14516,  -0.62888,  -0.27518,   0.88335,  -0.24526,  -0.11253,  -0.67523,  -0.52037,   0.22993,  -0.21604,  -0.48908,  -0.43477,   0.83044,   0.86779,   0.40463,   0.53976,  -0.59340,  -0.35817,   0.75952,  -0.20647
  -0.36548,   0.68663,   0.33615,   0.03184,  -0.59030,  -0.48860,   0.72786,  -0.80022,   0.16441,  -0.71936,   0.65850,   0.42392,   0.04822,  -0.65085,  -0.37160,  -0.07994,  -0.18641,  -0.08632,  -0.48643,   0.72192,   0.08090,  -0.46146,  -0.50434,   0.05131,   0.04585,  -0.50281,  -0.13788,  -0.17804,   0.51248,   0.65344,   0.39027,  -0.38573,  -0.36922,   0.12125,   0.53913,  -0.31620,  -0.25709,  -0.53051,  -0.33602,  -0.49454,   0.71529,  -0.16990,  -0.66635,   0.45744,  -0.09590,  -0.24606,   0.75764,  -0.63047,  -0.54040,   0.80174,  -0.59725,   0.76699,  -0.56863,   0.93750,  -0.06065,   0.12773,   0.82021,   0.82715,  -0.16827,  -0.64865,  -0.19933,  -0.55775,   0.32205,   0.70509,  -0.46626,   0.01782,   0.05949,   0.02329,  -0.55444,   0.84674,  -0.77442,  -0.56813,  -0.19283,  -0.30981,  -0.51254,  -0.63654,   0.79492,  -0.67584,   0.87568,  -0.48300,  -0.83095,   0.22858,  -0.00923,  -0.20044,  -0.03058,  -0.61129,  -0.07241,  -0.22670,  -0.31642,  -0.28303,  -0.39013,   0.75130,   0.47237,   0.05688,   0.44598,  -0.14807,   0.42450,   0.45443,  -0.51061,   0.13133,  -0.51730,  -0.43549,   0.37616,   0.78879,  -0.28555,  -0.52911,  -0.65167,  -0.37268,   0.08867,   0.83062,   0.03697,   0.33391,   0.03817,  -0.47187,  -0.39609,  -0.00802,  -0.60322,  -0.23884,  -0.53545,   0.37596,  -0.44276,  -0.28470,  -0.12930,  -0.52511,  -0.05339,  -0.66333,   0.69843,   0.46439
  -0.30668,  -0.22180,   0.75741,  -0.04230,  -0.72166,  -0.43900,   0.63734,   0.33756,   0.51424,  -0.14583,  -0.27841,  -0.13676,  -0.14063,  -0.20188,  -0.43869,  -0.16510,   0.46178,  -0.25650,  -0.05907,   0.32215,   0.78207,   0.02268,  -0.21537,   0.68579,  -0.69847,  -0.51549,  -0.57776,   0.37530,  -0.60488,  -0.48354,   0.56779,   0.22128,  -0.20234,  -0.16637,   0.07340,   0.49399,   0.87982,   0.71846,  -0.49866,  -0.54479,  -0.54944,   0.82558,  -0.66505,   0.79872,  -0.24273,   0.38176,  -0.27322,  -0.65451,   0.90690,   0.07583,  -0.55478,  -0.12887,  -0.23137,   0.42257,  -0.21359,  -0.40087,   0.70722,  -0.56262,  -0.12243,  -0.46063,  -0.27977,   0.81096,   0.73932,  -0.23046,   0.29241,   0.75584,  -0.04102,   0.35797,  -0.60511,  -0.01898,   0.69650,   0.69722,   0.21868,  -0.57344,  -0.49670,  -0.23970,  -0.27265,   0.35100,   0.81413,   0.05028,  -0.16201,  -0.43793,   0.18510,  -0.54527,   0.74151,  -0.25784,   0.78836,  -0.26239,  -0.55862,   0.80014,   0.05470,   0.73605,   0.81762,  -0.77431,  -0.57533,  -0.38067,   0.36853,   0.33514,   0.10154,  -0.03279,  -0.24712,   0.63141,  -0.41945,  -0.63545,  -0.34099,   0.13964,  -0.13860,  -0.27313,   0.26648,   0.47583,  -0.30841,  -0.35940,  -0.27910,  -0.31778,  -0.73878,  -0.37763,  -0.51496,  -0.07628,  -0.25563,   0.30715,  -0.69911,  -0.67794,   0.30549,  -0.08750,  -0.02902,   0.62890,  -0.51333,  -0.44666
  -0.48055,  -0.44113,  -0.45685,   0.12355,  -0.17762,  -0.63898,  -0.00430,   0.05901,  -0.48259,   0.52449,  -0.54360,   0.16721,  -0.42032,   0.00760,   0.19856,  -0.30365,  -0.05807,  -0.31926,   0.21172,  -0.15954,  -0.02437,  -0.63623,  -0.42486,   0.48733,  -0.09562,   0.18236,  -0.71189,   0.77375,  -0.69188,   0.31219,   0.31636,  -0.25645,   0.26856,   0.01715,   0.25147,   0.31586,  -0.44591,  -0.00747,  -0.36672,  -0.17653,  -0.37644,   0.42438,  -0.35531,  -0.71470,  -0.34939,   0.54929,   0.44059,   0.76644,  -0.03098,  -0.62793,  -0.12725,  -0.67344,   0.82046,  -0.47889,   0.67134,  -0.05725,  -0.27843,   0.21446,  -0.15051,   0.57087,  -0.00080,   0.73776,  -0.03891,   0.51479,  -0.19505,   0.50697,   0.06626,   0.55780,   0.93750,  -0.68551,  -0.67186,   0.48177,   0.32495,  -0.76455,   0.71316,   0.92443,  -0.19818,   0.66966,  -0.67246,  -0.47663,   0.76258,  -0.66878,  -0.38067,  -0.44398,  -0.11759,  -0.44769,  -0.33590,  -0.32800,   0.85620,  -0.24971,  -0.44076,  -0.47885,   0.04319,  -0.17618,  -0.35930,  -0.54072,  -0.55236,  -0.27504,  -0.15233,   0.41864,   0.60698,  -0.36223,   0.50557,   0.02624,   0.16697,  -0.28708,  -0.19251,  -0.38315,   0.28814,  -0.06139,   0.15307,   0.69153,  -0.44702,  -0.13511,  -0.18105,  -0.43046,  -0.34827,  -0.13525,  -0.59773,  -0.30380,   0.53139,   0.24835,  -0.30271,   0.37468,  -0.53522,  -0.18383,  -0.69050,   0.02393
  -0.63643,  -0.12127,  -0.47710,   0.19166,   0.44682,   0.11123,   0.13209,  -0.05734,  -0.52672,   0.07769,  -0.13485,  -0.38262,   0.03989,  -0.18905,  -0.40492,  -0.64746,   0.39176,  -0.04163,  -0.13506,   0.47434,  -0.28717,  -0.70034,  -0.56543,  -0.06879,  -0.74698,  -0.56026,  -0.06925,  -0.24916,   0.30018,  -0.50077,  -0.31453,  -0.37421,  -0.33163,   0.15643,   0.17346,  -0.56041,  -0.68844,  -0.26650,  -0.64057,  -0.53083,   0.79332,  -0.56622,  -0.34648,  -0.19667,  -0.49887,  -0.13075,  -0.33861,  -0.56802,  -0.63479,  -0.25823,  -0.63012,  -0.16587,  -0.28436,  -0.27021,   0.72500,   0.58164,   0.71750,  -0.14111,   0.51675,  -0.62880,   0.05981,  -0.53453,   0.92945,   0.43647,  -0.37167,   0.83822,   0.70274,  -0.06250,   0.78878,  -0.11485,  -0.60105,  -0.36728,  -0.12010,  -0.30457,  -0.62877,  -0.49317,   0.67569,   0.38562,   0.54295,  -0.56515,  -0.03075,  -0.48700,  -0.45773,  -0.34813,  -0.17868,  -0.49874,  -0.52794,  -0.01775,  -0.46695,   0.00088,  -0.49707,  -0.34397,   0.67987,  -0.55314,   0.37576,   0.22258,  -0.06929,  -0.09236,   0.62000,  -0.71094,  -0.15038,  -0.36053,  -0.04144,   0.49934,  -0.49958,  -0.01876,   0.04478,  -0.25708,   0.26872,   0.78331,  -0.71560,   0.30174,   0.05566,   0.09061,  -0.34502,  -0.41203,  -0.69180,  -0.17561,  -0.15441,   0.42282,  -0.46568,   0.82111,   0.00225,  -0.11508,  -0.30057,  -0.47524,   0.10593,  -0.23963
  -0.38529,  -0.57679,  -0.35149,  -0.04905,  -0.44187,  -0.13468,   0.12723,   0.31210,  -0.75460,  -0.43606,  -0.37935,  -0.00856,  -0.40584,   0.66330,  -0.73300,  -0.31577,   0.11480,  -0.39810,   0.72336,   0.12942,  -0.29166,  -0.25174,  -0.22934,   0.26367,  -0.62265,  -0.79400,  -0.13601,   0.80690,  -0.38785,  -0.55574,  -0.40930,  -0.09288,   0.40067,  -0.10591,   0.34199,   0.35932,   0.79772,   0.44971,  -0.73302,  -0.75022,  -0.36372,  -0.25201,  -0.38184,  -0.26644,   0.22978,  -0.42350,  -0.37629,   0.28903,   0.06952,   0.09290,   0.46965,  -0.30825,  -0.08270,   0.72646,  -0.44401,  -0.51592,   0.14631,  -0.65673,   0.55622,  -0.53492,  -0.39677,  -0.04311,  -0.28791,   0.31727,  -0.41412,   0.40996,  -0.43148,  -0.42821,   0.02257,  -0.42747,   0.54918,  -0.23779,  -0.41065,  -0.63559,  -0.53297,  -0.59809,   0.22697,   0.74690,  -0.32560,  -0.56108,   0.62059,  -0.74873,   0.08545,  -0.20186,   0.44661,  -0.58592,   0.58715,   0.02682,  -0.21885,   0.81378,   0.05403,  -0.36919,   0.36360,   0.27331,  -0.70855,  -0.34128,  -0.25870,  -0.22489,   0.24705,  -0.68827,  -0.28721,  -0.50039,  -0.22252,  -0.44901,   0.18339,  -0.26908,   0.18641,   0.24049,  -0.17776,   0.85576,  -0.15853,  -0.46670,  -0.21561,  -0.18221,  -0.19693,  -0.54076,   0.19343,  -0.65332,  -0.58899,   0.45596,  -0.39914,  -0.24931,  -0.30308,   0.60136,  -0.44482,   0.86329,   0.54231,  -0.10105
   0.65166,  -0.47394,  -0.70216,  -0.40954,   0.21049,   0.74529,  -0.38987,   0.87056,  -0.24228,  -0.25641,  -0.42609,  -0.38739,  -0.03131,   0.07391,   0.76144,  -0.06094,  -0.53367,   0.01890,  -0.24016,  -0.05506,  -0.34362,   0.53974,   0.61514,  -0.63072,  -0.50951,   0.61757,   0.52777,  -0.29205,  -0.43443,  -0.57984,  -0.49244,  -0.26106,  -0.26186,   0.68297,  -0.31774,   0.46621,   0.81078,   0.00796,   0.50762,  -0.27245,   0.40742,   0.57950,   0.37096,  -0.24321,  -0.52653,  -0.45817,  -0.46084,   0.60018,  -0.46060,   0.58369,   0.69917,  -0.03849,   0.41208,  -0.41128,   0.85097,   0.56129,  -0.56252,  -0.03103,   0.12606,  -0.51251,  -0.45116,   0.04788,  -0.09034,  -0.02570,   0.44747,  -0.28940,  -0.28670,  -0.38467,  -0.44361,   0.38230,  -0.22844,  -0.53121,  -0.27738,   0.70719,   0.56928,  -0.63865,  -0.50317,  -0.12083,  -0.61489,   0.07443,  -0.38766,   0.78109,   0.78889,   0.34375,   0.15531,   0.36717,  -0.15014,  -0.14375,   0.92908,  -0.56345,   0.74065,  -0.31296,  -0.25899,   0.25451,  -0.36548,   0.42689,  -0.49604,  -0.39759,  -0.41570,  -0.61968,  -0.32319,   0.13973,   0.06259,  -0.56633,   0.37065,  -0.27211,  -0.28690,  -0.41120,  -0.06289,  -0.66265,  -0.29717,  -0.64517,   0.57268,  -0.42655,  -0.24992,   0.14786,   0.64872,  -0.68299,  -0.38409,  -0.51945,  -0.07201,   0.62114,  -0.59752,   0.05440,  -0.48525,  -0.44013,   0.35973,  -0.47430
   0.79676,  -0.03028,   0.72507,  -0.44187,  -0.00224,   0.39688,  -0.65285,  -0.62459,   0.42210,  -0.55708,   0.52297,  -0.36870,   0.13035,  -0.55872,  -0.23375,  -0.24894,  -0.62936,   0.85540,  -0.73090,   0.24380,  -0.44184,   0.85391,   0.93117,  -0.29883,   0.39495,   0.59901,   0.59069,  -0.67410,  -0.13377,   0.64894,  -0.62372,   0.72217,  -0.27458,   0.15916,  -0.48487,   0.73468,   0.68648,  -0.40640,   0.12575,  -0.10952,   0.57803,  -0.36894,   0.92814,  -0.16243,  -0.46463,  -0.45088,  -0.24419,  -0.65955,  -0.34609,   0.33951,   0.78115,   0.65818,  -0.70130,  -0.04189,   0.38053,   0.68633,   0.24812,   0.60631,   0.01035,  -0.21672,  -0.27571,  -0.25686,  -0.54299,  -0.47015,  -0.47091,  -0.51545,   0.30121,   0.83718,  -0.57850,   0.73278,  -0.47100,  -0.50544,  -0.28403,   0.62332,  -0.28297,  -0.63296,   0.19000,  -0.75094,   0.21186,  -0.32783,  -0.79854,   0.49657,   0.07621,  -0.01302,  -0.69300,   0.63239,  -0.57810,  -0.11482,  -0.59574,  -0.57412,   0.46152,   0.03564,  -0.40147,   0.33903,   0.17362,   0.69910,  -0.40507,   0.23521,  -0.25156,  -0.16219,  -0.39320,  -0.09145,   0.67365,   0.00730,   0.40607,  -0.62901,  -0.34477,   0.01369,   0.05111,   0.52746,   0.47133,  -0.39541,   0.73451,  -0.14094,   0.94282,  -0.32718,   0.81852,   0.01736,   0.15128,   0.43124,  -0.60997,   0.02180,  -0.23118,  -0.57865,  -0.30121,  -0.30614,  -0.17871,   0.86049
   0.67141,  -0.21805,   0.59790,  -0.28735,  -0.29953,  -0.40058,   0.23534,  -0.20887,  -0.08306,   0.21084,  -0.02233,  -0.47406,  -0.25935,  -0.49212,  -0.60601,  -0.31350,  -0.22179,  -0.36126,   0.33483,  -0.03966,  -0.54471,   0.27250,   0.44589,  -0.43663,   0.77894,   0.93750,   0.18839,   0.05539,  -0.53072,   0.55143,  -0.47768,   0.32905,   0.56031,   0.04743,  -0.40217,  -0.36795,  -0.01907,   0.13676,   0.46213,   0.93750,   0.09333,   0.29874,   0.43002,   0.43623,  -0.38521,  -0.09838,  -0.59162,  -0.66351,   0.68188,  -0.44971,   0.27864,   0.42964,   0.32200,  -0.24930,   0.55292,  -0.51715,   0.06600,  -0.40340,  -0.37602,  -0.54270,  -0.50719,  -0.27779,   0.14090,  -0.39021,   0.83920,  -0.22155,  -0.49798,  -0.30259,  -0.26077,   0.01955,  -0.05762,   0.61126,  -0.50756,   0.54444,  -0.43817,   0.27414,  -0.42289,   0.71448,  -0.13628,  -0.35140,  -0.52981,   0.23591,   0.35728,  -0.20608,  -0.31249,  -0.56394,  -0.51566,  -0.50122,  -0.49028,   0.91803,   0.14442,  -0.06891,  -0.07944,   0.46567,   0.65676,   0.10987,   0.52734,  -0.43775,  -0.25814,   0.08191,  -0.35935,  -0.16510,   0.31674,  -0.68305,   0.25655,  -0.37615,  -0.54676,  -0.01689,  -0.52629,  -0.48482,   0.10211,   0.16042,   0.71617,  -0.19255,   0.56503,  -0.45989,  -0.42346,   0.30281,  -0.03443,  -0.11900,   0.46738,  -0.57630,   0.04421,   0.60617,  -0.14422,   0.63475,  -0.36372,   0.26547
   0.29277,  -0.39670,  -0.48082,  -0.59984,  -0.02893,  -0.25658,  -0.35500,   0.80712,  -0.73635,  -0.27554,  -0.59832,   0.02532,  -0.00108,   0.49951,   0.93750,  -0.31720,  -0.35544,   0.38409,  -0.47270,  -0.20953,  -0.37756,   0.87432,  -0.49536,  -0.39557,  -0.22170,  -0.40289,   0.62905,   0.35754,   0.78916,  -0.38957,  -0.10920,  -0.59987,   0.86497,   0.87888,  -0.13152,  -0.58691,  -0.43998,  -0.41831,   0.70303,   0.58955,  -0.03432,   0.42793,   0.17469,  -0.73884,  -0.03139,   0.10921,   0.11742,   0.81211,  -0.67461,  -0.19389,  -0.56034,   0.13616,   0.44307,  -0.66581,   0.07371,   0.66137,  -0.59337,   0.74969,   0.56568,   0.58815,  -0.45664,  -0.53892,  -0.71296,  -0.36506,  -0.28774,  -0.12298,  -0.50760,  -0.63845,   0.40625,  -0.15534,  -0.26378,   0.47256,  -0.59533,  -0.27896,   0.78661,   0.71524,  -0.54986,  -0.12900,  -0.73288,   0.73420,   0.57900,  -0.26303,   0.56317,   0.75985,   0.40924,   0.53563,  -0.28232,   0.20604,   0.87235,  -0.54003,  -0.39152,  -0.45361,  -0.23426,  -0.70667,   0.07908,  -0.50296,  -0.06167,  -0.45657,  -0.36893,   0.41954,   0.79011,   0.16350,   0.46287,  -0.42874,  -0.13425,   0.09239,  -0.37756,  -0.17732,  -0.10137,  -0.67074,  -0.09042,   0.68798,   0.67701,   0.93750,  -0.32030,   0.39487,   0.26996,  -0.10252,  -0.64429,  -0.74606,   0.78238,   0.93350,  -0.45603,   0.64718,   0.29757,  -0.59053,   0.74209,   0.45803
  -0.33845,   0.50990,   0.32784,  -0.27067,   0.19221,  -0.17103,   0.01023,  -0.59413,   0.67689,  -0.65320,  -0.76276,   0.09903,   0.38845,  -0.45564,  -0.34255,   0.28665,  -0.73245,   0.73263,  -0.59733,   0.81883,  -0.61048,   0.88218,  -0.53997,  -0.62754,   0.89608,  -0.05739,   0.59550,  -0.46581,   0.87646,   0.65477,  -0.61251,  -0.55513,  -0.41018,   0.53581,   0.93196,  -0.59598,   0.02129,  -0.72070,   0.14269,   0.01448,   0.77714,   0.59210,   0.04690,   0.48873,  -0.16056,  -0.52401,  -0.60644,  -0.65577,  -0.76124,   0.50644,  -0.54013,   0.76590,  -0.74339,   0.67901,   0.34481,   0.72024,   0.11695,   0.47884,   0.20152,  -0.51956,   0.00354,  -0.64619,   0.25859,  -0.50617,   0.32273,  -0.55860,  -0.52525,  -0.70844,  -0.43510,   0.70798,  -0.61337,  -0.46318,   0.20708,   0.86688,  -0.54998,  -0.41895,   0.54380,  -0.67843,   0.79783,  -0.13046,  -0.72120,   0.45435,  -0.46620,   0.80004,  -0.51748,   0.80341,  -0.68107,  -0.15342,  -0.50136,  -0.37826,  -0.59661,   0.81470,  -0.54337,  -0.47885,   0.89268,  -0.72357,  -0.16742,  -0.06646,   0.15433,  -0.00275,  -0.16135,   0.34191,   0.71145,   0.22510,   0.01047,  -0.52080,   0.09508,  -0.23887,  -0.11563,   0.92663,   0.19065,  -0.44556,   0.63191,   0.67889,  -0.49116,   0.68823,  -0.34702,   0.33257,   0.15960,   0.91210,  -0.56458,  -0.42290,   0.08334,  -0.16441,   0.15962,  -0.69377,   0.57748,   0.72982
  -0.29024,   0.50663,   0.67812,   0.55241,  -0.69470,  -0.22654,   0.02654,   0.76740,   0.45593,  -0.53223,  -0.10405,  -0.50570,  -0.13206,  -0.30498,  -0.16766,  -0.12230,  -0.38180,   0.64656,   0.79099,   0.17622,  -0.29990,  -0.28739,  -0.40079,  -0.54090,  -0.30560,  -0.19697,   0.67566,  -0.56541,  -0.59612,   0.29584,  -0.63073,   0.02080,   0.14908,  -0.48459,   0.21663,  -0.46804,   0.57906,   0.57394,   0.27542,   0.66567,   0.15945,   0.67146,  -0.44198,   0.26338,   0.84488,  -0.55057,  -0.59114,  -0.44344,   0.82881,   0.72593,  -0.39220,   0.67506,  -0.54427,   0.82208,  -0.40710,  -0.26860,   0.86634,  -0.65034,  -0.10093,  -0.61738,  -0.53001,  -0.76109,   0.39206,  -0.45471,   0.75354,  -0.44489,  -0.24537,  -0.65922,  -0.53852,   0.35775,   0.58201,  -0.46167,   0.16429,  -0.32648,  -0.49851,  -0.26134,  -0.62128,   0.38622,   0.74914,  -0.23069,  -0.45137,   0.60886,   0.84329,   0.03398,   0.66742,  -0.23467,   0.04777,  -0.64234,  -0.41077,   0.90710,  -0.45696,   0.81621,  -0.14969,  -0.56060,  -0.45285,  -0.18848,   0.49473,  -0.22374,  -0.13345,  -0.53094,  -0.79239,   0.29224,   0.64382,  -0.61021,  -0.32428,  -0.05521,   0.81926,  -0.11422,   0.20745,   0.22161,  -0.12496,  -0.33213,   0.36379,  -0.51370,   0.77759,  -0.11829,  -0.44709,  -0.44112,   0.34604,   0.01890,   0.08980,  -0.38019,   0.11039,   0.55182,   0.78461,   0.64128,   0.20596,   0.18939
  -0.27503,  -0.42570,  -0.45013,  -0.26274,  -0.20091,  -0.69352,   0.00205,   0.18369,  -0.74580,   0.86883,  -0.47755,  -0.19025,  -0.47031,   0.23184,   0.22711,  -0.01305,  -0.07529,  -0.30318,   0.36969,   0.41945,  -0.28705,  -0.63905,   0.02530,  -0.40484,  -0.25378,   0.76362,  -0.55883,  -0.18237,  -0.22491,   0.81603,   0.05920,  -0.20153,   0.88323,   0.44352,  -0.52305,  -0.57087,  -0.09239,  -0.35846,  -0.13822,   0.00113,   0.30835,   0.23926,   0.72722,  -0.67505,  -0.08520,  -0.52304,  -0.55894,   0.93750,   0.36939,  -0.43484,  -0.23564,   0.02289,   0.67449,  -0.45209,   0.39639,  -0.41720,  -0.70209,   0.52161,   0.23668,   0.43130,  -0.74698,   0.28925,  -0.40107,  -0.36108,  -0.83594,  -0.48930,  -0.38303,  -0.24316,   0.59300,  -0.23879,  -0.17877,   0.91959,  -0.46650,  -0.07920,   0.84388,   0.79354,  -0.71017,   0.11754,  -0.36115,  -0.39412,   0.67692,  -0.55887,   0.05421,   0.03666,   0.42457,   0.04857,  -0.36612,   0.41850,  -0.18761,  -0.56433,  -0.49855,  -0.65396,  -0.66867,   0.06298,   0.03195,  -0.71958,  -0.53261,  -0.38839,  -0.27157,   0.82857,   0.30749,  -0.54774,  -0.02609,  -0.32722,  -0.18574,  -0.19880,  -0.31712,  -0.01855,  -0.09188,  -0.62390,  -0.61231,   0.87907,  -0.10878,   0.01022,  -0.14696,  -0.50964,   0.30920,   0.39049,  -0.44036,  -0.52184,   0.74046,   0.33613,  -0.56081,  -0.14973,  -0.26115,  -0.43649,  -0.41898,   0.65800
  -0.21615,   0.25283,   0.25498,  -0.14512,  -0.43541,  -0.22240,  -0.14269,   0.61835,  -0.31831,   0.11273,  -0.54093,  -0.12590,   0.48307,  -0.65028,  -0.50505,  -0.41881,  -0.54972,   0.21749,  -0.24804,   0.67303,  -0.63896,  -0.71088,  -0.04517,  -0.58974,   0.07374,  -0.50515,   0.58460,  -0.55587,   0.18319,   0.13659,  -0.61274,  -0.64232,   0.83300,   0.43208,  -0.20364,  -0.33607,  -0.46101,  -0.40490,   0.04946,  -0.04331,   0.79387,  -0.23100,   0.91969,  -0.43328,   0.04744,  -0.66538,  -0.53465,  -0.51600,  -0.55016,  -0.65163,  -0.46527,  -0.03397,   0.21202,  -0.67893,   0.65479,   0.54178,  -0.02543,   0.67074,  -0.01637,  -0.38286,  -0.61093,  -0.25206,   0.82554,  -0.35049,  -0.38149,   0.18327,  -0.61422,   0.14789,   0.62956,  -0.51076,  -0.47981,  -0.72796,  -0.09381,   0.35883,  -0.55424,  -0.63799,   0.41674,   0.59849,  -0.25044,  -0.52579,  -0.65240,  -0.09650,  -0.74431,  -0.37394,   0.61398,  -0.00166,  -0.35808,   0.22228,  -0.59228,  -0.18096,  -0.56578,  -0.60448,  -0.18855,  -0.42737,   0.93046,  -0.57364,   0.66936,  -0.55056,   0.44558,  -0.71753,  -0.14762,  -0.36767,  -0.38740,   0.75131,  -0.61306,   0.18206,   0.83361,   0.55725,   0.20873,   0.20347,  -0.46697,   0.73292,   0.43886,   0.25547,   0.65288,   0.26702,  -0.60969,  -0.45395,  -0.14799,   0.76771,   0.28302,   0.29626,  -0.48555,   0.77023,  -0.42942,  -0.28221,   0.20561,   0.07093
  -0.01812,  -0.28478,   0.28185,   0.18431,  -0.24061,   0.47851,  -0.02483,   0.62476,   0.44759,   0.41194,  -0.65704,  -0.49760,  -0.21764,   0.80832,  -0.56427,  -0.01809,   0.06878,  -0.15725,   0.47459,   0.06044,  -0.43253,  -0.01162,  -0.54724,  -0.62974,  -0.63207,   0.06484,   0.82044,  -0.77341,  -0.44821,  -0.21887,  -0.41640,  -0.59658,   0.83188,   0.20755,   0.77721,  -0.38173,   0.85886,   0.54131,  -0.51342,  -0.52604,   0.12444,  -0.30058,   0.85737,   0.34513,  -0.19498,  -0.20014,  -0.19082,  -0.19622,  -0.43147,   0.11785,   0.24745,  -0.34269,  -0.42627,   0.09421,   0.31983,  -0.40726,  -0.53712,  -0.51319,   0.24056,  -0.12064,  -0.52383,  -0.24064,   0.34914,   0.15224,   0.64133,  -0.61446,  -0.37184,  -0.42854,   0.39874,   0.07526,   0.74614,  -0.36483,  -0.29129,  -0.48176,   0.10689,  -0.54069,  -0.35371,   0.80044,   0.01048,  -0.03255,   0.09743,  -0.05079,   0.46531,   0.03483,   0.72255,  -0.54744,  -0.04697,  -0.51522,  -0.11545,   0.70996,  -0.20423,   0.24335,   0.51836,  -0.34025,   0.23594,  -0.51424,  -0.45792,  -0.15393,   0.67288,  -0.62344,  -0.46318,   0.00885,   0.48394,  -0.42939,  -0.17419,   0.19938,   0.09023,  -0.23216,  -0.12866,   0.07639,  -0.52134,  -0.47843,   0.03358,   0.18287,  -0.38973,   0.45014,   0.61618,  -0.35323,  -0.53913,  -0.73870,  -0.67192,  -0.56419,   0.68678,   0.36776,  -0.46813,   0.25535,   0.76113,  -0.46244
  -0.19501,  -0.27548,  -0.60014,  -0.19947,   0.81728,   0.16716,  -0.19926,   0.37812,  -0.09289,   0.47825,  -0.53343,   0.56180,  -0.42854,   0.17647,   0.80955,   0.42721,   0.08166,  -0.29687,  -0.49622,  -0.62253,  -0.39183,   0.30281,   0.60289,  -0.04415,  -0.68415,   0.09087,   0.04522,   0.66135,   0.41867,  -0.52219,  -0.24774,   0.87323,  -0.50602,  -0.40564,  -0.34787,   0.47419,  -0.22175,  -0.39215,   0.84787,  -0.17072,  -0.24574,  -0.67874,  -0.41170,   0.06958,  -0.23421,   0.71495,   0.04616,   0.20054,  -0.48932,  -0.57681,   0.78725,  -0.39132,   0.55852,  -0.67974,  -0.46772,  -0.30686,  -0.24616,  -0.55079,   0.41063,   0.00603,  -0.12083,   0.69884,  -0.17116,  -0.25004,  -0.27111,   0.83427,  -0.28502,  -0.59729,   0.13035,   0.08469,  -0.43818,  -0.69738,  -0.32848,   0.52592,  -0.16448,   0.05013,  -0.28928,   0.04109,  -0.38927,   0.54517,   0.38090,   0.62000,  -0.49441,   0.53775,   0.04867,   0.17122,   0.60173,   0.52649,   0.77222,   0.29077,   0.61688,  -0.50599,  -0.42185,   0.08273,  -0.42589,   0.87545,  -0.47249,  -0.09820,  -0.31889,  -0.55487,   0.12677,   0.06983,  -0.43418,  -0.39785,   0.28586,  -0.48391,  -0.17748,   0.13650,   0.08547,  -0.51026,   0.14176,  -0.52447,  -0.40557,   0.22949,  -0.17595,  -0.45744,   0.80723,   0.20705,   0.01998,  -0.35338,  -0.32514,   0.39540,  -0.17547,  -0.43642,  -0.49880,  -0.49545,  -0.31528,  -0.47001
   0.79108,  -0.06491,  -0.00637,  -0.26232,   0.82036,   0.81139,  -0.25136,  -0.28394,   0.54504,  -0.19496,   0.02562,  -0.03063,  -0.01815,  -0.55406,  -0.30933,   0.11822,  -0.15806,   0.20242,  -0.26727,  -0.16515,   0.86449,   0.79438,   0.83595,   0.56305,   0.60501,   0.44195,  -0.47494,  -0.30132,  -0.11817,   0.59916,  -0.28307,   0.63187,  -0.45270,  -0.42844,  -0.25916,   0.54659,   0.16418,  -0.42606,   0.43353,  -0.06550,  -0.07824,  -0.55922,   0.01540,   0.39934,   0.08193,  -0.11890,   0.71034,  -0.58049,  -0.24625,   0.05911,   0.68369,  -0.45100,  -0.56648,   0.82456,   0.73402,   0.30664,  -0.32126,  -0.17342,  -0.51938,   0.78344,   0.81164,  -0.70872,  -0.17825,  -0.02690,   0.05489,   0.23629,   0.61103,   0.79863,  -0.22905,   0.03838,  -0.45384,  -0.40551,   0.69468,   0.69294,  -0.26793,  -0.22399,  -0.13470,  -0.40947,  -0.32615,   0.16160,  -0.12473,   0.57606,  -0.29547,   0.71679,  -0.62599,   0.57966,  -0.24585,   0.76059,  -0.53243,  -0.34668,   0.77302,  -0.38902,  -0.14724,   0.80979,  -0.45370,   0.57743,  -0.41569,   0.40521,  -0.26498,   0.55114,  -0.58139,   0.61655,   0.06070,  -0.44418,  -0.17614,  -0.25332,  -0.56188,   0.14965,  -0.12839,  -0.01118,   0.85853,  -0.50514,  -0.26002,  -0.12456,   0.75269,   0.53324,   0.66878,   0.60627,   0.67141,   0.63093,  -0.44795,  -0.78945,   0.58613,  -0.34758,   0.77105,  -0.03952,  -0.12406,  -0.16946
   0.06406,  -0.08009,   0.20819,  -0.22666,  -0.01460,  -0.18267,   0.58293,  -0.31705,  -0.00189,   0.39561,   0.69256,  -0.40371,  -0.32067,  -0.02078,  -0.22084,  -0.49940,   0.03871,  -0.55482,  -0.11812,  -0.07652,   0.06917,   0.21886,   0.16247,   0.55415,   0.46556,   0.13300,  -0.48302,   0.02602,  -0.46456,  -0.54615,   0.38314,   0.24260,   0.29478,  -0.50560,  -0.42547,   0.03159,  -0.28712,   0.37608,   0.73173,   0.36456,  -0.33127,   0.05768,   0.03114,  -0.08689,  -0.52406,   0.27440,  -0.40684,  -0.56582,   0.71015,   0.26313,   0.53535,  -0.39657,   0.21478,  -0.67719,  -0.44243,  -0.55500,   0.69682,  -0.23762,  -0.70359,  -0.05990,  -0.10572,   0.30468,  -0.43830,   0.57385,   0.17322,  -0.26083,  -0.14859,  -0.10547,  -0.22686,   0.22876,   0.52767,   0.46626,   0.71694,  -0.21870,  -0.20961,  -0.20042,  -0.56944,  -0.13830,  -0.43844,  -0.16093,   0.24583,  -0.44944,  -0.59298,  -0.02688,  -0.20947,  -0.37125,  -0.34366,  -0.41743,  -0.49406,   0.47179,   0.49688,  -0.11404,   0.30641,   0.25162,  -0.53105,   0.49702,   0.18795,  -0.21420,  -0.38972,  -0.79055,  -0.26943,   0.70900,  -0.59687,  -0.13059,   0.34786,  -0.16464,   0.54628,   0.39651,   0.14516,  -0.39034,   0.60491,  -0.53566,  -0.44073,  -0.32856,   0.41252,  -0.37316,  -0.36152,   0.55203,   0.64023,  -0.36939,  -0.12574,  -0.20770,   0.37775,   0.01206,  -0.17015,   0.22121,  -0.44815,  -0.72528
   0.58811,   0.47270,  -0.59489,   0.20384,   0.82321,   0.27769,   0.11468,  -0.52419,  -0.41700,   0.86452,   0.04959,   0.36501,   0.22818,   0.43988,   0.66657,   0.75220,  -0.16082,   0.61363,  -0.25692,  -0.50592,  -0.31002,  -0.40726,   0.51685,   0.32143,   0.50597,  -0.22632,  -0.38823,   0.52668,   0.35071,  -0.42657,  -0.05501,  -0.29771,  -0.56874,  -0.22685,   0.07636,  -0.10224,  -0.55818,  -0.13268,   0.29352,   0.57052,  -0.25933,  -0.56638,  -0.11875,  -0.69959,   0.49909,   0.90250,  -0.15975,   0.87301,  -0.59965,  -0.79296,  -0.07087,  -0.35637,   0.70992,  -0.51781,  -0.25980,  -0.50405,  -0.48388,   0.25875,   0.32405,   0.54483,  -0.52089,   0.38092,  -0.80104,   0.24897,   0.14466,   0.13309,  -0.55927,  -0.04391,   0.63948,   0.32577,  -0.23102,   0.46877,   0.42814,  -0.08263,   0.91025,   0.65556,  -0.36946,  -0.11478,  -0.58333,   0.68424,   0.40872,   0.55954,  -0.33011,   0.70100,  -0.48212,   0.93750,  -0.61595,   0.24897,   0.80785,  -0.39832,  -0.50755,  -0.55710,   0.00546,  -0.17165,   0.04833,   0.00406,   0.33532,  -0.05070,   0.06317,   0.54116,   0.71473,   0.75650,  -0.48590,   0.68350,   0.80652,   0.89624,  -0.32262,  -0.34196,   0.60642,  -0.44048,  -0.84609,   0.54918,  -0.50898,   0.33391,  -0.35619,   0.21628,  -0.15299,  -0.12578,  -0.58067,  -0.57398,   0.18939,   0.53017,   0.53714,  -0.32428,   0.76748,  -0.47907,  -0.29227,  -0.43482
   0.19415,   0.75090,  -0.26940,   0.31223,   0.80249,   0.56864,  -0.22168,  -0.74667,   0.77323,  -0.54472,  -0.26272,   0.08545,   0.79393,  -0.55909,  -0.30734,   0.47490,  -0.64981,   0.41454,  -0.51247,  -0.08313,  -0.22775,  -0.15834,   0.26387,  -0.39263,   0.73627,  -0.39331,   0.67455,  -0.70594,   0.86908,   0.01191,   0.19068,   0.06243,  -0.61240,  -0.59899,   0.62522,  -0.49314,  -0.55201,  -0.07793,   0.56994,  -0.12283,  -0.21974,  -0.36168,  -0.30189,   0.62595,   0.68600,  -0.17244,  -0.25414,  -0.50985,   0.59727,   0.89155,  -0.41607,   0.36663,  -0.47714,  -0.43731,  -0.41076,   0.57244,  -0.08025,  -0.26036,  -0.28059,   0.06960,   0.60853,  -0.77291,   0.84873,  -0.37785,   0.16654,  -0.15919,   0.44227,  -0.49586,  -0.51873,   0.45183,  -0.39516,  -0.69554,   0.75733,   0.45735,  -0.73439,  -0.78294,   0.43393,  -0.34909,   0.53294,   0.34198,  -0.86156,   0.49447,  -0.82692,   0.63999,  -0.64412,   0.88131,  -0.19137,   0.92360,  -0.06914,  -0.48649,  -0.01288,   0.58314,  -0.17151,  -0.41023,   0.55599,  -0.14639,   0.66419,  -0.60921,  -0.34818,   0.16458,  -0.21541,  -0.21675,  -0.57341,   0.91501,   0.29478,   0.43408,   0.70818,   0.38883,  -0.04344,   0.06422,   0.49271,  -0.01395,  -0.15311,   0.50668,   0.39043,   0.60059,  -0.62300,  -0.12523,   0.82634,   0.38420,  -0.64354,  -0.45814,   0.49385,  -0.47380,   0.72894,   0.00830,  -0.20930,   0.00047
   0.05095,   0.51715,   0.01954,   0.83210,  -0.07473,  -0.26468,   0.36233,  -0.48719,   0.78778,  -0.35655,  -0.26349,  -0.47137,   0.24378,  -0.04984,  -0.53195,  -0.34565,   0.18645,  -0.57290,   0.77177,   0.01278,  -0.08318,  -0.40024,  -0.27335,  -0.27256,   0.38810,  -0.71081,  -0.50610,  -0.38024,   0.18469,  -0.62110,   0.57045,  -0.02088,  -0.43318,  -0.50738,   0.32519,   0.11131,   0.07877,   0.71669,  -0.20967,   0.24621,  -0.55542,  -0.70656,  -0.18120,   0.63583,  -0.20882,  -0.26076,  -0.17484,  -0.45299,   0.77029,   0.10687,  -0.25322,  -0.45464,  -0.49653,   0.40775,  -0.31991,  -0.70914,   0.34129,  -0.14228,   0.41567,   0.40441,  -0.38998,  -0.30995,  -0.21710,  -0.27565,   0.40607,  -0.28335,   0.00014,  -0.25100,  -0.40469,   0.09385,   0.93079,  -0.44803,   0.75846,  -0.17518,  -0.39855,  -0.61527,  -0.16020,   0.57121,   0.51812,   0.67233,  -0.44070,  -0.46916,  -0.02987,  -0.14178,   0.61612,   0.71157,   0.86006,  -0.11191,  -0.22738,   0.38484,  -0.13570,   0.40763,   0.60173,  -0.00333,  -0.32120,   0.02677,   0.78309,   0.01385,   0.65635,  -0.50125,  -0.48400,   0.71759,  -0.45529,   0.01203,   0.67726,   0.15817,   0.68028,   0.62426,   0.06012,  -0.72127,  -0.06297,  -0.47922,  -0.36673,   0.10840,   0.13704,  -0.08675,  -0.58834,   0.15932,   0.82745,  -0.37327,  -0.46742,  -0.67345,   0.39051,   0.18200,   0.47159,   0.03427,  -0.40483,  -0.75384
  -0.42893,   0.01079,  -0.43213,   0.76769,  -0.26947,  -0.28879,  -0.00784,  -0.64040,  -0.38332,   0.78725,   0.27193,   0.71363,   0.16620,   0.93750,   0.70181,   0.44935,   0.14882,  -0.26383,   0.14942,  -0.18831,   0.10961,  -0.64093,  -0.28741,   0.22513,  -0.26632,   0.23146,  -0.45095,   0.01280,   0.72595,  -0.45663,  -0.21598,  -0.27057,   0.87461,  -0.51030,   0.29221,  -0.63846,  -0.41393,  -0.54736,  -0.44574,   0.02136,  -0.47422,  -0.29591,  -0.42177,  -0.32958,   0.41578,   0.91404,  -0.24051,   0.60883,   0.65817,  -0.16224,  -0.62130,  -0.56921,   0.07358,  -0.34547,  -0.02668,  -0.51922,  -0.33725,  -0.33787,  -0.05089,  -0.09937,   0.62103,   0.59832,  -0.18497,  -0.42603,   0.04995,   0.50163,  -0.29726,  -0.25989,   0.23764,  -0.25597,  -0.17660,   0.42097,   0.05643,  -0.23323,  -0.00864,   0.63719,  -0.35063,  -0.01575,  -0.12764,   0.02480,   0.36104,  -0.76235,  -0.32127,  -0.34741,  -0.22403,  -0.37171,  -0.65599,   0.59927,   0.18697,  -0.55710,  -0.49839,  -0.54907,   0.05679,  -0.55250,  -0.50574,  -0.52299,   0.13392,   0.24426,   0.40453,   0.80512,   0.73351,   0.12754,  -0.51364,   0.17187,   0.14380,   0.80204,  -0.23387,  -0.22627,   0.47766,  -0.07904,  -0.23538,   0.59083,  -0.25461,   0.50422,  -0.04023,   0.42494,   0.34952,  -0.13583,  -0.21467,  -0.15835,   0.82551,   0.37666,   0.07631,  -0.49353,   0.34087,  -0.11686,  -0.19530,  -0.52234
  -0.27563,   0.42907,  -0.02947,   0.02253,  -0.14360,  -0.49349,   0.13599,  -0.22434,   0.22764,  -0.50976,   0.24442,   0.02919,   0.81755,  -0.56071,  -0.16883,   0.78901,  -0.23006,   0.32738,   0.07955,   0.30570,  -0.15624,  -0.31387,  -0.24498,   0.08873,  -0.12144,  -0.55603,  -0.45468,  -0.42225,   0.29105,  -0.18491,  -0.37048,  -0.36045,  -0.39103,  -0.20936,  -0.06390,  -0.52213,  -0.65501,  -0.03032,  -0.65895,  -0.57923,  -0.48645,   0.16711,  -0.47806,  -0.12419,   0.86061,  -0.02701,  -0.10569,  -0.23033,  -0.19147,  -0.29755,  -0.38842,  -0.56858,  -0.41228,   0.36031,  -0.33828,  -0.17642,   0.49822,  -0.14208,   0.83470,   0.10698,   0.42474,  -0.43943,   0.61688,  -0.02243,   0.10580,  -0.17154,  -0.19871,  -0.27865,   0.82508,  -0.49597,  -0.04031,  -0.64296,   0.57041,   0.65092,  -0.34371,  -0.19185,   0.24963,  -0.37453,  -0.51474,  -0.04408,  -0.28793,  -0.62394,  -0.38783,   0.45893,  -0.08918,  -0.12347,   0.00321,  -0.24056,  -0.37110,  -0.29225,  -0.49353,   0.42524,   0.60547,  -0.57538,   0.50163,  -0.47310,   0.32680,  -0.20726,   0.76183,  -0.62979,   0.10915,  -0.58640,  -0.41223,   0.58959,  -0.17035,   0.26494,   0.39405,   0.74885,   0.34470,   0.47455,  -0.58831,   0.20726,  -0.44981,   0.84974,  -0.19013,   0.68173,  -0.36810,  -0.53907,   0.56971,  -0.12874,  -0.56626,  -0.74294,  -0.17061,  -0.38645,   0.26687,  -0.40893,  -0.36941,  -0.20262
   0.19310,   0.59035,   0.14170,   0.45582,   0.00934,  -0.04285,  -0.12086,   0.40908,  -0.19305,   0.37959,   0.53799,  -0.38244,   0.70979,   0.44769,  -0.33036,   0.82420,   0.69017,  -0.24319,   0.93750,  -0.57810,   0.35036,  -0.36561,   0.27635,  -0.35024,  -0.26855,  -0.40954,  -0.20434,  -0.11380,   0.04834,  -0.71858,  -0.35303,  -0.09647,  -0.44533,  -0.54621,   0.55621,  -0.17501,  -0.19829,   0.61525,   0.18743,  -0.28930,  -0.49346,  -0.53515,  -0.26874,   0.34701,   0.62486,  -0.17976,   0.13937,  -0.01253,  -0.19284,  -0.22003,  -0.14350,  -0.25955,  -0.52071,   0.53526,  -0.59259,  -0.72313,  -0.61172,  -0.59533,  -0.34196,  -0.11338,  -0.27972,   0.02077,  -0.41961,   0.54015,   0.20982,  -0.51738,   0.25773,   0.03637,  -0.34571,  -0.11261,   0.81583,  -0.36149,   0.20986,  -0.33984,  -0.43802,  -0.35196,  -0.47456,   0.19525,  -0.17675,   0.53148,  -0.21188,  -0.48320,   0.06329,  -0.50886,   0.00891,  -0.64458,   0.20157,  -0.33687,  -0.32005,   0.03257,  -0.56035,  -0.19637,  -0.04591,   0.07323,  -0.51566,  -0.05167,   0.43514,  -0.07823,   0.81017,  -0.51426,  -0.44235,   0.18445,  -0.44129,  -0.17675,   0.29028,   0.28824,   0.58106,   0.59019,   0.61539,  -0.12382,  -0.46545,  -0.62796,  -0.53325,  -0.17050,  -0.13942,   0.51918,  -0.48383,  -0.10741,   0.93750,  -0.33929,   0.03044,   0.06342,   0.70247,   0.05075,   0.78646,   0.26302,  -0.69800,  -0.39170
