  -0.46299,  -0.53185,  -0.61415,  -0.07429,  -0.62626,   0.43520,  -0.20969,   0.93750,  -0.58740,  -0.37231,   0.02622,  -0.52781,  -0.42635,   0.64268,   0.60980,  -0.51838,   0.78967,  -0.19575,  -0.16375,  -0.63329,   0.60920,   0.07614,   0.55239,  -0.17623,  -0.37167,  -0.27826,  -0.21936,  -0.01512,  -0.58856,  -0.36773,  -0.35006,   0.72832,  -0.30285,   0.41282,   0.35846,   0.88327,   0.57568,   0.41129,   0.04376,   0.26130,   0.46362,  -0.35908,   0.12935,   0.00725,  -0.38730,   0.12482,   0.19331,   0.86405,  -0.32080,   0.07142,   0.83396,  -0.04687,   0.62543,   0.03939,  -0.62021,  -0.47980,  -0.51818,  -0.62620,   0.32742,  -0.20215,  -0.66731,   0.53220,   0.05705,  -0.03191,  -0.25791,  -0.35746,   0.07031,  -0.13769,  -0.04309,   0.05894,  -0.31493,  -0.49021,  -0.87252,  -0.33957,   0.73442,  -0.18477,   0.43348,   0.30341,  -0.56574,   0.27248,   0.68738,   0.21257,   0.68888,  -0.37540,   0.31329,   0.26547,   0.91254,   0.64679,   0.73222,  -0.28000,   0.93750,  -0.07551,  -0.36750,   0.28583,  -0.58408,   0.80635,  -0.64395,   0.33869,  -0.21864,   0.09033,   0.27811,   0.46896,  -0.50068,  -0.35257,   0.06727,   0.03191,  -0.43727,  -0.59758,  -0.02826,  -0.14604,   0.45723,  -0.38645,  -0.03468,  -0.54788,  -0.67442,  -0.12855,   0.80589,  -0.36229,  -0.45679,  -0.56952,   0.07982,   0.44600,  -0.04351,  -0.41457,  -0.09237,  -0.59809,   0.08973,  -0.65335
   0.41612,  -0.59058,   0.63185,  -0.20882,  -0.28748,   0.87784,  -0.42513,  -0.31121,   0.90163,  -0.44269,   0.90253,   0.37807,  -0.51403,  -0.52454,  -0.58521,  -0.73052,   0.35670,  -0.28127,  -0.51907,  -0.62024,   0.77598,   0.64135,  -0.09496,  -0.26912,   0.46987,   0.73854,  -0.37653,  -0.56190,  -0.50528,   0.77918,   0.29460,   0.80462,  -0.09318,  -0.17628,  -0.20479,   0.77500,   0.46912,  -0.26460,   0.39388,  -0.32120,  -0.76200,  -0.27726,   0.70301,   0.36017,  -0.74181,  -0.46898,   0.77258,  -0.71612,  -0.51713,   0.74408,   0.54273,   0.91932,   0.33272,   0.23719,  -0.25461,   0.09545,  -0.03425,   0.12953,  -0.07816,   0.67198,   0.52935,   0.01628,  -0.41273,   0.08422,  -0.46488,  -0.21811,   0.21408,   0.61417,  -0.38195,   0.62998,  -0.09112,   0.81890,  -0.13071,   0.69814,   0.48221,   0.74968,  -0.40606,  -0.50704,   0.73777,  -0.25162,  -0.06362,   0.85364,  -0.32426,  -0.46375,  -0.60761,   0.13220,  -0.26938,   0.75110,  -0.38635,  -0.47357,   0.75630,   0.53663,  -0.19659,   0.65404,  -0.45366,  -0.10275,  -0.61767,   0.66769,  -0.55485,   0.71592,   0.76150,   0.22895,  -0.44828,  -0.33447,   0.41836,  -0.42885,  -0.34015,  -0.55923,  -0.37136,   0.14517,   0.75631,  -0.45808,  -0.28190,  -0.39526,   0.75368,  -0.47567,   0.49468,   0.23545,  -0.57511,   0.13923,   0.57132,  -0.54515,  -0.41170,  -0.42049,  -0.65317,  -0.13049,  -0.64859,   0.20817
   0.00702,  -0.52358,  -0.07581,  -0.45084,  -0.26375,  -0.39874,  -0.58189,  -0.37107,   0.33728,  -0.17727,   0.79442,   0.14766,  -0.42667,  -0.44966,  -0.54297,  -0.43903,   0.56935,  -0.42225,   0.10878,  -0.30643,   0.26567,  -0.36720,   0.01543,   0.16981,  -0.62480,   0.70724,  -0.39695,  -0.09678,  -0.84892,   0.50529,   0.42065,   0.11243,  -0.35804,  -0.21392,  -0.48295,   0.78574,  -0.21854,   0.78884,  -0.37068,   0.74452,  -0.54712,   0.04328,   0.54549,   0.14216,  -0.56849,   0.23766,   0.49868,  -0.09924,   0.79553,   0.61921,   0.60857,  -0.41600,   0.75598,  -0.33188,   0.45662,  -0.33770,   0.14861,  -0.01017,  -0.09289,   0.71812,   0.84316,   0.79232,  -0.50873,  -0.40965,  -0.31777,  -0.00834,   0.03494,   0.42215,  -0.57302,   0.51025,   0.49326,   0.68161,  -0.51816,  -0.37794,   0.27088,   0.67540,  -0.68068,   0.12900,   0.23612,   0.20892,  -0.48656,  -0.40420,  -0.19963,  -0.12023,  -0.65413,  -0.75412,  -0.53299,   0.10849,   0.46504,   0.55747,   0.73756,   0.32425,  -0.33124,  -0.09976,  -0.11818,  -0.05052,  -0.55048,   0.10509,  -0.67266,   0.86740,   0.14362,   0.15749,  -0.29617,  -0.10802,  -0.46890,  -0.53515,  -0.11278,  -0.40092,   0.06073,  -0.65609,   0.90325,   0.55510,  -0.25166,  -0.47102,   0.86838,  -0.48107,   0.36972,   0.05610,  -0.43660,  -0.59846,   0.73034,  -0.00668,   0.37547,   0.71675,  -0.51789,   0.71921,  -0.34203,   0.22140
  -0.55662,  -0.46379,  -0.21185,   0.57577,  -0.27849,  -0.77356,   0.50303,   0.10286,  -0.23591,   0.57397,  -0.64827,   0.75599,  -0.35662,   0.20691,   0.64737,  -0.16745,  -0.63742,  -0.25629,  -0.42318,  -0.62120,   0.48663,  -0.23974,  -0.21173,   0.86625,  -0.74455,   0.79572,  -0.15578,   0.65772,   0.30502,  -0.09031,   0.08548,   0.09449,  -0.35886,   0.53440,  -0.54615,  -0.21307,  -0.52952,  -0.59197,  -0.36400,   0.68901,  -0.36664,  -0.09910,  -0.18620,  -0.37754,  -0.22387,   0.38871,  -0.44520,   0.62272,  -0.25251,  -0.57440,  -0.43015,  -0.40350,   0.65388,   0.01052,   0.35852,   0.93002,  -0.45509,   0.69693,   0.37957,   0.37366,  -0.80782,   0.93750,  -0.41906,   0.43892,  -0.65932,   0.77923,  -0.51740,   0.40205,   0.21543,   0.20236,  -0.36547,   0.76256,  -0.42983,  -0.20607,   0.79321,   0.54837,   0.46583,  -0.35801,  -0.48450,   0.37617,   0.43366,   0.23123,   0.90812,  -0.43177,   0.21442,  -0.05327,   0.31075,   0.70503,   0.62358,  -0.01145,  -0.57354,  -0.55614,   0.40354,  -0.75123,  -0.45766,  -0.44749,  -0.56018,   0.29150,  -0.64564,   0.30661,   0.78150,  -0.10649,  -0.18347,   0.38034,  -0.30899,  -0.14957,  -0.60842,  -0.60259,   0.57538,  -0.74984,   0.03854,   0.88539,  -0.25514,  -0.18542,  -0.47786,  -0.17361,  -0.29460,  -0.34082,  -0.53525,  -0.41644,   0.73149,   0.76989,   0.25478,   0.18157,   0.15670,  -0.23416,  -0.04584,   0.04007
   0.53672,   0.79626,   0.75540,  -0.07162,   0.29689,   0.75986,   0.93750,  -0.81672,   0.65180,  -0.45452,   0.29455,   0.85142,   0.91827,  -0.74202,   0.56169,   0.30184,  -0.86677,   0.66901,  -0.44117,   0.77047,  -0.00435,  -0.07513,  -0.62507,  -0.19387,   0.71550,  -0.61157,   0.07722,  -0.02031,   0.67145,   0.22906,   0.78301,  -0.48594,  -0.67912,   0.80141,   0.93096,  -0.66572,  -0.55737,  -0.66431,   0.01734,  -0.44823,   0.30669,   0.46080,  -0.49883,   0.88616,  -0.51204,  -0.25594,   0.22068,  -0.52055,  -0.70065,   0.76678,  -0.14693,   0.84533,  -0.63148,   0.26629,   0.34411,   0.87245,   0.65510,   0.58936,  -0.10616,  -0.56630,   0.45688,  -0.35736,   0.91040,  -0.10573,  -0.45969,  -0.15371,   0.24421,   0.57784,  -0.67460,   0.93750,  -0.31779,  -0.59010,   0.52903,   0.13146,  -0.51834,  -0.59739,   0.80863,  -0.73071,   0.93750,  -0.45250,  -0.50847,   0.39679,  -0.10223,  -0.36182,  -0.55340,   0.10638,   0.31526,   0.76367,  -0.67079,  -0.50814,  -0.82753,   0.75344,  -0.17867,  -0.59308,   0.66268,  -0.52766,  -0.29769,   0.29010,  -0.48144,  -0.53168,  -0.54389,  -0.14370,   0.69979,   0.61021,  -0.43217,  -0.76910,  -0.54092,  -0.41505,   0.14289,   0.87077,   0.81718,   0.71419,  -0.09359,  -0.34455,  -0.23501,   0.30296,  -0.64251,  -0.25428,  -0.63143,   0.89292,  -0.54501,  -0.71298,  -0.54121,  -0.36760,   0.17968,  -0.26941,   0.68134,   0.57267
  -0.49523,   0.03845,   0.82371,   0.58220,  -0.91820,   0.03827,   0.43962,  -0.24501,   0.57976,  -0.07926,  -0.46601,  -0.26039,  -0.34272,  -0.44253,  -0.38184,  -0.62145,   0.50825,  -0.28727,   0.83725,   0.48691,   0.48714,  -0.47651,  -0.34069,  -0.06464,  -0.36851,  -0.39215,  -0.49682,   0.31083,  -0.59973,  -0.52576,   0.51774,   0.08991,  -0.32636,  -0.40272,   0.88656,  -0.29316,   0.40612,   0.69020,  -0.52406,  -0.65712,   0.23175,   0.49089,  -0.70634,   0.47902,  -0.11050,  -0.22936,   0.61150,  -0.20954,   0.70244,   0.50920,   0.07158,   0.33507,  -0.54399,   0.86159,  -0.28674,  -0.41458,   0.49719,  -0.28111,   0.09751,  -0.40459,  -0.21761,  -0.04691,   0.87283,  -0.27797,   0.38954,   0.14932,   0.87515,   0.07258,  -0.56892,  -0.52841,   0.66975,   0.12115,  -0.31141,  -0.60820,  -0.35140,  -0.18984,   0.71052,   0.39776,   0.62944,  -0.62563,  -0.51790,  -0.59113,   0.61903,  -0.52312,   0.46982,  -0.63095,   0.60520,  -0.12038,  -0.19039,   0.62241,   0.21669,   0.37108,   0.69348,  -0.22296,  -0.40084,   0.44895,   0.12068,   0.42562,  -0.49253,  -0.37432,  -0.47151,   0.50011,  -0.23441,  -0.26148,   0.13172,  -0.58622,   0.30471,  -0.60009,  -0.06435,  -0.27115,   0.30743,  -0.51655,  -0.33441,  -0.59230,  -0.56841,  -0.77878,  -0.12832,  -0.25258,   0.71881,   0.52308,  -0.42065,  -0.48513,   0.54961,  -0.41636,   0.19245,   0.39041,   0.43266,   0.15176
  -0.67257,  -0.05806,  -0.44158,   0.16335,  -0.56431,  -0.28269,   0.34155,   0.66099,  -0.45832,   0.68335,   0.09675,   0.07820,  -0.63800,   0.55474,   0.44673,   0.20813,  -0.12012,  -0.56561,   0.38566,  -0.43239,   0.01591,  -0.44598,  -0.24104,   0.75395,  -0.36911,   0.92673,  -0.28289,   0.31362,  -0.20329,   0.30854,   0.73445,   0.03817,   0.38242,  -0.26210,  -0.43170,   0.14889,  -0.47693,  -0.10182,  -0.27519,   0.72380,  -0.24153,  -0.00417,  -0.03940,  -0.03705,  -0.08803,   0.46695,   0.66818,  -0.05341,   0.80936,  -0.27757,  -0.60195,  -0.63666,   0.76221,   0.18466,   0.47319,  -0.20358,   0.69575,   0.82009,   0.38448,   0.54435,  -0.51633,   0.70064,  -0.84959,   0.59684,  -0.39552,   0.73016,   0.46450,  -0.10997,   0.02348,  -0.23803,  -0.26814,   0.45648,  -0.23736,  -0.48422,   0.80205,   0.88790,  -0.28305,   0.86542,  -0.32794,   0.58058,   0.79759,  -0.60600,  -0.15837,  -0.15890,   0.07446,  -0.59395,  -0.48018,  -0.15583,  -0.13754,   0.73884,  -0.09704,  -0.68253,   0.38140,   0.39726,   0.28159,  -0.22539,  -0.44760,   0.51852,  -0.32825,   0.41367,   0.52541,  -0.52234,  -0.25889,  -0.34680,  -0.53107,   0.49903,  -0.32667,  -0.44056,   0.33992,  -0.32149,  -0.09119,   0.49354,  -0.59774,  -0.09738,   0.28065,  -0.35334,   0.36472,  -0.44895,  -0.60209,  -0.43418,   0.55019,  -0.05917,  -0.35547,   0.53139,  -0.00111,   0.77191,  -0.67616,  -0.07543
  -0.16920,  -0.28637,   0.03449,   0.02764,  -0.36110,  -0.17091,   0.45719,   0.23546,  -0.41627,   0.70189,  -0.01505,   0.35015,  -0.26571,  -0.04330,   0.18011,   0.02679,   0.65001,  -0.37530,   0.59295,   0.62711,   0.40126,  -0.59442,  -0.53177,   0.74475,  -0.20626,  -0.48515,  -0.03440,   0.78845,  -0.25292,  -0.40569,   0.07667,  -0.08120,   0.28969,  -0.52296,   0.65252,  -0.18814,  -0.35722,   0.83407,  -0.30778,  -0.65005,   0.66195,  -0.41587,  -0.48834,   0.62948,   0.32471,   0.32000,  -0.29717,   0.25145,   0.47507,  -0.44128,  -0.30169,  -0.02824,  -0.21699,   0.06872,   0.81459,   0.42698,   0.72099,  -0.05035,   0.47787,  -0.50636,   0.50791,   0.63298,   0.49678,   0.49044,  -0.25319,   0.43113,  -0.17205,   0.43005,   0.23716,  -0.17750,   0.01386,  -0.44622,  -0.58433,  -0.68191,  -0.62278,  -0.62972,   0.67121,   0.19477,   0.41136,  -0.50552,   0.01035,  -0.29439,  -0.63115,  -0.27743,   0.10389,  -0.27780,   0.04612,  -0.12341,  -0.36724,  -0.35967,   0.08691,  -0.04572,   0.87742,  -0.59716,   0.63984,   0.27181,  -0.63102,  -0.17755,   0.19474,  -0.66185,  -0.10722,  -0.59603,  -0.12584,   0.87199,  -0.35789,  -0.51557,  -0.28270,  -0.04466,   0.24638,   0.21615,  -0.34378,   0.55432,  -0.51117,  -0.05791,  -0.31720,   0.33262,  -0.32140,  -0.65128,  -0.49666,   0.66553,  -0.26395,   0.60336,  -0.69452,  -0.07994,  -0.48667,  -0.43042,   0.68987,  -0.27204
  -0.27156,  -0.51087,  -0.43205,  -0.29549,  -0.49464,   0.72738,   0.33798,   0.61522,  -0.51323,   0.46601,   0.30710,  -0.28220,  -0.77878,   0.77493,  -0.15139,  -0.04748,   0.37335,  -0.24649,   0.39270,  -0.36711,  -0.27382,  -0.39691,  -0.36503,   0.01042,  -0.42842,  -0.37040,  -0.35587,   0.70783,  -0.38841,  -0.72561,   0.11124,   0.55590,  -0.70492,  -0.10668,  -0.60288,   0.65897,   0.29231,   0.52823,  -0.50533,  -0.71621,   0.22904,  -0.58193,   0.05718,   0.11368,  -0.49880,  -0.04235,  -0.13512,   0.21015,   0.67102,  -0.65479,   0.90132,  -0.59610,   0.04756,   0.57663,  -0.44177,  -0.45836,  -0.39758,  -0.23153,  -0.40612,  -0.07141,  -0.61768,   0.53194,  -0.18869,   0.62104,  -0.44998,   0.69526,  -0.15147,  -0.09583,   0.69764,   0.27144,   0.52556,  -0.42620,  -0.09518,  -0.33511,   0.00207,  -0.48776,   0.55664,   0.56876,  -0.37318,  -0.07731,   0.60346,  -0.38716,   0.64558,  -0.30802,   0.48649,  -0.36548,   0.81229,   0.15008,   0.36356,   0.55534,   0.75237,  -0.42892,   0.71805,   0.86629,  -0.42809,   0.66651,  -0.58627,   0.38371,   0.12154,  -0.39701,   0.23850,  -0.25562,  -0.32804,  -0.05950,  -0.41412,  -0.22006,  -0.24781,  -0.35837,  -0.36908,   0.48686,  -0.60033,  -0.74260,  -0.54431,  -0.58598,  -0.53661,  -0.35811,   0.07825,  -0.66416,  -0.42133,   0.86222,  -0.67232,   0.49576,  -0.27094,  -0.46536,  -0.50344,   0.20946,   0.26851,  -0.17698
   0.13664,  -0.31812,   0.17283,  -0.24360,  -0.10675,  -0.17831,  -0.39431,   0.71983,  -0.70042,  -0.05920,  -0.55400,  -0.26084,   0.09541,   0.71183,   0.37449,  -0.11778,  -0.38812,   0.68330,  -0.14922,   0.05757,  -0.25419,   0.60639,   0.52848,  -0.01518,  -0.58130,  -0.13534,   0.63714,   0.12639,  -0.31343,  -0.48241,  -0.39830,  -0.09038,   0.08774,   0.59157,  -0.53562,   0.36345,   0.38458,  -0.39615,   0.76758,   0.47104,   0.55271,   0.31171,  -0.07227,  -0.28590,   0.16431,  -0.05044,  -0.18385,   0.64838,  -0.67847,   0.19738,  -0.05567,  -0.52224,   0.72889,  -0.11831,   0.02042,   0.05491,  -0.54411,  -0.19206,   0.44838,  -0.24333,  -0.22861,  -0.26715,   0.16943,   0.62564,  -0.03703,  -0.29002,  -0.25994,  -0.37323,  -0.00302,   0.09078,  -0.35297,  -0.26711,  -0.64628,   0.45083,  -0.13569,   0.00159,   0.20658,  -0.47679,  -0.61717,   0.38088,  -0.51622,   0.86488,   0.55986,  -0.40120,  -0.33892,   0.89509,  -0.13530,  -0.23932,   0.63306,  -0.57845,   0.07331,  -0.02749,  -0.34962,   0.52604,  -0.56576,   0.29020,  -0.51990,  -0.32513,  -0.74443,  -0.02864,  -0.54283,   0.17126,   0.33886,  -0.59874,   0.26029,  -0.24995,  -0.38400,   0.52256,   0.39573,  -0.37146,  -0.40632,  -0.47399,   0.43889,  -0.19147,  -0.62459,  -0.21937,   0.56273,  -0.26080,  -0.46810,  -0.58896,   0.21720,   0.75878,  -0.46528,  -0.52838,   0.12662,  -0.37085,   0.87986,  -0.20808
   0.81649,  -0.66516,   0.58776,  -0.27691,   0.48869,   0.84789,  -0.48272,  -0.57751,   0.87049,  -0.46584,   0.54055,  -0.35775,   0.01988,  -0.65902,  -0.76460,  -0.49393,  -0.13254,   0.42645,  -0.70584,  -0.26408,  -0.20432,   0.74620,   0.04987,   0.32568,   0.80611,   0.55695,   0.46243,  -0.36243,   0.04435,   0.82194,  -0.35761,   0.62619,  -0.64153,   0.03512,   0.01203,   0.62837,   0.59985,  -0.62093,   0.80409,   0.11451,   0.34134,   0.47902,   0.92944,  -0.49390,   0.14329,  -0.44804,  -0.22493,  -0.34599,  -0.43184,   0.60296,  -0.34155,   0.47633,  -0.44790,  -0.46418,   0.53647,  -0.02963,  -0.36494,  -0.15338,  -0.53828,   0.12299,   0.31239,  -0.62954,  -0.26384,  -0.45842,  -0.07290,  -0.32969,  -0.19621,   0.11536,  -0.61918,   0.80550,  -0.58143,  -0.18432,  -0.04423,   0.82772,  -0.21085,  -0.03386,  -0.61669,  -0.80945,  -0.08307,  -0.01649,  -0.58059,   0.73666,  -0.58581,  -0.58349,  -0.78759,   0.63239,  -0.44047,  -0.37243,  -0.53843,  -0.72082,  -0.05349,   0.09223,  -0.39528,   0.92075,   0.14229,   0.43377,   0.18257,  -0.20153,  -0.01556,   0.04419,   0.27045,   0.36661,   0.26397,  -0.49090,   0.71426,  -0.70540,  -0.67018,  -0.39614,   0.32807,  -0.09281,   0.37356,  -0.61356,  -0.14782,   0.07410,   0.69800,  -0.62441,   0.35585,   0.60169,   0.78376,   0.81557,  -0.16105,  -0.46933,   0.10703,  -0.45161,  -0.44426,  -0.56521,  -0.56799,  -0.00602
   0.07628,  -0.52641,   0.71524,  -0.05168,  -0.14457,  -0.62001,  -0.18624,  -0.50247,  -0.36963,  -0.08881,   0.41751,  -0.39771,  -0.38248,  -0.32472,  -0.24096,  -0.38932,  -0.04098,   0.06182,   0.46283,  -0.40602,  -0.37939,   0.83515,   0.63334,   0.01214,   0.35560,   0.71963,   0.58094,  -0.07410,  -0.78556,   0.45713,  -0.37659,  -0.24224,   0.58485,   0.23925,  -0.39991,  -0.22122,  -0.13768,  -0.14446,   0.55589,   0.70092,  -0.58265,   0.29039,   0.63745,  -0.59187,  -0.18061,  -0.40936,  -0.26809,  -0.14563,   0.71598,   0.05743,  -0.19739,  -0.64941,   0.53143,  -0.48436,   0.80960,   0.06785,   0.68377,   0.51060,  -0.77501,  -0.21039,  -0.48127,  -0.02173,  -0.19616,  -0.11244,   0.47745,   0.00788,  -0.39363,   0.28489,  -0.20445,   0.54080,   0.13053,   0.48424,  -0.40043,   0.56862,  -0.00682,   0.67548,  -0.73805,   0.09858,   0.16672,  -0.07938,  -0.12227,   0.07724,  -0.31282,  -0.35796,  -0.22214,  -0.61922,  -0.03193,  -0.65796,  -0.53494,   0.33172,  -0.08134,  -0.33093,  -0.03286,   0.43669,   0.70819,  -0.13803,   0.32170,  -0.15086,  -0.11213,   0.02208,  -0.09911,   0.32181,   0.60540,  -0.11970,  -0.32851,  -0.40931,  -0.08067,  -0.36462,   0.20901,  -0.35278,  -0.71636,  -0.07501,   0.34075,  -0.22231,   0.74301,  -0.39836,  -0.35635,   0.79691,   0.52983,  -0.34155,   0.40262,  -0.26583,   0.15748,   0.82290,  -0.65075,   0.36880,  -0.47653,  -0.08322
  -0.43847,  -0.71138,  -0.53308,  -0.23646,   0.13619,   0.15848,   0.22410,   0.43828,  -0.16773,  -0.23099,  -0.29586,   0.88437,   0.89309,   0.44998,   0.80002,  -0.15131,  -0.46809,   0.74147,  -0.76295,   0.03587,  -0.12927,   0.12628,   0.26350,  -0.33952,  -0.30146,   0.38778,   0.73848,  -0.22734,   0.79275,   0.03573,  -0.28769,  -0.47186,  -0.10819,   0.79714,  -0.42247,  -0.49099,  -0.46242,  -0.76236,  -0.73417,   0.46902,   0.35125,   0.85206,  -0.14881,  -0.58590,   0.21928,   0.72817,  -0.05814,   0.65358,  -0.65328,  -0.24661,  -0.54929,  -0.28529,   0.66600,  -0.52166,   0.19255,   0.86514,  -0.50539,   0.86455,   0.07834,   0.32684,  -0.78802,  -0.59525,  -0.74232,   0.56185,  -0.23436,  -0.43127,  -0.38512,  -0.34132,   0.00402,  -0.18031,  -0.50691,   0.53174,  -0.43692,  -0.27575,   0.61772,   0.52106,  -0.38100,  -0.61814,  -0.45863,   0.24453,   0.37332,   0.64277,   0.81979,   0.02128,   0.22320,   0.75047,   0.01563,  -0.16583,   0.61057,  -0.64897,  -0.53626,  -0.46030,  -0.39852,  -0.71962,   0.43001,  -0.61757,  -0.39067,  -0.46642,  -0.52488,   0.93750,   0.64320,  -0.58870,   0.71308,   0.80428,  -0.52527,  -0.30704,  -0.47107,  -0.41216,   0.19104,  -0.19543,  -0.34186,   0.84897,   0.38551,   0.59598,  -0.50972,   0.33756,  -0.47936,  -0.09210,  -0.40578,  -0.44380,   0.50482,   0.46323,  -0.25533,   0.56420,   0.01103,  -0.58002,  -0.24014,   0.27541
   0.10652,   0.81154,   0.77573,   0.88639,   0.50135,  -0.18298,   0.93750,  -0.72037,   0.71865,  -0.21775,  -0.41797,   0.13408,   0.60302,  -0.69969,  -0.56340,   0.03861,  -0.61419,   0.66575,  -0.76232,   0.66207,  -0.66811,   0.93750,  -0.40002,  -0.59234,   0.84052,  -0.51695,   0.52671,  -0.49468,   0.73119,   0.31319,  -0.40323,  -0.42160,  -0.27980,   0.36881,   0.74629,  -0.82123,  -0.35594,  -0.87358,  -0.69888,  -0.54549,   0.59506,   0.20632,  -0.42857,   0.77964,   0.56710,  -0.75399,  -0.51565,  -0.39069,  -0.69104,   0.68883,  -0.83132,   0.71991,  -0.54479,   0.79985,   0.29270,   0.84207,   0.02959,   0.80779,   0.24228,  -0.18613,   0.21377,  -0.68731,   0.87702,  -0.59559,   0.54617,  -0.24609,  -0.34492,  -0.01569,  -0.46376,   0.78371,  -0.70106,  -0.06457,   0.52718,   0.63541,  -0.75384,  -0.81274,   0.50165,  -0.69524,   0.68011,   0.03007,  -0.33766,   0.84792,  -0.56075,   0.73751,  -0.73773,   0.92847,  -0.44440,   0.54162,  -0.45335,  -0.65687,  -0.74473,   0.89410,  -0.60438,  -0.64473,   0.81228,  -0.35084,   0.72720,  -0.42754,  -0.62923,  -0.40404,  -0.74641,  -0.04530,   0.79714,   0.83794,   0.45964,  -0.82948,   0.40916,  -0.20582,   0.43972,   0.85597,   0.63804,   0.57049,   0.89678,   0.67814,   0.52922,   0.68518,  -0.24049,   0.42193,  -0.41728,   0.59957,  -0.71567,  -0.47669,  -0.00052,  -0.45488,   0.29586,  -0.75278,   0.68808,   0.75174
  -0.06361,   0.45002,   0.85796,   0.17334,   0.00554,  -0.40610,   0.32665,  -0.01110,   0.59429,  -0.28294,  -0.75780,  -0.45364,   0.68217,  -0.34618,   0.16484,  -0.29878,  -0.30990,   0.58839,   0.71372,   0.54896,  -0.67457,  -0.30910,  -0.59599,  -0.65880,   0.59286,  -0.48007,   0.40870,  -0.42519,  -0.63493,  -0.27171,  -0.21280,  -0.28758,   0.45205,  -0.39533,   0.71039,  -0.29837,   0.65161,   0.77441,  -0.15193,  -0.36588,   0.52407,   0.70876,  -0.38987,   0.77130,   0.79513,  -0.28343,  -0.05248,  -0.33326,   0.87702,   0.46273,  -0.14241,   0.63519,  -0.43911,   0.38294,  -0.62111,  -0.31700,   0.76168,  -0.16158,   0.29810,  -0.34943,   0.25843,  -0.16565,   0.76457,  -0.47185,   0.68797,  -0.20738,  -0.55690,  -0.62590,  -0.34208,  -0.24990,   0.79562,   0.76614,  -0.16608,  -0.17749,  -0.46834,  -0.43119,  -0.21541,   0.64877,   0.74474,  -0.59009,  -0.19850,  -0.61174,   0.47596,  -0.41438,   0.87899,  -0.25111,   0.50499,  -0.33479,  -0.44839,   0.93750,   0.31327,   0.80846,  -0.14019,  -0.39123,  -0.43741,  -0.23644,   0.60127,  -0.29153,  -0.38048,  -0.41624,  -0.65993,   0.60465,   0.48298,  -0.14804,  -0.23184,   0.61926,   0.76732,  -0.24306,  -0.01385,   0.78054,  -0.56485,  -0.26808,   0.86479,  -0.54705,  -0.61230,  -0.34262,  -0.11624,   0.25979,   0.18992,  -0.19109,  -0.39401,  -0.55846,   0.83908,   0.69708,  -0.29468,   0.74207,   0.59770,   0.63687
  -0.77953,  -0.14765,  -0.54275,   0.06933,  -0.59252,  -0.61804,  -0.45899,   0.20066,  -0.56099,   0.76164,  -0.61992,  -0.38679,  -0.41486,  -0.33175,  -0.40842,  -0.60434,  -0.68689,   0.10875,   0.24378,   0.64369,  -0.09500,  -0.41302,  -0.08605,   0.06443,  -0.73164,   0.58869,  -0.31285,   0.01877,  -0.04811,   0.46315,   0.02260,   0.34494,   0.84237,  -0.21556,  -0.50135,  -0.19093,  -0.27681,   0.57201,  -0.18855,   0.59376,  -0.69268,   0.83176,   0.73753,  -0.11195,  -0.31862,  -0.34390,   0.06684,   0.62226,   0.18396,  -0.41835,  -0.32869,   0.16286,   0.25060,  -0.76212,   0.38801,  -0.43434,   0.72469,   0.66500,  -0.49117,  -0.38304,  -0.29005,   0.38376,  -0.58806,  -0.57996,  -0.43894,  -0.30426,  -0.33577,  -0.46707,   0.31725,  -0.46727,  -0.52960,   0.93750,  -0.19004,  -0.49668,   0.11594,   0.72220,  -0.74796,  -0.06350,  -0.49899,  -0.39042,   0.57338,  -0.47353,  -0.58939,  -0.61552,   0.29831,  -0.63284,  -0.72152,  -0.53968,   0.69604,   0.52645,  -0.13348,  -0.36045,  -0.15082,   0.23752,   0.15895,  -0.56606,  -0.05316,  -0.46507,   0.15546,   0.80825,   0.51705,  -0.72011,   0.40978,  -0.28369,   0.14526,   0.27750,  -0.42282,  -0.34711,   0.27451,  -0.34432,  -0.02552,   0.72684,   0.12380,   0.22462,   0.73595,  -0.40009,   0.19338,   0.42438,  -0.53990,  -0.38707,   0.57494,   0.74109,  -0.22534,   0.27308,   0.37913,   0.05285,  -0.48469,   0.52091
  -0.50832,   0.57192,  -0.55353,  -0.27124,  -0.56442,  -0.37829,   0.50039,  -0.03211,  -0.69567,  -0.23196,  -0.04767,  -0.20508,   0.85601,   0.35005,  -0.44723,   0.24343,   0.61500,   0.65282,  -0.16615,   0.77336,  -0.79518,  -0.58311,  -0.44467,   0.09626,  -0.61982,  -0.34250,   0.33270,   0.01144,   0.29095,   0.49957,  -0.48770,  -0.30909,   0.56985,  -0.15409,   0.70559,  -0.56160,  -0.64179,  -0.57160,  -0.33803,  -0.52805,   0.31935,   0.14923,  -0.57530,  -0.25924,   0.62989,  -0.33901,  -0.39698,  -0.40794,   0.07945,  -0.21518,  -0.59237,   0.37369,  -0.48933,  -0.55282,   0.40081,   0.56132,   0.23404,  -0.09196,  -0.15179,  -0.19352,   0.18809,  -0.53869,   0.86095,  -0.02486,  -0.51966,  -0.54399,  -0.30296,  -0.37166,   0.45522,   0.21600,   0.12669,  -0.64782,   0.44906,  -0.16682,  -0.42435,  -0.48149,   0.53903,   0.72058,  -0.17750,  -0.37486,  -0.16129,  -0.54354,  -0.78184,  -0.38925,  -0.00643,   0.32265,  -0.60097,  -0.47973,  -0.24296,  -0.11046,  -0.93750,  -0.05533,  -0.38627,  -0.62166,   0.87500,  -0.30843,  -0.37185,  -0.32823,   0.77477,  -0.27157,  -0.41747,  -0.62480,   0.21049,   0.92004,  -0.38922,  -0.02632,   0.01307,   0.64432,   0.03362,   0.93750,  -0.45508,  -0.64839,   0.72868,   0.20274,   0.73928,   0.09361,  -0.60857,  -0.41593,   0.46267,   0.32066,  -0.10694,   0.36951,  -0.44300,   0.93750,  -0.47121,   0.36696,   0.82126,  -0.06454
  -0.07094,  -0.29806,  -0.25426,  -0.38753,  -0.54832,   0.01842,  -0.23893,   0.68747,  -0.52019,  -0.29012,  -0.56930,  -0.29808,   0.59806,   0.14650,   0.30657,  -0.48983,  -0.26607,   0.37635,   0.10611,  -0.36162,  -0.44173,   0.75695,  -0.49869,  -0.49206,  -0.52305,  -0.02535,   0.68871,  -0.04108,  -0.52265,  -0.26744,  -0.51154,   0.45439,   0.13773,   0.86249,  -0.32483,   0.06912,   0.76951,   0.14699,  -0.14012,  -0.41349,   0.91610,   0.15103,   0.89264,  -0.64016,   0.84767,  -0.13964,   0.15785,   0.76361,  -0.52431,  -0.64318,   0.63815,  -0.40539,  -0.60864,  -0.37837,  -0.67134,  -0.20274,  -0.33788,  -0.34067,   0.25003,  -0.68375,  -0.64243,   0.01803,   0.41099,   0.52210,   0.14640,  -0.54258,  -0.25179,  -0.03205,   0.33519,  -0.54001,   0.77098,  -0.30001,   0.00707,  -0.16180,   0.17945,  -0.27986,   0.25191,   0.51206,  -0.32054,  -0.23134,  -0.18822,   0.86527,   0.78989,  -0.38833,   0.27124,  -0.01583,   0.29747,  -0.55500,  -0.15330,  -0.08053,   0.61919,  -0.31138,  -0.20453,   0.66183,  -0.64343,   0.25312,   0.47676,   0.21017,   0.67595,  -0.14798,   0.22065,  -0.14402,   0.44309,  -0.60478,  -0.26606,   0.51573,  -0.19228,   0.62200,   0.31104,   0.77836,  -0.48318,  -0.55454,   0.86540,  -0.35341,  -0.43952,   0.04555,   0.60409,  -0.66200,  -0.26498,  -0.05675,  -0.30487,   0.43596,   0.18300,   0.03719,  -0.49828,   0.61401,   0.34260,   0.50697
   0.07383,  -0.23500,  -0.77564,  -0.57743,   0.04375,   0.45538,  -0.35728,   0.28301,  -0.47885,   0.34272,  -0.17269,  -0.22977,  -0.67689,  -0.15304,   0.85662,   0.33119,   0.10913,  -0.45383,  -0.54904,  -0.31684,  -0.05020,  -0.07750,   0.82352,   0.40596,  -0.65693,  -0.29268,  -0.45711,   0.69337,  -0.33662,  -0.31772,   0.26226,   0.37709,  -0.27199,  -0.46540,  -0.05115,  -0.43284,   0.23104,  -0.33782,   0.32142,  -0.25961,  -0.27265,  -0.41243,  -0.62143,  -0.05776,  -0.62571,   0.68473,   0.51311,   0.15461,  -0.45773,  -0.53994,   0.27191,  -0.52857,   0.65426,  -0.32225,  -0.05757,  -0.77497,  -0.29128,  -0.61079,   0.51064,   0.23223,  -0.23075,  -0.18518,  -0.56055,   0.16368,  -0.29466,   0.03066,   0.31527,   0.50478,  -0.18851,  -0.32166,  -0.09571,  -0.71877,  -0.35684,  -0.11712,  -0.07880,   0.00892,   0.34136,  -0.47101,  -0.61240,   0.47433,   0.82853,   0.17608,   0.36613,   0.35385,  -0.25792,   0.87174,   0.81165,   0.49870,   0.51794,  -0.42161,   0.52792,  -0.52904,   0.34949,   0.75511,  -0.46634,   0.83025,  -0.15406,  -0.19163,  -0.20436,  -0.67614,   0.12188,   0.84635,  -0.27565,  -0.24108,   0.81914,  -0.32706,  -0.01699,   0.41717,  -0.31277,  -0.43085,   0.03760,  -0.70224,  -0.41510,  -0.19008,  -0.53424,  -0.28081,   0.62367,  -0.13489,  -0.22394,  -0.17378,  -0.51785,   0.78533,   0.13022,  -0.57084,   0.13240,  -0.46051,   0.11093,  -0.22355
   0.66151,  -0.54142,  -0.76461,  -0.24147,   0.81849,   0.30778,  -0.37132,  -0.33031,   0.75792,   0.09781,   0.79920,  -0.35087,  -0.55163,  -0.48898,  -0.51248,  -0.36883,  -0.04277,  -0.34226,  -0.64688,  -0.52238,   0.22152,   0.35849,   0.56909,  -0.34299,   0.88592,   0.61735,  -0.31414,  -0.55683,   0.01232,   0.42213,   0.15752,   0.39672,  -0.22789,  -0.68270,  -0.38717,   0.57105,   0.54222,  -0.03261,   0.73509,   0.42093,  -0.12355,  -0.41876,  -0.22517,  -0.15980,  -0.67717,  -0.42630,  -0.27327,  -0.40067,  -0.56837,   0.54918,   0.58035,   0.32144,  -0.26747,  -0.31146,   0.11973,  -0.51767,  -0.24782,  -0.58901,  -0.57549,   0.63029,   0.89208,   0.36916,  -0.61959,   0.60258,   0.35824,   0.13382,   0.54923,  -0.24182,  -0.44930,   0.35929,  -0.42077,  -0.16346,   0.79484,   0.71319,  -0.17921,  -0.03221,  -0.36843,  -0.50782,  -0.68454,   0.56327,  -0.24890,   0.31181,  -0.51145,   0.68655,  -0.68845,  -0.49278,  -0.26356,   0.50053,  -0.53624,  -0.48716,   0.78321,  -0.08092,   0.49229,   0.54906,  -0.55603,  -0.04821,  -0.74767,   0.81646,   0.04979,  -0.28555,  -0.11059,  -0.39277,  -0.04107,  -0.68125,   0.51138,  -0.62519,  -0.49122,   0.35909,   0.05504,  -0.24004,   0.22549,  -0.45380,  -0.38765,  -0.68623,   0.27244,   0.04310,   0.34576,   0.63529,   0.42163,   0.47939,  -0.47371,  -0.59619,   0.22056,  -0.63334,   0.24928,  -0.86146,  -0.46671,  -0.40212
  -0.11200,   0.37502,  -0.21836,   0.47707,   0.53613,   0.24572,  -0.24052,  -0.28471,  -0.39003,   0.62897,  -0.08797,   0.05757,  -0.54676,  -0.28380,  -0.01382,  -0.25226,  -0.45479,  -0.42768,   0.15822,  -0.50046,   0.66966,  -0.23092,   0.10037,   0.81364,   0.74681,   0.32190,  -0.32275,   0.49099,  -0.50422,  -0.42696,   0.42935,   0.06833,   0.24491,  -0.32722,  -0.62663,   0.48876,  -0.39637,   0.72193,   0.11929,   0.78290,  -0.25574,  -0.21727,  -0.16019,   0.33546,  -0.65195,   0.35933,  -0.16860,  -0.33592,   0.67088,  -0.19832,   0.26642,  -0.43960,  -0.16298,  -0.17841,   0.20473,  -0.09999,   0.18987,  -0.02506,  -0.53964,   0.43191,  -0.04510,   0.35678,  -0.54363,   0.29075,  -0.17469,   0.52107,   0.61288,  -0.33412,  -0.16920,  -0.39250,   0.16339,  -0.19527,   0.19490,  -0.26809,  -0.56984,   0.70538,  -0.09463,   0.16118,  -0.41369,  -0.14934,  -0.04949,  -0.61510,  -0.30665,  -0.08027,  -0.24567,  -0.64077,  -0.32887,  -0.24501,  -0.44083,   0.65755,   0.21938,  -0.56561,  -0.10972,  -0.29270,   0.18587,   0.06792,  -0.15223,  -0.36793,  -0.68384,   0.24150,  -0.07745,   0.29101,  -0.39199,  -0.65446,   0.50191,   0.01372,  -0.01371,  -0.47723,  -0.42150,  -0.05267,  -0.26947,   0.37031,  -0.21121,  -0.30909,   0.38852,  -0.51556,   0.09036,   0.76249,   0.57642,  -0.18327,  -0.22077,  -0.26669,   0.15036,  -0.35518,  -0.55040,   0.51896,  -0.37547,  -0.00212
  -0.35657,   0.01682,  -0.43453,   0.87236,   0.65526,  -0.24037,   0.08445,  -0.51018,  -0.66307,   0.64034,   0.07515,   0.38316,   0.37959,   0.41660,   0.81878,   0.80932,  -0.70274,   0.02460,  -0.43386,  -0.42906,   0.18865,  -0.36634,   0.89335,  -0.31621,  -0.16824,  -0.23494,  -0.12778,   0.16776,   0.67971,  -0.75381,  -0.06705,  -0.21640,  -0.60844,  -0.05219,  -0.30721,  -0.20940,  -0.62485,  -0.64893,   0.72573,   0.67487,  -0.25198,  -0.69538,  -0.33594,  -0.53603,  -0.22726,   0.69187,   0.12360,   0.48612,  -0.87176,  -0.22099,  -0.32193,  -0.61522,   0.55043,   0.00896,  -0.34447,   0.69599,  -0.63240,   0.38506,   0.41071,   0.19266,  -0.47591,   0.09022,  -0.64140,   0.37023,  -0.20169,   0.07759,  -0.14142,  -0.22499,  -0.10778,  -0.06724,  -0.61687,   0.82283,   0.10960,  -0.33219,   0.68396,   0.81179,  -0.72678,  -0.68714,  -0.77152,   0.73808,   0.38308,  -0.33302,   0.70570,   0.83060,   0.14005,   0.85958,  -0.12230,   0.10103,   0.68079,  -0.33620,  -0.51292,  -0.69312,  -0.31496,  -0.75985,  -0.29529,  -0.33620,  -0.08456,  -0.36697,   0.40583,  -0.02698,   0.42325,   0.21697,  -0.27130,  -0.33200,   0.30437,   0.60584,  -0.36677,  -0.32988,  -0.04980,  -0.71684,  -0.06698,   0.35474,  -0.18056,   0.23447,  -0.69080,   0.37410,  -0.20158,  -0.01299,  -0.37204,  -0.06561,   0.91130,  -0.09174,   0.93750,  -0.30095,   0.57275,  -0.48444,  -0.15849,  -0.37666
   0.71425,   0.76083,   0.63991,   0.40280,   0.51699,  -0.68291,  -0.16133,  -0.59504,   0.58278,  -0.03860,   0.73836,   0.83756,   0.58345,  -0.75522,  -0.31120,   0.43451,  -0.73450,   0.17791,  -0.28774,  -0.01428,  -0.46010,   0.05836,  -0.09888,  -0.32709,   0.87119,  -0.74134,  -0.28243,  -0.39862,   0.84322,   0.64394,  -0.22020,  -0.22557,  -0.61002,  -0.21168,   0.93140,  -0.47648,  -0.51917,  -0.69372,   0.09366,  -0.55383,  -0.16163,   0.17680,  -0.40678,   0.87275,   0.04626,  -0.28220,   0.07526,  -0.76569,  -0.59010,   0.62431,  -0.34748,   0.49921,  -0.43386,  -0.05202,  -0.12493,   0.93750,  -0.22238,   0.24711,   0.25919,  -0.12799,   0.57218,  -0.00141,   0.47545,  -0.42188,   0.55855,  -0.13317,  -0.14331,   0.05340,  -0.45531,   0.73773,  -0.84407,  -0.44341,   0.93750,   0.78410,  -0.60372,  -0.37674,   0.42942,  -0.76020,   0.89325,   0.35485,  -0.58657,  -0.15156,  -0.68883,   0.68662,  -0.63912,   0.66071,  -0.34507,   0.54617,  -0.51906,  -0.66792,  -0.77095,   0.62559,  -0.14586,  -0.80455,   0.87425,  -0.20042,   0.67197,  -0.12225,   0.35873,  -0.25176,  -0.58750,   0.76326,   0.41792,   0.61098,   0.80887,  -0.36492,   0.58918,   0.11646,   0.02598,   0.40069,   0.32405,   0.43641,  -0.27813,   0.57943,   0.34226,   0.76204,  -0.54843,   0.63724,   0.49629,   0.16543,  -0.32238,  -0.28889,   0.79624,  -0.51903,   0.81383,  -0.60646,   0.28697,  -0.44516
   0.38447,   0.71370,   0.23303,   0.54026,  -0.53454,   0.24578,   0.30316,  -0.50836,   0.89611,  -0.48531,  -0.40418,  -0.47959,  -0.56814,  -0.22952,  -0.28061,  -0.34121,   0.07228,  -0.40033,   0.62639,  -0.24806,   0.18993,  -0.40944,   0.06740,  -0.24677,   0.04416,   0.27120,  -0.15709,  -0.15669,  -0.57840,  -0.31576,   0.09799,  -0.31487,  -0.21641,  -0.25036,  -0.47486,  -0.51302,  -0.01656,   0.77950,  -0.08962,  -0.49247,  -0.21007,  -0.13077,  -0.33947,   0.49073,   0.17412,  -0.28894,  -0.57364,  -0.26865,   0.68417,   0.54245,   0.05269,  -0.04537,  -0.28481,   0.86979,  -0.82145,  -0.47740,  -0.07313,  -0.25118,   0.10070,  -0.11570,  -0.33787,   0.15041,  -0.18426,  -0.54990,   0.30536,   0.26206,   0.13786,  -0.33720,   0.47621,  -0.57892,   0.62193,  -0.61283,   0.56155,  -0.13012,  -0.32680,  -0.36909,  -0.19475,   0.76215,   0.19847,  -0.19506,  -0.10046,  -0.52432,   0.65351,  -0.12775,   0.63159,   0.15316,   0.76320,  -0.37310,  -0.33286,   0.51268,  -0.44219,   0.75792,   0.17442,  -0.12695,  -0.47019,   0.16205,   0.46975,  -0.03450,   0.02362,  -0.43411,  -0.28069,   0.82217,  -0.63862,  -0.33933,   0.84017,   0.07243,   0.67931,   0.76737,   0.03492,  -0.22657,  -0.34362,  -0.54701,   0.07212,   0.31127,  -0.49913,   0.28551,  -0.42821,   0.36254,   0.62948,   0.08370,  -0.35149,  -0.43221,   0.76187,   0.16580,   0.38769,   0.81924,  -0.41213,  -0.53471
  -0.06143,  -0.66685,  -0.15335,   0.53984,   0.70677,  -0.49728,  -0.48771,   0.52174,  -0.27179,   0.78419,  -0.49622,   0.13326,  -0.47406,   0.84733,  -0.32695,  -0.17885,   0.09987,  -0.34819,   0.51017,  -0.46894,  -0.09816,  -0.34198,   0.20972,   0.03353,  -0.49002,   0.05272,  -0.34683,  -0.02022,   0.25841,  -0.23878,  -0.23656,  -0.44621,   0.72313,  -0.46620,  -0.45277,   0.54362,  -0.46868,  -0.40142,   0.17316,  -0.02362,  -0.29357,  -0.35005,   0.83840,  -0.16339,  -0.22219,   0.38914,   0.07455,  -0.37502,   0.54651,  -0.37162,  -0.28071,  -0.03323,  -0.13067,  -0.49300,  -0.30806,  -0.79411,  -0.41338,  -0.05464,   0.77080,   0.56810,   0.78425,   0.24691,  -0.56022,  -0.59072,  -0.08956,  -0.04896,  -0.06087,   0.54202,  -0.16618,  -0.19898,   0.37931,   0.85569,  -0.23933,  -0.28256,   0.84533,   0.57387,  -0.65906,   0.10159,  -0.26086,   0.16958,   0.51945,  -0.46251,  -0.44657,   0.08696,  -0.41360,  -0.33004,  -0.61664,   0.23451,   0.72715,  -0.35471,  -0.23634,   0.36881,  -0.39496,  -0.64353,  -0.76103,  -0.08377,  -0.04100,  -0.36523,   0.40861,   0.89934,   0.58994,  -0.38880,  -0.54235,  -0.18296,   0.00828,   0.79522,  -0.13246,   0.20682,   0.13752,  -0.41753,   0.12164,   0.84024,  -0.52500,   0.79216,  -0.43599,   0.10255,   0.17380,   0.09197,   0.40535,  -0.50002,   0.86860,  -0.44551,  -0.02678,  -0.18972,   0.37066,  -0.51733,  -0.37070,  -0.03004
   0.07628,   0.90867,  -0.41778,   0.63599,  -0.13153,  -0.34822,   0.40697,   0.11609,  -0.40669,  -0.36441,   0.12535,  -0.25818,   0.49503,  -0.13666,  -0.62812,   0.75459,   0.32947,  -0.43596,   0.17986,   0.19049,   0.59557,  -0.20887,  -0.30438,   0.26049,   0.35137,  -0.61257,  -0.33542,  -0.15216,   0.56689,   0.12083,  -0.47187,  -0.20338,   0.03353,  -0.33641,   0.78734,  -0.69039,  -0.27751,  -0.20599,   0.05607,  -0.73658,  -0.36224,  -0.41843,  -0.52798,  -0.22661,   0.30571,  -0.35317,  -0.24741,  -0.31351,   0.55660,  -0.50738,  -0.12119,  -0.53013,  -0.33451,  -0.14873,   0.27673,  -0.13599,   0.07848,  -0.51562,   0.58518,  -0.49064,  -0.26394,  -0.48274,   0.75956,  -0.28619,  -0.35618,   0.16089,   0.08584,  -0.28252,   0.92990,  -0.61076,  -0.20118,  -0.67537,   0.56007,  -0.23824,  -0.26109,  -0.66377,   0.19875,   0.35388,   0.67417,  -0.02651,  -0.18715,  -0.38677,  -0.65645,   0.33719,   0.54785,   0.05392,  -0.51573,  -0.19794,  -0.33915,  -0.56201,  -0.67800,  -0.13475,   0.30842,  -0.37917,  -0.30386,  -0.60095,  -0.20837,   0.07619,   0.88251,  -0.36491,  -0.23366,  -0.36037,  -0.15410,   0.86000,  -0.19428,   0.48108,   0.74000,   0.61785,   0.21852,  -0.15133,  -0.29902,  -0.18399,  -0.40758,   0.88574,   0.23898,   0.80836,  -0.30757,   0.83296,   0.07701,  -0.34223,   0.16240,  -0.37870,  -0.15617,   0.09638,   0.12194,   0.22167,  -0.10493,  -0.18716
   0.38438,   0.31598,  -0.50701,   0.31295,   0.22754,   0.75536,  -0.26788,   0.12268,  -0.44021,   0.63022,   0.01691,  -0.51788,  -0.47819,   0.29789,   0.04650,   0.55388,   0.87475,  -0.43227,   0.23214,  -0.30718,  -0.06599,  -0.17427,   0.48707,  -0.13922,  -0.20597,  -0.39762,  -0.39925,  -0.12024,  -0.27076,  -0.70103,  -0.15415,  -0.16421,  -0.46882,   0.61898,   0.07261,   0.64758,   0.26214,   0.35014,  -0.26769,  -0.57117,  -0.58989,  -0.67485,   0.23181,  -0.50086,  -0.25127,  -0.01992,  -0.11722,   0.68651,  -0.43706,  -0.59338,   0.74235,  -0.21359,  -0.23526,   0.41510,  -0.52478,  -0.65336,  -0.38759,  -0.52477,   0.48118,  -0.17331,  -0.29984,  -0.51584,  -0.42224,   0.55655,   0.14578,  -0.38978,   0.06633,  -0.43558,  -0.20159,  -0.39930,   0.83893,   0.00469,   0.74174,   0.35668,  -0.14236,  -0.65329,  -0.28064,   0.06463,  -0.30109,  -0.46915,   0.13674,   0.29638,   0.06221,  -0.23807,  -0.00069,  -0.23551,   0.56312,   0.20693,  -0.06789,   0.41395,   0.36942,  -0.75973,   0.01599,   0.60289,  -0.39131,   0.30758,   0.20183,  -0.08202,   0.74109,   0.39388,   0.56783,   0.86990,  -0.51551,  -0.52052,   0.14583,   0.22884,   0.70342,   0.53861,   0.88113,  -0.21256,  -0.68281,  -0.68833,  -0.22273,  -0.62654,  -0.56433,  -0.18478,  -0.36929,  -0.32966,  -0.17980,  -0.64506,  -0.21360,   0.50264,   0.53351,  -0.55954,   0.02170,   0.74258,  -0.07841,  -0.44000
