  -0.76340,   0.92825,  -0.80115,   0.03317,   0.32187,   0.21420,  -0.65039,  -0.40195,   0.88308,   0.65232
  -0.02013,   0.87622,  -0.93750,   0.42347,   0.30452,   0.29604,   0.54776,   0.93750,   0.93750,  -0.78347
   0.93750,   0.93750,  -0.08653,   0.36993,  -0.93750,  -0.30893,   0.93750,  -0.01423,   0.93750,   0.93750
  -0.82178,  -0.20903,  -0.22899,   0.33968,  -0.74532,  -0.16260,   0.09580,  -0.26573,  -0.10601,  -0.93750
   0.62957,   0.61742,  -0.40481,  -0.04204,   0.36452,  -0.33288,   0.26296,  -0.18322,   0.81225,  -0.51037
  -0.14870,  -0.16656,   0.44806,   0.22986,   0.69470,   0.74472,  -0.51346,  -0.43588,  -0.16578,   0.81333
   0.19650,   0.42943,  -0.92315,   0.21226,   0.14367,  -0.84022,  -0.23822,   0.86427,   0.32386,  -0.75620
   0.31791,  -0.35020,  -0.46640,   0.93750,  -0.83941,   0.93750,  -0.61929,   0.11878,  -0.23216,  -0.28217
  -0.38060,  -0.55761,   0.87939,  -0.87370,   0.87297,  -0.83744,  -0.45356,  -0.87678,  -0.93750,   0.65654
  -0.40329,   0.93750,  -0.78416,   0.60786,   0.93750,  -0.88772,  -0.39214,  -0.93750,  -0.93750,  -0.80859
  -0.62984,  -0.61355,   0.81830,   0.93750,  -0.63405,   0.93750,  -0.73545,  -0.44987,  -0.08397,  -0.40470
   0.30651,   0.61762,  -0.63096,   0.61330,   0.56021,  -0.56391,  -0.80848,   0.30338,  -0.70167,   0.28437
  -0.22407,   0.44229,  -0.69660,   0.20929,   0.93750,  -0.45139,  -0.37288,   0.81989,  -0.26404,  -0.21980
   0.75735,   0.93750,   0.28014,   0.04509,  -0.45817,   0.45527,   0.10402,   0.02716,   0.80423,  -0.09887
   0.75016,   0.93750,   0.80361,   0.13484,   0.81648,   0.39454,  -0.93381,  -0.90441,   0.69516,   0.93750
   0.19341,   0.16323,  -0.90452,  -0.88155,   0.73852,   0.93750,   0.93750,   0.87523,  -0.87167,  -0.19746
  -0.93750,  -0.19615,  -0.93750,   0.93750,  -0.93750,   0.87820,   0.69185,  -0.93750,   0.43548,  -0.30859
  -0.38974,   0.93750,  -0.54941,  -0.59236,  -0.93750,   0.35502,  -0.80201,  -0.74059,   0.23177,  -0.57426
   0.22001,   0.93750,   0.20531,   0.88262,   0.00020,  -0.93750,  -0.38693,  -0.20410,  -0.18368,   0.81827
   0.46137,   0.11825,   0.24909,  -0.08796,  -0.02804,  -0.07164,  -0.23992,   0.50672,  -0.77802,   0.05611
  -0.31773,  -0.87987,   0.79320,  -0.93750,   0.93750,  -0.10866,   0.18347,  -0.79240,   0.67716,   0.87755
  -0.27606,  -0.60834,  -0.43354,   0.51724,  -0.81456,   0.12895,  -0.15264,  -0.93750,   0.16944,  -0.74067
   0.55941,  -0.93750,   0.93750,  -0.56335,   0.93750,   0.89254,  -0.88214,  -0.93750,   0.93750,  -0.29068
  -0.48230,   0.93750,  -0.93750,  -0.09547,   0.23108,  -0.25359,   0.93750,   0.93750,   0.46036,  -0.35561
  -0.47628,   0.66112,   0.74949,  -0.07677,   0.93750,   0.81310,  -0.21551,  -0.47799,   0.67608,  -0.11649
  -0.87185,   0.66156,   0.46078,   0.59498,   0.40716,  -0.18284,  -0.81133,  -0.79592,  -0.22295,  -0.17812
  -0.76943,  -0.73333,  -0.39670,  -0.67124,   0.75963,  -0.10862,  -0.11877,   0.93750,   0.18852,  -0.80989
   0.29341,   0.19388,  -0.57689,   0.69161,  -0.40470,  -0.01346,  -0.01279,   0.04545,   0.67158,   0.82674
  -0.93750,  -0.13524,  -0.93750,   0.13014,  -0.93750,  -0.06686,  -0.77226,   0.93750,   0.09126,   0.11944
   0.27058,   0.74894,  -0.54011,  -0.74164,   0.16880,  -0.41118,  -0.45125,  -0.80624,   0.93750,   0.90172
   0.57695,  -0.67118,   0.92036,  -0.58750,  -0.47270,  -0.72894,  -0.88330,   0.36279,   0.04465,  -0.12040
   0.55750,   0.58434,   0.05492,   0.83609,  -0.03490,   0.13286,   0.93750,  -0.93750,   0.93750,   0.54674
   0.86769,  -0.86759,  -0.06848,  -0.37978,   0.93750,   0.73624,   0.93750,  -0.23576,  -0.20908,  -0.20183
   0.73803,   0.34391,  -0.69052,   0.24025,   0.87951,   0.61025,  -0.57429,  -0.42481,  -0.75522,  -0.77541
   0.22380,  -0.23056,  -0.01405,  -0.29284,   0.93750,   0.16052,   0.93750,   0.81734,   0.88046,  -0.06890
  -0.65036,   0.29535,  -0.93750,  -0.01618,   0.08093,   0.93750,   0.93750,  -0.93750,  -0.27503,   0.93750
   0.56691,   0.87325,   0.87803,  -0.86922,  -0.93750,  -0.13447,   0.07886,  -0.15901,  -0.22222,   0.80598
   0.05288,   0.87874,  -0.56379,  -0.93750,  -0.87998,  -0.93750,   0.59656,   0.76017,   0.93750,   0.60443
  -0.08032,   0.61113,   0.80983,   0.13116,   0.50762,  -0.24761,  -0.93750,  -0.34149,   0.01694,   0.39509
   0.93750,   0.39826,   0.93750,  -0.41591,   0.20973,  -0.83359,   0.01161,  -0.30528,   0.89100,  -0.11520
   0.93750,  -0.59751,  -0.93750,  -0.51226,   0.19478,  -0.43398,   0.35193,   0.75975,   0.93750,  -0.26528
   0.21753,   0.55656,   0.50540,  -0.69625,   0.74672,  -0.63582,  -0.07712,  -0.57007,  -0.09783,   0.71935
  -0.33976,  -0.11936,  -0.69787,   0.33694,   0.78463,  -0.35592,   0.93750,   0.02652,  -0.61896,   0.93750
   0.93750,   0.82951,   0.67799,   0.27623,   0.93750,  -0.93750,   0.93750,   0.93750,   0.26844,   0.93750
  -0.06044,  -0.05634,  -0.25171,  -0.30639,   0.60013,   0.63626,  -0.92379,   0.92685,   0.76745,   0.39013
  -0.09705,   0.40799,   0.46736,  -0.32767,   0.63987,   0.16376,   0.06993,  -0.28581,   0.14300,   0.50084
   0.60624,   0.73519,  -0.81883,  -0.87104,   0.93750,   0.93750,  -0.01771,  -0.93750,   0.10000,   0.93316
  -0.60329,  -0.65315,   0.74050,   0.28751,   0.51432,   0.80859,   0.79449,  -0.60539,   0.16797,  -0.73355
   0.29370,   0.67127,  -0.72776,  -0.87817,   0.93750,  -0.46621,   0.68715,   0.87999,  -0.63807,  -0.01740
  -0.02735,   0.93750,   0.20752,  -0.29290,   0.26712,   0.01595,  -0.63159,   0.05709,  -0.87029,  -0.87528
  -0.69820,  -0.74935,  -0.24111,  -0.07354,   0.59820,  -0.55018,   0.37574,  -0.63732,   0.30921,   0.67117
   0.27784,   0.14525,   0.18014,  -0.20472,   0.05041,  -0.41727,   0.21142,   0.87266,  -0.42158,   0.92405
   0.69641,   0.87113,  -0.92825,   0.14200,  -0.74865,   0.71351,   0.56895,   0.24462,   0.03439,   0.87508
  -0.29830,   0.93750,  -0.36835,   0.02459,   0.26527,  -0.55395,  -0.26466,  -0.64279,  -0.50954,  -0.77793
  -0.39859,  -0.17756,  -0.58980,  -0.74418,   0.79825,   0.71389,  -0.56782,   0.93019,   0.04842,  -0.00365
  -0.16429,   0.93033,  -0.41062,  -0.27157,   0.92244,   0.71149,  -0.93435,   0.80623,   0.22392,   0.12707
  -0.84903,   0.75517,   0.09456,  -0.17515,  -0.84421,  -0.33942,   0.60756,   0.10876,   0.93020,  -0.23270
  -0.37849,  -0.83148,  -0.72329,  -0.60977,   0.09319,  -0.68923,   0.88341,  -0.86949,   0.80956,  -0.81569
  -0.87556,  -0.05943,   0.09245,  -0.63534,  -0.93750,  -0.43527,  -0.86901,  -0.87536,   0.33034,  -0.93750
  -0.45019,  -0.79768,  -0.86859,  -0.86768,  -0.64848,   0.93750,  -0.59792,  -0.93750,  -0.90707,  -0.09448
  -0.93750,   0.93750,   0.93750,   0.93750,   0.60670,   0.93750,   0.93750,   0.93750,  -0.93750,   0.24394
  -0.93750,   0.22452,  -0.76273,   0.93750,   0.93750,  -0.88144,   0.93750,  -0.62677,   0.20416,  -0.29796
  -0.20332,  -0.00986,   0.47746,  -0.20209,   0.67130,  -0.25900,   0.76697,   0.56011,  -0.34286,   0.37585
   0.67796,  -0.14233,   0.93750,  -0.51590,   0.81341,  -0.09275,   0.42939,  -0.93750,   0.25721,  -0.27078
  -0.70221,   0.08732,   0.92813,  -0.45499,  -0.86350,  -0.37527,  -0.14590,   0.74659,  -0.12860,  -0.11809
  -0.36233,  -0.53928,  -0.58475,  -0.59332,  -0.16306,   0.87461,  -0.32612,   0.73724,   0.91988,   0.22453
  -0.00832,   0.10193,   0.63330,  -0.67817,  -0.07951,   0.22980,  -0.30953,   0.74474,   0.62482,   0.45618
   0.69104,   0.40520,   0.34122,  -0.66137,   0.05400,   0.92924,   0.18062,   0.06242,   0.60265,   0.45521
  -0.24705,   0.81994,  -0.81267,  -0.40192,  -0.80402,  -0.69316,  -0.24403,   0.93750,  -0.48089,   0.38199
  -0.93750,  -0.05865,   0.93750,   0.26753,   0.56510,  -0.93750,  -0.67159,  -0.87542,  -0.68863,   0.17436
  -0.78701,   0.13257,   0.90024,  -0.11907,   0.93750,  -0.11406,  -0.51033,  -0.62758,  -0.09574,  -0.18313
   0.93750,   0.78777,   0.93750,  -0.66944,   0.25404,  -0.00970,  -0.47326,  -0.00431,  -0.28352,  -0.04551
   0.22626,  -0.93750,  -0.56307,  -0.37565,  -0.93750,  -0.77160,   0.33777,  -0.41369,  -0.93750,   0.93750
  -0.93750,  -0.86640,  -0.93750,   0.93750,  -0.74053,   0.62783,  -0.81495,   0.80698,   0.61815,  -0.93750
  -0.47506,   0.86942,   0.12451,   0.07314,  -0.10975,  -0.18523,   0.66637,  -0.49098,  -0.10585,   0.44826
  -0.30389,   0.93750,   0.03110,  -0.93750,  -0.93750,  -0.64672,   0.27606,   0.78869,   0.17305,  -0.74779
  -0.87024,   0.93750,  -0.65436,  -0.78482,  -0.93750,  -0.80313,   0.75109,   0.66520,   0.31745,   0.08164
  -0.77285,   0.93750,   0.72378,  -0.93750,   0.93750,   0.93750,  -0.24350,   0.93086,   0.08448,  -0.64364
  -0.68349,   0.00672,   0.52619,   0.87227,  -0.18664,  -0.50855,   0.93750,   0.93750,  -0.14807,   0.58749
   0.89209,  -0.46364,  -0.93750,  -0.75120,  -0.80913,   0.93750,  -0.69426,   0.59402,   0.87338,   0.81626
   0.56769,  -0.26879,  -0.72353,   0.93750,  -0.01637,  -0.20417,   0.21030,   0.19625,   0.67626,   0.58492
   0.88804,  -0.93750,  -0.00521,  -0.93750,  -0.82666,  -0.87388,   0.81821,  -0.87835,  -0.75088,  -0.87603
  -0.10456,   0.89856,  -0.06187,   0.01576,   0.88155,   0.04336,   0.06834,  -0.40193,   0.79175,  -0.63621
   0.02437,  -0.27001,   0.61697,   0.05471,   0.84129,  -0.14692,   0.16756,  -0.58945,  -0.02092,   0.63279
  -0.18843,   0.86272,  -0.08226,  -0.39614,   0.72136,  -0.41343,   0.86617,   0.04457,   0.40744,  -0.41321
   0.60629,  -0.93750,  -0.38848,   0.93750,   0.93750,   0.93750,  -0.81881,   0.89154,  -0.69097,  -0.88236
   0.28752,   0.68322,  -0.38800,  -0.63794,   0.23235,  -0.70011,   0.44373,  -0.32332,  -0.54875,  -0.49465
  -0.72904,   0.71312,   0.17266,  -0.60975,   0.86135,  -0.13428,   0.01306,  -0.44576,   0.24725,   0.03292
   0.42054,   0.65794,  -0.93750,   0.93750,  -0.33543,  -0.93750,  -0.93750,   0.93750,   0.93750,  -0.93750
   0.90739,   0.56386,  -0.48390,   0.63421,  -0.59255,   0.35496,  -0.05537,  -0.68337,  -0.17132,   0.22737
  -0.93750,   0.93750,   0.86887,  -0.93750,   0.74961,  -0.75257,  -0.22807,   0.87921,  -0.37366,  -0.83636
   0.88143,   0.29770,   0.39414,   0.59437,  -0.93750,  -0.93750,   0.81471,   0.73928,   0.93750,  -0.23450
   0.62409,   0.74432,  -0.93750,   0.06656,  -0.26844,  -0.30446,  -0.89322,   0.40968,  -0.53955,  -0.86954
   0.22261,  -0.54784,  -0.08634,  -0.82372,   0.69822,  -0.89313,  -0.33130,  -0.62404,   0.65610,   0.93750
  -0.42722,   0.93750,  -0.34955,  -0.06301,  -0.41180,  -0.57272,  -0.55505,   0.59676,  -0.29191,  -0.85548
   0.87045,   0.46430,  -0.40060,  -0.01768,   0.93750,  -0.57694,  -0.16534,  -0.93750,  -0.57711,  -0.12328
  -0.93750,   0.15018,   0.93750,   0.29249,  -0.81278,   0.79572,  -0.54450,  -0.85950,  -0.93750,   0.30777
  -0.46964,  -0.87553,  -0.07085,   0.23941,   0.13057,  -0.29889,   0.16286,  -0.21077,  -0.64778,   0.93427
  -0.36590,   0.58847,   0.86865,  -0.45854,   0.34402,   0.22405,  -0.52273,   0.03466,   0.25051,  -0.73505
  -0.75595,   0.44532,  -0.18441,   0.93750,  -0.43436,   0.82664,   0.09335,  -0.80353,   0.81623,  -0.52497
  -0.44171,   0.26571,   0.39655,  -0.80243,   0.81780,  -0.47224,  -0.93179,   0.86568,  -0.45828,  -0.62394
  -0.93750,  -0.57765,   0.93750,   0.93750,  -0.92374,   0.66704,  -0.80265,   0.93750,  -0.09769,  -0.73343
  -0.74728,  -0.93750,   0.85095,  -0.93750,  -0.66235,   0.93750,  -0.87151,  -0.37705,   0.20420,   0.93750
  -0.27502,   0.76833,   0.76001,  -0.67667,  -0.81759,  -0.25683,  -0.04523,   0.07105,  -0.65923,  -0.45420
   0.56361,   0.14615,  -0.75435,  -0.87880,  -0.14731,  -0.45321,   0.83346,  -0.07029,  -0.44413,   0.83822
   0.41271,   0.47945,  -0.93750,  -0.63164,   0.22339,   0.06383,   0.93750,  -0.53489,  -0.93750,   0.45562
  -0.05870,  -0.33684,   0.19645,   0.27524,   0.93750,  -0.81298,   0.56378,  -0.93750,  -0.93750,   0.24285
   0.59902,  -0.28461,   0.88375,  -0.66531,  -0.52128,  -0.64840,  -0.29059,   0.81049,  -0.22759,   0.12388
   0.93750,  -0.93750,   0.75410,  -0.47030,   0.87688,   0.13633,  -0.20452,   0.22057,  -0.86744,   0.21851
   0.92966,   0.02893,  -0.44453,   0.78838,   0.75801,   0.04717,  -0.93750,  -0.37483,   0.87308,  -0.75726
  -0.00013,  -0.47565,  -0.75703,  -0.76243,   0.55123,   0.04435,   0.93750,   0.82751,  -0.73010,   0.82245
   0.82764,  -0.79871,   0.06540,  -0.14516,  -0.19868,  -0.81580,  -0.75918,  -0.65177,  -0.49778,   0.81540
  -0.88527,   0.93750,  -0.93750,   0.47627,   0.93750,  -0.93750,   0.27610,   0.93750,   0.68663,  -0.36135
   0.93750,   0.05292,   0.37900,   0.93750,  -0.08213,  -0.44228,   0.88527,  -0.93750,   0.47621,  -0.13603
   0.48952,   0.78331,  -0.69511,   0.00716,  -0.67278,  -0.43653,  -0.53457,  -0.44189,   0.69441,   0.72711
  -0.29042,   0.61830,  -0.62072,   0.87671,   0.57598,   0.28654,   0.29510,  -0.42985,   0.89138,  -0.32761
   0.71524,   0.80012,  -0.00009,   0.17025,   0.89416,  -0.06853,   0.39756,  -0.42076,  -0.01583,  -0.37258
   0.87720,  -0.74797,  -0.73153,   0.32869,  -0.17082,   0.75436,   0.85765,   0.51093,   0.64521,  -0.79956
   0.86513,  -0.93750,   0.43122,   0.77504,  -0.81059,   0.06575,   0.88817,  -0.80602,  -0.48205,   0.31863
   0.80207,  -0.00734,   0.40871,   0.42823,   0.03325,  -0.44308,  -0.83708,   0.15110,  -0.80976,  -0.64254
  -0.10635,   0.93750,  -0.87767,   0.49755,   0.43902,  -0.80218,   0.67979,   0.93750,   0.47499,  -0.80192
  -0.39699,  -0.03856,   0.93750,  -0.40902,   0.45999,  -0.88355,  -0.56193,  -0.67939,  -0.73147,   0.93750
   0.93750,   0.93750,  -0.74447,  -0.93750,   0.09400,  -0.93750,   0.93750,   0.80694,   0.86804,   0.86630
  -0.93750,  -0.32286,   0.26447,  -0.93750,  -0.93750,  -0.90261,  -0.88399,  -0.06744,  -0.75496,   0.93750
  -0.87110,  -0.75013,   0.93750,   0.03295,  -0.15341,   0.09749,   0.13194,   0.87241,  -0.93750,   0.74960
  -0.81047,  -0.80000,  -0.93750,   0.93750,   0.03212,  -0.37211,   0.93750,   0.10959,   0.93750,  -0.38948
  -0.50199,   0.93750,   0.80444,   0.93750,  -0.04504,   0.67226,   0.23605,  -0.60857,  -0.86671,  -0.78397
   0.48620,  -0.89638,  -0.45519,  -0.13234,   0.07214,  -0.02174,  -0.70545,   0.07651,   0.87161,  -0.17148
   0.26357,  -0.13657,  -0.15539,  -0.89178,   0.77781,  -0.24516,   0.69266,  -0.35046,   0.22863,  -0.00163
   0.87107,   0.36901,   0.10871,   0.93750,   0.93750,  -0.82289,   0.93750,  -0.74897,  -0.93750,   0.93750
   0.69098,  -0.87370,  -0.12916,   0.86816,   0.91410,  -0.81380,  -0.43806,  -0.44836,   0.37312,  -0.73013
   0.15980,  -0.02951,  -0.93750,  -0.93750,  -0.63215,   0.53065,   0.93750,   0.48796,   0.81597,   0.44598
  -0.37942,   0.09038,   0.81767,  -0.54123,  -0.93750,   0.90186,  -0.93750,  -0.93750,   0.55721,  -0.61538
   0.93750,   0.11818,  -0.93750,  -0.93063,   0.51510,  -0.74761,  -0.85874,   0.39799,   0.54201,   0.17720
  -0.91061,   0.28041,   0.73201,  -0.92977,   0.46151,  -0.62216,   0.86641,  -0.26998,  -0.07796,  -0.09694
   0.87398,   0.51450,  -0.93750,  -0.75679,   0.79202,  -0.38229,   0.69291,   0.93750,   0.66834,  -0.87191
   0.11957,  -0.31857,   0.07094,   0.92774,  -0.15683,   0.57808,  -0.85829,  -0.33606,  -0.28165,  -0.62279
  -0.06813,   0.63344,  -0.88085,   0.84147,  -0.57392,   0.69421,  -0.93750,  -0.16330,   0.31909,  -0.93750
  -0.36266,   0.49675,  -0.93750,   0.28132,  -0.47675,  -0.44045,   0.93750,  -0.69061,   0.93750,  -0.30966
   0.11756,  -0.56154,  -0.63865,   0.93750,   0.16717,  -0.08613,  -0.02531,   0.93750,  -0.25508,   0.05904
   0.08080,  -0.05251,   0.76317,   0.93750,   0.48670,   0.77381,  -0.93750,   0.93750,   0.93750,   0.07825
   0.93750,   0.68444,  -0.52717,   0.71444,   0.46540,   0.39079,   0.04662,  -0.80577,  -0.82537,  -0.69555
  -0.37652,   0.82831,   0.53815,   0.55100,  -0.66718,   0.71502,  -0.55919,  -0.47580,  -0.10928,   0.92476
  -0.12079,   0.75103,  -0.18394,  -0.40810,  -0.51030,  -0.18838,   0.05812,   0.01634,   0.20817,   0.56746
   0.86105,  -0.28152,  -0.61828,   0.17825,  -0.34045,  -0.08547,  -0.61046,   0.03526,   0.81843,  -0.49422
   0.41653,   0.68512,   0.93750,  -0.61811,   0.93748,   0.33016,  -0.05291,  -0.90859,  -0.87963,   0.24903
  -0.58616,   0.21837,   0.93750,  -0.06375,   0.93750,  -0.68185,  -0.32278,   0.77830,   0.15028,   0.93750
  -0.80924,  -0.78392,   0.57737,  -0.80387,   0.46640,  -0.48705,   0.13770,  -0.41927,   0.92889,  -0.79730
   0.93750,  -0.27079,  -0.64469,   0.70171,  -0.46803,   0.09636,   0.67772,  -0.16110,  -0.89360,  -0.55919
   0.86456,  -0.93750,   0.54520,  -0.93750,  -0.77059,   0.60190,   0.80668,  -0.93750,   0.31787,   0.93750
  -0.24095,  -0.41440,  -0.61291,   0.38277,   0.01747,   0.21146,   0.52638,   0.51226,   0.11610,   0.04348
   0.12006,   0.87931,  -0.10714,   0.50147,   0.13498,   0.37493,  -0.46244,   0.06203,   0.80637,  -0.78649
  -0.70627,  -0.45410,  -0.74923,  -0.53791,   0.12708,   0.55673,   0.00283,   0.32804,   0.12977,   0.23685
  -0.93750,   0.93750,  -0.93750,   0.93750,   0.93750,   0.93750,  -0.70922,   0.22346,  -0.37344,   0.93750
   0.37077,  -0.15785,  -0.87026,   0.36310,   0.88013,  -0.93750,   0.87500,  -0.53918,   0.48528,  -0.74533
  -0.09043,   0.62313,   0.41544,   0.81723,   0.37167,   0.53974,   0.81483,  -0.93750,  -0.59395,   0.93750
  -0.14019,   0.76826,   0.36002,   0.74483,   0.03717,   0.33519,  -0.14870,   0.64357,   0.52746,  -0.69375
  -0.74617,   0.27663,   0.05189,  -0.27166,  -0.29371,  -0.27426,   0.07490,   0.05677,   0.93750,  -0.19320
   0.58563,   0.93750,   0.87796,  -0.50053,   0.55558,   0.49597,  -0.58002,   0.56365,  -0.55893,  -0.12950
   0.58397,   0.86692,  -0.69199,  -0.34550,   0.93750,  -0.43085,  -0.88591,   0.87386,   0.93750,  -0.22428
   0.81171,   0.77620,  -0.88002,  -0.12230,  -0.32407,  -0.31186,  -0.04955,   0.39267,   0.11663,   0.36066
  -0.44086,  -0.62732,  -0.31483,  -0.79584,  -0.62354,  -0.76283,   0.93750,   0.09448,  -0.05704,   0.08300
   0.50776,  -0.87690,   0.93750,  -0.33469,   0.87822,   0.91128,  -0.62239,  -0.21296,  -0.74015,  -0.88353
   0.62164,  -0.30628,  -0.56701,   0.32989,   0.56402,   0.26442,   0.61505,  -0.20752,   0.93750,   0.93750
  -0.38634,  -0.11242,  -0.87753,   0.87033,  -0.26671,  -0.25015,   0.68613,   0.23702,   0.29962,   0.29837
   0.93750,   0.93750,   0.58366,   0.41872,   0.26334,   0.87441,  -0.82542,   0.91073,  -0.81046,  -0.10543
  -0.92829,   0.80543,  -0.00205,  -0.69970,  -0.42202,  -0.73178,  -0.07801,  -0.67708,  -0.63043,   0.93524
   0.54092,   0.93750,  -0.50155,   0.49034,  -0.40365,  -0.87532,   0.29979,   0.02293,  -0.28444,   0.45573
  -0.57723,  -0.32097,   0.93750,   0.88179,   0.75337,  -0.82215,  -0.41893,  -0.28259,  -0.84960,  -0.20954
  -0.86981,   0.86831,  -0.02654,  -0.61798,  -0.29877,  -0.41579,  -0.50206,   0.52514,   0.44475,  -0.46221
   0.93750,  -0.34505,  -0.29885,  -0.45024,   0.80809,  -0.60247,  -0.27295,  -0.85160,  -0.79583,  -0.63998
   0.50660,   0.11685,  -0.58482,   0.81399,   0.00100,  -0.93750,  -0.43443,   0.87911,   0.82089,  -0.17264
  -0.33850,   0.06907,  -0.68653,  -0.57236,   0.88992,   0.52358,  -0.49391,   0.68229,   0.59602,   0.31437
   0.05261,  -0.67893,   0.00016,  -0.55842,   0.30604,   0.93750,   0.30104,  -0.24218,  -0.31820,   0.78967
  -0.93750,   0.00775,  -0.56064,   0.93750,  -0.93750,  -0.85441,   0.93750,   0.24004,   0.93750,   0.46666
   0.24230,   0.87864,   0.19756,   0.40651,  -0.80959,  -0.88084,   0.58894,  -0.00733,   0.42990,  -0.87292
  -0.36999,  -0.34641,  -0.22139,   0.21668,   0.08524,  -0.93750,   0.92325,   0.26988,   0.93750,   0.75057
  -0.31456,   0.13753,   0.70694,   0.13516,   0.68442,  -0.85492,  -0.09729,   0.53958,   0.85635,   0.27808
   0.81966,   0.67379,  -0.23261,   0.23056,  -0.17120,   0.25431,  -0.25706,   0.68975,   0.87910,  -0.50689
  -0.42667,  -0.13126,   0.40452,  -0.49938,   0.45450,  -0.35390,  -0.93750,   0.76466,  -0.27914,   0.62329
  -0.38225,  -0.43149,   0.79830,  -0.21797,   0.00480,   0.32800,   0.35315,   0.83553,  -0.26327,   0.48315
   0.81128,  -0.23440,   0.93508,   0.37185,   0.91642,   0.46063,   0.88322,  -0.81044,  -0.92896,  -0.37889
   0.07023,  -0.88517,  -0.61337,   0.66829,  -0.38953,  -0.16666,   0.35241,  -0.26944,  -0.72930,   0.02175
  -0.74379,  -0.93750,   0.06393,  -0.93750,   0.93750,  -0.38001,   0.22592,   0.60886,   0.70660,   0.35988
  -0.13423,   0.15824,   0.78346,   0.54851,  -0.40561,   0.22006,   0.38229,   0.20854,   0.22685,   0.41927
  -0.68679,  -0.33433,   0.59474,   0.93750,  -0.93750,  -0.82526,   0.15636,   0.93750,   0.43862,   0.93750
  -0.87962,  -0.31021,  -0.32167,  -0.74540,  -0.27422,   0.93750,  -0.76172,  -0.40158,   0.35101,  -0.78089
  -0.69694,  -0.87203,  -0.23646,   0.51969,  -0.60247,  -0.24065,   0.74956,  -0.40547,   0.88024,   0.86810
   0.88253,   0.93750,   0.86942,   0.08341,  -0.44387,   0.14346,   0.79268,   0.31559,   0.87994,  -0.23553
  -0.06980,  -0.82054,   0.28668,  -0.71328,  -0.81562,   0.28345,  -0.21904,  -0.12602,  -0.08168,  -0.80101
  -0.74946,  -0.12891,  -0.93750,  -0.16038,   0.32737,  -0.76242,   0.09976,   0.57699,   0.93750,   0.64624
  -0.21475,   0.82269,   0.41910,   0.80323,  -0.60549,  -0.21118,   0.06541,   0.40037,  -0.31925,   0.54803
   0.35553,  -0.09775,  -0.26199,  -0.56958,  -0.61116,   0.87620,  -0.49067,   0.41355,  -0.75574,   0.87822
   0.89440,   0.93750,   0.22354,   0.22751,   0.92896,   0.12317,  -0.37940,  -0.87720,   0.28673,  -0.57037
  -0.38832,   0.67308,  -0.29978,  -0.52091,  -0.73224,   0.93750,   0.71234,  -0.04046,   0.16838,   0.16413
   0.87947,   0.93750,   0.53078,   0.93750,  -0.45078,  -0.87013,   0.01991,  -0.17913,  -0.29007,  -0.93750
  -0.53225,  -0.63661,   0.93750,   0.93750,   0.81024,  -0.33139,  -0.06315,  -0.69025,  -0.93750,  -0.41687
   0.47489,   0.57655,   0.10473,  -0.86966,  -0.75623,  -0.02816,  -0.87562,   0.45116,   0.49974,   0.88250
  -0.61921,   0.45120,  -0.41763,   0.53179,   0.63058,  -0.00063,   0.20148,   0.22983,   0.12304,  -0.93750
  -0.62253,   0.42674,   0.90141,  -0.72875,   0.62550,   0.06969,   0.03586,   0.68502,   0.09359,  -0.20946
   0.03487,   0.14375,   0.56722,  -0.18482,  -0.56191,   0.81051,   0.66290,   0.12745,   0.23066,   0.86639
   0.39875,   0.00920,   0.75383,  -0.30988,  -0.35704,  -0.32126,   0.87119,   0.60244,   0.59355,   0.35532
   0.35703,  -0.58009,   0.27376,  -0.92874,   0.87015,   0.93750,  -0.93750,  -0.28630,  -0.13613,  -0.36147
  -0.76216,   0.62953,  -0.05819,   0.87703,   0.36691,   0.19198,  -0.57495,  -0.73604,  -0.10611,  -0.36063
  -0.89228,   0.53559,   0.88836,  -0.62831,   0.36587,  -0.39923,   0.68348,  -0.55131,  -0.59169,  -0.62450
  -0.05717,   0.56751,   0.54300,   0.03444,   0.54372,   0.00447,   0.44275,  -0.22937,   0.25979,  -0.11806
   0.29830,   0.85255,   0.54561,  -0.86954,   0.87296,  -0.79243,   0.33677,   0.88798,  -0.09844,  -0.88242
  -0.19721,  -0.93006,   0.75307,  -0.89428,  -0.87159,  -0.93750,  -0.75011,  -0.87771,   0.93750,  -0.75385
  -0.80495,  -0.93750,   0.58104,   0.18765,   0.93750,   0.57532,   0.65339,   0.29471,  -0.39080,   0.93750
  -0.68258,  -0.15817,  -0.41238,   0.91040,  -0.23490,  -0.42116,   0.76205,   0.67006,   0.92714,   0.20303
  -0.54486,   0.05261,  -0.79620,   0.61512,  -0.75266,   0.60539,   0.86719,   0.37306,  -0.02576,   0.93750
   0.92400,   0.72252,  -0.02706,  -0.52807,  -0.82076,  -0.41911,  -0.32919,  -0.74681,  -0.76673,   0.85836
   0.93750,   0.78863,  -0.93750,  -0.87602,   0.41654,   0.13876,   0.93750,   0.87703,  -0.93750,   0.93750
   0.19360,   0.25270,   0.36786,   0.56461,   0.81137,   0.35307,  -0.33289,   0.53144,   0.63083,   0.60737
   0.92867,  -0.87618,   0.93750,   0.93750,   0.15432,   0.46759,  -0.50076,   0.32292,  -0.11874,   0.12313
  -0.43983,  -0.63844,   0.80744,   0.00191,   0.74214,  -0.63338,   0.43124,  -0.71115,  -0.93750,   0.93750
  -0.53640,  -0.93750,  -0.93750,  -0.89633,   0.06114,  -0.14464,   0.42885,   0.46930,  -0.60201,  -0.10841
  -0.11991,   0.59998,  -0.90847,  -0.72075,   0.04219,  -0.25478,   0.93750,   0.29882,   0.11834,  -0.25736
   0.04681,   0.43887,  -0.19087,  -0.60041,  -0.01223,  -0.85704,  -0.02852,  -0.51086,  -0.29052,   0.93750
   0.74163,  -0.48179,  -0.72132,  -0.08073,  -0.81635,   0.74537,  -0.18583,  -0.82875,   0.93750,   0.69963
   0.93750,   0.87590,   0.52646,  -0.85673,  -0.19034,  -0.55869,  -0.52519,   0.69735,   0.93750,  -0.87376
   0.93750,  -0.14746,   0.06089,   0.93750,   0.93750,  -0.93750,   0.93750,   0.88196,   0.18689,   0.73380
  -0.72499,  -0.88154,   0.51038,  -0.86936,  -0.07873,   0.87149,  -0.83561,   0.93750,  -0.06755,  -0.88038
  -0.78067,   0.85298,  -0.14641,  -0.78074,  -0.15480,  -0.08178,   0.00025,  -0.39183,  -0.81999,   0.93750
  -0.48653,   0.93518,  -0.71164,  -0.20635,   0.87763,  -0.14299,  -0.52597,  -0.50016,  -0.17493,  -0.76130
   0.70390,   0.77638,   0.86676,  -0.57050,   0.93750,  -0.90568,   0.28390,   0.78717,  -0.17764,  -0.68910
  -0.38879,   0.23355,   0.38744,   0.73857,  -0.27781,  -0.30028,   0.86204,   0.39392,   0.28014,  -0.13111
  -0.93750,   0.93750,  -0.88660,  -0.93750,  -0.60508,   0.91669,   0.00748,   0.93750,  -0.28381,  -0.75967
   0.08604,  -0.88159,  -0.84764,  -0.88462,  -0.93750,  -0.70514,   0.56971,  -0.01758,   0.12637,   0.88209
  -0.56762,   0.43495,   0.39372,  -0.26145,  -0.93750,   0.85269,   0.93750,  -0.54544,   0.14128,   0.22372
   0.30229,  -0.00430,  -0.85355,   0.28662,  -0.26255,   0.86128,   0.37819,   0.69148,   0.33727,   0.21674
  -0.34862,  -0.45827,  -0.93750,   0.93750,   0.86893,   0.11452,  -0.17807,  -0.53351,  -0.11577,  -0.18559
  -0.32895,  -0.18932,   0.03001,   0.93750,  -0.69868,   0.70333,   0.93750,  -0.84620,  -0.93750,   0.93750
   0.93750,   0.70848,   0.54659,  -0.20380,  -0.24661,   0.38752,   0.93750,  -0.88244,   0.05992,  -0.61004
  -0.93750,  -0.16298,   0.49079,   0.93750,   0.93750,  -0.00479,  -0.16351,   0.93750,  -0.78124,  -0.30585
   0.66309,   0.93750,   0.93750,   0.19433,   0.93750,   0.87539,   0.68968,  -0.93457,  -0.27759,  -0.93750
   0.22288,   0.62035,  -0.51256,  -0.44279,   0.82144,   0.34627,  -0.64876,   0.60820,  -0.93750,  -0.49527
   0.72133,  -0.34990,   0.77857,  -0.70255,   0.86828,   0.30494,  -0.34439,   0.18114,  -0.43328,  -0.38681
  -0.17014,  -0.70848,   0.66464,  -0.75965,   0.27957,   0.50368,  -0.79640,   0.59371,   0.18178,   0.93750
   0.69935,   0.09036,  -0.02215,  -0.53138,   0.25297,   0.86852,   0.73702,  -0.36273,   0.75537,   0.58767
  -0.61359,  -0.04697,  -0.79991,   0.77302,   0.82378,   0.37317,   0.57169,   0.36414,  -0.42885,  -0.33729
   0.24240,   0.56667,  -0.02983,  -0.49614,  -0.49759,   0.29277,   0.38929,  -0.12562,  -0.31158,   0.83054
  -0.62718,  -0.09407,   0.90034,  -0.23484,  -0.45162,  -0.03440,   0.28651,   0.56822,  -0.31526,   0.59019
   0.10891,   0.46554,  -0.04953,  -0.70122,   0.93750,  -0.13744,   0.60823,   0.04207,   0.26684,  -0.06134
  -0.22976,   0.19068,  -0.76407,  -0.93750,  -0.22927,   0.89368,  -0.68314,  -0.57089,   0.93750,   0.93750
   0.86650,  -0.57655,  -0.26640,   0.80715,   0.21547,  -0.18633,  -0.70802,   0.37089,  -0.25369,  -0.69522
   0.88166,   0.12206,  -0.11642,  -0.43649,   0.84290,  -0.19383,   0.17803,  -0.81954,   0.06991,   0.08925
   0.80521,  -0.61104,  -0.15948,   0.93750,  -0.93750,  -0.42296,   0.93750,  -0.81158,   0.74793,  -0.44305
   0.24937,   0.72631,  -0.80939,   0.87612,   0.33834,  -0.90799,  -0.01999,   0.93750,  -0.69724,  -0.69353
   0.46497,   0.93750,  -0.86923,   0.34527,   0.93750,  -0.21814,   0.42509,  -0.12308,   0.65330,  -0.87027
   0.88393,   0.25563,   0.00304,  -0.75780,   0.68590,  -0.93750,  -0.50548,   0.22884,  -0.80892,   0.93750
   0.56586,  -0.87420,   0.86808,  -0.42660,   0.32372,   0.72927,  -0.47223,  -0.93750,  -0.93750,   0.61482
   0.92889,  -0.68818,  -0.29513,  -0.38824,   0.16062,  -0.60213,   0.93750,  -0.70151,   0.87882,   0.93750
   0.93750,   0.58435,  -0.10472,  -0.37198,   0.45527,   0.16452,   0.35977,  -0.68195,  -0.81043,  -0.01436
   0.36882,  -0.32912,  -0.65942,   0.87977,   0.88441,  -0.23589,  -0.49191,  -0.02692,   0.36593,  -0.15213
   0.13876,  -0.89176,  -0.75967,   0.48059,   0.84805,   0.93750,   0.93750,  -0.69093,  -0.88897,  -0.93750
   0.67443,  -0.32240,  -0.80060,   0.07570,  -0.80532,  -0.87346,  -0.33507,   0.93750,  -0.68524,   0.16026
   0.93037,  -0.46238,   0.54915,  -0.25144,   0.03568,  -0.67915,  -0.38992,  -0.60623,  -0.74422,   0.09311
   0.93750,  -0.88437,  -0.88663,   0.88508,   0.93750,   0.93750,  -0.48510,   0.93750,   0.60996,   0.61903
  -0.50349,   0.43086,  -0.11233,  -0.18412,  -0.44730,  -0.28003,  -0.07285,  -0.18848,  -0.54764,   0.18984
   0.79164,   0.76550,   0.93750,  -0.86281,  -0.82535,  -0.08648,  -0.35856,   0.09956,  -0.50143,   0.73974
  -0.55204,  -0.08459,  -0.74735,  -0.82777,   0.93750,   0.19881,   0.93750,   0.93750,  -0.51598,  -0.34111
   0.68847,  -0.93750,   0.93750,  -0.72455,  -0.93750,   0.93750,   0.00445,  -0.93750,  -0.60688,  -0.66187
   0.12193,  -0.04366,   0.39182,   0.66818,   0.75817,  -0.38545,   0.22475,   0.63187,   0.34723,  -0.09401
  -0.22115,  -0.82178,  -0.40489,  -0.26888,  -0.57540,  -0.08926,   0.93348,   0.93750,  -0.12259,  -0.46697
  -0.73476,  -0.87181,  -0.87578,   0.55845,   0.88308,  -0.87446,  -0.74090,  -0.87269,  -0.68778,   0.88287
   0.18943,  -0.82028,  -0.09804,  -0.58040,   0.56712,   0.19114,   0.92354,   0.93136,   0.45830,  -0.33382
   0.00979,  -0.43207,   0.37033,  -0.47502,  -0.05188,  -0.42293,  -0.47737,   0.93750,  -0.68287,   0.82257
  -0.15974,   0.37116,   0.76345,   0.53006,  -0.54086,  -0.93750,  -0.82764,   0.53511,  -0.81002,  -0.93750
   0.27610,  -0.85387,  -0.61403,   0.73461,  -0.76625,  -0.58582,   0.87339,  -0.67487,   0.81652,   0.93750
  -0.87400,  -0.91618,  -0.33696,   0.74449,   0.92389,   0.54796,   0.93315,   0.42526,   0.93750,  -0.43428
  -0.30100,  -0.65358,   0.93619,   0.73582,  -0.62420,   0.32139,  -0.79559,   0.22529,  -0.25453,  -0.92597
  -0.08582,  -0.02407,   0.86743,  -0.06266,  -0.81094,   0.46097,  -0.44628,   0.80651,  -0.85528,  -0.24169
   0.38301,  -0.01096,   0.93750,   0.41229,  -0.63461,   0.73816,   0.01169,  -0.93750,   0.33081,   0.24528
   0.74958,   0.65556,  -0.93750,   0.60770,   0.00122,  -0.31787,   0.93750,   0.58159,   0.93750,   0.59808
  -0.93750,   0.87614,   0.64219,  -0.87509,  -0.93750,   0.75815,  -0.87288,   0.93750,  -0.73915,   0.68299
  -0.86968,   0.93750,  -0.81874,   0.93750,   0.22183,  -0.82858,  -0.72564,   0.93750,  -0.46608,  -0.93750
  -0.58777,  -0.75713,  -0.73535,  -0.18301,   0.77472,  -0.59157,   0.33557,  -0.66418,  -0.42940,   0.93750
  -0.87898,  -0.48203,   0.01067,   0.22781,   0.29026,  -0.27498,  -0.25705,   0.05514,   0.89840,   0.93750
   0.14122,  -0.39353,   0.41307,   0.44002,   0.79935,   0.13931,   0.51482,   0.11888,   0.35405,   0.43507
   0.70274,  -0.15631,  -0.87292,   0.53883,  -0.93750,   0.93750,   0.93750,   0.13246,  -0.93750,   0.26629
  -0.93750,   0.93750,   0.22552,   0.93750,   0.93750,   0.93750,   0.93750,  -0.33786,   0.86710,   0.62985
   0.67369,  -0.31880,  -0.91774,  -0.69625,   0.27136,  -0.93750,   0.29216,  -0.29730,   0.54386,   0.81333
   0.69995,   0.04762,   0.73106,  -0.80889,   0.81239,  -0.47804,   0.13173,  -0.65984,  -0.50390,  -0.44819
  -0.64470,  -0.15797,   0.38564,   0.35538,  -0.03137,  -0.22942,   0.68083,   0.02805,  -0.35915,   0.89297
  -0.93750,  -0.93750,  -0.88181,  -0.93750,  -0.14782,   0.18068,   0.66932,   0.08357,   0.32658,  -0.93750
  -0.26800,   0.30705,  -0.93750,  -0.84346,   0.45273,   0.93750,   0.69206,  -0.47398,  -0.93750,  -0.93750
   0.60458,  -0.35707,   0.67022,  -0.74691,  -0.82541,   0.93750,  -0.54619,  -0.93750,   0.81974,  -0.45236
   0.17940,   0.72203,   0.70900,  -0.07338,  -0.01925,  -0.11529,  -0.06075,  -0.08534,   0.64501,  -0.59593
  -0.69321,   0.31692,  -0.87489,   0.29134,   0.63715,  -0.42345,   0.49518,  -0.93750,   0.47145,   0.40820
   0.82805,   0.41934,   0.48305,  -0.67886,  -0.56781,   0.03420,   0.79829,  -0.75383,  -0.27093,   0.27261
  -0.77526,   0.87633,   0.77342,  -0.57055,  -0.08753,  -0.87421,   0.59924,  -0.50753,  -0.76224,  -0.81734
  -0.40367,  -0.18282,   0.83803,   0.49569,  -0.69561,   0.20493,   0.61083,   0.13999,   0.02568,  -0.47364
  -0.01783,   0.93750,   0.93750,   0.93750,   0.93750,  -0.93750,   0.88457,   0.93750,   0.86256,  -0.93750
  -0.93750,  -0.88218,  -0.86541,   0.80063,   0.93750,   0.93750,   0.27795,  -0.16736,  -0.39423,   0.07808
   0.09477,   0.74102,   0.41037,  -0.69588,  -0.11135,  -0.52205,   0.13671,   0.91810,  -0.26737,   0.74070
   0.46560,  -0.14306,   0.81983,  -0.87711,   0.56044,  -0.45650,   0.73757,   0.87061,   0.78383,  -0.68933
   0.79451,   0.86937,  -0.75672,   0.03236,   0.62480,   0.22078,   0.82274,  -0.00609,   0.93750,  -0.87029
  -0.84367,   0.81055,  -0.60750,  -0.40611,   0.11290,  -0.30625,  -0.80223,   0.03639,  -0.78452,   0.80673
   0.27632,   0.93750,  -0.81043,  -0.40010,  -0.18550,   0.23908,  -0.21370,   0.20960,   0.72902,  -0.75681
   0.12475,  -0.05780,   0.93750,  -0.77894,   0.20095,   0.40811,   0.79820,  -0.78725,  -0.87098,   0.93750
  -0.61253,  -0.67516,  -0.82395,  -0.51825,  -0.61482,   0.93750,   0.41251,   0.39557,  -0.37770,  -0.43662
   0.91754,   0.51455,   0.14841,   0.10463,  -0.13196,  -0.16114,   0.58654,   0.48205,   0.15297,  -0.34755
  -0.83120,   0.52380,   0.93750,  -0.76703,  -0.65375,  -0.45934,  -0.66892,  -0.79864,  -0.11069,  -0.93750
   0.26986,  -0.12913,  -0.81931,  -0.37097,   0.83980,   0.81580,   0.45712,  -0.38978,  -0.05218,   0.87893
   0.61441,  -0.35507,   0.73621,   0.86446,  -0.20760,   0.45562,  -0.42895,  -0.18485,  -0.18610,  -0.44882
  -0.93750,  -0.52655,   0.49470,  -0.82223,  -0.93750,   0.81528,  -0.93750,   0.83292,   0.74844,   0.61150
   0.07112,  -0.45430,   0.36260,  -0.66185,   0.93750,  -0.93750,   0.93750,  -0.93750,   0.93750,   0.43016
  -0.64356,  -0.87777,  -0.38656,  -0.93750,  -0.93750,  -0.87231,  -0.93750,  -0.87002,   0.12297,  -0.87807
   0.05194,   0.70245,   0.07653,  -0.48353,  -0.89670,  -0.89233,  -0.60481,   0.93750,   0.93509,   0.18469
  -0.87318,   0.52215,   0.93750,  -0.93731,  -0.83213,  -0.42157,   0.58755,   0.81110,  -0.63901,  -0.72147
   0.87601,  -0.64014,  -0.64043,   0.78724,  -0.58242,  -0.06018,   0.86333,  -0.52374,  -0.67444,   0.81677
  -0.41953,   0.28159,   0.87514,   0.93750,   0.04359,  -0.49121,   0.86670,   0.83172,   0.65052,  -0.54295
  -0.40250,  -0.45956,  -0.69936,   0.72362,  -0.35501,   0.79711,  -0.44290,  -0.24700,  -0.21713,  -0.31135
   0.87238,  -0.32914,   0.82541,  -0.80486,  -0.88472,   0.52465,   0.93750,   0.93750,   0.87416,   0.06426
  -0.88014,   0.17066,  -0.87463,  -0.32580,   0.93750,  -0.93750,  -0.35464,  -0.66049,  -0.87061,   0.88119
  -0.38312,   0.92841,  -0.73562,  -0.00068,  -0.34258,  -0.63917,  -0.38371,   0.49167,  -0.51120,  -0.72578
  -0.60141,   0.68882,   0.04837,  -0.79348,  -0.68256,  -0.72810,   0.66445,   0.93750,   0.49993,  -0.43499
   0.16835,   0.32400,  -0.02610,   0.13812,  -0.18488,  -0.23566,   0.11219,   0.66831,  -0.01427,   0.52884
  -0.85168,  -0.21015,   0.68387,  -0.29908,  -0.24480,   0.88532,  -0.82110,   0.24935,   0.46776,  -0.29265
  -0.50076,  -0.32928,  -0.58846,  -0.24343,  -0.37008,   0.49858,   0.54067,   0.56811,  -0.66475,  -0.92468
   0.75740,  -0.33174,   0.68808,   0.25268,  -0.79108,   0.44850,   0.70373,   0.04812,  -0.93750,  -0.91280
  -0.76918,   0.79649,   0.93750,   0.72718,   0.88331,  -0.87329,  -0.93204,   0.70771,   0.70604,  -0.06441
  -0.93750,  -0.11307,  -0.44550,   0.77092,   0.87444,   0.72798,  -0.93750,   0.31123,   0.88059,   0.69995
  -0.46050,   0.43138,  -0.74272,   0.37935,   0.91238,  -0.35459,  -0.68385,  -0.54166,   0.18795,   0.45601
   0.82100,  -0.22686,  -0.37627,   0.17868,   0.55443,  -0.28203,  -0.06633,  -0.93750,   0.13272,  -0.43867
   0.08663,  -0.27512,   0.79836,   0.37517,   0.58561,   0.61410,   0.46041,   0.55490,  -0.27590,  -0.07771
   0.50622,   0.93750,  -0.80659,  -0.05281,  -0.75862,  -0.93750,  -0.93750,  -0.93750,  -0.72825,  -0.56931
  -0.80775,  -0.26951,   0.35931,  -0.81592,  -0.64256,  -0.87038,  -0.93750,  -0.93750,  -0.93750,  -0.27695
   0.66315,  -0.11197,   0.71440,  -0.29930,  -0.52317,  -0.02679,   0.40501,  -0.25212,  -0.38127,  -0.01394
   0.16342,   0.02429,  -0.39921,   0.60729,   0.93750,   0.74052,   0.04751,   0.86112,   0.27414,  -0.06965
  -0.79200,   0.83903,   0.20492,   0.39046,   0.58841,   0.09574,  -0.32733,   0.40756,   0.93464,   0.60709
  -0.49976,   0.93750,  -0.36133,   0.11197,   0.93750,  -0.35593,   0.52881,   0.74563,  -0.06760,   0.09012
  -0.93750,   0.61679,   0.34620,   0.93750,   0.24312,   0.70554,  -0.93750,  -0.25031,  -0.93750,   0.91175
  -0.47408,  -0.37965,   0.82516,   0.76071,   0.62480,  -0.09526,   0.55041,   0.12169,  -0.48252,   0.42169
  -0.03574,   0.18233,  -0.70099,   0.89768,  -0.06841,   0.91202,  -0.46706,  -0.58045,   0.59321,   0.29476
  -0.25207,   0.68220,  -0.86729,   0.49679,   0.55701,   0.47226,   0.44052,  -0.04132,   0.53283,  -0.87243
   0.93750,  -0.59374,   0.01323,  -0.29436,  -0.53961,  -0.13105,   0.35855,   0.05592,  -0.87907,   0.80211
  -0.87656,  -0.63858,   0.55278,  -0.85163,   0.05029,  -0.87774,  -0.87108,   0.93127,  -0.67016,  -0.93750
   0.87340,  -0.60029,  -0.70188,   0.58557,  -0.87122,  -0.07574,  -0.71206,  -0.11518,   0.24437,   0.32316
   0.45974,   0.93517,  -0.56288,  -0.92760,   0.55414,  -0.88927,  -0.25047,   0.87045,  -0.03054,  -0.30611
  -0.17670,   0.08442,  -0.02589,  -0.56430,  -0.24643,   0.75067,   0.81439,  -0.31667,   0.49848,  -0.41057
  -0.33513,  -0.58600,   0.47440,  -0.73180,   0.93750,  -0.51168,  -0.79888,  -0.20414,   0.45432,   0.93750
  -0.40302,  -0.38226,  -0.62324,   0.36429,   0.43780,   0.35713,   0.92996,  -0.23809,   0.19289,  -0.65159
  -0.29121,   0.01357,  -0.89698,   0.87954,   0.77171,  -0.73999,  -0.58943,  -0.00871,  -0.29798,   0.43064
   0.73942,  -0.39876,   0.93750,  -0.48349,  -0.80928,   0.93750,   0.31707,   0.49386,   0.93750,  -0.07883
  -0.69318,  -0.66996,   0.46551,  -0.12166,  -0.93750,  -0.75496,   0.55232,   0.93750,   0.93750,   0.81523
  -0.79916,   0.93750,   0.58372,  -0.06390,   0.93750,   0.60464,  -0.22374,   0.02969,   0.16466,  -0.80622
  -0.02931,  -0.81291,   0.61961,  -0.46421,  -0.59085,   0.82782,  -0.89875,   0.48773,   0.81631,  -0.41393
   0.01603,   0.06031,  -0.60263,   0.79319,  -0.35398,  -0.22235,  -0.11124,   0.25550,  -0.65570,   0.93431
   0.38551,  -0.76352,  -0.21774,   0.39916,   0.03219,  -0.49418,  -0.75828,   0.87314,  -0.60334,   0.23229
  -0.32635,   0.92565,  -0.87434,   0.85935,  -0.72260,   0.93750,   0.18073,  -0.06801,   0.81403,  -0.93750
   0.62478,  -0.38738,   0.39264,   0.64795,  -0.24373,  -0.12787,   0.22520,   0.50510,  -0.80943,   0.13058
  -0.93119,   0.00833,   0.62420,   0.26917,  -0.84823,   0.43108,  -0.35157,   0.16414,   0.93750,  -0.67704
   0.07044,   0.47717,  -0.93750,  -0.20692,   0.75075,   0.63025,  -0.84742,   0.93750,  -0.27354,  -0.93750
   0.13809,   0.93750,  -0.42046,  -0.93750,  -0.66669,   0.38371,   0.09559,  -0.81082,   0.11045,   0.80482
  -0.57391,   0.82114,  -0.46632,   0.93750,  -0.87613,   0.82003,   0.41180,  -0.55165,   0.37044,  -0.93750
   0.29574,  -0.18867,  -0.31831,  -0.86276,   0.60127,  -0.10233,  -0.67694,  -0.17927,  -0.52959,   0.87545
   0.93750,   0.93750,  -0.54538,   0.34527,  -0.10702,  -0.59008,   0.46796,   0.46967,  -0.69103,  -0.30254
  -0.47642,  -0.48949,  -0.63341,  -0.33405,   0.58092,   0.37614,   0.55753,  -0.67879,  -0.48803,   0.15663
   0.93750,  -0.42144,  -0.73818,   0.70239,   0.83636,   0.93750,  -0.87180,   0.87140,  -0.16284,  -0.93750
   0.56294,   0.44366,  -0.07921,   0.63319,  -0.93750,   0.64016,  -0.83977,   0.62356,  -0.26463,   0.58523
   0.61601,  -0.16999,  -0.27525,  -0.38919,   0.87947,  -0.48790,  -0.60177,   0.83454,  -0.35092,   0.12275
  -0.27843,  -0.39870,  -0.87538,   0.93750,  -0.81980,  -0.08190,   0.93750,  -0.00029,  -0.04539,  -0.93750
   0.90403,  -0.87811,   0.88979,   0.93750,  -0.01002,  -0.51689,  -0.27874,  -0.41666,   0.85923,   0.15366
   0.55705,   0.75294,   0.46384,  -0.65807,  -0.67975,  -0.86348,   0.93750,  -0.93750,   0.67570,  -0.24725
   0.73781,   0.87833,   0.93750,   0.93750,  -0.93750,  -0.93750,  -0.53838,  -0.93750,   0.13869,   0.44359
   0.74840,   0.29823,   0.29011,  -0.57861,   0.50687,   0.20304,  -0.53723,  -0.28060,  -0.88166,   0.70183
  -0.93750,   0.49106,  -0.81129,  -0.82507,   0.93750,  -0.87785,   0.93750,   0.06616,  -0.88884,  -0.76479
   0.32251,   0.12346,  -0.80886,   0.00338,   0.33141,  -0.80952,   0.59260,   0.41545,   0.61319,  -0.58057
  -0.86151,   0.43536,  -0.74106,   0.93750,   0.14264,  -0.56139,   0.93750,   0.93750,   0.09089,  -0.87064
   0.93750,   0.58842,  -0.79620,  -0.56007,  -0.74531,  -0.26747,  -0.27971,   0.55487,  -0.55283,   0.85123
   0.49056,   0.08536,   0.93750,  -0.29984,   0.76156,  -0.07793,  -0.67942,  -0.42461,  -0.86359,  -0.20650
  -0.88039,  -0.57164,   0.82901,  -0.62309,   0.93750,  -0.37650,   0.36937,  -0.93750,   0.84888,  -0.28303
  -0.87036,  -0.59744,  -0.30445,   0.31703,   0.48444,  -0.39249,   0.68767,   0.76123,   0.86361,   0.49573
  -0.37515,  -0.56474,  -0.02134,  -0.35178,   0.14655,  -0.30587,   0.44009,   0.06787,   0.85551,  -0.63246
  -0.10553,   0.70671,  -0.37554,   0.61893,  -0.42534,   0.33684,   0.33439,   0.00058,  -0.34790,   0.08882
   0.48136,  -0.43696,   0.93750,   0.09304,  -0.92682,   0.40082,   0.87940,   0.13256,  -0.59250,   0.44143
  -0.56691,  -0.70907,   0.75428,  -0.06780,   0.45185,  -0.18219,   0.87181,   0.93750,  -0.78796,  -0.72251
   0.04356,  -0.73975,  -0.49057,  -0.21480,  -0.08461,  -0.06459,  -0.52099,   0.01776,  -0.59499,   0.93750
   0.19767,   0.87990,   0.45535,   0.36493,  -0.42777,  -0.21915,  -0.01096,  -0.84673,   0.76756,  -0.74346
   0.34554,   0.19872,   0.73723,   0.36657,   0.33570,   0.30678,   0.17716,  -0.05446,   0.30566,   0.04471
   0.93750,  -0.68136,  -0.72883,   0.31934,  -0.88173,   0.12028,  -0.80787,  -0.88410,  -0.49956,   0.08249
   0.38014,   0.82674,   0.78435,  -0.46305,   0.40425,  -0.25381,  -0.30340,   0.77341,  -0.78012,  -0.24692
  -0.71450,  -0.93750,   0.43627,  -0.33745,   0.08155,   0.93750,   0.93750,  -0.93750,  -0.91233,   0.84168
   0.93750,   0.88439,   0.93750,   0.93750,  -0.93750,  -0.93750,  -0.65142,  -0.45942,   0.93750,  -0.93750
   0.93750,   0.77336,  -0.55717,  -0.41421,   0.26959,   0.21421,   0.46201,  -0.92995,   0.19339,  -0.39451
   0.11091,   0.20211,  -0.72935,   0.45947,   0.93750,  -0.19463,  -0.01437,  -0.57437,  -0.15845,   0.65380
  -0.20164,   0.50969,  -0.16509,  -0.42043,  -0.65795,   0.93750,   0.26324,   0.62115,   0.93750,   0.93750
  -0.87244,   0.12479,   0.43145,   0.49768,  -0.68502,   0.61473,  -0.29183,  -0.77393,   0.93750,  -0.83682
  -0.08913,   0.07845,   0.30080,   0.02918,  -0.85752,  -0.82348,  -0.33271,   0.93750,   0.30363,   0.27846
  -0.12340,   0.06618,  -0.37771,   0.65498,   0.17043,  -0.88731,   0.71083,  -0.75442,  -0.82715,  -0.49950
   0.93750,   0.19352,   0.12574,   0.69739,   0.53637,  -0.01688,  -0.07296,  -0.87409,  -0.79551,   0.36094
   0.79546,  -0.47507,  -0.34443,  -0.11335,   0.12034,  -0.12505,  -0.47513,   0.50119,  -0.66078,  -0.37774
  -0.39873,  -0.87671,   0.50101,   0.07875,  -0.75442,  -0.60641,  -0.68626,   0.54563,  -0.81786,   0.54190
   0.78522,   0.46033,   0.38782,   0.93750,  -0.21111,  -0.66360,   0.60871,  -0.35573,  -0.32692,   0.93750
  -0.48050,  -0.10585,   0.87342,   0.42779,  -0.05933,  -0.42712,   0.37786,  -0.86492,  -0.48219,   0.66978
  -0.74630,  -0.54702,  -0.18115,  -0.63923,  -0.25867,   0.57601,   0.22343,  -0.93750,   0.72971,  -0.68154
  -0.65150,   0.87632,  -0.86400,   0.93750,  -0.41562,   0.63889,  -0.24215,  -0.93750,   0.35072,   0.76068
  -0.53543,  -0.39044,   0.33506,   0.46421,   0.58277,  -0.66239,  -0.19693,  -0.70284,  -0.04286,   0.93577
  -0.84524,   0.33138,   0.93750,   0.16999,  -0.89621,   0.28132,  -0.92904,   0.15108,   0.87758,  -0.57807
   0.67784,  -0.53638,   0.66247,  -0.66355,  -0.30843,  -0.04256,  -0.26972,   0.67107,   0.74464,  -0.45707
   0.60034,  -0.39904,   0.71666,   0.17049,   0.93173,  -0.67924,  -0.42040,   0.48114,  -0.50571,  -0.30346
   0.15106,  -0.87613,  -0.54585,  -0.30200,  -0.91036,  -0.25325,   0.60042,   0.63188,   0.03817,  -0.73614
   0.14052,  -0.54590,  -0.63997,   0.58181,  -0.93750,  -0.06825,   0.93750,   0.74434,  -0.19640,   0.93750
   0.38473,   0.47767,  -0.77192,   0.89819,   0.30636,  -0.65472,  -0.46783,   0.73962,   0.62595,  -0.02908
   0.23599,  -0.08548,   0.39563,  -0.56792,   0.40036,  -0.04293,   0.15039,  -0.81003,  -0.80927,   0.49119
   0.07836,   0.93750,   0.00991,  -0.54508,  -0.55804,  -0.18062,  -0.62945,   0.21631,  -0.09105,   0.66207
  -0.37321,  -0.35842,  -0.44331,   0.05168,  -0.67071,   0.37157,   0.92949,   0.58055,  -0.31174,   0.84966
  -0.66913,  -0.87549,   0.93750,  -0.93750,   0.93750,   0.39582,   0.93750,  -0.93750,   0.87605,  -0.93750
  -0.65103,   0.62746,  -0.80264,  -0.78397,   0.26700,   0.15082,  -0.59601,   0.32421,  -0.37197,  -0.81177
   0.75791,  -0.51133,  -0.73412,   0.93750,   0.18155,  -0.93750,  -0.41396,  -0.23851,  -0.93750,   0.88410
   0.76132,  -0.47610,  -0.60500,   0.63250,  -0.91369,  -0.40395,   0.86608,  -0.25462,  -0.04993,  -0.06277
   0.45149,   0.78463,  -0.59431,  -0.69614,  -0.08267,  -0.67903,   0.82972,  -0.19891,   0.63705,   0.41360
  -0.89386,   0.74872,  -0.84728,  -0.48497,  -0.20864,  -0.81439,   0.93750,   0.24233,   0.80274,   0.74725
   0.61106,   0.06501,  -0.73695,   0.47298,   0.63801,  -0.93750,  -0.12624,  -0.93750,   0.56419,  -0.60195
   0.93750,  -0.62540,  -0.56576,  -0.57578,   0.16134,  -0.93750,   0.57321,  -0.93750,   0.41530,   0.06925
  -0.67662,  -0.16120,  -0.67691,  -0.28096,  -0.71010,   0.93750,   0.93528,  -0.93750,  -0.70025,   0.80798
   0.93750,  -0.03332,   0.81506,  -0.78387,   0.27342,  -0.83574,  -0.32828,   0.59876,  -0.25469,   0.81198
  -0.28343,  -0.09023,   0.82788,   0.43817,   0.33254,  -0.38247,   0.75313,   0.54007,   0.24678,   0.93750
  -0.76862,  -0.14285,   0.65869,  -0.88091,  -0.09112,  -0.93750,   0.30760,  -0.63721,  -0.93750,   0.77997
  -0.67682,  -0.46505,  -0.83999,  -0.73791,   0.93750,  -0.61540,  -0.41875,  -0.93750,   0.00818,  -0.30062
   0.86928,   0.87329,  -0.49840,   0.86976,  -0.63222,   0.25278,   0.62028,   0.41768,  -0.12702,  -0.31608
   0.88537,   0.87659,  -0.14245,  -0.40036,  -0.31690,   0.87575,   0.87677,   0.21719,   0.88578,   0.53870
  -0.04067,   0.20698,   0.41250,   0.44626,   0.61478,  -0.03343,  -0.01366,  -0.23355,  -0.05703,  -0.07029
  -0.90012,   0.01562,  -0.87016,   0.85655,   0.50538,  -0.25117,   0.67221,   0.17309,   0.25987,  -0.41682
  -0.10950,  -0.53583,   0.92584,   0.24272,  -0.69649,   0.03829,  -0.16029,   0.10646,  -0.03305,  -0.10619
   0.29142,  -0.35384,  -0.23348,  -0.78007,  -0.68830,   0.05901,  -0.04460,   0.93486,  -0.27010,   0.81357
  -0.86829,   0.93750,   0.16250,   0.46942,   0.07186,  -0.40164,  -0.82164,   0.21121,   0.70451,  -0.02760
   0.39421,  -0.00768,   0.53210,   0.61245,   0.16781,   0.88342,   0.63843,  -0.10433,  -0.37443,  -0.59680
  -0.08351,   0.30817,  -0.81465,  -0.12286,   0.93750,  -0.71652,  -0.83827,  -0.77014,  -0.56494,   0.56291
  -0.11193,  -0.69310,  -0.75249,  -0.87245,  -0.65569,  -0.63725,   0.88156,   0.73110,  -0.89029,   0.69836
  -0.73924,  -0.20967,  -0.92853,  -0.20614,   0.87384,   0.03961,   0.27031,   0.19739,   0.93038,  -0.25475
  -0.27536,   0.18343,   0.92561,   0.41177,   0.56356,  -0.10386,  -0.38986,   0.41711,  -0.54983,   0.75637
   0.93750,  -0.28972,  -0.93750,  -0.20726,  -0.84274,  -0.74103,   0.93750,  -0.28482,  -0.51455,  -0.51872
   0.34274,  -0.73031,  -0.82263,   0.17842,   0.76476,   0.93750,  -0.18046,  -0.53750,   0.07586,   0.81655
  -0.88188,   0.21567,  -0.49678,  -0.24132,  -0.44710,   0.71943,   0.93750,  -0.93750,  -0.93750,  -0.55119
  -0.61339,  -0.13652,  -0.32439,  -0.06640,  -0.32283,  -0.69083,   0.69820,   0.93750,  -0.39048,   0.07681
   0.21877,  -0.66815,   0.93750,   0.08031,  -0.79686,   0.93750,  -0.33799,  -0.93750,   0.29131,  -0.93750
   0.55983,   0.78149,   0.23097,   0.74447,   0.09699,   0.14999,  -0.06640,   0.80870,   0.01060,   0.11330
  -0.27572,  -0.55329,   0.88666,  -0.19078,   0.86857,  -0.81392,  -0.49959,   0.60586,  -0.49861,   0.80914
  -0.42295,   0.93750,   0.87334,   0.33096,  -0.20682,  -0.74865,   0.05821,  -0.93750,  -0.87750,  -0.25804
  -0.45349,   0.93750,  -0.66863,   0.05408,  -0.00839,   0.27080,  -0.16363,  -0.20381,  -0.62356,  -0.17937
   0.90270,  -0.69776,   0.93750,   0.93750,  -0.50094,   0.82633,   0.93750,  -0.93750,   0.48569,  -0.64423
  -0.93750,  -0.71775,   0.74947,   0.78694,   0.23280,  -0.35455,   0.00207,   0.40364,   0.02196,  -0.12223
   0.20836,   0.64482,   0.48934,   0.71291,  -0.19421,  -0.82720,   0.29655,  -0.80359,  -0.63162,  -0.20326
  -0.25323,   0.14606,  -0.86851,   0.88310,   0.10051,  -0.65032,   0.62998,  -0.19764,   0.02450,   0.44908
  -0.28727,   0.11814,  -0.86775,  -0.82867,  -0.31721,   0.72935,  -0.85160,  -0.45848,  -0.88852,  -0.81694
  -0.20312,  -0.57912,  -0.67326,   0.23331,   0.04459,  -0.14506,   0.87789,  -0.17118,  -0.23101,   0.80539
   0.53288,   0.93750,  -0.78099,  -0.80360,  -0.39657,   0.09652,  -0.36586,   0.17276,  -0.25959,   0.87725
   0.80889,  -0.72740,  -0.29848,  -0.15786,  -0.37481,   0.03091,   0.61823,  -0.41076,  -0.72549,  -0.46889
   0.10726,  -0.49394,   0.12320,  -0.33194,  -0.13082,  -0.81816,   0.56203,  -0.05707,   0.52479,  -0.85926
  -0.42947,   0.73647,   0.03061,   0.50777,  -0.04641,  -0.80274,  -0.77797,   0.93750,  -0.35953,   0.25768
  -0.88071,  -0.72169,   0.74246,  -0.85941,  -0.93750,  -0.86954,  -0.83469,  -0.93750,  -0.01252,  -0.86566
  -0.26856,  -0.32386,  -0.82414,   0.67591,   0.93750,  -0.40081,  -0.58169,  -0.71208,   0.40575,  -0.21745
   0.93750,  -0.50732,   0.58948,  -0.74962,   0.44655,   0.39907,   0.62083,  -0.00495,   0.74839,  -0.83233
   0.27490,   0.60953,   0.93750,  -0.93750,   0.93750,  -0.93750,  -0.87989,  -0.60448,   0.35583,   0.88141
  -0.46300,   0.17039,  -0.20842,   0.75470,   0.41890,   0.22506,  -0.17757,   0.82911,   0.17663,  -0.68517
   0.41159,  -0.31162,  -0.93750,  -0.01944,   0.52993,  -0.91464,   0.87744,  -0.93750,   0.81545,   0.67214
  -0.93750,  -0.93750,  -0.61868,   0.05035,  -0.41554,   0.24546,  -0.19789,  -0.01847,   0.67546,   0.14310
  -0.74216,   0.14682,   0.92055,  -0.65947,  -0.74089,   0.01342,   0.84768,   0.24217,  -0.18598,   0.30467
  -0.04491,   0.20275,   0.81562,   0.48457,   0.37311,   0.86366,   0.30916,  -0.14910,  -0.79828,   0.49307
   0.93750,  -0.75488,  -0.19359,   0.93750,   0.93750,  -0.93750,   0.93750,   0.93750,  -0.09908,   0.87374
   0.38717,  -0.56384,  -0.89159,  -0.88601,  -0.41871,  -0.93750,   0.93750,   0.23148,   0.26732,  -0.38302
  -0.93750,  -0.90182,  -0.64661,  -0.84210,  -0.90395,   0.21082,  -0.63510,   0.28387,  -0.46910,  -0.93750
   0.93750,   0.42545,  -0.55123,  -0.34915,  -0.58151,   0.30201,  -0.19526,  -0.11383,  -0.36542,  -0.70571
   0.14374,   0.69424,  -0.77039,  -0.92050,   0.01771,   0.93016,  -0.06261,  -0.15512,  -0.60623,   0.93174
  -0.57941,  -0.67773,  -0.80768,   0.46783,   0.61912,   0.10884,  -0.93750,   0.93750,   0.16268,  -0.16424
  -0.69309,   0.25317,  -0.22107,   0.42593,  -0.66336,  -0.72145,  -0.67375,   0.93750,  -0.17523,   0.05985
   0.93750,  -0.93750,  -0.83466,  -0.10008,   0.30064,  -0.10412,  -0.93750,   0.93750,   0.65816,   0.19784
  -0.88114,   0.33386,   0.32536,   0.71263,  -0.46166,   0.07472,  -0.71139,  -0.02589,   0.93750,  -0.28599
   0.93750,  -0.55660,  -0.93750,   0.60791,  -0.93750,   0.93750,  -0.93750,  -0.33107,   0.61963,  -0.15850
   0.93750,   0.71220,   0.65317,  -0.93750,  -0.93750,   0.83926,  -0.70672,  -0.00207,  -0.93750,  -0.87358
   0.84276,   0.01537,   0.92783,   0.19039,  -0.30687,   0.00958,   0.67234,  -0.24241,  -0.30150,  -0.15868
   0.07190,   0.93750,  -0.93750,   0.08738,  -0.93750,  -0.93750,  -0.93750,  -0.68655,  -0.93750,  -0.76208
  -0.93750,  -0.81497,  -0.08877,  -0.93750,   0.22972,   0.07974,  -0.93750,   0.84740,  -0.93750,   0.12017
  -0.82273,   0.61392,  -0.38691,   0.87647,  -0.27292,   0.13339,  -0.35237,   0.15980,   0.72546,   0.69481
  -0.81409,   0.87314,   0.85464,  -0.82344,   0.38837,  -0.58863,   0.75843,  -0.93750,   0.93750,  -0.45174
   0.22495,  -0.88115,  -0.84272,  -0.50992,  -0.79805,  -0.93750,   0.39682,  -0.81299,   0.08194,   0.24362
   0.16822,  -0.75550,  -0.80960,  -0.19847,  -0.22238,   0.93750,   0.54407,  -0.55964,   0.23202,  -0.88427
   0.54833,   0.02041,  -0.93750,  -0.51220,  -0.93750,  -0.93750,  -0.67868,  -0.30531,   0.93750,  -0.16896
   0.50410,   0.08532,  -0.93750,   0.62303,  -0.93750,  -0.87146,   0.93750,   0.93750,   0.02412,   0.14775
   0.01512,   0.93107,  -0.02746,  -0.35499,   0.93750,   0.17536,   0.73579,  -0.41239,  -0.21589,   0.20257
  -0.63650,   0.27291,   0.87748,  -0.61675,   0.89992,   0.89787,  -0.44671,   0.13596,  -0.73642,  -0.82557
   0.87805,  -0.87279,   0.08876,  -0.59917,  -0.78519,  -0.57495,  -0.93750,   0.75081,   0.73851,  -0.31227
  -0.93750,   0.34649,  -0.87404,   0.03973,  -0.88038,   0.93750,  -0.93750,  -0.78728,  -0.60148,   0.32392
   0.93750,  -0.11871,  -0.50977,  -0.90298,   0.13551,  -0.41530,  -0.01825,  -0.39685,   0.39124,  -0.83808
  -0.68183,   0.78027,  -0.93750,   0.54847,   0.59568,  -0.48497,  -0.75386,  -0.65173,  -0.93750,   0.30200
  -0.93750,  -0.87633,   0.93750,  -0.53813,  -0.93750,   0.85309,  -0.67947,  -0.24682,  -0.93750,   0.16017
   0.93750,  -0.81149,   0.20802,  -0.87668,   0.93750,   0.02082,   0.38735,  -0.85999,  -0.63015,  -0.21704
   0.51499,  -0.13812,  -0.93750,  -0.78650,  -0.15513,  -0.89772,   0.69724,  -0.13807,  -0.93750,  -0.93750
  -0.07561,   0.70285,  -0.08730,   0.75090,  -0.74051,  -0.60389,   0.60785,  -0.52742,   0.19940,  -0.24649
  -0.44230,  -0.59936,   0.73924,   0.72553,   0.68465,   0.68858,  -0.47060,   0.67375,   0.21142,  -0.37404
   0.04274,   0.75365,  -0.14327,  -0.60102,   0.87130,   0.74371,  -0.46841,  -0.71247,  -0.93750,  -0.40628
  -0.93750,  -0.86963,   0.41043,   0.62110,  -0.63015,  -0.60466,  -0.41320,   0.93750,  -0.87216,  -0.74960
   0.82967,   0.24058,  -0.73753,  -0.56681,  -0.87505,   0.74741,  -0.12546,  -0.17138,  -0.03501,  -0.12614
  -0.56215,   0.46153,  -0.31965,  -0.14788,   0.42777,   0.93750,  -0.68205,  -0.61018,   0.11966,  -0.54497
  -0.13286,  -0.40576,  -0.67974,  -0.43972,   0.93750,  -0.57264,  -0.06971,  -0.93750,  -0.12383,  -0.44685
   0.37420,   0.48726,  -0.81908,   0.93750,   0.71433,  -0.93750,  -0.93750,  -0.88154,   0.93750,   0.87467
   0.87751,  -0.28199,  -0.93750,   0.35587,   0.93750,  -0.81191,   0.93750,  -0.22065,  -0.78827,  -0.22246
   0.55546,   0.67352,  -0.20899,   0.54915,   0.10431,   0.08905,   0.53049,   0.93750,  -0.70939,  -0.73704
   0.58742,  -0.34396,   0.62640,  -0.57337,   0.80822,  -0.87587,  -0.25300,   0.81140,  -0.02615,   0.01210
   0.87832,   0.26891,   0.10711,  -0.43868,   0.93750,  -0.81864,   0.80334,  -0.82652,  -0.82638,  -0.84830
  -0.00774,  -0.14808,   0.54218,   0.11258,  -0.80160,  -0.64878,   0.03506,   0.87252,   0.48218,  -0.28244
  -0.93168,  -0.41644,   0.84676,  -0.40876,  -0.47536,   0.66757,  -0.72997,   0.62452,  -0.05899,  -0.03884
   0.92242,  -0.81280,  -0.47157,   0.01519,  -0.28324,  -0.38781,   0.72128,  -0.04661,  -0.60925,   0.59305
  -0.62494,   0.93750,   0.50316,  -0.87640,  -0.90737,   0.01049,  -0.27118,  -0.21746,   0.92824,   0.15140
  -0.43024,   0.87778,  -0.32346,  -0.18499,   0.18793,  -0.11322,   0.27159,   0.93750,  -0.05420,  -0.63839
   0.01921,   0.21434,   0.15961,   0.74743,   0.76439,   0.07697,   0.43204,  -0.21114,  -0.08510,  -0.04476
   0.80707,   0.53202,  -0.69714,  -0.49480,  -0.40652,   0.01764,   0.11489,  -0.37345,   0.76724,   0.88139
  -0.93750,  -0.91971,   0.93750,  -0.93750,  -0.84897,   0.16740,   0.82027,   0.93750,   0.84027,  -0.26113
   0.88129,  -0.60792,  -0.72200,   0.34777,  -0.49430,   0.80595,   0.49903,   0.93750,   0.20931,   0.21412
   0.00624,  -0.31411,  -0.74973,  -0.60111,  -0.59911,   0.88881,   0.93750,  -0.20330,   0.10905,   0.53365
  -0.67852,  -0.74258,  -0.45768,   0.24243,   0.32008,  -0.00389,   0.57977,   0.26356,   0.62532,   0.01636
   0.62680,   0.69197,   0.07323,  -0.39067,  -0.73491,  -0.18438,  -0.41938,   0.87632,  -0.76432,   0.90588
   0.64981,   0.66551,   0.36244,  -0.53879,   0.33405,   0.04997,   0.42317,  -0.57116,   0.46618,  -0.33764
   0.60617,  -0.01861,   0.29959,   0.35078,   0.58001,  -0.17127,   0.01906,  -0.55690,   0.34873,  -0.51914
   0.61489,  -0.06036,   0.68594,   0.80978,  -0.51221,  -0.42409,   0.93750,   0.93750,  -0.45468,  -0.18673
   0.67217,   0.30141,   0.17505,   0.41310,   0.12357,   0.79714,   0.60777,  -0.43513,  -0.86902,  -0.56134
   0.11092,  -0.14215,  -0.12175,   0.93750,  -0.87621,   0.19941,   0.12196,  -0.93750,   0.87796,  -0.93750
  -0.93290,  -0.61867,  -0.56407,   0.45075,  -0.72362,  -0.19263,  -0.48496,   0.45277,   0.80744,   0.74999
  -0.51381,   0.60606,  -0.70784,   0.93750,  -0.93750,  -0.93750,  -0.93750,  -0.93750,   0.92135,   0.93750
   0.56649,   0.52140,  -0.64177,   0.20959,  -0.35740,  -0.13701,  -0.05473,  -0.49382,  -0.67286,   0.63863
  -0.72328,  -0.25526,  -0.71856,  -0.93750,   0.93750,   0.10882,   0.66676,  -0.38664,   0.81891,  -0.50563
   0.74348,   0.26971,  -0.82298,   0.88255,  -0.29245,   0.84372,   0.69895,  -0.52695,  -0.47470,  -0.33089
  -0.62931,  -0.49811,   0.12219,  -0.90378,   0.48774,   0.93750,  -0.17785,  -0.38661,   0.68952,  -0.79577
   0.16258,  -0.56503,   0.69406,  -0.93750,  -0.22187,  -0.93750,  -0.80029,   0.25198,  -0.12451,   0.62285
   0.93750,   0.22241,  -0.39746,   0.17901,   0.87305,   0.59680,  -0.91284,   0.52781,   0.14667,   0.10120
  -0.20910,   0.08759,   0.89229,  -0.80912,   0.69632,  -0.87967,  -0.74530,   0.82053,  -0.80656,   0.75489
   0.47550,  -0.77105,   0.07966,  -0.71888,   0.86567,  -0.21030,   0.89875,  -0.30168,  -0.02958,   0.39119
  -0.40209,  -0.36185,  -0.64386,   0.80293,  -0.68922,  -0.02713,  -0.35629,  -0.61979,   0.02003,  -0.45805
   0.30724,   0.85033,  -0.87904,  -0.69926,   0.93750,   0.93750,  -0.81184,   0.93750,   0.93750,  -0.20223
   0.52914,   0.45518,   0.57016,  -0.57747,  -0.50539,  -0.47455,  -0.67000,   0.50628,   0.85221,  -0.07771
   0.20257,   0.62653,  -0.42778,   0.40595,  -0.07303,   0.39157,  -0.40830,   0.34948,  -0.59572,   0.63378
   0.36356,  -0.70444,  -0.78697,   0.93750,   0.31220,  -0.86385,  -0.60975,  -0.39511,   0.41590,  -0.17964
  -0.04237,   0.44846,   0.57875,   0.71428,   0.54185,  -0.39970,   0.40389,   0.13548,   0.56373,   0.24171
   0.92994,  -0.60405,   0.93750,  -0.32658,   0.46086,  -0.35114,   0.02298,  -0.56917,  -0.56633,   0.02713
  -0.39108,   0.06520,   0.54944,   0.40756,  -0.22290,   0.48886,   0.85770,  -0.68213,   0.56045,  -0.10849
  -0.34690,  -0.93750,  -0.87009,  -0.62873,   0.93750,   0.33321,   0.90991,   0.93750,  -0.08185,   0.93750
   0.14722,  -0.89178,   0.09335,   0.56941,   0.63218,  -0.93750,  -0.83974,   0.93750,   0.60149,  -0.80110
  -0.53438,  -0.62529,   0.93750,  -0.93750,   0.86945,   0.87156,  -0.27531,   0.93750,   0.62152,  -0.16824
  -0.78888,   0.41948,  -0.39814,   0.10154,   0.93750,  -0.87185,   0.93750,   0.93750,  -0.57644,   0.36330
   0.93750,   0.93750,  -0.46697,   0.93750,   0.47782,  -0.93750,   0.42580,   0.61812,  -0.70246,  -0.93750
  -0.29424,   0.10265,   0.39557,  -0.21567,  -0.36258,   0.29701,  -0.35137,   0.83457,   0.60520,   0.80279
   0.08103,  -0.86618,   0.93750,   0.44065,   0.93386,  -0.93750,   0.76108,   0.93750,  -0.87044,  -0.93750
   0.65651,  -0.50143,   0.61459,   0.09947,  -0.00323,  -0.52105,   0.64120,  -0.29430,  -0.01940,  -0.22487
  -0.66140,   0.58124,  -0.16728,   0.87165,  -0.79329,   0.93750,  -0.90866,  -0.65273,  -0.93750,  -0.57364
  -0.75156,   0.87060,   0.41333,   0.76185,  -0.84701,   0.51423,   0.82630,  -0.75206,  -0.36203,  -0.93750
   0.67830,  -0.51087,   0.23176,  -0.40692,  -0.64294,   0.23992,   0.27430,   0.90331,  -0.90101,  -0.20476
   0.40694,  -0.93750,   0.11109,   0.08483,  -0.73444,  -0.87621,  -0.70848,  -0.61380,  -0.93750,  -0.74579
  -0.48895,   0.49854,  -0.93750,  -0.61872,   0.73793,  -0.15053,   0.68229,   0.62756,  -0.72234,  -0.67781
   0.93750,  -0.68346,  -0.53308,  -0.68851,   0.93750,   0.07813,  -0.68942,   0.82583,   0.93750,   0.68934
   0.16723,   0.74600,   0.55680,   0.40785,  -0.93750,   0.39613,   0.11575,  -0.26757,  -0.16382,  -0.62289
   0.05249,   0.34523,   0.03578,   0.32591,   0.30389,   0.64244,  -0.24598,  -0.45336,  -0.41324,   0.53944
  -0.22386,  -0.12454,  -0.22446,  -0.24155,   0.80409,  -0.22959,  -0.48942,  -0.88138,   0.67255,  -0.87738
   0.93750,  -0.18839,   0.33229,  -0.59097,  -0.76352,   0.93750,  -0.31021,  -0.30834,   0.04031,  -0.80436
  -0.09117,  -0.12207,  -0.49728,  -0.71261,  -0.01116,   0.93317,  -0.45245,  -0.73992,  -0.68631,  -0.39420
   0.61666,  -0.22418,   0.09888,  -0.93750,   0.23698,  -0.29649,   0.93750,  -0.93750,  -0.93750,  -0.93750
  -0.45185,   0.90620,   0.83228,   0.87250,   0.34679,  -0.93750,   0.67343,  -0.83245,   0.93750,   0.93750
   0.82921,   0.87996,   0.93750,   0.93750,  -0.72470,  -0.77069,   0.32395,   0.93750,  -0.83020,  -0.07815
  -0.33950,  -0.19686,   0.86996,   0.58122,  -0.37401,   0.70597,  -0.82675,  -0.87519,  -0.24339,   0.93750
   0.79666,  -0.69313,   0.42343,  -0.59038,  -0.34618,  -0.65305,   0.13676,   0.01093,  -0.04417,  -0.10107
   0.77316,   0.00626,  -0.93750,   0.93750,  -0.07964,   0.00744,   0.93750,   0.09250,  -0.93750,   0.74771
  -0.50453,  -0.47094,  -0.05628,  -0.68233,  -0.47700,   0.81016,  -0.75655,   0.38295,   0.93750,  -0.33201
  -0.74492,  -0.01176,   0.93750,  -0.80709,  -0.23679,   0.93750,   0.88707,   0.89353,  -0.17608,   0.93750
   0.17791,   0.78627,  -0.93750,  -0.67639,   0.90941,  -0.75648,  -0.25299,   0.93750,   0.93750,   0.34425
  -0.81016,   0.67045,  -0.93750,   0.30971,   0.71988,  -0.79406,   0.70110,   0.80841,  -0.20640,  -0.78195
  -0.16388,  -0.10621,  -0.76613,   0.80374,   0.93750,   0.42025,   0.24639,  -0.71329,  -0.50781,  -0.71648
   0.30057,  -0.36053,  -0.93750,  -0.82025,   0.93750,  -0.78800,  -0.62086,  -0.86558,   0.02839,   0.48881
   0.03138,   0.93750,   0.00827,   0.45740,  -0.10385,  -0.16766,  -0.70632,   0.77159,   0.00943,   0.38689
  -0.43177,   0.42790,   0.54084,  -0.35304,   0.56117,   0.66587,  -0.29409,  -0.67278,  -0.04313,   0.25966
   0.50219,  -0.66047,   0.78659,  -0.22387,   0.79865,  -0.67482,  -0.37377,  -0.78293,  -0.00887,   0.33092
  -0.82765,   0.93750,   0.93750,  -0.37353,   0.26327,  -0.29449,   0.12679,   0.02618,  -0.30324,   0.24872
  -0.65180,   0.32036,  -0.01322,  -0.37383,   0.10439,   0.32783,  -0.27076,   0.93750,   0.60669,   0.75179
  -0.22632,  -0.27471,  -0.37320,  -0.37396,  -0.82787,   0.86041,   0.93359,  -0.81815,   0.79963,  -0.10746
  -0.93750,   0.86164,   0.93750,  -0.93750,  -0.93750,   0.90177,  -0.93750,  -0.93750,   0.93750,  -0.93750
  -0.82249,  -0.75064,  -0.44311,   0.66821,   0.81853,  -0.75051,   0.17637,   0.07769,   0.93750,  -0.93750
   0.27163,  -0.73634,  -0.27765,   0.54173,  -0.31316,   0.68876,  -0.93750,  -0.16701,   0.69626,  -0.62249
   0.03490,   0.08011,   0.29182,   0.93750,  -0.93750,  -0.38358,  -0.49228,   0.93750,  -0.81502,   0.93750
  -0.85452,   0.93750,  -0.07926,   0.86748,   0.54749,  -0.69520,  -0.86786,  -0.46665,   0.64040,  -0.93750
   0.63337,  -0.22586,  -0.61279,  -0.02462,  -0.66792,  -0.24288,  -0.80655,  -0.04724,  -0.48542,  -0.43236
   0.06200,   0.30550,   0.22717,   0.60109,   0.43802,   0.42923,  -0.44164,  -0.15547,   0.19935,  -0.54125
   0.67256,   0.65414,  -0.93750,  -0.93750,  -0.92030,   0.32880,   0.79950,   0.86476,   0.41404,   0.93750
  -0.67331,   0.87307,   0.27750,  -0.07040,   0.32319,  -0.00189,   0.80972,  -0.40175,  -0.38532,  -0.64045
   0.11591,  -0.87088,   0.93750,   0.84949,   0.13372,  -0.93750,   0.73148,  -0.93750,   0.88346,   0.61621
   0.18707,  -0.62851,   0.54735,  -0.82363,  -0.80077,  -0.80540,   0.36002,   0.74626,   0.26588,  -0.02350
  -0.93750,   0.92642,   0.40806,   0.21358,  -0.85186,   0.93750,   0.12717,  -0.93750,  -0.93750,  -0.93750
   0.80043,  -0.48639,  -0.50445,  -0.75614,  -0.87192,   0.46577,  -0.22427,  -0.63048,   0.73743,  -0.87218
  -0.66199,  -0.93750,   0.40697,  -0.22007,  -0.93750,   0.17581,  -0.81780,   0.71913,   0.07287,  -0.87270
   0.87543,  -0.62052,   0.87805,   0.93750,   0.93750,   0.01635,  -0.80890,  -0.74428,  -0.50813,  -0.68932
  -0.00043,  -0.18275,  -0.42598,  -0.27822,   0.17600,   0.79552,  -0.47147,   0.56460,   0.39594,  -0.22858
  -0.47186,   0.93750,  -0.14551,   0.93750,   0.93750,   0.93750,   0.00187,  -0.21634,  -0.87922,  -0.87261
  -0.10009,  -0.41222,  -0.91287,  -0.24077,  -0.36079,  -0.88065,  -0.75761,   0.31380,  -0.46973,   0.93750
  -0.11321,  -0.76296,   0.73538,   0.15768,  -0.57832,  -0.43702,   0.11387,  -0.34943,   0.46667,   0.93750
   0.18425,   0.93750,  -0.93750,  -0.79970,   0.27342,   0.88656,   0.87829,   0.31167,   0.87774,  -0.54828
   0.81207,   0.93750,  -0.87880,  -0.62921,  -0.80943,   0.06688,  -0.30368,  -0.12417,   0.05396,   0.19321
   0.66174,  -0.52257,  -0.88461,   0.91988,  -0.63159,   0.64172,  -0.75414,  -0.87025,   0.93750,   0.23727
   0.93750,  -0.87649,   0.12568,   0.61431,   0.78940,  -0.27397,  -0.87427,   0.09623,  -0.86657,  -0.23406
  -0.19439,   0.14763,   0.11529,   0.55076,   0.50821,   0.02387,   0.39132,  -0.07997,   0.42052,   0.21092
  -0.88110,  -0.87151,   0.21484,   0.80291,   0.63440,   0.77742,  -0.55709,  -0.13408,   0.88554,  -0.93750
  -0.13848,  -0.39334,   0.72706,  -0.27178,   0.82801,   0.00138,   0.36803,  -0.45625,   0.43549,  -0.34021
   0.93750,  -0.21704,  -0.35336,  -0.60833,   0.28152,  -0.56123,   0.32585,   0.70205,   0.08875,  -0.03253
   0.76006,  -0.31567,   0.67642,  -0.22802,  -0.28695,  -0.36230,  -0.27915,   0.88439,  -0.50501,   0.69636
   0.69571,   0.81361,  -0.84582,  -0.32136,   0.28998,  -0.85648,  -0.91747,   0.87984,  -0.70705,   0.76171
   0.88594,  -0.76186,   0.08391,  -0.93750,   0.62253,  -0.57596,   0.83286,  -0.15951,  -0.86388,   0.23254
  -0.11389,   0.87008,  -0.12086,   0.57476,  -0.07137,  -0.34845,   0.73606,   0.92275,   0.81769,  -0.11686
   0.34625,   0.66186,  -0.43898,   0.63646,  -0.25487,   0.56282,  -0.35101,   0.61713,   0.10193,  -0.55842
  -0.41516,   0.11827,  -0.08717,  -0.32776,  -0.87347,  -0.62154,  -0.34834,   0.93499,   0.09075,  -0.75876
  -0.44579,   0.21018,  -0.30470,   0.93352,  -0.16374,   0.13073,   0.93750,   0.93750,  -0.17527,   0.56645
   0.72648,   0.06314,   0.45268,  -0.85652,   0.25720,  -0.24715,  -0.45976,   0.24096,  -0.80950,  -0.27084
  -0.04098,  -0.81420,  -0.39295,  -0.32968,  -0.65766,   0.68022,   0.42658,  -0.55776,  -0.02149,   0.93750
  -0.71432,   0.26631,   0.93244,  -0.29182,  -0.68349,  -0.92604,   0.56199,  -0.49250,  -0.00252,  -0.42175
   0.02769,  -0.68148,   0.09590,   0.93750,   0.93750,  -0.93750,   0.93750,   0.58192,   0.93750,   0.31962
   0.93750,   0.41793,  -0.26048,   0.45422,  -0.01568,  -0.89708,  -0.41536,   0.50552,  -0.52554,  -0.10310
   0.93750,   0.93750,  -0.35978,  -0.87056,  -0.93750,   0.31560,   0.74666,   0.85755,  -0.02545,   0.93750
  -0.20490,   0.93750,   0.93750,   0.13391,   0.60713,   0.74617,  -0.26958,   0.47038,   0.07613,  -0.51191
   0.87770,  -0.81639,  -0.37275,  -0.93750,   0.10531,  -0.92047,  -0.86482,  -0.70376,   0.55823,   0.93750
  -0.57502,  -0.16816,   0.23014,   0.30356,   0.92785,   0.08558,   0.00184,  -0.71672,   0.36060,   0.54890
  -0.13488,   0.41636,  -0.82156,   0.05520,   0.01018,   0.15476,   0.67159,  -0.83986,  -0.61596,   0.46956
   0.12444,  -0.24511,  -0.84142,  -0.34941,   0.93750,   0.58891,  -0.21091,  -0.76378,   0.15478,  -0.34720
   0.93750,  -0.36249,   0.29184,  -0.82372,   0.87205,   0.61146,   0.93750,   0.70397,  -0.49998,   0.93750
   0.86343,  -0.00153,  -0.59363,   0.20870,   0.39583,   0.38110,  -0.30514,   0.03916,  -0.62609,  -0.21124
   0.68669,   0.51671,  -0.37030,  -0.82483,  -0.43390,   0.23352,   0.60097,  -0.71606,  -0.24017,  -0.15211
   0.80226,  -0.11439,   0.93750,  -0.88012,   0.62074,  -0.93750,   0.16124,   0.45139,  -0.07506,  -0.93750
   0.63432,   0.75033,  -0.74070,  -0.75227,   0.46569,   0.93750,  -0.24604,   0.49366,  -0.53712,  -0.42717
   0.06735,   0.47883,  -0.29528,  -0.19128,   0.86880,  -0.14684,   0.63634,  -0.31543,   0.80115,  -0.72973
   0.06764,   0.10801,   0.35019,  -0.72344,  -0.34021,  -0.26746,   0.39340,  -0.92487,   0.29711,   0.68578
   0.28171,   0.10219,   0.86461,  -0.25116,   0.87457,  -0.02650,  -0.30393,  -0.21413,  -0.32606,   0.38136
   0.87003,  -0.34634,   0.89181,  -0.16189,   0.93750,   0.93750,  -0.51417,  -0.79227,   0.93564,  -0.93750
  -0.35288,  -0.88702,   0.93750,   0.93750,   0.06381,  -0.93750,   0.29256,   0.93750,   0.31336,  -0.82765
  -0.80509,  -0.62618,  -0.13681,   0.79694,  -0.61150,  -0.13801,   0.30960,  -0.30961,   0.20836,  -0.45462
  -0.06961,  -0.16529,  -0.93750,  -0.15745,   0.93750,  -0.80097,   0.73362,  -0.87452,   0.71088,   0.06202
  -0.93750,  -0.45856,   0.93750,  -0.87572,   0.93750,   0.28989,  -0.89362,  -0.13048,  -0.93133,  -0.93750
   0.85758,  -0.52730,   0.77494,  -0.00715,   0.86339,   0.63782,   0.15939,   0.00081,  -0.39830,  -0.21937
   0.87487,   0.27640,  -0.02171,   0.00701,   0.02860,  -0.35542,  -0.09935,   0.48318,  -0.78488,  -0.41646
   0.34725,  -0.86637,  -0.93750,  -0.36273,   0.14422,  -0.93750,  -0.70815,  -0.85283,  -0.93750,  -0.87820
   0.93750,  -0.43150,  -0.81335,  -0.63630,  -0.50146,  -0.85838,  -0.81022,  -0.26590,  -0.39235,   0.17683
  -0.47422,   0.04663,   0.93750,   0.93750,   0.83541,   0.89280,  -0.88033,   0.38447,   0.07948,  -0.50542
  -0.23128,   0.58818,  -0.93750,  -0.93750,  -0.21573,   0.76352,  -0.93750,  -0.88434,   0.93750,   0.42953
   0.26946,  -0.18127,   0.54255,  -0.28434,   0.87130,   0.06966,  -0.32330,  -0.77740,   0.93750,  -0.46108
  -0.68948,  -0.35249,  -0.36317,   0.92800,  -0.81136,   0.32521,  -0.16976,   0.75612,   0.26647,   0.16638
   0.35058,   0.25319,   0.08712,  -0.14934,  -0.10297,   0.42188,   0.07392,  -0.09732,  -0.93750,   0.93631
  -0.53264,   0.93750,   0.87687,  -0.20600,   0.72903,   0.02660,   0.05972,  -0.93750,   0.10287,  -0.71288
  -0.23786,  -0.93750,   0.93750,   0.05571,   0.54460,  -0.66190,  -0.78601,   0.15928,   0.45246,   0.67859
  -0.31064,   0.20893,  -0.44149,   0.48545,   0.01318,  -0.61897,   0.68339,  -0.05391,   0.60574,   0.01918
   0.13680,  -0.02245,   0.58190,  -0.77164,   0.44944,  -0.01306,  -0.03110,   0.51025,  -0.59693,   0.93750
   0.19784,   0.06252,  -0.65433,  -0.13386,   0.92948,  -0.59987,  -0.51106,  -0.57714,   0.37431,  -0.36322
  -0.66743,   0.70569,   0.93750,  -0.86884,  -0.51922,  -0.87500,  -0.35354,  -0.15395,   0.71686,  -0.38040
   0.93750,   0.38864,  -0.87911,   0.87955,   0.53636,  -0.67521,  -0.45768,   0.86667,  -0.93750,  -0.93750
  -0.44765,   0.22432,  -0.18273,  -0.35525,   0.93750,  -0.30696,   0.75350,  -0.79003,  -0.32201,   0.69861
   0.82791,   0.93750,  -0.32962,  -0.10113,  -0.78188,  -0.93750,   0.24854,  -0.58569,   0.93750,   0.20668
  -0.23311,  -0.58583,   0.68080,  -0.54227,   0.90137,  -0.26428,  -0.23048,   0.86303,   0.65159,  -0.44248
   0.93750,  -0.49951,  -0.16416,   0.48497,  -0.43040,   0.68283,   0.78706,   0.88303,  -0.69567,   0.89236
  -0.76821,   0.85731,  -0.93750,  -0.81096,   0.93750,   0.93750,   0.18635,   0.13687,  -0.11588,  -0.70102
   0.93750,  -0.21280,  -0.93750,   0.13535,   0.26190,   0.93750,  -0.62788,   0.37329,  -0.61585,  -0.82314
  -0.61207,   0.29560,  -0.00189,  -0.16320,  -0.80377,   0.93750,   0.85828,   0.46240,   0.73999,   0.71490
   0.28026,  -0.49398,   0.93750,   0.87133,   0.93750,   0.38790,   0.93750,  -0.16307,  -0.20625,  -0.62927
  -0.81229,  -0.03350,  -0.62134,   0.93750,  -0.02624,  -0.67438,  -0.77718,  -0.09997,  -0.83638,  -0.63130
  -0.20459,  -0.71228,  -0.27135,  -0.74025,  -0.76053,  -0.36191,   0.30131,   0.75276,  -0.33310,   0.68176
  -0.74847,  -0.91303,  -0.79570,  -0.41325,   0.73486,  -0.75359,  -0.93750,  -0.93750,  -0.62055,  -0.54915
  -0.75293,   0.66800,   0.43824,   0.24745,  -0.27566,  -0.30236,   0.50242,  -0.46118,   0.93750,   0.46606
   0.08604,  -0.68059,  -0.83787,  -0.66398,  -0.93750,   0.01599,   0.86611,   0.20913,  -0.30179,  -0.77672
   0.24149,  -0.56486,   0.44714,  -0.02549,  -0.79484,   0.74005,  -0.04494,   0.46802,   0.28032,  -0.18617
  -0.58816,   0.55369,  -0.86099,   0.93750,  -0.72055,   0.57751,  -0.93750,  -0.10207,  -0.06825,  -0.93750
  -0.93750,   0.32436,  -0.93750,   0.77770,  -0.33325,   0.42140,  -0.88223,  -0.62360,  -0.31758,  -0.92703
   0.93750,  -0.79517,  -0.88010,   0.76563,  -0.55176,  -0.60058,   0.77570,   0.90809,   0.33924,  -0.93750
   0.88013,  -0.33511,   0.90508,   0.42855,  -0.42828,  -0.93750,   0.92836,   0.41653,  -0.61045,   0.57245
   0.31351,  -0.93750,   0.68655,  -0.08529,  -0.93750,  -0.93750,  -0.70527,   0.42018,  -0.77156,  -0.93750
   0.18387,  -0.93750,   0.93750,  -0.86226,   0.54797,   0.87290,  -0.50017,   0.57941,  -0.42702,   0.93750
   0.87412,   0.63148,   0.81167,  -0.87512,   0.87391,  -0.70454,   0.45600,  -0.30997,  -0.10181,  -0.75495
   0.12032,   0.36063,  -0.38298,   0.58096,  -0.58862,   0.44825,   0.32541,  -0.16824,   0.18890,   0.75034
   0.93333,   0.43938,   0.46788,  -0.93750,   0.21714,  -0.32324,  -0.34901,  -0.02974,  -0.86626,   0.01051
   0.30430,  -0.93750,   0.31021,  -0.22831,  -0.26460,  -0.36855,   0.25679,   0.93750,  -0.87569,   0.41745
  -0.48341,   0.21355,  -0.21654,   0.93750,   0.93750,  -0.69117,  -0.62474,  -0.76304,   0.24630,  -0.56292
   0.49136,  -0.11147,   0.14987,   0.60355,   0.35944,   0.29655,   0.24966,   0.63279,  -0.68701,   0.00260
   0.93750,  -0.09097,   0.63648,   0.78118,  -0.90890,   0.38444,  -0.76648,   0.66985,   0.87762,   0.86913
  -0.44261,  -0.75729,   0.66312,   0.54788,  -0.06117,  -0.14880,   0.77490,  -0.09441,   0.70543,  -0.65830
   0.60824,   0.61386,   0.36620,  -0.66028,  -0.45289,   0.48863,   0.23789,  -0.76956,  -0.15125,  -0.82827
  -0.38121,  -0.14790,   0.93750,  -0.47962,   0.13668,  -0.35822,   0.81698,   0.15065,  -0.74155,  -0.43691
   0.24967,   0.06487,  -0.93750,   0.93750,   0.45940,  -0.93750,   0.86923,   0.82438,   0.93750,   0.80882
   0.93382,  -0.71185,   0.83480,   0.87020,  -0.93750,   0.18527,   0.05694,  -0.60499,   0.78771,   0.93750
  -0.74929,  -0.77528,   0.14446,   0.75409,  -0.54782,  -0.93750,  -0.89747,   0.84687,   0.31500,  -0.29991
   0.09600,   0.91107,  -0.28255,   0.88269,   0.00351,  -0.48085,   0.23382,   0.76572,  -0.81250,  -0.00489
  -0.02875,   0.78823,  -0.85530,  -0.42069,   0.84614,  -0.03012,  -0.87689,   0.93750,   0.22805,  -0.57074
  -0.51246,   0.54393,  -0.45460,  -0.75326,  -0.65488,   0.78888,   0.44780,   0.78999,   0.53430,   0.62542
  -0.93750,  -0.84409,   0.86376,  -0.93750,   0.31434,   0.58673,   0.93750,   0.87372,   0.93750,   0.93750
   0.80237,  -0.67579,  -0.22124,   0.85646,  -0.30496,   0.62222,  -0.27421,   0.01892,  -0.75164,   0.71210
  -0.47317,   0.62846,  -0.93750,   0.93750,   0.39091,  -0.50614,  -0.30781,   0.41762,  -0.40296,   0.88014
  -0.65270,  -0.86870,   0.69884,  -0.88179,  -0.34593,   0.59667,  -0.72992,  -0.87597,   0.89692,  -0.58418
  -0.32084,  -0.07130,   0.92885,   0.34562,  -0.81237,  -0.31951,   0.18307,   0.46024,  -0.88411,   0.59376
  -0.87055,   0.27051,  -0.07744,  -0.52838,  -0.86279,   0.93750,  -0.08846,   0.30157,   0.57086,  -0.93750
   0.32628,   0.93750,   0.03747,  -0.93750,  -0.51910,  -0.43221,   0.34497,  -0.93750,   0.93750,   0.93750
   0.18301,   0.64178,  -0.15841,  -0.01498,   0.25527,  -0.93750,  -0.67693,   0.93750,  -0.93750,  -0.73962
   0.23172,   0.30533,   0.47414,  -0.90383,  -0.37130,  -0.55876,   0.93750,  -0.41731,   0.24288,   0.09992
  -0.30107,   0.93750,   0.20254,  -0.23736,   0.33008,   0.87727,  -0.26563,  -0.87156,   0.45914,   0.87888
  -0.04376,   0.81155,   0.62158,  -0.85957,  -0.50055,  -0.07009,  -0.36657,  -0.68583,   0.75489,   0.45469
   0.19552,   0.25341,   0.85847,  -0.51121,   0.15444,   0.83247,   0.29604,   0.34170,  -0.46464,   0.03593
  -0.32200,   0.60692,  -0.52830,   0.93750,   0.93750,  -0.70156,  -0.75788,  -0.72266,   0.74753,  -0.61914
  -0.88072,   0.34854,  -0.44293,  -0.46817,   0.13757,   0.93750,  -0.53108,  -0.39756,   0.73961,  -0.43790
  -0.81271,   0.88726,  -0.46608,   0.93750,  -0.81356,   0.12233,   0.76129,   0.57814,   0.46127,  -0.50377
   0.93750,   0.71403,  -0.46058,  -0.46248,  -0.63098,   0.40909,   0.93750,   0.93750,   0.93750,   0.19041
   0.10551,  -0.93750,   0.43476,  -0.29119,  -0.17792,   0.23707,   0.55844,   0.72559,   0.18827,   0.64782
  -0.35624,   0.16381,   0.24538,   0.21943,   0.93750,  -0.38919,   0.09564,  -0.93684,   0.88552,   0.37705
   0.28950,  -0.88146,  -0.93750,   0.65473,  -0.69475,  -0.37380,   0.21939,   0.62723,  -0.08454,  -0.87015
   0.93750,   0.80650,  -0.15299,  -0.18274,   0.61042,  -0.59978,  -0.66917,  -0.27067,   0.93750,  -0.11149
  -0.05157,  -0.18961,   0.55928,  -0.19295,  -0.20028,   0.07550,   0.70193,  -0.07760,  -0.48432,   0.86630
   0.92493,  -0.18674,  -0.74194,  -0.23435,   0.03037,  -0.67592,  -0.09983,  -0.02736,  -0.24080,  -0.20587
   0.17198,   0.80491,  -0.87824,  -0.74243,  -0.84719,  -0.64216,  -0.29215,   0.16754,  -0.44217,   0.93750
  -0.06547,  -0.66658,  -0.22802,  -0.44543,   0.58854,   0.53947,  -0.01655,  -0.52217,   0.75567,   0.87142
  -0.69551,   0.04037,  -0.02425,   0.92232,  -0.61625,   0.43798,   0.43841,   0.05082,   0.93750,   0.93750
   0.03524,   0.86923,  -0.39336,   0.65090,   0.06153,   0.14170,  -0.55302,   0.52289,   0.61655,  -0.63975
   0.28690,  -0.88087,  -0.51363,   0.93750,   0.93750,  -0.93750,   0.84384,   0.22511,   0.60095,  -0.93750
   0.93002,  -0.09762,   0.05286,  -0.32946,   0.93750,   0.75521,  -0.81728,   0.49462,   0.32151,   0.93750
  -0.84945,   0.08699,  -0.85281,   0.89373,  -0.15068,  -0.93750,   0.93750,  -0.93750,  -0.83750,  -0.93750
   0.46947,  -0.47145,   0.09875,   0.10902,   0.44141,   0.03529,  -0.47171,   0.93750,   0.25430,   0.93127
  -0.61416,  -0.36908,  -0.75572,  -0.78569,   0.37769,   0.27469,  -0.54581,  -0.21933,   0.22051,   0.60937
  -0.00116,   0.88105,   0.32765,  -0.11621,   0.81873,  -0.93750,   0.74907,  -0.93750,   0.15040,   0.59180
  -0.93750,   0.93750,  -0.93750,   0.40217,  -0.81545,   0.93750,  -0.74550,  -0.93750,   0.84455,  -0.66629
  -0.31348,   0.29078,  -0.74412,  -0.59496,   0.93750,   0.16395,  -0.57878,  -0.80859,   0.27093,   0.12552
  -0.81362,  -0.54336,  -0.11921,   0.10838,  -0.87105,   0.58451,  -0.40642,   0.85829,  -0.61653,  -0.93750
   0.73275,  -0.74215,  -0.63454,   0.56205,  -0.64391,   0.93750,  -0.74668,  -0.09977,  -0.68599,   0.21371
  -0.54717,   0.82408,   0.17153,  -0.57296,  -0.48346,   0.28777,   0.93750,  -0.26029,  -0.61676,   0.70565
   0.86185,  -0.52617,  -0.52617,  -0.00174,   0.38773,  -0.44538,   0.08847,  -0.62406,   0.87074,  -0.73956
  -0.87974,   0.02273,   0.74896,   0.54125,  -0.87334,   0.93750,  -0.18525,  -0.87226,   0.05642,  -0.00663
   0.34716,  -0.16514,   0.37164,  -0.26741,  -0.76207,  -0.86780,  -0.61554,   0.93750,   0.21179,  -0.63801
   0.81246,   0.93750,  -0.93750,  -0.92223,  -0.77546,   0.63037,  -0.93750,  -0.32540,  -0.93750,   0.04413
   0.01525,  -0.69455,  -0.81524,  -0.32907,   0.87699,  -0.73585,  -0.79607,   0.93750,   0.87327,   0.62713
  -0.44400,   0.33771,  -0.67556,  -0.62553,   0.93750,   0.10267,   0.18258,  -0.87564,   0.48637,  -0.49072
   0.45944,  -0.78871,  -0.30358,  -0.41574,  -0.44099,   0.18809,   0.60187,   0.93750,   0.30080,  -0.44756
  -0.87595,   0.55903,  -0.93750,  -0.60485,  -0.46675,  -0.20605,  -0.74285,   0.93750,  -0.74681,   0.93750
   0.93750,   0.84406,   0.93750,   0.93750,  -0.86593,   0.86847,   0.58231,  -0.71323,   0.32888,  -0.79971
  -0.87680,   0.93750,   0.77566,  -0.55107,  -0.60587,   0.74873,   0.30323,  -0.85789,  -0.49900,  -0.93750
  -0.54913,  -0.74031,   0.07655,   0.08358,   0.53096,   0.93750,   0.31528,   0.44832,  -0.38413,   0.31406
  -0.43194,  -0.35188,  -0.87854,  -0.86444,   0.87982,  -0.38667,  -0.48949,   0.86409,  -0.39001,  -0.78048
   0.38346,  -0.49637,  -0.06274,   0.45709,  -0.69065,  -0.48930,  -0.40668,   0.52943,  -0.86971,  -0.34326
  -0.86847,   0.93750,  -0.55254,  -0.67879,  -0.93750,  -0.93750,  -0.93750,  -0.93750,  -0.87755,  -0.45796
   0.26803,   0.26566,   0.61632,  -0.03160,  -0.90069,   0.93750,  -0.11541,   0.89272,   0.08690,  -0.50750
  -0.29937,   0.87360,   0.79839,   0.66995,   0.07771,  -0.02038,   0.93750,  -0.40496,   0.26302,   0.93750
   0.75277,   0.65581,   0.88229,  -0.61068,  -0.68489,  -0.65307,   0.80091,  -0.80719,  -0.23871,  -0.32720
   0.67735,   0.47326,  -0.62956,  -0.07696,   0.31324,   0.91585,  -0.56537,   0.00668,   0.30943,  -0.88115
   0.47277,  -0.55138,   0.82789,  -0.74830,   0.93750,  -0.93750,  -0.59923,   0.28006,  -0.28087,   0.86817
   0.86157,  -0.72641,   0.31272,  -0.74923,  -0.08434,   0.48783,  -0.85457,   0.05057,  -0.44353,  -0.85565
   0.14504,   0.93750,   0.93750,  -0.27802,   0.79436,  -0.69034,  -0.87691,  -0.34543,  -0.93750,   0.01427
  -0.61883,  -0.93750,   0.54753,  -0.85103,  -0.73633,   0.41352,  -0.81205,  -0.50046,  -0.92136,   0.40827
   0.80990,  -0.75556,  -0.02275,  -0.72285,  -0.92710,  -0.57330,  -0.20097,  -0.22672,  -0.89144,   0.67811
   0.68934,  -0.80997,   0.70720,   0.74490,   0.80237,  -0.64680,  -0.67107,   0.87397,   0.60128,   0.93750
  -0.34258,   0.59486,   0.93750,   0.08528,   0.36769,   0.93750,  -0.87308,  -0.93750,   0.21772,  -0.80422
   0.93750,   0.93750,  -0.12273,   0.03752,  -0.50155,  -0.64231,   0.86713,   0.81178,  -0.76082,  -0.63214
   0.81288,   0.76972,  -0.06243,  -0.93750,  -0.81663,  -0.22266,   0.57865,  -0.27284,   0.49074,   0.55955
   0.93750,   0.82110,  -0.01673,  -0.76138,  -0.79738,   0.69578,   0.87447,   0.79175,  -0.93750,  -0.00785
   0.93750,  -0.93750,   0.83473,   0.46161,   0.93750,   0.82729,  -0.93750,  -0.56962,   0.33050,  -0.39203
  -0.16757,  -0.31261,  -0.82784,   0.77746,  -0.54927,   0.68815,   0.72675,   0.74184,   0.23104,  -0.16438
  -0.12137,   0.30587,   0.34566,   0.45765,   0.41377,   0.09889,   0.38059,   0.28687,  -0.46926,   0.20965
   0.76986,   0.78463,  -0.07820,  -0.22849,  -0.81223,   0.69271,   0.79156,   0.47257,  -0.58203,   0.30716
   0.42719,   0.93750,  -0.64354,   0.56623,   0.93750,  -0.86871,  -0.87490,  -0.49010,   0.40597,   0.93750
   0.35826,  -0.80708,  -0.01343,   0.18090,  -0.62890,   0.73450,   0.13629,   0.65797,   0.67213,  -0.17758
  -0.93750,  -0.51131,  -0.86278,   0.34561,   0.39934,   0.91566,   0.08795,  -0.17171,  -0.34084,   0.21331
   0.64892,   0.91232,   0.73392,  -0.26515,  -0.87607,   0.53813,  -0.07458,  -0.25034,  -0.76927,  -0.87019
   0.70096,  -0.82232,   0.52259,   0.32220,   0.88737,  -0.44498,  -0.87714,  -0.43923,  -0.27687,   0.24297
  -0.61629,  -0.36807,   0.63278,  -0.65145,  -0.71736,  -0.91642,   0.59673,  -0.54844,   0.32636,  -0.45402
   0.93750,  -0.72745,  -0.35173,  -0.68337,   0.93750,  -0.87411,   0.93750,   0.93750,  -0.93750,  -0.72031
   0.81949,   0.93750,   0.74260,   0.06871,  -0.81422,   0.66712,  -0.17813,  -0.64153,  -0.89867,  -0.87382
  -0.38919,   0.93750,  -0.22124,   0.58240,  -0.62516,  -0.93750,   0.93750,  -0.83973,  -0.91789,  -0.43706
   0.88116,  -0.17352,  -0.61445,  -0.68699,  -0.79302,  -0.12702,   0.16301,   0.04186,   0.13683,   0.70311
  -0.87840,  -0.74083,   0.17593,   0.58546,  -0.86384,   0.60140,  -0.82142,   0.93750,  -0.38265,  -0.86663
   0.87164,  -0.78481,  -0.87862,   0.34465,   0.80403,  -0.72879,  -0.66497,   0.63312,   0.31969,   0.75539
   0.20901,   0.65922,   0.18204,  -0.39473,   0.40618,   0.50212,   0.83144,   0.22868,   0.65426,  -0.54434
  -0.05806,  -0.39250,  -0.73245,  -0.45865,   0.92708,  -0.61921,  -0.71852,   0.92077,   0.27998,   0.40187
  -0.50361,   0.93750,  -0.50826,   0.53684,   0.81250,   0.76793,   0.53549,   0.16656,  -0.61904,  -0.77620
   0.77114,  -0.37141,   0.93750,  -0.20330,   0.41993,   0.29140,  -0.33437,  -0.69173,   0.37030,  -0.93060
   0.93750,   0.52112,   0.51762,   0.86613,  -0.47963,  -0.32787,  -0.23051,  -0.93750,   0.72378,   0.09698
  -0.82439,  -0.86826,   0.05253,  -0.08789,   0.93750,   0.87909,   0.87058,   0.87694,   0.35993,   0.93005
   0.93750,  -0.03048,   0.31498,  -0.87716,  -0.93750,   0.44516,  -0.93750,   0.17044,   0.59096,  -0.93307
   0.32019,   0.77492,  -0.23670,  -0.59906,   0.09101,   0.92941,   0.32390,  -0.21660,   0.52106,  -0.43156
   0.93750,   0.54991,   0.02780,  -0.54750,  -0.02357,  -0.39671,  -0.26685,   0.12952,  -0.77556,  -0.23699
  -0.84255,   0.80209,   0.93750,  -0.15719,  -0.67818,  -0.65624,  -0.23752,  -0.64843,  -0.18118,   0.44335
   0.42994,   0.65482,  -0.56288,   0.16408,  -0.63915,   0.71267,  -0.01306,  -0.50423,   0.70673,  -0.32553
  -0.45099,   0.75980,   0.08709,  -0.63173,  -0.66808,   0.21753,   0.87970,  -0.00543,  -0.39210,  -0.76180
   0.93293,  -0.41255,  -0.20159,   0.31124,   0.22909,  -0.08690,  -0.52218,  -0.43502,  -0.64109,  -0.75686
   0.92675,  -0.59993,  -0.70830,   0.14492,  -0.93750,  -0.25414,   0.73605,   0.93750,  -0.28756,   0.07840
   0.38323,  -0.28616,   0.68564,   0.25730,  -0.10117,   0.72247,  -0.28356,   0.70566,  -0.25044,   0.23774
   0.74443,  -0.34294,  -0.67406,  -0.22341,   0.00189,  -0.80709,   0.80303,  -0.87301,   0.70093,   0.33487
   0.86532,  -0.80709,   0.20419,  -0.93750,   0.24512,   0.88787,  -0.37465,  -0.93750,  -0.69213,  -0.43682
   0.86842,  -0.22868,   0.93750,   0.09192,  -0.93709,   0.26527,   0.93750,  -0.93750,   0.93750,  -0.59427
   0.22177,   0.86643,  -0.00086,  -0.75074,   0.40078,   0.06187,   0.11802,   0.56648,  -0.01824,  -0.47695
   0.08134,  -0.43990,  -0.29727,   0.93442,   0.07372,  -0.93750,   0.11430,  -0.25624,  -0.31240,  -0.61585
   0.48446,  -0.86004,  -0.20872,   0.02663,   0.36859,  -0.00737,   0.00921,  -0.04276,  -0.32598,   0.10305
  -0.54328,  -0.30823,   0.93750,  -0.12371,  -0.00718,   0.33566,  -0.60785,   0.79255,   0.93750,  -0.48336
  -0.88382,  -0.72685,  -0.01491,  -0.49190,  -0.66083,   0.02279,  -0.12032,  -0.32791,   0.93750,  -0.10251
   0.01621,   0.39866,  -0.83867,  -0.54019,  -0.33589,   0.30276,   0.93246,   0.01644,  -0.17362,  -0.41244
   0.04719,   0.93750,  -0.82464,  -0.05473,  -0.63117,  -0.46338,  -0.41211,   0.20037,  -0.42939,  -0.75652
  -0.67145,   0.83096,  -0.80176,  -0.51097,  -0.93750,  -0.49406,   0.56403,   0.25565,   0.25351,  -0.48993
   0.65220,   0.38372,  -0.61697,   0.80866,   0.51875,  -0.93750,  -0.12390,   0.18889,   0.75168,  -0.55593
  -0.73280,  -0.29169,  -0.74793,  -0.40742,   0.93750,  -0.41589,   0.67762,   0.54151,  -0.93750,   0.80744
   0.09786,  -0.87208,   0.10117,   0.54217,  -0.93750,   0.93750,  -0.93750,  -0.93750,  -0.93750,  -0.93750
  -0.14790,   0.48850,   0.63316,  -0.47618,   0.54028,   0.34470,   0.01146,  -0.22431,   0.66594,   0.29789
  -0.56711,  -0.04660,  -0.93217,   0.18672,  -0.22438,   0.64860,   0.38270,  -0.93750,   0.33153,   0.03801
   0.79259,  -0.01035,   0.11514,   0.63434,   0.93750,  -0.65959,  -0.07333,   0.87110,  -0.57145,  -0.02280
  -0.72067,   0.39102,   0.92903,   0.02751,   0.75849,   0.42349,   0.29296,  -0.13367,  -0.72273,  -0.66695
   0.54412,  -0.06111,  -0.60745,   0.93750,  -0.73955,   0.34135,   0.93750,  -0.74349,   0.52434,   0.47436
   0.23228,   0.45497,  -0.16449,   0.75421,   0.30741,  -0.43576,  -0.34229,  -0.37317,  -0.30005,   0.06675
  -0.33446,  -0.43130,  -0.47038,   0.87641,  -0.06028,  -0.83580,   0.80465,  -0.26958,  -0.34535,  -0.74793
  -0.69431,   0.44560,   0.74871,  -0.11965,   0.93750,  -0.93750,  -0.86433,  -0.72107,   0.86873,   0.70639
  -0.86187,  -0.30796,   0.53034,   0.93489,  -0.31504,   0.62830,   0.75103,   0.82176,  -0.18156,  -0.04366
  -0.44935,  -0.63792,   0.81906,  -0.93750,   0.07073,  -0.64009,  -0.54710,   0.93750,  -0.88135,   0.63898
   0.93750,   0.56908,  -0.93750,   0.93750,   0.93750,   0.12545,  -0.93750,  -0.92660,  -0.80313,   0.93750
  -0.52354,  -0.67289,   0.07243,   0.73456,  -0.49725,  -0.07596,  -0.19390,   0.75452,   0.78231,  -0.14285
   0.20504,   0.34516,  -0.93750,  -0.66658,  -0.86957,   0.93750,  -0.55638,  -0.73161,   0.01385,   0.18753
  -0.91497,  -0.78809,  -0.65627,  -0.04479,   0.93750,  -0.47970,  -0.42780,   0.13281,  -0.25809,  -0.43770
  -0.04320,   0.93750,   0.16004,   0.47405,  -0.09780,   0.48585,   0.64773,  -0.57320,  -0.07214,  -0.36066
   0.15720,   0.39810,  -0.62231,   0.21225,  -0.64292,   0.86850,   0.44777,   0.93750,   0.04030,  -0.49505
   0.52107,  -0.23752,  -0.70974,  -0.76808,  -0.37986,  -0.03243,   0.61847,   0.74150,   0.80419,  -0.53458
  -0.27889,   0.53888,   0.93750,  -0.33235,   0.91105,  -0.74552,  -0.77749,  -0.48196,  -0.72117,   0.81401
  -0.93750,  -0.93750,  -0.93750,   0.93750,   0.93750,  -0.10702,  -0.61777,  -0.86546,   0.29898,   0.91269
  -0.93750,  -0.93750,  -0.48101,  -0.52119,   0.93750,   0.52211,  -0.81060,  -0.64650,  -0.87018,  -0.93750
   0.75348,   0.77295,   0.93750,  -0.75983,   0.86082,   0.50152,   0.68619,  -0.15578,  -0.93750,  -0.93750
   0.93750,   0.23932,   0.74250,  -0.93750,   0.93750,   0.47303,   0.93750,   0.24809,   0.60475,   0.93750
  -0.25986,  -0.07537,   0.91194,  -0.48348,  -0.61361,   0.74925,   0.14341,   0.88115,   0.65852,  -0.50220
  -0.87250,   0.14730,  -0.93750,  -0.93750,   0.93750,  -0.87874,  -0.26122,   0.86560,   0.24711,   0.53743
   0.17596,   0.87498,  -0.57341,  -0.87095,   0.16657,   0.86117,   0.05274,  -0.10391,   0.19449,   0.07275
  -0.24062,   0.05656,   0.88140,  -0.82060,  -0.68232,   0.12764,  -0.49221,  -0.66684,   0.75087,   0.69127
  -0.27397,  -0.59996,   0.63765,  -0.89739,   0.63404,  -0.58278,   0.66544,  -0.02483,  -0.45725,  -0.04672
   0.10313,   0.87427,  -0.51430,  -0.14213,   0.86982,  -0.93750,  -0.75463,  -0.93750,  -0.71577,   0.93750
  -0.54605,  -0.47771,  -0.07585,  -0.74848,  -0.47509,  -0.59402,  -0.04018,   0.86673,   0.93750,  -0.35482
  -0.70157,   0.93750,  -0.25863,   0.59791,  -0.56043,   0.11824,   0.21378,  -0.27626,   0.43508,  -0.38917
   0.93750,  -0.50115,   0.87786,   0.19837,  -0.93750,  -0.27832,  -0.69856,  -0.00375,  -0.69549,  -0.93750
  -0.93750,  -0.25361,  -0.48084,  -0.24363,  -0.76591,  -0.03866,   0.01995,   0.93750,   0.65203,  -0.59817
  -0.90041,   0.67574,   0.00403,  -0.87410,   0.08305,   0.62427,   0.93750,  -0.47323,   0.93750,  -0.93750
  -0.93750,  -0.05486,  -0.64885,   0.93750,  -0.32040,  -0.78971,  -0.36889,   0.19619,   0.22459,  -0.54430
  -0.02937,  -0.88752,   0.93750,  -0.86739,  -0.79901,  -0.36148,   0.81250,  -0.92430,  -0.78013,   0.58399
  -0.35745,  -0.51594,   0.87643,  -0.88450,  -0.93750,   0.39517,  -0.38720,   0.93750,  -0.70410,   0.69034
  -0.60396,   0.39741,   0.86462,   0.47727,  -0.16208,  -0.08616,   0.88343,   0.68876,  -0.56754,   0.93750
  -0.27862,  -0.10359,   0.83165,  -0.52204,  -0.02952,   0.93456,  -0.16804,   0.69055,   0.04782,   0.49280
   0.24366,   0.72454,   0.25880,   0.86612,   0.05440,  -0.08959,   0.93750,  -0.27090,   0.69524,  -0.33778
   0.04195,  -0.42959,   0.22912,  -0.33506,  -0.20340,   0.31851,   0.85886,  -0.27420,  -0.20372,  -0.56034
  -0.65503,  -0.62658,  -0.88449,  -0.23294,   0.93750,   0.63210,  -0.93750,  -0.30768,   0.43737,  -0.57858
   0.40368,  -0.43285,   0.34113,   0.51312,  -0.36624,   0.18459,   0.87719,   0.44178,  -0.29090,   0.42241
  -0.88892,  -0.25770,   0.10012,  -0.76149,   0.87187,  -0.93750,   0.21331,  -0.93750,  -0.05820,   0.79610
   0.48777,  -0.36883,  -0.31326,  -0.62360,  -0.04294,   0.75413,   0.34496,   0.47789,   0.17390,   0.43288
  -0.16273,  -0.49035,  -0.88005,  -0.16602,   0.82728,   0.67326,   0.41170,   0.41119,  -0.73322,  -0.30114
  -0.21095,  -0.88239,  -0.93750,  -0.93750,  -0.93750,   0.93750,   0.74323,  -0.93750,   0.30690,  -0.77508
  -0.29519,  -0.49078,   0.75772,  -0.31675,  -0.72433,   0.74960,  -0.14968,  -0.60469,  -0.18883,   0.52990
   0.80982,  -0.09361,  -0.93750,  -0.78916,   0.10660,  -0.12351,  -0.93750,   0.93750,   0.80767,   0.81733
  -0.43209,  -0.28479,  -0.39328,  -0.55451,  -0.68694,   0.16389,  -0.46738,   0.76613,  -0.33680,   0.63318
   0.63162,  -0.72445,   0.88200,  -0.79780,  -0.17799,  -0.64756,  -0.11580,   0.93750,  -0.18784,   0.36080
   0.30145,  -0.52186,  -0.43720,  -0.51452,   0.81189,   0.07368,  -0.32344,  -0.85105,   0.08835,   0.85025
  -0.53133,   0.72418,   0.74905,   0.06644,  -0.29549,   0.59673,   0.17681,  -0.28875,   0.05979,  -0.21673
   0.93750,   0.11268,  -0.57000,   0.61435,  -0.81201,   0.08246,  -0.82249,   0.21610,  -0.10053,   0.36469
   0.21207,   0.93750,  -0.57884,   0.44383,  -0.93750,   0.93750,   0.91089,  -0.88212,   0.37451,   0.85016
  -0.55425,   0.93750,  -0.42000,   0.39986,  -0.14340,  -0.34617,  -0.70199,   0.56351,  -0.87461,  -0.57791
  -0.40258,   0.15097,  -0.53566,   0.93750,   0.02080,  -0.93750,   0.93750,   0.93750,   0.48841,  -0.93750
  -0.67478,  -0.49395,  -0.32728,   0.49207,  -0.60173,   0.86984,   0.80959,   0.93750,  -0.36971,   0.24086
  -0.45897,   0.16035,  -0.93750,   0.93750,  -0.20992,  -0.74921,  -0.93750,   0.17242,   0.93750,   0.00774
   0.23490,  -0.74409,   0.93750,  -0.21261,   0.93750,  -0.93750,   0.93750,  -0.93750,  -0.49745,   0.87362
   0.15526,   0.12505,  -0.93750,  -0.80559,   0.10075,   0.38595,  -0.87670,   0.41170,  -0.50704,   0.39429
  -0.42876,   0.93750,  -0.31528,  -0.56043,   0.93750,   0.31204,  -0.69248,  -0.68077,  -0.93750,  -0.80685
   0.93750,   0.27554,  -0.81899,  -0.87792,   0.93750,  -0.79943,   0.81706,   0.36220,  -0.55672,  -0.88163
   0.64033,  -0.24421,  -0.93750,   0.93750,   0.49901,   0.56395,  -0.03530,  -0.54142,  -0.41082,  -0.54095
   0.86838,  -0.54969,  -0.39221,   0.80259,  -0.80107,  -0.88177,   0.84775,  -0.73228,  -0.24046,   0.02846
   0.21103,  -0.86655,  -0.61992,  -0.58062,  -0.05011,   0.48381,  -0.62875,  -0.79660,  -0.53442,   0.67202
  -0.87663,  -0.93750,   0.63919,   0.87056,  -0.04936,   0.27335,   0.69833,   0.11342,   0.12002,   0.71492
  -0.28767,   0.61154,  -0.35939,   0.63975,  -0.10789,  -0.44432,  -0.52495,   0.57171,   0.42240,   0.65056
   0.40515,  -0.87090,  -0.88208,   0.87501,   0.25328,   0.93750,  -0.75492,  -0.37955,  -0.61844,   0.55812
   0.56357,  -0.93750,   0.93750,  -0.93750,   0.04784,  -0.87441,   0.80927,   0.82829,   0.85802,  -0.93750
   0.64640,  -0.49917,   0.74777,  -0.68810,  -0.20882,  -0.67509,   0.87608,  -0.36089,   0.02602,  -0.81140
   0.00907,  -0.66058,  -0.82562,   0.93750,  -0.93750,   0.11438,   0.06420,  -0.37425,  -0.38947,   0.93750
  -0.43877,  -0.57633,   0.38134,   0.86290,  -0.69138,  -0.20374,  -0.13041,   0.93750,   0.06381,  -0.62136
  -0.16364,   0.33439,  -0.17428,  -0.53101,   0.75378,  -0.75462,   0.44794,   0.57497,   0.08920,   0.35400
  -0.73056,   0.91162,  -0.69606,   0.18437,   0.02400,  -0.17515,  -0.31745,  -0.78540,  -0.35159,   0.93750
   0.53245,   0.61272,   0.75990,   0.29888,   0.81364,   0.12738,   0.73087,   0.87579,   0.76700,   0.93750
  -0.73751,   0.58786,   0.59935,  -0.93750,  -0.93402,  -0.56294,  -0.29757,  -0.68478,   0.35560,  -0.30500
   0.36451,  -0.44030,  -0.78934,  -0.25499,  -0.35766,  -0.00531,   0.93720,   0.93750,   0.53562,   0.30091
   0.53905,  -0.16961,   0.21700,  -0.93750,  -0.66906,   0.93750,  -0.63670,  -0.77908,   0.93750,   0.18526
   0.38372,  -0.49665,  -0.93750,  -0.85196,  -0.02103,   0.84237,   0.93750,  -0.68472,  -0.93750,  -0.70096
   0.27779,   0.43425,  -0.13820,   0.60023,  -0.70952,  -0.31036,  -0.66131,   0.06668,  -0.04160,   0.70135
  -0.06929,   0.85178,  -0.74083,  -0.54895,   0.76185,   0.41625,   0.92121,  -0.67624,  -0.36746,   0.80394
   0.28132,  -0.93750,  -0.23126,  -0.53831,   0.93750,   0.93750,  -0.01087,  -0.58351,   0.76968,   0.62191
   0.77169,  -0.39251,  -0.02060,  -0.53337,  -0.19917,   0.26982,  -0.10010,  -0.43556,   0.80426,  -0.23409
   0.07261,   0.82072,  -0.12179,  -0.56941,  -0.44173,   0.62261,  -0.21501,  -0.15001,   0.75833,   0.33600
   0.58560,  -0.77703,  -0.93750,  -0.92355,   0.93750,   0.75270,  -0.93750,  -0.27886,  -0.39935,   0.87729
   0.68687,   0.81793,  -0.64012,   0.45367,   0.32245,   0.34585,  -0.43796,  -0.25653,  -0.84832,  -0.73371
   0.93750,   0.82075,  -0.03922,   0.93594,  -0.87535,  -0.21174,   0.08323,   0.68125,  -0.93750,   0.81694
   0.79991,  -0.79950,   0.81892,  -0.27247,  -0.13926,   0.18111,  -0.86649,   0.43302,   0.93750,  -0.82352
  -0.80746,   0.87106,   0.93750,   0.86554,   0.58012,   0.11662,  -0.76133,  -0.55766,   0.93750,  -0.35131
   0.02586,   0.05152,   0.45660,  -0.39183,   0.58557,  -0.33866,   0.44138,   0.39942,   0.29276,  -0.34373
  -0.30428,  -0.34532,   0.93750,  -0.93750,   0.70120,  -0.27340,  -0.93750,   0.58956,  -0.24322,   0.53054
  -0.05571,   0.71930,  -0.53560,   0.56049,   0.27410,  -0.54300,  -0.91931,   0.55670,  -0.42047,   0.74275
   0.17866,   0.40917,  -0.23935,   0.32338,  -0.01559,   0.47455,  -0.80756,  -0.05305,   0.01412,   0.70012
   0.56515,   0.13111,   0.82913,   0.12109,   0.61102,   0.04469,  -0.30092,   0.81342,  -0.43340,  -0.86692
  -0.81078,   0.48300,  -0.82058,  -0.04768,   0.93750,   0.77800,  -0.93750,  -0.93750,  -0.88326,   0.93750
  -0.93750,   0.00165,  -0.06536,  -0.58709,  -0.93750,  -0.10558,  -0.93750,   0.22214,  -0.93750,  -0.69327
   0.41893,  -0.12430,   0.93750,  -0.37284,   0.50828,  -0.61379,   0.29348,  -0.15991,  -0.17395,   0.67058
  -0.83401,  -0.67541,   0.72161,   0.58919,   0.50916,   0.54540,   0.56512,  -0.20490,  -0.57223,   0.40412
   0.08846,  -0.62717,   0.31816,   0.23922,   0.12290,   0.25414,   0.25392,  -0.88476,   0.30727,  -0.80664
  -0.10143,  -0.34401,  -0.52455,  -0.82546,  -0.75376,   0.92805,  -0.04177,  -0.54558,  -0.80468,  -0.15374
  -0.21608,  -0.81083,   0.11930,   0.72538,  -0.79306,  -0.73969,  -0.61263,   0.82296,  -0.56354,   0.48166
  -0.00535,   0.35685,  -0.56290,  -0.89930,  -0.87124,  -0.20399,  -0.01629,   0.93750,   0.00232,   0.44217
  -0.28534,  -0.88786,   0.37344,  -0.10361,   0.63367,  -0.62987,  -0.75566,   0.67326,   0.53997,   0.38220
  -0.60324,   0.06988,   0.31550,  -0.82307,   0.71378,  -0.46679,  -0.44763,  -0.53056,   0.22398,   0.82732
   0.51860,  -0.48366,  -0.01009,   0.88223,   0.69686,   0.92888,  -0.22904,  -0.60678,  -0.08679,  -0.50084
  -0.56309,   0.86669,   0.33258,  -0.18659,   0.42285,  -0.80886,  -0.64412,  -0.66427,  -0.40210,  -0.60208
   0.54976,   0.46700,   0.48949,   0.93750,  -0.82717,  -0.08674,  -0.56152,   0.13410,  -0.02807,  -0.09521
  -0.29410,  -0.93750,  -0.04967,   0.05485,  -0.52435,   0.57088,  -0.93750,   0.85294,   0.56515,  -0.13031
  -0.26174,  -0.51372,   0.38505,  -0.53570,  -0.03812,  -0.32581,  -0.73298,  -0.64066,  -0.20449,   0.93542
  -0.93284,   0.40339,  -0.93750,  -0.68220,  -0.93750,   0.93750,   0.24240,  -0.35003,   0.87811,  -0.41994
  -0.88157,  -0.93750,  -0.39135,   0.07483,   0.93750,   0.88272,   0.59681,  -0.76352,  -0.80889,   0.00287
  -0.80417,  -0.52400,  -0.06665,   0.32464,  -0.06682,  -0.48117,  -0.28850,  -0.46877,   0.93750,  -0.39898
   0.54079,   0.93391,   0.53691,   0.38747,  -0.57074,   0.93550,   0.35273,  -0.24058,  -0.22989,  -0.03084
   0.93750,   0.80214,  -0.23740,  -0.57455,   0.78477,   0.18368,   0.38650,  -0.80282,  -0.54334,  -0.64275
