  -0.83037,  -0.08946,  -0.61260,  -0.13846,  -0.72910,   0.59261,  -0.70017,  -0.31923,   0.93027,   0.59665
  -0.02013,   0.87622,  -0.93750,   0.42347,   0.30452,   0.29604,   0.54776,   0.93750,   0.93750,  -0.78347
   0.93750,   0.93750,  -0.14452,   0.36993,  -0.93750,  -0.10494,   0.93750,  -0.01423,   0.93750,   0.93750
  -0.69560,  -0.20903,  -0.11022,   0.28993,  -0.69019,  -0.22650,   0.09580,  -0.26573,  -0.05544,  -0.88388
   0.74435,   0.76363,  -0.38341,   0.26075,   0.24337,   0.19730,   0.35914,  -0.20234,   0.51425,  -0.62610
  -0.14870,  -0.16656,   0.44806,   0.22986,   0.69470,   0.74472,  -0.51346,  -0.43588,  -0.16578,   0.81333
   0.19650,   0.42943,  -0.92315,   0.21226,   0.14367,  -0.84022,  -0.23822,   0.86427,   0.32386,  -0.75620
   0.02396,  -0.45779,  -0.84821,   0.93110,  -0.47695,   0.93750,  -0.42394,  -0.19735,  -0.50998,   0.50963
  -0.38060,  -0.55761,   0.87939,  -0.87370,   0.87297,  -0.83744,  -0.45356,  -0.87678,  -0.93750,   0.65654
  -0.40329,   0.93750,  -0.78416,   0.60786,   0.93750,  -0.88772,  -0.39214,  -0.93750,  -0.93750,  -0.80859
  -0.62984,  -0.61355,   0.81830,   0.93750,  -0.63405,   0.93750,  -0.73545,  -0.44987,  -0.08397,  -0.40470
   0.30651,   0.61762,  -0.63096,   0.61330,   0.56021,  -0.56391,  -0.80848,   0.30338,  -0.70167,   0.28437
  -0.71243,  -0.06691,  -0.80598,  -0.30029,   0.84421,  -0.20520,   0.29005,   0.75995,   0.39413,   0.19713
  -0.59902,   0.86928,   0.52050,   0.39378,  -0.06608,   0.44293,  -0.28876,   0.88015,   0.79576,  -0.76431
   0.75016,   0.93750,   0.80361,   0.13484,   0.81648,   0.39454,  -0.93381,  -0.90441,   0.69516,   0.93750
   0.19341,   0.16323,  -0.90452,  -0.88155,   0.73852,   0.93750,   0.93750,   0.87523,  -0.87167,  -0.19746
  -0.87668,  -0.19615,  -0.86901,   0.93750,  -0.93750,   0.87820,   0.69185,  -0.93750,   0.43548,  -0.30859
  -0.38974,   0.93750,  -0.54941,  -0.53754,  -0.93750,   0.35502,  -0.80201,  -0.68963,   0.23177,  -0.57426
   0.22001,   0.93750,   0.20531,   0.88262,   0.00020,  -0.93750,  -0.38693,  -0.20410,  -0.18368,   0.81827
   0.46137,   0.11825,   0.24909,  -0.08796,  -0.02804,  -0.07164,  -0.23992,   0.50672,  -0.77802,   0.05611
  -0.31773,  -0.87987,   0.79320,  -0.93750,   0.93750,  -0.10866,   0.18347,  -0.79240,   0.67716,   0.87755
  -0.27606,  -0.60834,  -0.43354,   0.51724,  -0.81456,   0.12895,  -0.15264,  -0.93750,   0.16944,  -0.74067
   0.55941,  -0.93750,   0.93750,  -0.56335,   0.93750,   0.89254,  -0.88214,  -0.93750,   0.93750,  -0.29068
  -0.48230,   0.93750,  -0.93750,  -0.09547,   0.23108,  -0.17854,   0.93750,   0.93750,   0.46036,  -0.35561
  -0.47628,   0.66112,   0.74949,  -0.07677,   0.93750,   0.81310,  -0.21551,  -0.47799,   0.67608,  -0.11649
  -0.87185,   0.66156,   0.46078,   0.59498,   0.40716,  -0.18284,  -0.81133,  -0.79592,  -0.22295,  -0.17812
  -0.73137,  -0.18591,  -0.27892,  -0.57113,   0.38039,   0.28196,   0.12133,   0.93730,   0.11539,  -0.88156
   0.85409,   0.08787,  -0.43886,   0.76683,  -0.14303,  -0.12905,  -0.28045,  -0.29928,   0.77252,   0.40792
  -0.93750,  -0.13524,  -0.93750,   0.18347,  -0.81918,  -0.06686,  -0.77226,   0.93750,   0.09126,   0.11944
   0.73029,   0.41319,  -0.51798,  -0.71620,  -0.26585,   0.16772,  -0.34727,   0.07663,   0.75529,   0.81175
   0.03848,  -0.17162,   0.93720,  -0.45741,  -0.82315,  -0.93750,  -0.79175,  -0.08230,   0.14879,  -0.26995
   0.55750,   0.58434,   0.05492,   0.83609,  -0.03490,   0.13286,   0.93750,  -0.93750,   0.93750,   0.54674
   0.86769,  -0.86759,  -0.06848,  -0.37978,   0.93750,   0.73624,   0.93750,  -0.23576,  -0.20908,  -0.20183
   0.73803,   0.34391,  -0.69052,   0.24025,   0.87951,   0.61025,  -0.57429,  -0.42481,  -0.75522,  -0.77541
   0.22380,  -0.23056,  -0.01405,  -0.29284,   0.93750,   0.16052,   0.93750,   0.81734,   0.88046,  -0.06890
  -0.72910,  -0.85149,  -0.61926,   0.16910,   0.24531,   0.93750,   0.80267,  -0.71539,  -0.09383,   0.81000
   0.56691,   0.87325,   0.87803,  -0.86922,  -0.93750,  -0.13447,   0.07886,  -0.15901,  -0.22222,   0.80598
   0.05288,   0.87874,  -0.56379,  -0.93750,  -0.87998,  -0.93750,   0.59656,   0.76017,   0.93750,   0.60443
  -0.58512,   0.13007,   0.93750,  -0.28870,   0.54677,  -0.74658,  -0.75996,   0.11600,   0.04190,  -0.15170
   0.93750,   0.46765,   0.93750,  -0.14720,   0.02245,  -0.84305,   0.01161,  -0.30241,   0.77102,  -0.04421
   0.79911,  -0.48672,  -0.90321,  -0.24990,  -0.35254,  -0.48438,  -0.18411,   0.93750,   0.87435,  -0.33518
   0.21753,   0.55656,   0.50540,  -0.63522,   0.74672,  -0.63582,  -0.13251,  -0.57007,  -0.10251,   0.71935
  -0.33976,  -0.11936,  -0.69787,   0.33694,   0.78463,  -0.35592,   0.93750,   0.02652,  -0.61896,   0.93750
   0.93750,   0.82951,   0.67799,   0.27623,   0.93750,  -0.93750,   0.93750,   0.93750,   0.26844,   0.93750
  -0.16682,  -0.06616,   0.22696,   0.21589,   0.38476,   0.64248,  -0.48089,   0.75678,   0.52699,   0.25390
  -0.09705,   0.40799,   0.46736,  -0.32767,   0.63987,   0.16376,   0.06993,  -0.28581,   0.14300,   0.50084
   0.59859,   0.73519,  -0.49669,  -0.93319,   0.93343,   0.74315,  -0.02339,  -0.62512,   0.22243,   0.87151
  -0.60329,  -0.65315,   0.74050,   0.28751,   0.51432,   0.80859,   0.79449,  -0.60539,   0.16797,  -0.73355
   0.25748,   0.64355,  -0.34901,  -0.57494,   0.68167,  -0.15525,   0.72051,   0.93750,  -0.36087,   0.13414
  -0.02735,   0.93750,   0.20752,  -0.29290,   0.26712,   0.01595,  -0.63159,   0.05709,  -0.87029,  -0.87528
  -0.45595,  -0.10300,  -0.08316,   0.05034,   0.86503,  -0.44168,   0.73919,  -0.56803,   0.46601,   0.24081
  -0.13761,   0.73867,   0.55964,  -0.17406,  -0.10347,   0.17278,   0.27724,   0.60276,  -0.52365,   0.76770
   0.69641,   0.87113,  -0.92825,   0.14200,  -0.74865,   0.71351,   0.56895,   0.24462,   0.03439,   0.87508
   0.07251,   0.87275,   0.02401,   0.40541,  -0.04960,   0.01072,  -0.43435,   0.13052,  -0.37264,  -0.75809
   0.33103,   0.29717,  -0.43149,  -0.17091,   0.24429,   0.48358,   0.32190,   0.75263,  -0.02239,  -0.22516
  -0.88170,   0.74451,  -0.72639,  -0.57092,   0.93750,   0.01203,  -0.68974,   0.72209,   0.08764,   0.23229
  -0.75263,   0.40979,  -0.43237,   0.15517,  -0.62064,  -0.58691,   0.69057,   0.14569,   0.93020,   0.10643
  -0.37849,  -0.83148,  -0.72329,  -0.60977,   0.09319,  -0.68923,   0.88341,  -0.86949,   0.80956,  -0.81569
  -0.74976,  -0.05943,   0.09245,  -0.63534,  -0.88905,  -0.43527,  -0.86901,  -0.93565,   0.33034,  -0.93750
  -0.32098,  -0.66277,  -0.92274,  -0.80912,  -0.51344,   0.87493,  -0.60019,  -0.75280,  -0.78281,  -0.03444
  -0.50841,   0.80707,   0.81754,   0.75160,   0.60296,   0.65225,   0.46747,   0.07216,  -0.54178,   0.37321
  -0.93750,   0.22452,  -0.76273,   0.93750,   0.93750,  -0.88144,   0.93750,  -0.62677,   0.20416,  -0.29796
  -0.20332,  -0.00986,   0.47746,  -0.20209,   0.67130,  -0.25900,   0.76697,   0.56011,  -0.34286,   0.37585
   0.67796,  -0.14233,   0.93750,  -0.51590,   0.81341,  -0.09275,   0.42939,  -0.93750,   0.25721,  -0.27078
   0.23644,  -0.58794,   0.92364,  -0.13562,  -0.84977,  -0.82203,  -0.56738,  -0.14840,  -0.15623,  -0.19384
  -0.36233,  -0.53928,  -0.58475,  -0.59332,  -0.16306,   0.87461,  -0.32612,   0.73724,   0.91988,   0.22453
  -0.00832,   0.10193,   0.63330,  -0.67817,  -0.07951,   0.22980,  -0.30953,   0.74474,   0.62482,   0.45618
   0.69912,   0.00793,  -0.30296,  -0.31380,   0.19960,   0.93581,  -0.51312,  -0.78409,   0.02601,   0.45570
  -0.09894,   0.48845,  -0.43058,  -0.50551,  -0.30550,  -0.73515,  -0.15532,   0.93750,  -0.06814,   0.05937
  -0.93750,  -0.05865,   0.93750,   0.26753,   0.56510,  -0.93750,  -0.67159,  -0.87542,  -0.68863,   0.17436
  -0.45672,   0.07793,   0.82051,  -0.36206,   0.90799,  -0.49983,   0.13477,  -0.46566,   0.16130,  -0.48680
   0.85514,   0.51271,   0.93750,   0.00950,   0.30071,  -0.71764,   0.63276,   0.62365,   0.38846,  -0.42841
   0.22626,  -0.93750,  -0.74872,  -0.38281,  -0.59049,  -0.89565,   0.34224,  -0.47795,  -0.93750,   0.93750
  -0.93750,  -0.86640,  -0.93750,   0.93750,  -0.74053,   0.62783,  -0.81495,   0.80698,   0.61815,  -0.93750
  -0.66675,   0.74031,   0.93750,   0.42364,  -0.68118,   0.56678,   0.20553,   0.12053,   0.17696,   0.11972
  -0.30389,   0.93750,   0.03110,  -0.93750,  -0.93750,  -0.64672,   0.27606,   0.78869,   0.17305,  -0.74779
  -0.87024,   0.93750,  -0.65436,  -0.78482,  -0.93750,  -0.80313,   0.75109,   0.66520,   0.31745,   0.08164
  -0.77285,   0.93750,   0.72378,  -0.93750,   0.93750,   0.93750,  -0.24350,   0.93086,   0.08448,  -0.64364
  -0.68349,   0.00672,   0.52619,   0.87227,  -0.18664,  -0.50855,   0.93750,   0.93750,  -0.14807,   0.58749
   0.89209,  -0.39381,  -0.68656,  -0.75120,  -0.61090,   0.88008,  -0.61963,   0.53775,   0.87338,   0.75670
   0.68183,  -0.09382,  -0.52979,   0.86704,  -0.09330,  -0.37822,   0.38107,   0.00528,   0.67254,   0.50935
   0.88804,  -0.86717,  -0.00521,  -0.93750,  -0.82666,  -0.80242,   0.81821,  -0.87835,  -0.75088,  -0.87603
  -0.76497,   0.81394,  -0.50603,  -0.30931,  -0.13963,  -0.15340,   0.13480,  -0.64313,   0.77939,  -0.89401
   0.25374,  -0.44137,   0.88361,  -0.24358,   0.93750,  -0.48200,  -0.45778,   0.03152,   0.32717,   0.24515
  -0.39222,   0.43576,   0.02106,  -0.65358,   0.26509,  -0.38108,   0.92893,   0.02678,   0.20981,  -0.55624
   0.60629,  -0.93750,  -0.38848,   0.93750,   0.93750,   0.93750,  -0.81881,   0.89154,  -0.69097,  -0.88236
   0.34015,   0.67301,  -0.46630,  -0.53743,   0.49024,  -0.53605,   0.38338,  -0.56702,  -0.60838,  -0.23546
  -0.72904,   0.71312,   0.17266,  -0.60975,   0.86135,  -0.13428,   0.01306,  -0.44576,   0.24725,   0.03292
   0.42054,   0.65794,  -0.93750,   0.93750,  -0.33543,  -0.93750,  -0.87199,   0.93750,   0.93750,  -0.93750
   0.93750,  -0.23091,  -0.67138,  -0.00797,  -0.60141,  -0.40640,  -0.72316,  -0.45502,  -0.19078,  -0.09432
  -0.93750,   0.93750,   0.86887,  -0.93750,   0.74961,  -0.75257,  -0.22807,   0.87921,  -0.37366,  -0.83636
   0.88143,   0.29770,   0.39414,   0.59437,  -0.93750,  -0.93750,   0.81471,   0.73928,   0.93750,  -0.23450
   0.57267,   0.74821,  -0.62478,   0.10289,   0.19529,  -0.03459,  -0.89332,  -0.07109,  -0.33063,  -0.75122
   0.22261,  -0.54784,  -0.08634,  -0.82372,   0.69822,  -0.89313,  -0.33130,  -0.62404,   0.65610,   0.93750
  -0.71716,   0.92774,   0.16902,   0.30681,   0.48023,  -0.17205,  -0.35126,   0.78543,  -0.28491,  -0.81719
   0.87045,   0.39928,  -0.33133,  -0.02512,   0.87857,  -0.57717,  -0.16765,  -0.92737,  -0.65322,  -0.17076
  -0.87715,   0.15018,   0.76869,   0.34598,  -0.57471,   0.79572,  -0.59567,  -0.84882,  -0.87144,   0.42172
  -0.64209,  -0.53476,  -0.15256,  -0.53323,   0.33207,  -0.38956,  -0.59272,   0.11303,  -0.15860,   0.93750
  -0.59729,   0.00947,   0.93635,  -0.59424,  -0.57648,  -0.15744,  -0.00786,  -0.83018,   0.01019,  -0.18998
  -0.75595,   0.44532,  -0.18441,   0.93750,  -0.43436,   0.82664,   0.09335,  -0.80353,   0.81623,  -0.52497
  -0.53525,   0.29569,   0.20077,  -0.37451,   0.36638,  -0.71743,  -0.69260,   0.86533,   0.13415,   0.01194
  -0.81150,  -0.57765,   0.56116,   0.93750,  -0.80545,   0.67953,  -0.68826,   0.93750,  -0.09769,  -0.73343
  -0.74728,  -0.93750,   0.85095,  -0.93750,  -0.66235,   0.93750,  -0.87151,  -0.37705,   0.20420,   0.93750
  -0.27502,   0.76833,   0.76001,  -0.67667,  -0.75509,  -0.25683,  -0.04523,   0.07105,  -0.65923,  -0.45420
   0.75646,   0.12278,  -0.91552,  -0.39093,  -0.61392,  -0.86623,   0.93138,   0.54271,   0.05423,   0.08536
   0.41271,   0.47945,  -0.93750,  -0.63164,   0.22339,   0.06383,   0.93750,  -0.53489,  -0.93750,   0.45562
  -0.11672,  -0.06604,   0.13589,   0.13747,   0.74226,  -0.69224,   0.51013,  -0.87408,  -0.32381,   0.13377
   0.67016,  -0.58781,   0.93750,   0.03773,  -0.94182,  -0.11362,  -0.01165,  -0.74796,   0.07979,   0.13913
   0.93750,  -0.93750,   0.75410,  -0.47030,   0.87688,   0.13633,  -0.20452,   0.22057,  -0.86744,   0.21851
   0.92966,   0.02893,  -0.44453,   0.78838,   0.75801,   0.04717,  -0.87648,  -0.37483,   0.87308,  -0.75726
  -0.00013,  -0.47565,  -0.75703,  -0.63653,   0.55123,   0.04435,   0.93750,   0.82751,  -0.73010,   0.82245
   0.82764,  -0.79871,  -0.11290,  -0.14516,  -0.14152,  -0.81580,  -0.75918,  -0.65177,  -0.49778,   0.81540
  -0.88527,   0.93750,  -0.93750,   0.47627,   0.93750,  -0.93750,   0.27610,   0.93750,   0.68663,  -0.36135
   0.86956,   0.05292,   0.37900,   0.87085,  -0.08213,  -0.25745,   0.93750,  -0.81353,   0.42219,  -0.13603
   0.69924,   0.83856,  -0.66558,  -0.52650,  -0.16977,  -0.47679,  -0.05091,  -0.06497,   0.93750,   0.81176
  -0.29042,   0.61830,  -0.62072,   0.87671,   0.57598,   0.28654,   0.29510,  -0.42985,   0.89138,  -0.32761
   0.71524,   0.80012,  -0.00009,   0.17025,   0.89416,  -0.06853,   0.39756,  -0.42076,  -0.01583,  -0.37258
   0.87720,  -0.74797,  -0.73153,   0.32869,  -0.17082,   0.75436,   0.85765,   0.51093,   0.64521,  -0.79956
   0.86513,  -0.93750,   0.43122,   0.77504,  -0.81059,   0.06575,   0.88817,  -0.80602,  -0.48205,   0.31863
   0.80207,  -0.00734,   0.40871,   0.42823,   0.03325,  -0.44308,  -0.83708,   0.15110,  -0.80976,  -0.64254
  -0.10635,   0.93750,  -0.87767,   0.49755,   0.43902,  -0.80218,   0.67979,   0.93750,   0.47499,  -0.86107
  -0.35394,  -0.03953,   0.87758,  -0.40763,   0.40203,  -0.92477,  -0.56739,  -0.53778,  -0.60916,   0.93750
   0.87241,   0.93750,  -0.74447,  -0.87599,   0.09400,  -0.88019,   0.93750,   0.74039,   0.86804,   0.86630
  -0.93750,  -0.05936,   0.33015,  -0.93750,  -0.93750,  -0.90261,  -0.76892,  -0.06744,  -0.74447,   0.93750
  -0.87110,  -0.75013,   0.93750,   0.03295,  -0.15341,   0.09749,   0.13194,   0.87241,  -0.93750,   0.74960
  -0.76523,  -0.87097,  -0.93750,   0.93750,   0.03212,  -0.37211,   0.93750,   0.10959,   0.93750,  -0.38948
  -0.09541,   0.76119,   0.03466,   0.21768,   0.03338,   0.39096,  -0.11787,  -0.70581,  -0.87470,  -0.66481
   0.74581,  -0.17927,  -0.48637,  -0.19397,  -0.09922,   0.10619,   0.15423,  -0.06805,   0.84960,  -0.45256
  -0.48251,   0.31971,  -0.80393,  -0.12349,   0.81401,   0.21564,   0.90065,  -0.03351,   0.72640,   0.57567
   0.87107,   0.36901,   0.04800,   0.87112,   0.93750,  -0.77579,   0.93750,  -0.55692,  -0.87182,   0.93750
   0.69098,  -0.87370,  -0.12916,   0.86816,   0.91410,  -0.81380,  -0.43806,  -0.44836,   0.37312,  -0.73013
  -0.09408,   0.15733,  -0.65851,  -0.33845,  -0.64427,   0.31624,   0.93750,   0.48784,   0.68469,   0.44548
  -0.37942,   0.09038,   0.81767,  -0.54123,  -0.93750,   0.90186,  -0.93750,  -0.93750,   0.55721,  -0.61538
   0.93750,   0.05472,  -0.87184,  -0.80599,   0.39340,  -0.68191,  -0.85874,   0.39799,   0.54201,   0.11576
  -0.40034,   0.57008,   0.87546,  -0.76899,   0.74401,  -0.22479,   0.54011,  -0.23975,  -0.21406,  -0.26372
   0.87398,   0.51450,  -0.87586,  -0.75679,   0.79202,  -0.26609,   0.69291,   0.93750,   0.66834,  -0.87191
   0.06158,   0.01772,  -0.71551,   0.86748,  -0.44892,   0.86033,  -0.14668,  -0.26452,   0.10433,  -0.23691
  -0.06813,   0.63344,  -0.69819,   0.78440,  -0.52047,   0.64361,  -0.93750,  -0.16330,   0.37542,  -0.75019
  -0.36266,   0.49675,  -0.93750,   0.28132,  -0.47675,  -0.44045,   0.93750,  -0.69061,   0.93750,  -0.30966
   0.35596,  -0.24729,  -0.27029,   0.93750,  -0.46017,  -0.91659,   0.44702,   0.85916,  -0.70090,   0.34723
   0.08080,  -0.05251,   0.76317,   0.93750,   0.48670,   0.77381,  -0.93750,   0.93750,   0.93750,   0.07825
   0.93750,   0.68444,  -0.52717,   0.71444,   0.46540,   0.39079,   0.04662,  -0.80577,  -0.82537,  -0.69555
   0.35761,   0.32170,   0.30907,   0.80680,  -0.47627,   0.62970,  -0.34503,  -0.58523,  -0.10297,  -0.01803
  -0.12079,   0.75103,  -0.11622,  -0.49085,  -0.51030,  -0.18838,   0.05812,   0.01634,   0.20817,   0.56746
   0.71901,  -0.48519,   0.03553,  -0.93656,   0.16785,  -0.27170,  -0.74863,  -0.39653,   0.75772,  -0.47023
   0.41653,   0.68512,   0.93750,  -0.61811,   0.93748,   0.33016,  -0.05291,  -0.90859,  -0.87963,   0.24903
  -0.58616,   0.21837,   0.93750,  -0.06375,   0.93750,  -0.60786,  -0.32278,   0.77830,   0.15028,   0.93750
  -0.58304,  -0.71671,   0.87912,  -0.81072,   0.28726,  -0.66143,   0.47071,  -0.08174,   0.79636,  -0.21556
   0.93750,  -0.93750,  -0.49356,   0.14856,  -0.10440,   0.34866,   0.34758,  -0.80106,  -0.06231,  -0.93750
   0.79942,  -0.76006,   0.49156,  -0.74144,  -0.57735,   0.60190,   0.75193,  -0.93750,   0.31787,   0.93750
  -0.24095,  -0.41440,  -0.61291,   0.38277,   0.01747,   0.21146,   0.52638,   0.51226,   0.11610,   0.04348
  -0.20766,   0.87198,  -0.21583,   0.88745,   0.31096,  -0.43000,  -0.08042,  -0.32183,  -0.01198,  -0.58852
  -0.70627,  -0.45410,  -0.74923,  -0.53791,   0.12708,   0.55673,   0.00283,   0.32804,   0.12977,   0.23685
  -0.80964,   0.93750,  -0.93750,   0.93750,   0.93750,   0.93750,  -0.64109,   0.21693,  -0.37344,   0.93750
   0.37077,  -0.15785,  -0.87026,   0.36310,   0.88013,  -0.93750,   0.87500,  -0.53918,   0.48528,  -0.74533
  -0.26735,   0.75185,   0.29918,   0.75671,   0.31062,   0.53974,   0.81483,  -0.93750,  -0.64527,   0.93750
  -0.07861,   0.76826,   0.36002,   0.74483,   0.03717,   0.39764,  -0.14870,   0.64357,   0.52746,  -0.69375
  -0.53222,  -0.30769,  -0.61844,  -0.42794,  -0.05798,  -0.10350,  -0.40420,  -0.07931,   0.93750,  -0.52468
   0.58563,   0.93750,   0.87796,  -0.50053,   0.55558,   0.49597,  -0.58002,   0.56365,  -0.55893,  -0.12950
   0.58397,   0.86692,  -0.69199,  -0.34550,   0.93750,  -0.43085,  -0.88591,   0.87386,   0.93750,  -0.22428
   0.81171,   0.77620,  -0.88002,  -0.12230,  -0.32407,  -0.31186,  -0.04955,   0.39267,   0.11663,   0.36066
   0.08908,  -0.50197,  -0.68714,  -0.62195,  -0.62220,  -0.86027,   0.93191,  -0.59108,  -0.04242,   0.15714
   0.50776,  -0.87690,   0.93750,  -0.33469,   0.87822,   0.91128,  -0.62239,  -0.21296,  -0.74015,  -0.88353
   0.62164,  -0.30628,  -0.56701,   0.32989,   0.56402,   0.26442,   0.61505,  -0.08162,   0.93750,   0.93750
  -0.06183,  -0.30414,  -0.33045,   0.93750,  -0.71493,  -0.14756,   0.01806,  -0.24200,  -0.40817,  -0.36459
   0.93750,   0.93750,   0.52857,   0.48252,   0.26334,   0.80245,  -0.82542,   0.91073,  -0.81046,  -0.03984
  -0.79539,   0.86352,  -0.77257,   0.48500,   0.57175,  -0.64275,  -0.49014,  -0.33419,  -0.86951,   0.87972
   0.54092,   0.93750,  -0.50155,   0.49034,  -0.40365,  -0.87532,   0.29979,   0.02293,  -0.28444,   0.45573
  -0.57723,  -0.32097,   0.93750,   0.88179,   0.75337,  -0.82215,  -0.41893,  -0.28259,  -0.84960,  -0.20954
  -0.57697,   0.93750,   0.65959,  -0.04167,   0.09327,  -0.15611,  -0.69632,   0.36544,   0.65394,  -0.48417
   0.78633,  -0.37305,  -0.61227,  -0.14371,   0.93750,   0.33770,  -0.15814,  -0.01405,  -0.33708,   0.13267
   0.50660,   0.11685,  -0.58482,   0.81399,   0.00100,  -0.93750,  -0.43443,   0.87911,   0.82089,  -0.17264
  -0.35476,   0.13215,  -0.77978,  -0.66420,   0.34821,   0.82395,  -0.31901,   0.46854,   0.35300,  -0.11151
   0.10550,  -0.13957,  -0.83214,  -0.33577,   0.31985,   0.65836,   0.16055,  -0.03707,  -0.12550,   0.93750
  -0.93750,   0.00775,  -0.56064,   0.93750,  -0.93750,  -0.85441,   0.93750,   0.24004,   0.93750,   0.46666
   0.24230,   0.87864,   0.19756,   0.40651,  -0.80959,  -0.88084,   0.58894,  -0.00733,   0.42990,  -0.87292
  -0.36999,  -0.34641,  -0.15276,   0.21668,   0.08524,  -0.93750,   0.92325,   0.26988,   0.93750,   0.81278
  -0.86766,  -0.08652,   0.43956,  -0.42614,   0.74589,  -0.47829,   0.46013,   0.86892,   0.54276,   0.57411
   0.76040,   0.67379,  -0.23261,   0.23056,  -0.22804,   0.25431,  -0.25706,   0.68975,   0.87910,  -0.44693
  -0.42667,  -0.13126,   0.40452,  -0.49938,   0.45450,  -0.35390,  -0.93750,   0.76466,  -0.27914,   0.62329
  -0.73110,  -0.47136,   0.93201,  -0.35393,  -0.83342,  -0.32853,   0.27039,   0.79074,   0.12593,   0.49874
   0.81128,  -0.23440,   0.93508,   0.37185,   0.91642,   0.46063,   0.88322,  -0.81044,  -0.92896,  -0.37889
   0.00474,  -0.88517,  -0.61337,   0.66829,  -0.38953,  -0.16666,   0.35241,  -0.26944,  -0.72930,   0.02175
  -0.74109,  -0.93750,   0.13384,  -0.81900,   0.87361,  -0.44803,   0.22592,   0.48235,   0.59126,   0.41180
   0.62698,   0.34902,   0.76677,   0.66369,  -0.61352,   0.84755,   0.69001,   0.64443,   0.27408,  -0.03781
  -0.61896,  -0.27977,   0.52779,   0.93750,  -0.82444,  -0.76557,   0.15349,   0.87267,   0.42342,   0.87390
  -0.87962,  -0.31021,  -0.32167,  -0.74540,  -0.27422,   0.93750,  -0.76172,  -0.40158,   0.35101,  -0.78089
  -0.69694,  -0.87203,  -0.23646,   0.51969,  -0.60247,  -0.24065,   0.74956,  -0.40547,   0.88024,   0.86810
   0.88253,   0.93750,   0.86942,   0.08341,  -0.44387,   0.14346,   0.79268,   0.31559,   0.87994,  -0.23553
  -0.06980,  -0.82054,   0.28668,  -0.71328,  -0.81562,   0.28345,  -0.21904,  -0.12602,  -0.08168,  -0.80101
  -0.61731,  -0.12891,  -0.93750,  -0.16038,   0.32737,  -0.76242,   0.09976,   0.57699,   0.93750,   0.64624
   0.93750,   0.21235,  -0.76330,   0.85988,  -0.60548,  -0.51356,   0.33482,  -0.06586,  -0.28132,   0.78376
   0.35553,  -0.09775,  -0.26199,  -0.56958,  -0.61116,   0.87620,  -0.49067,   0.41355,  -0.75574,   0.87822
   0.47863,   0.47331,   0.06590,  -0.12425,   0.93750,   0.61984,   0.12081,  -0.38582,   0.03932,   0.39718
  -0.38832,   0.67308,  -0.24163,  -0.63993,  -0.73224,   0.93750,   0.78529,  -0.04046,   0.16838,   0.16413
   0.87947,   0.93750,   0.53078,   0.93750,  -0.45078,  -0.87013,   0.01991,  -0.17913,  -0.29007,  -0.93750
  -0.27994,  -0.01148,   0.76189,   0.86663,   0.72662,  -0.52661,  -0.13564,  -0.36150,  -0.82778,  -0.42095
   0.47489,   0.57655,   0.10473,  -0.86966,  -0.75623,  -0.02816,  -0.87562,   0.45116,   0.49974,   0.88250
  -0.48227,   0.80163,   0.02617,   0.35926,   0.63658,   0.21358,   0.18330,   0.45911,   0.02469,  -0.50414
  -0.35758,  -0.07320,   0.93750,  -0.23507,   0.74123,  -0.25909,  -0.38108,   0.81031,   0.10684,   0.60570
   0.03581,   0.14375,   0.49788,  -0.18482,  -0.48651,   0.81051,   0.66290,   0.12745,   0.17177,   0.86639
   0.32247,  -0.41020,   0.81913,  -0.18278,  -0.53990,   0.00942,   0.86118,  -0.11976,  -0.12142,  -0.64267
   0.35703,  -0.58009,   0.27376,  -0.92874,   0.87015,   0.93750,  -0.93750,  -0.28630,  -0.13613,  -0.36147
  -0.76216,   0.62953,  -0.05819,   0.87703,   0.36691,   0.19198,  -0.57495,  -0.73604,  -0.10611,  -0.36063
  -0.83388,   0.47526,   0.75997,  -0.77471,   0.37290,  -0.27175,   0.68348,  -0.37453,  -0.59169,  -0.56272
   0.62433,   0.93224,   0.32875,  -0.21779,   0.57469,  -0.36492,   0.21681,  -0.12614,   0.83176,  -0.59003
  -0.28876,   0.64931,   0.38378,  -0.53953,  -0.30209,  -0.66974,   0.74532,   0.93750,  -0.08383,  -0.12668
  -0.25417,  -0.93006,   0.75307,  -0.87801,  -0.56123,  -0.93750,  -0.80588,  -0.81826,   0.93750,  -0.75385
  -0.80495,  -0.93750,   0.58104,   0.18765,   0.93750,   0.57532,   0.65339,   0.29471,  -0.39080,   0.93750
   0.19410,   0.10902,   0.01266,   0.93175,  -0.09322,  -0.36339,   0.35443,   0.27811,   0.61296,   0.41700
  -0.54486,   0.05261,  -0.79620,   0.61512,  -0.75266,   0.60539,   0.86719,   0.37306,  -0.02576,   0.93750
   0.65645,   0.66004,  -0.53969,  -0.74251,  -0.00811,  -0.08076,  -0.65265,  -0.81469,  -0.72277,   0.93444
   0.93750,   0.78863,  -0.93750,  -0.87602,   0.41654,   0.13876,   0.93750,   0.87703,  -0.93750,   0.93750
   0.94194,  -0.01409,   0.35787,   0.91936,   0.64926,   0.45584,  -0.57841,   0.05973,   0.52469,   0.45554
   0.92867,  -0.87618,   0.93750,   0.93750,   0.15432,   0.46759,  -0.50076,   0.32292,  -0.11874,   0.12313
  -0.51048,  -0.69851,   0.80744,   0.06751,   0.74214,  -0.64383,   0.43124,  -0.77631,  -0.93750,   0.81076
  -0.29806,  -0.31031,  -0.93750,  -0.78073,   0.17278,   0.15013,   0.32934,   0.34818,  -0.47916,   0.06832
  -0.11876,   0.36460,   0.00879,  -0.40202,  -0.39984,  -0.26181,   0.93750,  -0.33018,  -0.36525,  -0.08037
   0.04681,   0.43887,  -0.19087,  -0.60041,  -0.01223,  -0.85704,  -0.02852,  -0.51086,  -0.29052,   0.93750
   0.74163,  -0.48179,  -0.72132,  -0.08073,  -0.81635,   0.74537,  -0.18583,  -0.82875,   0.93750,   0.69963
   0.93060,   0.93557,   0.82837,  -0.64702,  -0.73112,  -0.88375,  -0.14892,   0.93182,   0.68769,  -0.88316
   0.93750,  -0.14746,   0.06089,   0.93750,   0.93750,  -0.93750,   0.93750,   0.88196,   0.18689,   0.73380
  -0.72086,  -0.88154,   0.51038,  -0.86936,  -0.07873,   0.87149,  -0.83561,   0.88349,  -0.06755,  -0.88038
  -0.86959,   0.81754,   0.87522,  -0.06676,  -0.57238,  -0.38023,   0.10355,  -0.51116,  -0.73408,   0.87974
  -0.68972,   0.92666,  -0.68839,  -0.55701,  -0.12627,  -0.18397,  -0.52214,  -0.24965,   0.32763,  -0.40398
   0.70390,   0.77638,   0.86676,  -0.57050,   0.93750,  -0.90568,   0.28390,   0.78717,  -0.17764,  -0.68910
  -0.22460,   0.35253,  -0.29719,   0.81812,  -0.23573,  -0.51656,   0.61676,   0.50705,   0.28292,   0.22772
  -0.74742,   0.88616,  -0.62354,  -0.74514,  -0.46980,   0.93220,   0.17677,   0.93750,  -0.28381,  -0.45553
   0.08604,  -0.88159,  -0.84764,  -0.88462,  -0.93750,  -0.70514,   0.56971,  -0.01758,   0.12637,   0.88209
  -0.27358,   0.36307,   0.06457,   0.18368,  -0.53260,   0.72648,   0.68456,  -0.35464,   0.31542,   0.02560
   0.30229,  -0.00430,  -0.85355,   0.28662,  -0.26255,   0.86128,   0.37819,   0.69148,   0.33727,   0.21674
  -0.23270,  -0.47558,  -0.21018,   0.92880,   0.80304,  -0.33055,  -0.14166,   0.39259,  -0.18359,  -0.04197
  -0.32895,  -0.18932,   0.03001,   0.93750,  -0.69868,   0.70333,   0.93750,  -0.84620,  -0.93750,   0.93750
   0.87735,   0.65271,   0.66797,  -0.08770,  -0.24661,   0.39834,   0.93750,  -0.69889,   0.06296,  -0.61004
  -0.93750,  -0.16298,   0.49079,   0.93750,   0.93750,  -0.00479,  -0.16351,   0.93750,  -0.78124,  -0.30585
   0.66309,   0.87653,   0.93750,   0.26537,   0.86960,   0.81693,   0.75563,  -0.93750,  -0.39070,  -0.93750
   0.22288,   0.62035,  -0.51256,  -0.44279,   0.82144,   0.34627,  -0.64876,   0.60820,  -0.93750,  -0.49527
   0.83587,  -0.39709,   0.47976,  -0.60033,   0.68518,   0.72816,  -0.51027,   0.26036,  -0.25827,  -0.36485
   0.39115,  -0.90712,   0.58235,  -0.42263,   0.71065,  -0.68759,   0.12186,   0.30153,   0.62323,   0.92953
   0.33847,   0.09331,  -0.15396,  -0.91189,  -0.21579,   0.93750,   0.08322,  -0.62304,  -0.02487,  -0.02246
   0.18585,  -0.12355,  -0.65642,   0.93883,   0.55974,   0.22033,   0.53774,   0.33568,  -0.24128,  -0.58213
   0.24240,   0.56667,  -0.02983,  -0.49614,  -0.49759,   0.29277,   0.38929,  -0.12562,  -0.31158,   0.83054
  -0.55950,  -0.03777,   0.93750,   0.14999,   0.11649,  -0.80404,  -0.21185,   0.15718,  -0.41044,   0.10946
  -0.23165,   0.74311,   0.09796,  -0.08024,   0.11550,   0.33913,   0.73043,   0.79561,   0.25098,   0.07571
  -0.03885,   0.31802,  -0.56069,  -0.74957,  -0.09216,   0.82866,  -0.31514,  -0.56105,   0.75319,   0.81878
   0.87215,   0.29352,  -0.60359,   0.74089,  -0.30068,   0.56021,   0.00215,  -0.44929,   0.16697,  -0.37948
   0.81560,   0.12206,   0.06498,  -0.24956,   0.93750,  -0.27116,   0.17175,  -0.50588,   0.01058,   0.08964
   0.80521,  -0.61104,  -0.15948,   0.93750,  -0.93750,  -0.42296,   0.93750,  -0.81158,   0.74793,  -0.44305
   0.24937,   0.72631,  -0.80939,   0.87612,   0.33834,  -0.90799,  -0.01999,   0.93750,  -0.69724,  -0.69353
   0.46497,   0.93750,  -0.86923,   0.34527,   0.93750,  -0.21814,   0.42509,  -0.12308,   0.65330,  -0.87027
   0.93750,   0.25563,   0.00304,  -0.75780,   0.74448,  -0.93750,  -0.50548,   0.16541,  -0.80892,   0.87298
   0.50023,  -0.87420,   0.80139,  -0.54182,   0.38978,   0.72927,  -0.53102,  -0.75116,  -0.87579,   0.61482
   0.92889,  -0.68818,  -0.22830,  -0.45220,   0.09070,  -0.60213,   0.87687,  -0.70151,   0.87882,   0.93750
   0.81681,   0.81536,  -0.29908,  -0.49249,  -0.54696,  -0.00478,   0.10820,  -0.28654,   0.02593,   0.07502
   0.36882,  -0.32912,  -0.60490,   0.81970,   0.88441,  -0.23589,  -0.49191,  -0.02692,   0.36593,  -0.15213
   0.19455,  -0.82558,  -0.88647,   0.48059,   0.84805,   0.93750,   0.93750,  -0.62682,  -0.76791,  -0.93750
   0.31145,  -0.25804,  -0.72407,  -0.29776,   0.34859,  -0.49782,  -0.55908,   0.92541,  -0.42196,   0.69387
   0.94362,   0.19504,   0.73826,  -0.40175,   0.04679,   0.26984,   0.42965,   0.68868,  -0.48578,   0.08153
   0.93750,  -0.88437,  -0.88663,   0.88508,   0.93750,   0.93750,  -0.48510,   0.93750,   0.60996,   0.61903
  -0.24673,   0.38372,  -0.12184,   0.00304,  -0.38203,  -0.21982,   0.05935,  -0.24803,  -0.45920,   0.04014
  -0.05640,   0.54206,   0.88015,   0.20148,  -0.52325,   0.37708,  -0.46020,   0.30943,  -0.40524,   0.35478
  -0.55204,  -0.08459,  -0.74735,  -0.82777,   0.93750,   0.19881,   0.93750,   0.93750,  -0.51598,  -0.34111
   0.68847,  -0.93750,   0.93750,  -0.72455,  -0.93750,   0.93750,   0.00445,  -0.93750,  -0.60688,  -0.66187
  -0.88726,  -0.35308,   0.49698,   0.65878,   0.15228,  -0.20683,  -0.06773,   0.74505,   0.82740,  -0.03381
   0.21647,   0.09441,   0.20498,   0.12831,  -0.62573,  -0.50015,   0.35259,   0.87491,  -0.46298,  -0.48078
  -0.73476,  -0.87181,  -0.87578,   0.55845,   0.88308,  -0.87446,  -0.74090,  -0.87269,  -0.68778,   0.88287
  -0.17212,  -0.24909,  -0.39085,  -0.63132,   0.04994,  -0.29555,   0.91617,   0.60222,   0.62657,   0.20273
   0.00979,  -0.43207,   0.48577,  -0.30105,   0.14402,  -0.28883,  -0.41985,   0.79311,  -0.75540,   0.82257
  -0.15974,   0.37116,   0.76345,   0.53006,  -0.54086,  -0.93750,  -0.82764,   0.53511,  -0.81002,  -0.93750
  -0.39295,  -0.57689,  -0.22862,   0.58832,   0.01160,  -0.33085,   0.00829,  -0.17515,   0.93374,   0.79815
  -0.83971,   0.27122,  -0.20597,   0.93750,   0.46392,   0.17998,   0.93750,   0.24848,   0.93009,  -0.27749
  -0.43539,   0.05402,   0.93750,  -0.38614,  -0.79841,   0.87541,  -0.16652,  -0.17191,   0.15748,  -0.33020
  -0.31136,   0.16856,   0.02148,  -0.60731,  -0.73829,   0.79047,   0.22379,   0.86869,  -0.52769,  -0.14868
   0.38301,  -0.01096,   0.93750,   0.41229,  -0.63461,   0.73816,   0.01169,  -0.93750,   0.33081,   0.24528
   0.74958,   0.65556,  -0.93750,   0.60770,   0.00122,  -0.31787,   0.93750,   0.58159,   0.93750,   0.59808
  -0.93750,   0.87614,   0.64219,  -0.87509,  -0.93750,   0.75815,  -0.87288,   0.93750,  -0.73915,   0.68299
  -0.86968,   0.93750,  -0.81874,   0.93750,   0.22183,  -0.82858,  -0.72564,   0.93750,  -0.46608,  -0.87508
  -0.05130,  -0.75322,  -0.71004,   0.27062,   0.49423,  -0.52306,   0.92636,  -0.49713,  -0.46232,   0.93750
  -0.66939,  -0.61512,   0.74695,  -0.21294,   0.08013,   0.15952,  -0.60585,  -0.66365,  -0.19943,   0.93750
  -0.11243,  -0.16124,   0.21735,   0.68062,   0.79644,   0.36074,   0.52607,   0.01350,   0.51796,  -0.03209
   0.70274,  -0.15631,  -0.87292,   0.53883,  -0.93750,   0.93750,   0.93750,   0.13246,  -0.93750,   0.26629
  -0.93750,   0.93750,   0.22552,   0.93750,   0.93750,   0.93750,   0.93750,  -0.33786,   0.86710,   0.62985
   0.67369,  -0.31880,  -0.91774,  -0.69625,   0.27136,  -0.93750,   0.29216,  -0.29730,   0.54386,   0.81333
   0.63799,   0.05115,   0.66391,  -0.67376,   0.87174,  -0.27126,   0.19727,  -0.45215,  -0.57330,  -0.39755
  -0.64470,  -0.15797,   0.38564,   0.35538,  -0.03137,  -0.22942,   0.68083,   0.02805,  -0.35915,   0.89297
  -0.87291,  -0.80600,  -0.82643,  -0.93750,  -0.28433,   0.12420,   0.67578,   0.14998,   0.49011,  -0.67377
  -0.26800,   0.30705,  -0.93750,  -0.84346,   0.45273,   0.93750,   0.69206,  -0.47398,  -0.93750,  -0.93750
   0.60458,  -0.35707,   0.67022,  -0.74691,  -0.82541,   0.93750,  -0.54619,  -0.93750,   0.81974,  -0.45236
   0.15315,   0.75737,   0.76418,  -0.03303,  -0.33387,   0.00474,   0.20632,  -0.50957,   0.71209,  -0.57405
  -0.69321,   0.31692,  -0.87489,   0.29134,   0.63715,  -0.42345,   0.49518,  -0.93750,   0.47145,   0.40820
   0.90977,   0.44797,   0.33084,  -0.73724,  -0.36704,  -0.17954,   0.78927,  -0.47453,  -0.44988,  -0.21510
  -0.70397,   0.93750,   0.69197,  -0.57482,   0.24632,  -0.51619,  -0.02141,  -0.28971,   0.14571,  -0.62210
  -0.39542,   0.14854,   0.64006,   0.81183,  -0.83223,   0.48308,   0.49303,  -0.27057,  -0.02725,  -0.59691
  -0.01783,   0.93750,   0.93750,   0.93750,   0.93750,  -0.93750,   0.88457,   0.93750,   0.86256,  -0.93750
  -0.93750,  -0.88218,  -0.86541,   0.80063,   0.93750,   0.93750,   0.27795,  -0.16736,  -0.39423,   0.07808
   0.09477,   0.74102,   0.41037,  -0.69588,  -0.11135,  -0.52205,   0.13671,   0.91810,  -0.26737,   0.74070
   0.46560,  -0.14306,   0.81983,  -0.87711,   0.56044,  -0.45650,   0.73757,   0.87061,   0.78383,  -0.68933
   0.79451,   0.86937,  -0.75672,   0.03236,   0.62480,   0.22078,   0.82274,  -0.00609,   0.93750,  -0.87029
  -0.79459,   0.80006,   0.11929,  -0.86600,  -0.65803,   0.20660,  -0.28144,   0.62160,  -0.60066,   0.87754
  -0.33738,   0.81745,  -0.01449,  -0.22046,  -0.00431,   0.14594,   0.40498,  -0.58672,   0.10141,  -0.81305
   0.11618,  -0.06112,   0.87368,  -0.72887,  -0.02506,  -0.22453,   0.68205,  -0.60001,   0.04932,   0.36125
  -0.08547,   0.19484,  -0.46947,  -0.68678,  -0.52508,   0.93302,  -0.16978,  -0.17707,  -0.28373,   0.05537
   0.87816,   0.86166,  -0.41806,   0.04936,  -0.65542,   0.05165,   0.27646,   0.35512,  -0.31111,  -0.73475
  -0.83120,   0.52380,   0.93750,  -0.76703,  -0.65375,  -0.45934,  -0.66892,  -0.79864,  -0.11069,  -0.93750
   0.23675,   0.23902,  -0.53669,  -0.63493,   0.34689,   0.68667,   0.44377,  -0.35589,   0.27989,   0.70079
  -0.20050,  -0.30783,   0.48507,   0.81203,  -0.25593,  -0.53558,  -0.16676,   0.10635,   0.15704,  -0.21432
  -0.80677,  -0.58982,   0.49470,  -0.82223,  -0.93750,   0.81528,  -0.70016,   0.83292,   0.74844,   0.61150
   0.28023,  -0.25351,   0.63889,  -0.10664,   0.88044,  -0.93750,   0.91132,  -0.67095,   0.49822,   0.59416
  -0.64356,  -0.87777,  -0.38656,  -0.93750,  -0.93750,  -0.87231,  -0.93750,  -0.87002,   0.12297,  -0.87807
   0.46500,  -0.18694,  -0.66500,  -0.68404,  -0.33650,  -0.56992,  -0.08107,   0.93663,   0.93750,   0.58687
  -0.87318,   0.52215,   0.87585,  -0.93731,  -0.52387,  -0.22971,   0.66080,   0.87035,  -0.63901,  -0.52669
   0.87601,  -0.64014,  -0.64043,   0.78724,  -0.58242,  -0.06018,   0.86333,  -0.52374,  -0.67444,   0.81677
  -0.41953,   0.28159,   0.87514,   0.93750,   0.04359,  -0.49121,   0.86670,   0.83172,   0.65052,  -0.54295
   0.11814,  -0.16640,  -0.18232,   0.69448,   0.21464,   0.83858,  -0.60247,  -0.38276,   0.16272,  -0.45861
   0.87238,  -0.32914,   0.82541,  -0.80486,  -0.88472,   0.52465,   0.93750,   0.93750,   0.87416,   0.06426
  -0.88014,   0.17066,  -0.87463,  -0.32580,   0.93750,  -0.93750,  -0.35464,  -0.66049,  -0.87061,   0.88119
  -0.64034,   0.93364,  -0.41463,   0.04692,  -0.36891,   0.29619,   0.20564,   0.29605,  -0.52187,  -0.57945
  -0.14613,   0.43871,  -0.64443,  -0.43865,  -0.60281,   0.17278,   0.02206,   0.92745,   0.06698,  -0.21760
   0.19411,   0.14852,   0.17045,   0.18901,  -0.20241,   0.01166,  -0.08015,   0.21982,  -0.05201,   0.72671
  -0.36523,   0.02800,   0.85472,  -0.25743,   0.20369,   0.59000,  -0.46417,  -0.27123,   0.02281,   0.11818
  -0.50076,  -0.32928,  -0.58846,  -0.24343,  -0.37008,   0.49858,   0.54067,   0.56811,  -0.66475,  -0.92468
   0.67051,  -0.32451,   0.92749,   0.34162,  -0.77196,   0.45058,   0.63275,  -0.14145,  -0.36669,  -0.66283
  -0.76918,   0.79649,   0.93750,   0.72718,   0.88331,  -0.87329,  -0.93204,   0.70771,   0.70604,  -0.06441
  -0.86739,  -0.05096,  -0.37567,   0.77092,   0.87444,   0.72798,  -0.93750,   0.31123,   0.93750,   0.69995
  -0.24048,  -0.14258,  -0.71067,   0.64174,   0.92763,  -0.12343,  -0.68711,  -0.68211,   0.07628,   0.15887
   0.82100,  -0.22686,  -0.37627,   0.17868,   0.55443,  -0.28203,  -0.06633,  -0.87127,   0.06998,  -0.37796
   0.25227,  -0.27126,   0.40982,  -0.05686,   0.14029,   0.14697,   0.53563,   0.81970,  -0.15742,   0.20186
   0.50622,   0.93750,  -0.80659,  -0.05281,  -0.75862,  -0.93750,  -0.93750,  -0.93750,  -0.72825,  -0.50213
  -0.80775,  -0.26951,   0.35931,  -0.75220,  -0.64256,  -0.87038,  -0.87290,  -0.93750,  -0.93750,  -0.27695
   0.83471,  -0.12794,   0.93750,   0.29877,  -0.49695,  -0.29797,  -0.37266,  -0.38709,  -0.56147,  -0.29955
  -0.60493,  -0.05686,  -0.34923,  -0.47817,   0.81230,  -0.44729,  -0.34400,   0.77903,  -0.12548,   0.10773
  -0.73509,   0.57743,   0.22065,  -0.53507,   0.71041,  -0.38476,  -0.22461,   0.13192,   0.93750,  -0.23504
  -0.49976,   0.93750,  -0.36133,   0.11197,   0.93750,  -0.35593,   0.52881,   0.74563,  -0.06760,   0.09012
  -0.86368,   0.61679,   0.27470,   0.93750,   0.30656,   0.70554,  -0.93750,  -0.25031,  -0.93750,   0.91175
  -0.63785,  -0.72244,   0.77780,   0.78118,   0.41252,   0.33514,   0.73828,   0.53430,  -0.68605,  -0.33572
  -0.34421,  -0.14920,  -0.74303,   0.85997,   0.49610,   0.88160,  -0.22290,  -0.42031,   0.09372,   0.00072
  -0.25207,   0.68220,  -0.86729,   0.49679,   0.55701,   0.47226,   0.44052,  -0.04132,   0.53283,  -0.87243
   0.93750,  -0.59374,   0.01323,  -0.29436,  -0.53961,  -0.13105,   0.35855,   0.05592,  -0.87907,   0.80211
  -0.82127,  -0.63858,   0.69457,  -0.68663,  -0.01085,  -0.77803,  -0.93613,   0.92662,  -0.54922,  -0.93750
   0.60104,  -0.32046,   0.21554,   0.93069,  -0.53091,  -0.21708,  -0.01408,  -0.36914,  -0.10591,   0.63904
   0.68860,   0.33208,  -0.35760,  -0.74403,   0.50191,  -0.84457,   0.09959,   0.93750,   0.05216,  -0.25270
   0.30450,  -0.30089,   0.12182,  -0.20800,   0.00204,   0.76416,   0.87468,  -0.53688,   0.52389,  -0.38205
  -0.32205,  -0.64092,   0.40817,  -0.62364,   0.76382,   0.05385,  -0.22194,  -0.06509,   0.50487,   0.88954
  -0.47074,  -0.09908,  -0.73214,  -0.37428,   0.03630,   0.03003,   0.80659,   0.05917,  -0.33710,  -0.19378
  -0.24493,   0.33712,  -0.03491,   0.75066,   0.59194,  -0.62699,  -0.62562,  -0.21192,  -0.52085,   0.50165
   0.74272,  -0.19465,   0.79312,  -0.58524,  -0.49755,   0.48366,   0.13699,   0.14274,   0.88027,  -0.02102
  -0.69318,  -0.66996,   0.46551,  -0.12166,  -0.93750,  -0.67603,   0.55232,   0.93750,   0.93750,   0.81523
  -0.79916,   0.93750,   0.58372,  -0.06390,   0.93750,   0.60464,  -0.22374,   0.02969,   0.16466,  -0.80622
  -0.02931,  -0.67677,   0.50322,  -0.66150,  -0.72844,   0.82782,  -0.86877,   0.54439,   0.81631,  -0.41393
  -0.02161,  -0.68574,  -0.35199,   0.75933,  -0.51558,   0.65940,  -0.19438,  -0.01950,  -0.22077,   0.93750
  -0.22205,  -0.55033,  -0.68210,  -0.37875,   0.11023,  -0.78126,  -0.47481,   0.92437,  -0.26716,  -0.05040
  -0.32635,   0.92565,  -0.87434,   0.85935,  -0.72260,   0.93750,   0.18073,  -0.06801,   0.81403,  -0.93750
   0.62478,  -0.38738,   0.39264,   0.64795,  -0.24373,  -0.12787,   0.22520,   0.50510,  -0.80943,   0.13058
  -0.79730,  -0.54658,   0.08863,  -0.75518,   0.21615,  -0.17485,  -0.76202,  -0.16030,   0.87142,  -0.58311
   0.07044,   0.53957,  -0.81802,  -0.26686,   0.75075,   0.43528,  -0.84742,   0.93750,  -0.27354,  -0.93750
   0.02648,   0.69017,   0.00981,  -0.57932,  -0.36510,   0.93750,  -0.03876,  -0.20062,   0.18177,   0.49475
  -0.57391,   0.82114,  -0.46632,   0.93750,  -0.87613,   0.82003,   0.41180,  -0.55165,   0.37044,  -0.93750
  -0.45142,   0.18856,  -0.18486,   0.11845,   0.93750,   0.01823,  -0.68767,  -0.52739,  -0.08873,   0.20376
   0.32341,   0.87217,  -0.37778,   0.32060,   0.62139,  -0.78940,   0.23144,   0.52265,  -0.46753,  -0.62858
  -0.47642,  -0.48949,  -0.63341,  -0.33405,   0.58092,   0.37614,   0.55753,  -0.67879,  -0.48803,   0.10077
   0.80684,  -0.42144,  -0.48012,   0.70239,   0.83636,   0.93750,  -0.80753,   0.80658,  -0.16284,  -0.93750
   0.56294,   0.44366,  -0.07921,   0.63319,  -0.93750,   0.64016,  -0.83977,   0.62356,  -0.26463,   0.58523
   0.63670,   0.31464,  -0.30195,   0.16770,   0.86554,   0.12149,  -0.17380,   0.41914,   0.25089,  -0.06532
  -0.27843,  -0.39870,  -0.87538,   0.93750,  -0.81980,  -0.08190,   0.93750,  -0.00029,  -0.04539,  -0.93750
   0.80615,  -0.80264,   0.93750,   0.93132,   0.00229,  -0.18070,   0.11937,  -0.36248,   0.89505,   0.51161
   0.55705,   0.75294,   0.46384,  -0.65807,  -0.67975,  -0.86348,   0.93750,  -0.93750,   0.67570,  -0.24725
   0.70282,   0.87833,   0.73820,   0.49413,  -0.86908,  -0.41975,  -0.31209,  -0.65692,   0.14411,   0.30872
   0.74840,   0.29823,   0.29011,  -0.57861,   0.50687,   0.20304,  -0.53723,  -0.28060,  -0.88166,   0.70183
  -0.93750,   0.49106,  -0.86890,  -0.82507,   0.93750,  -0.87785,   0.93750,   0.06616,  -0.76976,  -0.70459
   0.32251,   0.12346,  -0.80886,   0.00338,   0.33141,  -0.80952,   0.59260,   0.41545,   0.61319,  -0.58057
  -0.86151,   0.43536,  -0.74106,   0.93750,   0.14264,  -0.56139,   0.93750,   0.93750,   0.09089,  -0.87064
   0.77588,   0.57634,  -0.92117,  -0.28208,  -0.67492,  -0.35725,   0.12056,   0.51549,  -0.19557,   0.77897
   0.55260,   0.02261,   0.93750,  -0.10289,   0.71126,  -0.18766,  -0.50175,  -0.43574,  -0.55382,  -0.35396
  -0.88039,  -0.57164,   0.82901,  -0.62309,   0.93750,  -0.37650,   0.36937,  -0.93750,   0.84888,  -0.28303
  -0.53285,  -0.45238,  -0.76526,   0.81248,  -0.31385,  -0.03173,   0.08610,   0.11898,   0.93750,   0.66685
   0.39653,  -0.40199,  -0.52716,  -0.37599,   0.27771,  -0.71164,   0.37815,   0.45293,   0.93044,  -0.46908
  -0.10553,   0.70671,  -0.37554,   0.61893,  -0.42534,   0.33684,   0.33439,   0.00058,  -0.34790,   0.08882
   0.48136,  -0.43696,   0.93750,   0.09304,  -0.92682,   0.40082,   0.87940,   0.13256,  -0.59250,   0.44143
  -0.56691,  -0.70907,   0.75428,  -0.06780,   0.45185,  -0.18219,   0.87181,   0.93750,  -0.78796,  -0.72251
   0.14967,  -0.84268,   0.38907,  -0.49175,  -0.68270,  -0.87793,   0.53393,  -0.34110,   0.06532,   0.93750
   0.53454,   0.80831,   0.70470,   0.52017,   0.01123,  -0.12012,  -0.24790,  -0.34602,   0.11077,  -0.74581
   0.36375,   0.08211,   0.20104,   0.93693,   0.31839,   0.67234,   0.52088,   0.11882,   0.48913,   0.46364
   0.87162,  -0.69450,  -0.52842,   0.44739,  -0.80485,   0.12028,  -0.62232,  -0.87872,  -0.61447,   0.08249
   0.04251,   0.81462,  -0.00002,  -0.34647,   0.36805,   0.23689,  -0.60849,  -0.32503,  -0.24911,  -0.68604
  -0.32591,  -0.87421,   0.47162,  -0.56424,   0.28766,   0.82039,   0.93750,  -0.60435,  -0.75243,   0.69384
   0.93750,   0.81031,   0.93750,   0.87718,  -0.82638,  -0.81242,  -0.53106,  -0.33221,   0.93750,  -0.93750
   0.93750,   0.77336,  -0.55717,  -0.41421,   0.26959,   0.21421,   0.46201,  -0.92995,   0.19339,  -0.39451
  -0.39715,   0.06100,  -0.10708,   0.14043,   0.93750,  -0.90216,  -0.07949,  -0.68981,  -0.44316,   0.87226
  -0.20164,   0.50969,  -0.16509,  -0.42043,  -0.65795,   0.93750,   0.32569,   0.62115,   0.93750,   0.93750
  -0.57206,   0.08150,   0.93170,   0.74473,  -0.73288,   0.47119,   0.03355,  -0.13731,   0.92423,  -0.53367
  -0.36773,   0.09865,  -0.17627,   0.41497,  -0.81657,  -0.66040,   0.66220,   0.86018,  -0.37026,  -0.00506
  -0.12340,   0.06618,  -0.30542,   0.57701,   0.10208,  -0.86914,   0.77089,  -0.74603,  -0.76346,  -0.43718
   0.93480,   0.12313,  -0.02577,   0.70267,   0.39771,   0.09991,  -0.06728,  -0.45887,  -0.68551,   0.36492
   0.65967,   0.09923,  -0.23044,  -0.59433,   0.93282,  -0.74295,  -0.31103,   0.93750,   0.28251,  -0.31203
  -0.39873,  -0.87671,   0.50101,   0.07875,  -0.75442,  -0.60641,  -0.68626,   0.54563,  -0.81786,   0.54190
   0.78522,   0.46033,   0.38782,   0.93750,  -0.21111,  -0.73006,   0.60871,  -0.35573,  -0.32692,   0.93750
  -0.48050,  -0.10585,   0.87342,   0.42779,  -0.05933,  -0.42712,   0.37786,  -0.86492,  -0.48219,   0.66978
  -0.74630,  -0.54702,  -0.18115,  -0.63923,  -0.25867,   0.57601,   0.22343,  -0.93750,   0.72971,  -0.68154
  -0.65150,   0.87632,  -0.93268,   0.93750,  -0.41562,   0.63889,  -0.30280,  -0.87368,   0.35072,   0.76068
  -0.10593,  -0.69801,   0.00064,  -0.27940,   0.36549,  -0.44921,  -0.11349,  -0.71853,   0.70161,   0.93750
  -0.45924,   0.34678,   0.91696,  -0.39853,  -0.82982,   0.24808,  -0.34163,  -0.81847,   0.20790,   0.20279
   0.62291,  -0.38577,   0.93750,   0.04455,  -0.49549,  -0.40760,   0.20480,  -0.47540,  -0.36541,  -0.42850
   0.89759,   0.18094,   0.38402,  -0.34144,   0.87835,  -0.24131,  -0.29463,   0.52764,  -0.14423,  -0.67498
   0.15106,  -0.87613,  -0.54585,  -0.30200,  -0.91036,  -0.25325,   0.60042,   0.63188,   0.03817,  -0.73614
   0.14052,  -0.54590,  -0.63997,   0.58181,  -0.93750,  -0.06825,   0.93750,   0.74434,  -0.19640,   0.93750
  -0.59672,   0.61055,  -0.77592,   0.88229,  -0.65078,  -0.44719,  -0.51069,   0.45529,   0.30958,  -0.30776
   0.17198,  -0.08548,   0.33536,  -0.56792,   0.40036,  -0.06572,   0.08344,  -0.64278,  -0.68053,   0.49119
   0.07836,   0.93750,   0.00991,  -0.54508,  -0.55804,  -0.18062,  -0.62945,   0.21631,  -0.09105,   0.66207
   0.07472,  -0.65406,  -0.87035,  -0.53314,  -0.79568,   0.15333,   0.93390,   0.88563,  -0.36391,  -0.37506
  -0.48030,  -0.87549,   0.93750,  -0.88221,   0.87307,   0.39582,   0.93750,  -0.80887,   0.87605,  -0.74088
  -0.65103,   0.62746,  -0.80264,  -0.78397,   0.26700,   0.15082,  -0.59601,   0.32421,  -0.37197,  -0.81177
   0.75791,  -0.51133,  -0.73412,   0.93750,   0.18155,  -0.93750,  -0.41396,  -0.23851,  -0.93750,   0.88410
   0.69306,   0.07801,  -0.48016,  -0.06658,   0.28504,   0.52584,   0.93750,   0.04608,  -0.24359,   0.35564
   0.45149,   0.78463,  -0.59431,  -0.69614,  -0.08267,  -0.67903,   0.82972,  -0.19891,   0.63705,   0.41360
  -0.54828,   0.36326,  -0.26550,  -0.41158,  -0.74631,  -0.35083,   0.92734,  -0.10576,   0.88346,  -0.02598
   0.61106,   0.06501,  -0.73695,   0.47298,   0.63801,  -0.93750,  -0.12624,  -0.93750,   0.56419,  -0.60195
   0.87825,  -0.55965,  -0.54812,  -0.31770,   0.16134,  -0.49237,   0.56984,  -0.80779,   0.41530,   0.00329
  -0.67662,  -0.16120,  -0.67691,  -0.28096,  -0.71010,   0.93750,   0.93528,  -0.93750,  -0.70025,   0.80798
   0.93750,  -0.03332,   0.81506,  -0.78387,   0.27342,  -0.77323,  -0.32828,   0.59876,  -0.25469,   0.81198
  -0.46558,  -0.10931,   0.93750,   0.27032,  -0.30288,  -0.66548,   0.39022,   0.48505,  -0.30744,   0.66704
  -0.76862,  -0.14285,   0.65869,  -0.88091,  -0.09112,  -0.93750,   0.30760,  -0.63721,  -0.93750,   0.77997
  -0.36903,  -0.10505,  -0.43846,  -0.28406,   0.86054,  -0.73161,  -0.63260,  -0.65647,   0.34488,  -0.03358
   0.86928,   0.87329,  -0.56785,   0.92568,  -0.55972,   0.17801,   0.54534,   0.41768,  -0.12702,  -0.56279
   0.62032,   0.73729,  -0.03052,  -0.86227,  -0.14881,   0.85933,   0.92600,   0.14523,   0.80935,   0.34623
   0.17288,  -0.33442,   0.13020,   0.88471,   0.47466,  -0.79256,  -0.66943,  -0.27012,  -0.02038,  -0.44983
  -0.90012,   0.01562,  -0.87016,   0.85655,   0.50538,  -0.25117,   0.67221,   0.17309,   0.25987,  -0.41682
  -0.39744,   0.61335,   0.90983,  -0.23636,  -0.14869,  -0.16459,  -0.46560,   0.22979,  -0.41744,  -0.19294
   0.16148,  -0.40220,   0.23753,   0.10747,  -0.66774,  -0.57811,  -0.33726,   0.80475,   0.24314,   0.93027
  -0.44083,   0.60662,   0.11655,   0.03054,   0.02139,   0.17776,  -0.65955,   0.32932,   0.67881,  -0.29843
   0.39421,  -0.00768,   0.53210,   0.61245,   0.16781,   0.88342,   0.63843,  -0.10433,  -0.37443,  -0.59680
  -0.52487,   0.24505,  -0.38304,  -0.09375,   0.88572,  -0.63008,  -0.22094,  -0.44924,  -0.21196,   0.25321
  -0.14396,  -0.40851,  -0.42088,  -0.85827,  -0.13534,  -0.71343,   0.93750,   0.35963,  -0.76915,   0.16076
  -0.73014,  -0.29243,  -0.24423,  -0.14563,   0.55970,   0.53870,  -0.17223,  -0.10202,   0.93313,  -0.54717
  -0.51165,   0.30439,   0.92571,  -0.46968,  -0.02522,   0.61505,  -0.50342,  -0.32341,  -0.11780,   0.42550
   0.93750,  -0.41656,  -0.64484,  -0.01976,  -0.64311,  -0.51087,   0.69956,  -0.40765,  -0.45842,  -0.37967
   0.34274,  -0.73031,  -0.82263,   0.17842,   0.76476,   0.93750,  -0.18046,  -0.53750,   0.07586,   0.81655
  -0.88188,   0.21567,  -0.49678,  -0.17602,  -0.44710,   0.71943,   0.93750,  -0.93750,  -0.93750,  -0.55119
  -0.32041,  -0.42716,  -0.60871,   0.12338,  -0.50895,  -0.39328,  -0.69579,   0.87587,   0.18833,  -0.59900
   0.21877,  -0.66815,   0.93750,  -0.04613,  -0.60006,   0.93750,  -0.40604,  -0.87608,   0.29131,  -0.93750
   0.80767,   0.29753,   0.32284,   0.91654,   0.36042,  -0.87505,   0.30688,  -0.10311,  -0.72361,  -0.10183
  -0.22695,  -0.40235,   0.93750,  -0.43826,   0.38799,  -0.30824,  -0.15874,   0.45085,  -0.83426,   0.85978
  -0.35463,   0.93750,   0.87334,   0.33096,  -0.20682,  -0.68901,  -0.05176,  -0.93750,  -0.87750,  -0.25804
  -0.93750,   0.93750,  -0.30534,   0.31558,  -0.03532,   0.44901,  -0.07740,  -0.05870,  -0.93203,  -0.76299
   0.90270,  -0.69776,   0.93750,   0.93750,  -0.50094,   0.82633,   0.93750,  -0.93750,   0.48569,  -0.64423
  -0.93750,  -0.71775,   0.74947,   0.78694,   0.23280,  -0.35455,   0.00207,   0.40364,   0.02196,  -0.12223
  -0.31467,   0.61367,  -0.10128,   0.89057,  -0.11504,  -0.36629,   0.90535,  -0.35289,  -0.21853,  -0.23813
  -0.25323,   0.14606,  -0.86851,   0.88310,   0.10051,  -0.65032,   0.62998,  -0.19764,   0.02450,   0.44908
  -0.28727,   0.11814,  -0.79960,  -0.82867,  -0.31721,   0.72935,  -0.85160,  -0.45848,  -0.93750,  -0.81694
  -0.27511,  -0.76288,   0.02195,  -0.46081,   0.27235,   0.15170,   0.79549,  -0.27694,  -0.36767,   0.80013
   0.85916,   0.58509,  -0.87567,  -0.80865,   0.32820,  -0.03014,  -0.13382,  -0.34254,   0.20014,   0.80049
   0.93750,   0.47468,  -0.01319,  -0.60398,   0.40471,  -0.07640,  -0.23680,  -0.83950,  -0.49019,  -0.54109
   0.10726,  -0.49394,   0.12320,  -0.33194,  -0.13082,  -0.81816,   0.56203,  -0.05707,   0.52479,  -0.85926
  -0.38464,   0.27812,   0.26071,   0.92513,   0.44198,  -0.47254,  -0.47541,   0.49660,  -0.30709,   0.04485
   0.16150,  -0.56937,   0.93750,  -0.60604,  -0.93750,  -0.71374,  -0.00088,  -0.39937,  -0.25537,   0.05057
  -0.26856,  -0.32386,  -0.82414,   0.67591,   0.93750,  -0.40081,  -0.58169,  -0.71208,   0.40575,  -0.21745
   0.93750,  -0.50732,   0.58948,  -0.74962,   0.44655,   0.39907,   0.62083,  -0.00495,   0.74839,  -0.83233
   0.22130,   0.60953,   0.93750,  -0.87462,   0.93750,  -0.93750,  -0.93750,  -0.60448,   0.35583,   0.88141
  -0.46300,   0.17039,  -0.20842,   0.75470,   0.41890,   0.22506,  -0.17757,   0.82911,   0.17663,  -0.68517
   0.41159,  -0.31162,  -0.93750,  -0.01944,   0.52993,  -0.91464,   0.87744,  -0.93750,   0.81545,   0.67214
  -0.93750,  -0.93750,  -0.61868,   0.05035,  -0.41554,   0.24546,  -0.19789,  -0.01847,   0.67546,   0.14310
  -0.65004,  -0.20527,   0.66979,  -0.64666,  -0.16106,   0.19870,   0.93126,   0.80155,   0.16114,   0.50099
  -0.11575,   0.20275,   0.81562,   0.48457,   0.37311,   0.86366,   0.30916,  -0.14910,  -0.79828,   0.49307
   0.93750,  -0.75488,  -0.19359,   0.93750,   0.93750,  -0.93750,   0.93750,   0.93750,  -0.09908,   0.87374
   0.68141,   0.35242,  -0.54296,  -0.77717,  -0.08871,  -0.61042,   0.93218,  -0.21775,  -0.04921,   0.65955
  -0.87605,  -0.90182,  -0.52144,  -0.84210,  -0.93750,   0.33973,  -0.63510,   0.28387,  -0.46910,  -0.93750
   0.93750,   0.04883,  -0.59064,  -0.82150,  -0.48982,   0.10104,  -0.25909,   0.17020,  -0.68929,  -0.54169
  -0.59108,   0.13304,  -0.07688,  -0.64873,   0.09617,   0.92936,   0.06167,   0.17952,  -0.15243,   0.63589
  -0.57941,  -0.67773,  -0.80768,   0.46783,   0.61912,   0.10884,  -0.93750,   0.93750,   0.16268,  -0.16424
  -0.65331,  -0.62298,  -0.63958,   0.58039,  -0.70111,  -0.52647,  -0.74852,   0.85519,  -0.68475,   0.23496
   0.93750,  -0.93750,  -0.76373,  -0.16087,   0.36415,   0.03767,  -0.93750,   0.93750,   0.65816,   0.20163
  -0.88114,   0.33386,   0.32536,   0.71263,  -0.46166,   0.07472,  -0.71139,  -0.02589,   0.93750,  -0.28599
   0.93750,  -0.55660,  -0.93750,   0.60791,  -0.93750,   0.93750,  -0.93750,  -0.33107,   0.61963,  -0.15850
   0.93750,   0.78546,   0.65317,  -0.93750,  -0.93750,   0.83926,  -0.70672,  -0.00207,  -0.93750,  -0.87358
   0.93750,   0.00174,   0.85017,  -0.22070,  -0.27124,  -0.37901,   0.26304,  -0.09381,  -0.43203,   0.27011
   0.12600,   0.93750,  -0.93750,   0.08738,  -0.93750,  -0.93750,  -0.93750,  -0.68655,  -0.93750,  -0.70004
  -0.70816,  -0.68786,  -0.08877,  -0.93750,   0.22972,   0.07974,  -0.81163,   0.84740,  -0.93750,   0.12017
  -0.40003,  -0.12369,  -0.31888,   0.93283,  -0.09138,  -0.93750,  -0.35132,  -0.93750,  -0.25194,   0.14876
  -0.81409,   0.87314,   0.85464,  -0.82344,   0.38837,  -0.58863,   0.75843,  -0.93750,   0.93750,  -0.45174
   0.22495,  -0.88115,  -0.84272,  -0.50992,  -0.79805,  -0.93750,   0.39682,  -0.81299,   0.08194,   0.24362
   0.35621,  -0.67220,  -0.93387,  -0.47326,  -0.16141,   0.93750,   0.49370,  -0.42115,   0.29050,  -0.87720
   0.54833,   0.02041,  -0.93750,  -0.51220,  -0.93750,  -0.87503,  -0.67868,  -0.30536,   0.87307,  -0.16896
   0.50410,   0.08532,  -0.93750,   0.62303,  -0.93750,  -0.87146,   0.93750,   0.93750,   0.02412,   0.14775
   0.01512,   0.93107,  -0.02746,  -0.35499,   0.93750,   0.17536,   0.73579,  -0.41239,  -0.21589,   0.20257
  -0.57985,   0.27291,   0.80992,  -0.61675,   0.89992,   0.89787,  -0.38569,   0.13596,  -0.73642,  -0.82557
   0.87222,  -0.41313,  -0.66854,  -0.62636,  -0.10951,  -0.23627,  -0.55985,   0.93750,   0.88902,  -0.18644
  -0.93750,   0.34649,  -0.87404,   0.03973,  -0.88038,   0.93750,  -0.93750,  -0.78728,  -0.60148,   0.32392
   0.93750,  -0.11871,  -0.51120,  -0.84684,   0.13551,  -0.41530,  -0.01825,  -0.39685,   0.39124,  -0.71914
  -0.68183,   0.78027,  -0.87702,   0.54847,   0.59568,  -0.48497,  -0.75528,  -0.65173,  -0.93750,   0.30200
  -0.93750,  -0.87633,   0.93750,  -0.53813,  -0.93750,   0.85309,  -0.67947,  -0.24682,  -0.93750,   0.16017
   0.87995,  -0.28313,   0.66235,  -0.70029,   0.58693,  -0.23893,  -0.01221,  -0.44134,  -0.11713,  -0.26575
   0.51499,  -0.13812,  -0.93750,  -0.78650,  -0.15513,  -0.89772,   0.69724,  -0.13807,  -0.93750,  -0.93750
  -0.41400,   0.37597,   0.28279,   0.61621,  -0.34377,  -0.25516,   0.70741,  -0.23672,   0.29875,   0.00112
  -0.77057,  -0.06774,   0.27372,   0.85028,   0.23227,   0.29911,  -0.32877,   0.62071,  -0.08527,  -0.44891
  -0.02002,   0.75365,  -0.16009,  -0.40532,   0.68889,   0.60782,  -0.22157,  -0.42211,  -0.86870,  -0.40628
  -0.93750,  -0.86963,   0.41043,   0.62110,  -0.63015,  -0.60466,  -0.41320,   0.93750,  -0.87216,  -0.74960
   0.82967,   0.24058,  -0.73753,  -0.56681,  -0.87505,   0.74741,  -0.12546,  -0.17138,  -0.03501,  -0.12614
   0.32778,   0.42559,   0.16661,  -0.67160,  -0.45177,   0.87009,   0.23281,  -0.67144,  -0.13190,  -0.67562
  -0.25815,  -0.41257,  -0.38533,  -0.43440,   0.82919,  -0.43930,  -0.05596,  -0.93750,  -0.13271,  -0.49267
   0.20082,   0.07820,  -0.08889,   0.88124,   0.27980,  -0.70508,  -0.22421,  -0.26833,   0.28670,   0.82909
   0.87751,  -0.28199,  -0.93750,   0.35587,   0.93750,  -0.81191,   0.93750,  -0.22065,  -0.78827,  -0.22246
   0.88698,   0.11242,   0.73928,   0.02797,   0.45293,  -0.29402,   0.69781,  -0.02117,  -0.75129,  -0.59077
   0.09540,   0.33312,   0.67349,   0.30073,   0.57191,  -0.58642,  -0.03639,   0.86176,   0.13803,   0.04722
   0.87832,   0.26891,   0.10711,  -0.43868,   0.93750,  -0.81864,   0.80334,  -0.82652,  -0.82638,  -0.84830
  -0.55991,  -0.76921,   0.78730,  -0.05165,  -0.75468,  -0.27668,  -0.36802,   0.93750,  -0.06725,   0.06127
  -0.77406,   0.08942,   0.93750,  -0.61426,  -0.25182,   0.89491,  -0.55084,  -0.61538,   0.31850,  -0.16298
   0.93750,  -0.75095,  -0.42841,  -0.45597,  -0.38765,   0.11511,  -0.15067,   0.60578,  -0.29713,  -0.81891
  -0.62494,   0.93750,   0.50316,  -0.87640,  -0.90737,   0.01049,  -0.27118,  -0.21746,   0.92824,   0.15140
  -0.18988,   0.87778,   0.05629,  -0.11184,   0.07382,   0.71292,   0.03508,   0.74469,  -0.07361,  -0.39142
  -0.07415,  -0.08089,   0.68268,   0.93723,   0.53125,  -0.47349,  -0.40838,  -0.54012,  -0.63855,  -0.50549
   0.67939,   0.27172,  -0.64760,  -0.59854,  -0.16496,  -0.78229,  -0.09069,  -0.53774,   0.70318,   0.80949
  -0.93750,  -0.91971,   0.93750,  -0.93750,  -0.84897,   0.16740,   0.82027,   0.93750,   0.84027,  -0.26113
   0.88129,  -0.60792,  -0.72200,   0.34777,  -0.49430,   0.80595,   0.49903,   0.93750,   0.20931,   0.21412
   0.50908,  -0.37494,  -0.54354,  -0.27484,  -0.05605,   0.45833,   0.86256,  -0.33983,   0.25597,  -0.12954
  -0.67852,  -0.74258,  -0.45768,   0.24243,   0.32008,  -0.00389,   0.57977,   0.26356,   0.62532,   0.01636
   0.33194,   0.84485,   0.17752,  -0.40627,  -0.35833,  -0.24459,  -0.46068,   0.87860,  -0.32662,   0.85103
   0.64230,   0.59765,   0.31981,  -0.39730,   0.33405,   0.11332,   0.47273,  -0.63201,   0.52513,  -0.14357
   0.60617,  -0.01861,   0.29959,   0.35078,   0.58001,  -0.17127,   0.01906,  -0.55690,   0.34873,  -0.51914
   0.34801,  -0.11724,   0.68594,   0.80978,  -0.49911,  -0.42409,   0.93750,   0.81224,  -0.45468,  -0.11827
   0.67217,   0.30141,   0.17505,   0.41310,   0.12357,   0.79714,   0.60777,  -0.43513,  -0.86902,  -0.56134
   0.11092,  -0.14215,  -0.12175,   0.93750,  -0.87621,   0.19941,   0.12196,  -0.93750,   0.87796,  -0.93750
  -0.93290,  -0.61867,  -0.56407,   0.45075,  -0.72362,  -0.19263,  -0.48496,   0.45277,   0.80744,   0.74999
  -0.51381,   0.60606,  -0.70784,   0.93750,  -0.93750,  -0.93750,  -0.93750,  -0.93750,   0.92135,   0.93750
   0.80075,   0.68766,  -0.52700,   0.33051,  -0.53019,  -0.36446,   0.09793,  -0.00391,  -0.72525,   0.93004
  -0.72328,  -0.25526,  -0.71856,  -0.93750,   0.93750,   0.10882,   0.66676,  -0.38664,   0.81891,  -0.50563
  -0.66281,  -0.47397,  -0.46239,   0.70279,  -0.49841,   0.85915,   0.35721,  -0.62077,  -0.29408,  -0.21575
  -0.25413,  -0.49811,   0.31124,  -0.74901,   0.47880,   0.86909,  -0.12159,  -0.44665,   0.61752,  -0.54489
   0.02466,  -0.32155,   0.67608,  -0.79908,   0.29593,  -0.25982,  -0.41240,  -0.19382,  -0.19372,   0.79593
   0.91593,   0.02410,  -0.78005,  -0.07421,   0.68355,   0.42203,  -0.80966,   0.13735,  -0.08560,   0.04066
  -0.20910,   0.08759,   0.89229,  -0.80912,   0.69632,  -0.87967,  -0.74530,   0.82053,  -0.80656,   0.75489
   0.39594,  -0.25116,  -0.33188,  -0.17794,   0.78695,  -0.27432,   0.86021,  -0.27344,  -0.17472,  -0.56496
  -0.26238,  -0.24791,  -0.79948,   0.87008,  -0.21953,  -0.53003,  -0.68937,  -0.72686,  -0.21387,  -0.55264
   0.30724,   0.85033,  -0.87904,  -0.70511,   0.93750,   0.93750,  -0.70001,   0.93750,   0.93750,  -0.20223
   0.52914,   0.45518,   0.57016,  -0.57747,  -0.50539,  -0.47455,  -0.67000,   0.50628,   0.85221,  -0.07771
   0.20257,   0.62653,  -0.42778,   0.40595,  -0.07303,   0.39157,  -0.40830,   0.34948,  -0.59572,   0.63378
   0.36356,  -0.70444,  -0.78697,   0.93750,   0.31220,  -0.86385,  -0.60975,  -0.39511,   0.41590,  -0.17964
   0.25402,  -0.07949,   0.49758,   0.50213,   0.33338,   0.10000,  -0.00869,   0.35415,  -0.11273,   0.10501
   0.86910,   0.14860,   0.93750,  -0.58449,  -0.64903,  -0.06966,   0.22074,  -0.54012,  -0.71804,  -0.26515
  -0.39108,   0.06520,   0.54944,   0.40756,  -0.22290,   0.48886,   0.85770,  -0.68213,   0.56045,  -0.10849
  -0.34690,  -0.93750,  -0.87009,  -0.62873,   0.93750,   0.33321,   0.90991,   0.93750,  -0.08185,   0.93750
   0.14722,  -0.89178,   0.09335,   0.56941,   0.63218,  -0.93750,  -0.83974,   0.93750,   0.60149,  -0.80110
  -0.53438,  -0.62529,   0.93750,  -0.93750,   0.86945,   0.87156,  -0.27531,   0.93750,   0.62152,  -0.16824
  -0.78888,   0.41948,  -0.39814,   0.10154,   0.93750,  -0.87185,   0.93750,   0.93750,  -0.57644,   0.36330
   0.93750,   0.93750,  -0.46697,   0.93750,   0.47782,  -0.93750,   0.42580,   0.61812,  -0.70246,  -0.93750
  -0.73043,   0.79614,   0.00564,  -0.54804,   0.19597,  -0.75202,  -0.44483,   0.06853,   0.93750,   0.79054
   0.08103,  -0.80584,   0.93750,   0.44065,   0.93386,  -0.93750,   0.76108,   0.93750,  -0.87044,  -0.93750
   0.82065,  -0.61359,   0.02651,  -0.80546,  -0.58716,  -0.46205,   0.93750,  -0.18032,   0.31901,  -0.59489
  -0.09059,   0.52442,  -0.10019,   0.52240,  -0.85219,   0.54640,  -0.53109,  -0.48321,  -0.36691,  -0.25184
  -0.31501,   0.62182,   0.48255,   0.64567,  -0.86052,   0.29175,   0.93750,  -0.34778,  -0.25019,  -0.90471
   0.87642,   0.31835,  -0.39919,   0.61788,  -0.54355,  -0.36817,   0.04753,   0.86876,   0.23601,  -0.11809
   0.40694,  -0.93750,   0.11109,   0.08483,  -0.73444,  -0.87621,  -0.70848,  -0.61380,  -0.93750,  -0.74579
  -0.48895,   0.44367,  -0.63805,  -0.47577,   0.73793,  -0.02493,   0.61870,   0.55813,  -0.72234,  -0.60890
   0.93750,  -0.68346,  -0.53308,  -0.68851,   0.93750,   0.07813,  -0.68942,   0.82583,   0.93750,   0.68934
   0.16723,   0.74600,   0.55680,   0.40785,  -0.93750,   0.39613,   0.11575,  -0.26757,  -0.16382,  -0.62289
  -0.00739,   0.19333,  -0.03697,  -0.14818,   0.42736,   0.74159,  -0.15525,  -0.06257,  -0.44328,   0.37874
  -0.22386,  -0.12454,  -0.22446,  -0.24155,   0.80409,  -0.22959,  -0.48942,  -0.88138,   0.67255,  -0.87738
   0.93750,  -0.18839,   0.33229,  -0.59097,  -0.76352,   0.93750,  -0.31021,  -0.30834,   0.04031,  -0.80436
  -0.64480,   0.16781,  -0.18327,  -0.39139,   0.27373,   0.79177,   0.02343,  -0.27395,  -0.08308,  -0.65681
   0.61666,  -0.22418,   0.09888,  -0.93750,   0.23698,  -0.29649,   0.93750,  -0.93750,  -0.93750,  -0.93750
  -0.45185,   0.90620,   0.83228,   0.87250,   0.34679,  -0.93750,   0.67343,  -0.83245,   0.93750,   0.93750
   0.82921,   0.87996,   0.93750,   0.93750,  -0.72470,  -0.84451,   0.32395,   0.93750,  -0.83020,  -0.07815
  -0.33950,  -0.19686,   0.86996,   0.58122,  -0.37401,   0.70597,  -0.82675,  -0.87519,  -0.24339,   0.93750
   0.93750,  -0.63680,   0.53589,  -0.47802,  -0.10558,  -0.69761,   0.02567,   0.07887,  -0.16927,   0.02401
   0.77845,   0.07351,  -0.64546,   0.86941,  -0.07964,   0.12691,   0.93750,   0.09250,  -0.93750,   0.74771
   0.14635,  -0.04462,   0.66316,  -0.18514,  -0.42646,   0.62894,  -0.34480,   0.10278,   0.93750,  -0.24060
  -0.61484,   0.03518,   0.93750,  -0.87772,  -0.18404,   0.81339,   0.87214,   0.83070,  -0.16308,   0.87051
   0.18252,   0.90991,  -0.58201,  -0.74382,   0.90941,  -0.75648,  -0.25299,   0.93750,   0.93750,   0.34425
  -0.81016,   0.67045,  -0.93750,   0.30971,   0.71988,  -0.79406,   0.70110,   0.80841,  -0.20640,  -0.78195
  -0.17972,   0.07820,  -0.50566,  -0.23236,   0.93750,   0.08551,   0.23619,  -0.67767,   0.22547,   0.03797
   0.30057,  -0.36053,  -0.93750,  -0.82025,   0.93750,  -0.91190,  -0.62086,  -0.86558,   0.02839,   0.48881
   0.03138,   0.93750,   0.00827,   0.45740,  -0.10385,  -0.16766,  -0.70632,   0.77159,   0.00943,   0.38689
  -0.43177,   0.42790,   0.54084,  -0.35304,   0.56117,   0.66587,  -0.29409,  -0.67278,  -0.04313,   0.25966
   0.58628,  -0.11187,   0.93484,  -0.25916,   0.93723,  -0.82237,  -0.65289,  -0.93709,   0.27426,  -0.21897
  -0.82765,   0.93750,   0.93750,  -0.26815,   0.26327,  -0.30717,   0.12679,  -0.03856,  -0.30324,   0.24872
  -0.65180,   0.32036,  -0.01322,  -0.37383,   0.10439,   0.32783,  -0.27076,   0.93750,   0.60669,   0.75179
  -0.24524,  -0.04366,  -0.61472,  -0.62903,  -0.28788,   0.80932,   0.66015,  -0.07380,   0.34429,   0.37418
  -0.54953,   0.74072,   0.82185,  -0.56099,  -0.31735,   0.81101,  -0.89375,  -0.93750,   0.74237,  -0.51054
  -0.82636,  -0.86355,  -0.71216,   0.63455,  -0.10857,   0.24574,  -0.03459,  -0.46123,   0.93750,   0.22714
   0.37436,  -0.43767,  -0.47322,   0.46971,  -0.51504,   0.20419,  -0.50686,  -0.65757,   0.39415,  -0.07612
   0.24137,  -0.07400,   0.44096,   0.93750,  -0.69118,  -0.39236,  -0.12696,   0.64415,  -0.66206,   0.93750
  -0.85452,   0.93750,  -0.07926,   0.86748,   0.54749,  -0.69520,  -0.86786,  -0.46665,   0.64040,  -0.93750
   0.93750,  -0.14370,  -0.33779,  -0.20436,  -0.40625,  -0.49166,   0.21908,  -0.34693,  -0.40685,   0.34583
   0.06200,   0.30550,   0.22717,   0.60109,   0.43802,   0.42923,  -0.44164,  -0.15547,   0.19935,  -0.54125
   0.67256,   0.65414,  -0.93750,  -0.93750,  -0.92030,   0.32880,   0.79950,   0.86476,   0.41404,   0.93750
  -0.63280,   0.72640,   0.78370,  -0.15348,   0.16836,   0.52153,   0.36811,  -0.29980,  -0.44503,  -0.61119
   0.11591,  -0.87088,   0.93750,   0.84949,   0.13372,  -0.93750,   0.73148,  -0.93750,   0.88346,   0.61621
   0.18707,  -0.62851,   0.54735,  -0.82363,  -0.80077,  -0.80540,   0.36002,   0.74626,   0.26588,  -0.02350
   0.39945,   0.25634,   0.41642,   0.59398,  -0.93750,   0.74224,   0.44112,  -0.58982,  -0.03982,  -0.27026
   0.80043,  -0.48639,  -0.50445,  -0.81987,  -0.87192,   0.46577,  -0.22427,  -0.63048,   0.73743,  -0.87218
  -0.47771,  -0.93750,   0.41288,  -0.22007,  -0.81331,   0.17674,  -0.63631,   0.58408,   0.07287,  -0.81638
   0.87543,  -0.62052,   0.87805,   0.93750,   0.93750,   0.01635,  -0.80890,  -0.74428,  -0.50813,  -0.68932
   0.69810,  -0.63811,   0.35316,  -0.73326,   0.21742,   0.93750,  -0.54936,   0.70227,  -0.69934,   0.05533
  -0.47186,   0.93750,  -0.14551,   0.93750,   0.93750,   0.93750,   0.00187,  -0.21634,  -0.87922,  -0.87261
   0.03536,  -0.42563,  -0.43651,  -0.08738,  -0.26239,  -0.27013,   0.01350,   0.38897,  -0.82340,   0.93750
  -0.10895,  -0.89296,   0.53444,  -0.28097,  -0.22888,   0.71431,   0.87966,  -0.20352,  -0.21580,   0.93750
   0.18425,   0.93750,  -0.93750,  -0.79970,   0.27342,   0.88656,   0.87829,   0.31167,   0.87774,  -0.54828
   0.81207,   0.93750,  -0.87880,  -0.62921,  -0.80943,   0.06688,  -0.30368,  -0.12417,   0.05396,   0.19321
   0.66174,  -0.52257,  -0.88461,   0.91988,  -0.63159,   0.64172,  -0.75414,  -0.87025,   0.93750,   0.23727
   0.93750,  -0.75769,   0.19817,   0.61431,   0.78940,  -0.20785,  -0.80797,   0.09623,  -0.86657,  -0.35960
  -0.68393,   0.16437,   0.39583,   0.69677,   0.61545,   0.48925,   0.03623,   0.42807,   0.59988,   0.26747
  -0.88110,  -0.87151,   0.21484,   0.80291,   0.70548,   0.77742,  -0.55709,  -0.13408,   0.81696,  -0.93750
  -0.68707,  -0.19463,  -0.01148,   0.27493,   0.93750,   0.15046,   0.15825,  -0.54147,  -0.69256,  -0.10368
   0.93750,  -0.21704,  -0.35336,  -0.60833,   0.28152,  -0.56123,   0.32585,   0.70205,   0.08875,  -0.03253
   0.76006,  -0.31567,   0.55694,  -0.27912,  -0.29854,  -0.33652,  -0.03204,   0.76214,  -0.51265,   0.63150
   0.69571,   0.81361,  -0.84058,  -0.39839,   0.28998,  -0.91970,  -0.79539,   0.87984,  -0.70705,   0.76171
   0.71603,   0.14788,  -0.50289,  -0.07359,   0.92966,   0.28336,   0.66122,  -0.20026,  -0.21590,   0.71230
  -0.11389,   0.87008,  -0.12086,   0.57476,  -0.07137,  -0.34845,   0.73606,   0.92275,   0.81769,  -0.11686
   0.11081,   0.29279,  -0.53863,   0.43170,  -0.28215,   0.93750,  -0.25522,   0.57047,   0.24902,  -0.18642
  -0.26876,  -0.05762,   0.08007,  -0.37201,  -0.79921,  -0.42618,  -0.57753,   0.93750,  -0.25211,  -0.44625
  -0.01176,   0.13895,   0.09408,   0.31119,  -0.60671,   0.11606,   0.49878,   0.93607,   0.16228,   0.32348
   0.66427,   0.00505,   0.45268,  -0.73877,   0.25720,  -0.24715,  -0.39234,   0.24096,  -0.86427,  -0.27084
  -0.19067,  -0.76633,   0.00856,  -0.68787,  -0.20312,   0.48173,  -0.61833,  -0.07876,   0.06415,   0.93230
  -0.59034,  -0.11912,   0.93750,  -0.19327,  -0.32667,  -0.71247,  -0.22544,  -0.66188,   0.59543,  -0.10475
   0.02769,  -0.68148,   0.09590,   0.93750,   0.93750,  -0.93750,   0.93750,   0.58192,   0.93750,   0.31962
   0.85226,   0.34395,  -0.52249,   0.66721,   0.33543,  -0.46187,   0.14219,   0.80848,  -0.34662,  -0.04408
   0.93750,   0.93750,  -0.35978,  -0.87056,  -0.93750,   0.31560,   0.74666,   0.85755,  -0.02545,   0.93750
   0.10580,   0.25595,   0.78127,  -0.06432,  -0.57404,   0.80751,  -0.12400,  -0.41174,  -0.06752,   0.14849
   0.87770,  -0.81639,  -0.37275,  -0.93750,   0.10531,  -0.92047,  -0.86482,  -0.70376,   0.55823,   0.93750
  -0.41556,  -0.17069,  -0.17499,   0.36117,   0.93750,  -0.32457,   0.02692,  -0.64989,   0.05993,   0.24132
  -0.37568,   0.43183,  -0.73001,   0.18674,   0.19315,   0.33625,   0.80236,  -0.60966,  -0.30567,   0.41051
   0.62500,  -0.68838,  -0.59565,  -0.15149,   0.93437,  -0.21533,  -0.41939,  -0.06573,  -0.02328,  -0.36930
   0.79925,  -0.30769,   0.29184,  -0.82137,   0.87205,   0.67092,   0.93750,   0.70397,  -0.29401,   0.93750
   0.93750,  -0.29963,  -0.38834,   0.11036,   0.52258,  -0.26951,   0.36354,  -0.01884,  -0.36215,  -0.01932
   0.63207,   0.51671,  -0.23649,  -0.65862,  -0.23990,   0.31141,   0.47570,  -0.41761,  -0.17944,  -0.08727
   0.80226,  -0.11439,   0.93750,  -0.88012,   0.62074,  -0.93750,   0.16124,   0.45139,  -0.07506,  -0.93750
   0.38932,   0.10564,  -0.17647,  -0.62561,   0.56067,   0.93750,  -0.40842,   0.50117,  -0.00505,  -0.76878
  -0.13018,   0.52671,  -0.16861,  -0.15096,   0.81022,   0.03925,   0.83370,  -0.31543,   0.67003,  -0.36707
   0.06764,   0.10801,   0.35019,  -0.72344,  -0.40505,  -0.26746,   0.39340,  -0.92487,   0.29711,   0.68578
   0.26040,  -0.02865,   0.93750,   0.11596,   0.14758,  -0.53843,  -0.06990,  -0.67169,  -0.15378,   0.26639
   0.87003,  -0.34634,   0.89181,  -0.16189,   0.93750,   0.93750,  -0.51417,  -0.79227,   0.93564,  -0.93750
  -0.35288,  -0.88702,   0.93750,   0.93750,   0.06381,  -0.93750,   0.29256,   0.93750,   0.31336,  -0.82765
  -0.30599,  -0.49751,  -0.21621,   0.93231,  -0.93314,   0.10518,  -0.46851,  -0.34827,   0.17587,  -0.27205
  -0.06961,  -0.16529,  -0.93750,  -0.15745,   0.93750,  -0.80097,   0.73362,  -0.87452,   0.71088,   0.06202
  -0.93750,  -0.45856,   0.93750,  -0.87572,   0.93750,   0.28989,  -0.89362,  -0.13048,  -0.93133,  -0.93750
   0.93608,  -0.21796,  -0.28813,  -0.35674,   0.76868,   0.83223,  -0.39055,  -0.21111,  -0.25105,  -0.62029
   0.93750,  -0.31564,  -0.49578,  -0.13897,  -0.52662,   0.25945,   0.52039,  -0.25683,  -0.50926,   0.07315
   0.93750,  -0.61994,  -0.91802,  -0.41256,  -0.57537,  -0.22257,  -0.60166,  -0.40347,  -0.73731,  -0.30627
   0.93750,  -0.36755,  -0.81023,  -0.46585,  -0.37603,  -0.91110,  -0.81022,  -0.20765,  -0.35871,   0.17683
  -0.47422,   0.04663,   0.93750,   0.93750,   0.83541,   0.89280,  -0.88033,   0.38447,   0.07948,  -0.50542
  -0.23128,   0.58818,  -0.93750,  -0.93750,  -0.21573,   0.76352,  -0.93750,  -0.88434,   0.93750,   0.42953
   0.20494,  -0.00086,   0.45889,  -0.05934,   0.81833,  -0.26305,   0.57625,  -0.48037,   0.59795,  -0.11060
  -0.15993,   0.08734,  -0.29763,   0.67597,   0.57373,  -0.37201,  -0.14375,   0.73787,  -0.04557,   0.05270
   0.87783,  -0.76714,  -0.17788,  -0.16275,   0.33115,   0.46843,  -0.30791,  -0.27196,  -0.00733,   0.89505
  -0.53264,   0.93750,   0.87687,  -0.20600,   0.72903,   0.09783,   0.05972,  -0.93750,   0.10287,  -0.71288
  -0.23786,  -0.93750,   0.93750,   0.05571,   0.54460,  -0.66190,  -0.78601,   0.15928,   0.45246,   0.67859
   0.24911,  -0.37962,  -0.86622,   0.93041,  -0.59820,  -0.57824,   0.86735,   0.39720,  -0.11598,   0.40276
   0.13680,  -0.02245,   0.58190,  -0.77164,   0.44944,  -0.01306,  -0.03110,   0.51025,  -0.59693,   0.93750
   0.64823,   0.59146,  -0.08451,  -0.24826,   0.93645,  -0.58547,  -0.39254,  -0.73958,   0.42828,  -0.47452
  -0.57402,  -0.08549,   0.81596,  -0.06654,   0.02898,  -0.04806,  -0.37871,  -0.56337,  -0.25262,  -0.46648
   0.93750,   0.38864,  -0.87911,   0.87955,   0.53636,  -0.67521,  -0.45768,   0.86667,  -0.93750,  -0.93750
  -0.44765,   0.22432,  -0.18273,  -0.35525,   0.93750,  -0.30696,   0.75350,  -0.79003,  -0.32201,   0.69861
   0.82791,   0.93750,  -0.32962,  -0.10113,  -0.78188,  -0.93750,   0.24854,  -0.58569,   0.93750,   0.20668
  -0.23311,  -0.58583,   0.68080,  -0.54227,   0.90137,  -0.26428,  -0.23048,   0.86303,   0.65159,  -0.44248
  -0.05758,  -0.63774,  -0.54921,  -0.66633,  -0.54872,   0.85837,  -0.04877,   0.93556,   0.04597,   0.50993
  -0.76821,   0.85731,  -0.93750,  -0.81096,   0.93750,   0.93750,   0.18635,   0.13687,  -0.11588,  -0.70102
   0.93750,  -0.21280,  -0.93750,   0.13535,   0.26190,   0.93750,  -0.62788,   0.37329,  -0.61585,  -0.82314
  -0.61207,   0.29560,  -0.00189,  -0.16320,  -0.80377,   0.93750,   0.85828,   0.46240,   0.73999,   0.71490
   0.28026,  -0.49398,   0.93750,   0.80784,   0.93750,   0.38790,   0.93750,  -0.16307,  -0.20625,  -0.51486
  -0.81229,  -0.03350,  -0.62134,   0.93750,  -0.02624,  -0.48627,  -0.70133,  -0.10724,  -0.90666,  -0.77214
  -0.20459,  -0.71228,  -0.27135,  -0.74025,  -0.76053,  -0.36191,   0.30131,   0.75276,  -0.33310,   0.68176
  -0.74847,  -0.91303,  -0.79570,  -0.41325,   0.73486,  -0.75359,  -0.93750,  -0.93750,  -0.62055,  -0.54915
  -0.59127,   0.72980,   0.59838,   0.00153,   0.22161,  -0.11205,  -0.11038,  -0.38834,   0.87249,   0.87608
  -0.57398,  -0.65526,  -0.28567,  -0.62495,  -0.83715,  -0.36356,   0.93750,  -0.60789,  -0.37472,  -0.03646
   0.29622,  -0.16008,   0.82247,  -0.39218,  -0.23488,  -0.14950,  -0.39204,   0.12214,   0.16061,   0.38498
  -0.58816,   0.55369,  -0.79836,   0.93750,  -0.58675,   0.57751,  -0.87319,  -0.10207,  -0.06825,  -0.93750
  -0.93750,   0.32436,  -0.93750,   0.77770,  -0.33325,   0.42140,  -0.88223,  -0.62360,  -0.31758,  -0.92703
   0.93750,  -0.79517,  -0.88010,   0.76563,  -0.55176,  -0.47554,   0.77570,   0.90809,   0.33924,  -0.93750
   0.87438,   0.52514,   0.45238,  -0.04428,  -0.09024,  -0.44155,   0.93750,  -0.29397,  -0.00378,  -0.05411
   0.31351,  -0.93750,   0.68655,  -0.08529,  -0.93750,  -0.93750,  -0.70527,   0.42018,  -0.77156,  -0.93750
   0.18387,  -0.93750,   0.93750,  -0.86226,   0.54797,   0.87290,  -0.50017,   0.57941,  -0.42702,   0.93750
   0.63821,   0.49251,   0.87792,  -0.55308,   0.93750,  -0.33275,   0.38065,  -0.37877,  -0.40291,  -0.24428
  -0.29699,  -0.03749,  -0.57676,   0.58193,  -0.31379,   0.48918,  -0.10365,  -0.55043,  -0.00283,   0.57455
   0.93333,   0.43938,   0.46788,  -0.93750,   0.21714,  -0.32324,  -0.34901,  -0.02974,  -0.86626,   0.01051
   0.37788,  -0.80920,   0.36134,  -0.16064,  -0.09407,  -0.76493,   0.37833,   0.93702,  -0.86389,   0.35047
  -0.48341,   0.21355,  -0.21654,   0.93750,   0.93750,  -0.69117,  -0.62474,  -0.76304,   0.24630,  -0.56292
   0.31764,   0.53993,   0.57875,   0.46703,   0.25295,  -0.01318,   0.57205,   0.30180,  -0.78984,   0.79318
   0.93750,  -0.09097,   0.63648,   0.78118,  -0.90890,   0.38444,  -0.76648,   0.66985,   0.87762,   0.86913
  -0.07434,  -0.35099,   0.36081,   0.63075,  -0.53103,  -0.11423,   0.92769,  -0.12535,   0.93171,  -0.43251
   0.64890,   0.80712,   0.35956,  -0.39993,  -0.16151,   0.36700,   0.17482,  -0.75059,  -0.19868,  -0.45211
  -0.25051,  -0.20762,   0.93750,  -0.54097,   0.13668,  -0.29866,   0.81698,   0.02317,  -0.74155,  -0.43691
   0.24967,   0.06487,  -0.93750,   0.93750,   0.45940,  -0.93750,   0.86923,   0.82438,   0.93750,   0.80882
   0.93382,  -0.71185,   0.83480,   0.87020,  -0.93750,   0.18527,   0.05694,  -0.60499,   0.78771,   0.93750
  -0.74929,  -0.77528,   0.14446,   0.75409,  -0.54782,  -0.93750,  -0.89747,   0.84687,   0.31500,  -0.29991
   0.09600,   0.91107,  -0.28255,   0.88269,   0.00351,  -0.48085,   0.23382,   0.76572,  -0.81250,  -0.00489
   0.01909,   0.19625,  -0.25681,  -0.29023,   0.86866,  -0.25472,  -0.11869,   0.85512,  -0.84794,  -0.09800
  -0.51246,   0.54393,  -0.45460,  -0.75326,  -0.65488,   0.78888,   0.44780,   0.78999,   0.53430,   0.62542
  -0.93750,  -0.84409,   0.86376,  -0.93750,   0.31434,   0.58673,   0.93750,   0.87372,   0.93750,   0.93750
   0.88680,  -0.77884,   0.06465,   0.18114,   0.02687,   0.16212,  -0.34734,   0.01693,  -0.60376,   0.93068
  -0.47317,   0.62846,  -0.93750,   0.93750,   0.39091,  -0.50614,  -0.30781,   0.41762,  -0.40296,   0.88014
  -0.65270,  -0.86870,   0.69884,  -0.88179,  -0.34593,   0.59667,  -0.72992,  -0.80902,   0.89692,  -0.58418
   0.24225,   0.11221,   0.67116,   0.05240,  -0.50135,   0.05283,   0.59888,   0.62332,  -0.44574,   0.53104
  -0.67725,   0.60165,   0.16793,  -0.23881,  -0.08687,   0.33187,  -0.33048,  -0.22003,   0.93750,  -0.40473
   0.32628,   0.93750,   0.03747,  -0.93750,  -0.51910,  -0.43221,   0.34497,  -0.93750,   0.93750,   0.93750
   0.18301,   0.64178,  -0.15841,  -0.06951,   0.25527,  -0.80866,  -0.62082,   0.93750,  -0.87575,  -0.73962
   0.54114,  -0.34638,   0.53346,  -0.57784,   0.56573,  -0.54357,   0.87411,  -0.42739,  -0.07289,   0.26987
  -0.30107,   0.93750,   0.20254,  -0.23736,   0.33008,   0.87727,  -0.26563,  -0.87156,   0.45914,   0.87888
  -0.04376,   0.81155,   0.62158,  -0.85957,  -0.50055,  -0.07009,  -0.36657,  -0.68583,   0.75489,   0.45469
   0.19552,   0.25341,   0.85847,  -0.51121,   0.15444,   0.83247,   0.29604,   0.34170,  -0.46464,   0.03593
  -0.57223,   0.16285,  -0.27509,   0.93750,   0.17349,  -0.78540,  -0.75653,  -0.25289,  -0.16255,  -0.46947
   0.08715,   0.67420,  -0.69072,  -0.83169,   0.11070,   0.93750,   0.02758,  -0.55232,   0.48157,  -0.22008
  -0.81271,   0.88726,  -0.46608,   0.93750,  -0.81356,   0.12233,   0.76129,   0.57814,   0.46127,  -0.50377
   0.79500,   0.64774,  -0.32155,  -0.14182,  -0.73963,   0.47520,   0.86470,   0.88002,   0.93750,   0.13492
   0.10551,  -0.93750,   0.43476,  -0.29119,  -0.17792,   0.23707,   0.55844,   0.72559,   0.18827,   0.64782
  -0.35624,   0.16381,   0.24538,   0.21943,   0.93750,  -0.38919,   0.09564,  -0.93684,   0.88552,   0.37705
   0.28950,  -0.88146,  -0.93750,   0.65473,  -0.69475,  -0.37380,   0.21939,   0.62723,  -0.08454,  -0.87015
   0.93750,   0.80650,  -0.15299,  -0.18274,   0.61042,  -0.59978,  -0.66917,  -0.27067,   0.93750,  -0.11149
   0.43465,  -0.36290,  -0.42779,  -0.65736,  -0.06483,   0.09581,   0.93750,  -0.04221,   0.28716,   0.75542
   0.92115,   0.18377,  -0.62943,  -0.75021,   0.33451,  -0.82664,  -0.11431,  -0.42055,   0.54111,  -0.09406
   0.17198,   0.80491,  -0.87824,  -0.74243,  -0.84719,  -0.64216,  -0.29215,   0.16754,  -0.44217,   0.93750
  -0.29257,  -0.01094,   0.13159,   0.57680,  -0.09681,  -0.14400,   0.35564,  -0.07046,   0.83446,   0.84961
  -0.69551,   0.04037,  -0.02425,   0.92232,  -0.61625,   0.43798,   0.43841,   0.05082,   0.93750,   0.93750
   0.03524,   0.86923,  -0.39336,   0.65090,   0.06153,   0.14170,  -0.55302,   0.52289,   0.61655,  -0.63975
   0.28690,  -0.88087,  -0.51363,   0.93750,   0.93750,  -0.93750,   0.84384,   0.22511,   0.60095,  -0.93750
   0.93002,  -0.09762,   0.05286,  -0.32946,   0.93750,   0.75521,  -0.81728,   0.49462,   0.32151,   0.93750
  -0.84945,   0.08699,  -0.85281,   0.89373,  -0.15068,  -0.93750,   0.93750,  -0.93750,  -0.83750,  -0.93750
   0.07630,  -0.49543,   0.09767,  -0.31277,  -0.37328,  -0.45249,   0.05146,   0.93750,  -0.14504,   0.29531
  -0.61416,  -0.42585,  -0.75572,  -0.78569,   0.37769,   0.27469,  -0.54581,  -0.21933,   0.27749,   0.60937
  -0.00116,   0.88105,   0.32765,  -0.11621,   0.81873,  -0.93750,   0.74907,  -0.93750,   0.15040,   0.59180
  -0.81281,   0.93750,  -0.79634,   0.37512,  -0.67299,   0.93630,  -0.73137,  -0.88246,   0.84455,  -0.65644
   0.26919,   0.16759,   0.03711,  -0.26435,   0.92597,  -0.36108,  -0.47975,  -0.20672,  -0.03539,  -0.61912
  -0.81362,  -0.54336,  -0.11921,   0.10838,  -0.87105,   0.58451,  -0.40642,   0.85829,  -0.61653,  -0.93750
   0.60555,  -0.65152,  -0.75049,   0.54828,  -0.57525,   0.93750,  -0.68767,   0.13114,  -0.56116,  -0.02794
  -0.58609,   0.70238,  -0.33859,  -0.43244,  -0.27945,  -0.22840,   0.87500,  -0.39293,  -0.28653,   0.86217
   0.67142,  -0.03833,  -0.15136,  -0.34069,   0.06983,  -0.28789,   0.67767,   0.76782,   0.69313,  -0.58935
  -0.87974,   0.02273,   0.74896,   0.54125,  -0.87334,   0.93750,  -0.18525,  -0.87226,   0.05642,  -0.00663
  -0.34868,  -0.39012,  -0.21179,  -0.59262,  -0.49871,  -0.87278,  -0.25475,   0.93659,  -0.20358,  -0.09424
   0.81246,   0.93750,  -0.93750,  -0.92223,  -0.77546,   0.63037,  -0.93750,  -0.32540,  -0.93750,   0.04413
   0.01525,  -0.69455,  -0.81524,  -0.32907,   0.87699,  -0.73585,  -0.79607,   0.93750,   0.87327,   0.62713
  -0.44400,   0.33771,  -0.67556,  -0.62553,   0.93750,   0.10267,   0.18258,  -0.87564,   0.48637,  -0.49072
   0.78022,  -0.23979,   0.23335,   0.04945,  -0.68092,  -0.51590,   0.68533,   0.93750,   0.80758,  -0.65474
  -0.81831,   0.55903,  -0.93750,  -0.60485,  -0.46675,  -0.20605,  -0.74285,   0.93750,  -0.74681,   0.93750
   0.76113,   0.65165,   0.87818,   0.88041,  -0.68641,   0.93750,   0.58231,  -0.72253,   0.32362,  -0.68133
  -0.62011,   0.93750,   0.77893,  -0.43942,  -0.67534,   0.67750,   0.30323,  -0.78832,  -0.49900,  -0.93750
  -0.54913,  -0.74031,   0.07655,   0.08358,   0.53096,   0.93750,   0.31528,   0.44832,  -0.38413,   0.31406
  -0.52029,  -0.36300,  -0.39417,  -0.19035,   0.80536,  -0.62719,  -0.61597,   0.64701,   0.14495,  -0.81909
   0.38346,  -0.49637,   0.06553,   0.45709,  -0.69065,  -0.62566,  -0.40668,   0.52943,  -0.86971,  -0.34326
  -0.57393,   0.87534,  -0.36060,  -0.25707,  -0.35243,  -0.52286,  -0.54627,  -0.55100,  -0.73030,  -0.40549
  -0.51158,  -0.07505,   0.93750,  -0.14273,  -0.30507,   0.76491,   0.04821,   0.33464,   0.06551,  -0.19673
  -0.29937,   0.87360,   0.79839,   0.66995,   0.07771,  -0.02038,   0.93750,  -0.40496,   0.26302,   0.93750
   0.75277,   0.71831,   0.81752,  -0.61068,  -0.68489,  -0.60009,   0.80091,  -0.80719,  -0.10056,  -0.32720
   0.10857,   0.08564,  -0.55321,  -0.81313,  -0.43111,   0.93750,  -0.31752,  -0.19966,   0.36821,  -0.07596
   0.47277,  -0.55138,   0.82789,  -0.74830,   0.93750,  -0.93750,  -0.59923,   0.28006,  -0.28087,   0.86817
   0.93750,  -0.71604,  -0.10190,  -0.63099,  -0.84927,  -0.75691,  -0.58534,  -0.39112,  -0.93750,  -0.91347
   0.14504,   0.93750,   0.93750,  -0.27802,   0.79436,  -0.69034,  -0.87691,  -0.34543,  -0.93750,   0.01427
  -0.04526,  -0.22525,   0.47200,  -0.50045,  -0.45298,   0.93750,  -0.93470,  -0.00752,  -0.11904,   0.20680
   0.80990,  -0.75556,  -0.02275,  -0.72285,  -0.92710,  -0.57330,  -0.20097,  -0.22672,  -0.89144,   0.67811
   0.68934,  -0.80997,   0.70720,   0.74490,   0.80237,  -0.64680,  -0.67107,   0.87397,   0.60128,   0.93750
  -0.34258,   0.59486,   0.93750,   0.08528,   0.36769,   0.93750,  -0.87308,  -0.93750,   0.21772,  -0.80422
   0.75104,   0.75017,   0.19690,   0.03891,  -0.45082,  -0.53149,   0.87850,   0.81178,  -0.89255,  -0.37009
   0.81288,   0.76972,  -0.06243,  -0.93750,  -0.81663,  -0.22266,   0.57865,  -0.27284,   0.49074,   0.55955
   0.93750,   0.82110,  -0.01673,  -0.76138,  -0.79738,   0.69578,   0.87447,   0.79175,  -0.93750,  -0.00785
   0.93750,  -0.93750,   0.83473,   0.46161,   0.93750,   0.82729,  -0.93750,  -0.56962,   0.33050,  -0.39203
  -0.25795,   0.24052,  -0.54051,   0.62646,  -0.60064,   0.52038,  -0.09040,   0.40683,   0.03637,  -0.54264
   0.74601,   0.22727,   0.21209,   0.51717,   0.31842,   0.11556,   0.40049,   0.08717,  -0.82997,   0.31643
   0.53676,   0.20615,  -0.56630,   0.00856,  -0.81598,   0.38728,   0.08129,   0.47659,  -0.93750,   0.41610
   0.42719,   0.93750,  -0.50747,   0.43160,   0.93750,  -0.80350,  -0.87490,  -0.41793,   0.40597,   0.93750
   0.38659,  -0.03226,  -0.27188,  -0.64344,  -0.14681,   0.89671,  -0.35471,   0.80717,   0.56219,  -0.50268
  -0.93750,  -0.51131,  -0.86278,   0.34561,   0.39934,   0.91566,   0.08795,  -0.17171,  -0.34084,   0.21331
   0.50145,   0.71755,   0.62619,   0.36609,  -0.08167,   0.15696,  -0.30159,   0.02009,  -0.47619,  -0.74294
   0.70096,  -0.82232,   0.52259,   0.32220,   0.88737,  -0.37992,  -0.87714,  -0.43923,  -0.27687,   0.24297
  -0.53087,  -0.00328,   0.93750,  -0.12868,  -0.81943,  -0.58238,  -0.58884,   0.25783,   0.29641,  -0.32909
   0.93750,  -0.72745,  -0.35173,  -0.68337,   0.93750,  -0.87411,   0.93750,   0.93750,  -0.93750,  -0.72031
   0.68487,   0.75465,   0.86417,  -0.27429,  -0.20582,   0.02174,  -0.22405,   0.04214,  -0.59803,  -0.03688
  -0.38919,   0.93750,  -0.22124,   0.58240,  -0.62516,  -0.93750,   0.93750,  -0.83973,  -0.91789,  -0.43706
   0.93709,   0.03507,  -0.29965,  -0.92887,  -0.59763,  -0.01646,   0.22967,  -0.87078,   0.06633,   0.72001
  -0.63530,  -0.60342,   0.52502,   0.65461,  -0.26058,   0.40987,  -0.64056,   0.82406,  -0.39945,  -0.55006
   0.87164,  -0.78481,  -0.87862,   0.34465,   0.80403,  -0.72879,  -0.66497,   0.63312,   0.31969,   0.75539
   0.20901,   0.65922,   0.18204,  -0.39473,   0.40618,   0.50212,   0.83144,   0.22868,   0.65426,  -0.54434
   0.10532,   0.07216,  -0.61202,  -0.09248,   0.73719,  -0.28319,  -0.09070,   0.51878,   0.38796,   0.36224
   0.21144,   0.87592,  -0.45735,   0.19811,   0.68780,  -0.31075,   0.30904,   0.26035,   0.34481,  -0.90744
   0.77114,  -0.37141,   0.93750,  -0.20330,   0.41993,   0.29140,  -0.33437,  -0.69173,   0.37030,  -0.93060
   0.93750,   0.52112,   0.45711,   0.86613,  -0.47963,  -0.32787,  -0.23051,  -0.93750,   0.72378,   0.09698
  -0.70798,  -0.36123,  -0.61531,   0.15675,   0.86628,   0.87286,  -0.26616,   0.63801,   0.62325,   0.53675
   0.93750,  -0.03048,   0.31498,  -0.87716,  -0.93750,   0.44516,  -0.93750,   0.17044,   0.59096,  -0.93307
  -0.01496,   0.56120,  -0.50375,  -0.30437,   0.66425,   0.69302,   0.42322,  -0.15499,  -0.02023,  -0.44583
   0.65663,   0.09692,   0.06011,  -0.32278,   0.77967,  -0.57896,  -0.75309,   0.38919,  -0.20525,   0.13215
  -0.12466,   0.26281,   0.86830,  -0.35533,  -0.51280,  -0.37057,   0.45702,  -0.07750,  -0.60974,  -0.54995
   0.42994,   0.65482,  -0.56288,   0.16408,  -0.63915,   0.71267,  -0.01306,  -0.50423,   0.70673,  -0.32553
  -0.33036,   0.64644,  -0.17095,  -0.35053,  -0.38809,   0.14860,   0.92483,  -0.08999,   0.27709,  -0.36330
   0.93750,  -0.61476,   0.33393,   0.24210,   0.34177,   0.14807,   0.15671,  -0.21215,  -0.66247,  -0.79742
   0.82195,  -0.59993,  -0.70830,   0.14492,  -0.93750,  -0.25414,   0.73605,   0.93750,  -0.28756,   0.07840
  -0.11116,   0.29438,  -0.13501,  -0.63302,  -0.40913,   0.92624,  -0.72509,   0.55544,   0.27201,   0.07487
   0.74443,  -0.28254,  -0.67406,  -0.22341,   0.00189,  -0.80709,   0.80303,  -0.87301,   0.70093,   0.33487
   0.80562,  -0.62138,   0.03204,  -0.81211,   0.25214,   0.88787,  -0.31737,  -0.80969,  -0.68006,  -0.49378
   0.86842,  -0.22868,   0.93750,   0.09192,  -0.93709,   0.26527,   0.93750,  -0.93750,   0.93750,  -0.59427
   0.22177,   0.86643,  -0.00086,  -0.75074,   0.40078,   0.06187,   0.11802,   0.56648,  -0.01824,  -0.47695
  -0.30566,  -0.12380,   0.37558,   0.93750,  -0.35961,  -0.79626,  -0.70357,  -0.18736,  -0.22766,  -0.38963
   0.41136,  -0.86004,  -0.26054,   0.08852,   0.18143,  -0.00737,  -0.05055,  -0.04276,  -0.31761,   0.27718
  -0.10215,  -0.74911,   0.69096,  -0.28021,   0.33727,   0.54444,  -0.36973,   0.44000,   0.93720,  -0.59341
  -0.84872,   0.02690,  -0.86467,  -0.11460,  -0.22213,  -0.13130,  -0.30112,  -0.74661,   0.93750,  -0.61061
  -0.06274,   0.31564,  -0.69403,  -0.61370,  -0.62554,  -0.24492,   0.93750,  -0.58547,  -0.44029,  -0.36547
   0.04719,   0.93750,  -0.82464,  -0.05473,  -0.63117,  -0.46338,  -0.41211,   0.20037,  -0.42939,  -0.75652
  -0.67145,   0.83096,  -0.80176,  -0.51097,  -0.93750,  -0.42256,   0.56403,   0.25565,   0.25351,  -0.48993
   0.65220,   0.38372,  -0.61697,   0.80866,   0.51875,  -0.93750,  -0.12390,   0.18889,   0.75168,  -0.55593
  -0.73280,  -0.29169,  -0.74793,  -0.40742,   0.93750,  -0.41589,   0.67762,   0.54151,  -0.93750,   0.80744
   0.29776,  -0.87208,   0.42907,   0.41947,  -0.76415,   0.93750,  -0.67454,  -0.93750,  -0.54579,  -0.87560
  -0.14790,   0.48850,   0.63316,  -0.47618,   0.54028,   0.34470,   0.01146,  -0.22431,   0.66594,   0.29789
  -0.56711,  -0.04660,  -0.93217,   0.18672,  -0.22438,   0.64860,   0.38270,  -0.93750,   0.33153,   0.03801
  -0.10145,  -0.50740,  -0.00658,  -0.15747,   0.75430,  -0.41586,  -0.36325,   0.93223,  -0.27480,  -0.68560
  -0.72067,   0.39102,   0.92903,   0.02751,   0.75849,   0.42349,   0.29296,  -0.13367,  -0.72273,  -0.66695
   0.48231,  -0.06111,  -0.60823,   0.87414,  -0.48218,   0.34135,   0.93750,  -0.61461,   0.52434,   0.47436
   0.86753,   0.45026,   0.08284,   0.14459,   0.84511,  -0.74391,  -0.03797,  -0.88697,   0.13617,   0.29251
   0.04713,  -0.09256,  -0.61829,   0.85941,   0.28770,  -0.43151,   0.79729,   0.01471,  -0.65887,  -0.63085
  -0.69431,   0.44560,   0.74871,  -0.11965,   0.93750,  -0.93750,  -0.86433,  -0.72107,   0.86873,   0.70639
  -0.86187,  -0.30796,   0.53034,   0.93489,  -0.31504,   0.62830,   0.75103,   0.82176,  -0.18156,  -0.04366
  -0.44935,  -0.63792,   0.81906,  -0.87736,   0.13748,  -0.64009,  -0.48728,   0.93750,  -0.83209,   0.59133
   0.93750,   0.56908,  -0.93750,   0.93750,   0.93750,   0.12545,  -0.93750,  -0.92660,  -0.80313,   0.93750
  -0.46316,  -0.67289,   0.07243,   0.73456,  -0.49725,  -0.07596,  -0.19390,   0.75452,   0.78231,  -0.14285
   0.07094,   0.04883,  -0.90931,  -0.28126,  -0.44072,   0.93750,   0.00294,  -0.60480,   0.06627,   0.32936
  -0.80065,  -0.54363,  -0.44922,   0.14066,   0.93750,  -0.51531,  -0.31544,  -0.38649,  -0.80986,  -0.34775
   0.17790,   0.93750,  -0.23600,   0.22897,  -0.52615,   0.20208,   0.35937,  -0.09427,   0.48100,  -0.85815
   0.29441,   0.06412,  -0.62579,   0.00835,  -0.73647,   0.68491,   0.26876,   0.86752,   0.38906,  -0.61819
   0.93488,  -0.14819,  -0.46690,  -0.29711,  -0.48222,   0.06160,  -0.07540,   0.64969,   0.78941,  -0.02317
  -0.32648,   0.07974,   0.93750,  -0.18054,   0.17485,  -0.25845,  -0.05278,  -0.49230,  -0.02294,   0.47539
  -0.93750,  -0.93750,  -0.93750,   0.93750,   0.87357,  -0.16440,  -0.61777,  -0.86546,   0.23746,   0.93750
  -0.66590,  -0.18618,  -0.53500,  -0.19198,   0.93750,   0.07222,  -0.60293,   0.17055,  -0.01265,  -0.35819
   0.62957,   0.89932,   0.93750,  -0.77654,   0.67075,   0.41766,   0.69052,  -0.28538,  -0.79649,  -0.64592
   0.93750,   0.23932,   0.74250,  -0.93750,   0.93750,   0.47303,   0.93750,   0.24809,   0.60475,   0.93750
  -0.41911,  -0.36820,  -0.00283,  -0.40485,  -0.27154,   0.85537,   0.30979,   0.93750,  -0.11302,  -0.43273
  -0.87250,   0.14730,  -0.93750,  -0.93750,   0.93750,  -0.87874,  -0.26122,   0.86560,   0.24711,   0.53743
  -0.08389,   0.36024,  -0.73261,  -0.51575,   0.02172,   0.80959,   0.02281,  -0.53034,   0.50746,   0.21658
  -0.24062,   0.05656,   0.88140,  -0.82060,  -0.68232,   0.12764,  -0.49221,  -0.66684,   0.75087,   0.69127
  -0.13789,  -0.05599,   0.93750,  -0.19576,   0.87380,   0.29924,   0.52027,  -0.37581,   0.03173,  -0.18459
   0.10313,   0.87427,  -0.51430,  -0.14213,   0.86982,  -0.93750,  -0.75463,  -0.93750,  -0.71577,   0.93750
  -0.18966,  -0.19460,  -0.08297,  -0.13180,   0.42253,   0.13438,   0.22412,   0.85105,   0.93750,  -0.50969
  -0.47810,   0.93750,  -0.13259,  -0.00158,  -0.52676,   0.20195,   0.13673,  -0.47617,  -0.28895,  -0.73454
   0.93750,  -0.50115,   0.87786,   0.19837,  -0.93750,  -0.27832,  -0.69856,  -0.00375,  -0.69549,  -0.93750
  -0.54387,   0.13945,  -0.78143,  -0.66353,  -0.57547,  -0.54881,   0.38625,   0.90079,   0.45756,  -0.47121
  -0.90041,   0.67574,   0.00403,  -0.87410,   0.08305,   0.62427,   0.93750,  -0.47323,   0.93750,  -0.93750
  -0.54550,  -0.16657,  -0.49214,   0.78383,  -0.21291,  -0.70724,  -0.02430,   0.22846,   0.62287,  -0.16854
  -0.02937,  -0.88752,   0.93750,  -0.86739,  -0.79901,  -0.36148,   0.81250,  -0.92430,  -0.78013,   0.58399
  -0.35745,  -0.51594,   0.93750,  -0.81994,  -0.74728,   0.27372,  -0.46007,   0.93750,  -0.64141,   0.69034
  -0.40762,   0.17978,   0.00562,  -0.16610,  -0.88258,   0.54481,   0.90906,   0.15344,   0.30667,   0.23326
  -0.27862,  -0.10359,   0.83165,  -0.52204,  -0.02952,   0.93456,  -0.16804,   0.69055,   0.04782,   0.49280
   0.24366,   0.72454,   0.25880,   0.86612,   0.05440,  -0.08959,   0.93750,  -0.27090,   0.69524,  -0.33778
  -0.80725,  -0.89676,  -0.52969,  -0.23971,  -0.49313,  -0.07029,   0.91445,  -0.30187,  -0.12775,  -0.46262
  -0.32317,  -0.13537,  -0.17435,  -0.58953,   0.80663,   0.93750,  -0.66815,  -0.22897,  -0.02373,  -0.25212
   0.11554,  -0.46334,   0.42174,   0.34301,  -0.90304,  -0.13260,   0.74282,   0.46968,  -0.41047,   0.40487
  -0.65405,  -0.03962,   0.31487,  -0.31018,   0.93750,  -0.37202,  -0.05137,  -0.84047,  -0.00345,   0.41604
   0.60243,  -0.30056,  -0.25366,  -0.62360,  -0.04294,   0.75413,   0.34496,   0.47789,   0.23500,   0.43288
   0.34649,  -0.08007,  -0.93207,  -0.07898,   0.79501,   0.65656,   0.06888,   0.41243,  -0.32940,  -0.56770
  -0.21095,  -0.88239,  -0.93750,  -0.93750,  -0.93750,   0.93750,   0.74323,  -0.93750,   0.30690,  -0.77508
  -0.13147,  -0.16645,   0.92452,   0.08891,   0.02333,   0.69964,  -0.61758,  -0.29889,   0.03672,  -0.06301
   0.80982,  -0.09361,  -0.93750,  -0.78916,   0.10660,  -0.12351,  -0.93750,   0.93750,   0.80767,   0.81733
  -0.43209,  -0.28479,  -0.39328,  -0.55451,  -0.68694,   0.16389,  -0.46738,   0.76613,  -0.33680,   0.63318
   0.63162,  -0.72445,   0.88200,  -0.79780,  -0.17799,  -0.64756,  -0.11580,   0.93750,  -0.18784,   0.36080
   0.13424,   0.20327,  -0.39915,  -0.46938,   0.78675,   0.09752,  -0.33189,  -0.78562,   0.43168,   0.55678
   0.63018,   0.93750,   0.93750,  -0.03065,  -0.49001,   0.20078,  -0.00524,  -0.36784,  -0.35560,  -0.93750
   0.93750,   0.11268,  -0.57000,   0.61435,  -0.81201,   0.08246,  -0.82249,   0.21610,  -0.10053,   0.36469
   0.21207,   0.93750,  -0.57884,   0.44383,  -0.93750,   0.93750,   0.91089,  -0.88212,   0.37451,   0.85016
  -0.64127,   0.86610,  -0.27009,  -0.35337,  -0.42321,  -0.08054,  -0.48112,   0.59077,  -0.64920,  -0.63172
  -0.40258,   0.15097,  -0.53566,   0.93750,   0.02080,  -0.93750,   0.93750,   0.93750,   0.48841,  -0.93750
  -0.67478,  -0.49395,  -0.32728,   0.49207,  -0.60173,   0.86984,   0.80959,   0.93750,  -0.36971,   0.24086
  -0.51769,   0.10149,  -0.48366,   0.93750,  -0.13921,  -0.54676,  -0.81759,   0.38481,   0.80425,   0.00915
   0.35589,  -0.74409,   0.81332,  -0.20481,   0.87208,  -0.75888,   0.93750,  -0.86748,  -0.49745,   0.87362
   0.15526,   0.12505,  -0.93750,  -0.80559,   0.10075,   0.38595,  -0.87670,   0.41170,  -0.50704,   0.39429
  -0.42876,   0.93750,  -0.31528,  -0.56043,   0.93750,   0.31204,  -0.69248,  -0.68077,  -0.93750,  -0.80685
   0.93750,   0.27554,  -0.81899,  -0.87792,   0.93750,  -0.79943,   0.81706,   0.36220,  -0.55672,  -0.88163
   0.64033,  -0.24421,  -0.80278,   0.93750,   0.49901,   0.56395,  -0.03530,  -0.48052,  -0.48872,  -0.48733
   0.93750,  -0.76597,  -0.44774,   0.61884,  -0.54406,  -0.51578,   0.84775,  -0.48020,  -0.93750,  -0.23973
   0.32037,  -0.87949,  -0.55139,  -0.53137,  -0.05011,   0.41830,  -0.62875,  -0.47186,  -0.57740,   0.85196
  -0.88465,  -0.53099,   0.69689,   0.86408,  -0.32076,   0.33992,   0.63723,   0.24747,   0.11013,   0.83380
  -0.28767,   0.61154,  -0.35939,   0.63975,  -0.10789,  -0.44432,  -0.58481,   0.57171,   0.42240,   0.58790
   0.39696,  -0.81205,  -0.81849,   0.81771,   0.25328,   0.93750,  -0.68501,  -0.37955,  -0.66962,   0.55812
   0.56357,  -0.93750,   0.93750,  -0.93750,   0.04784,  -0.87441,   0.80927,   0.82829,   0.85802,  -0.93750
   0.64640,  -0.49917,   0.74777,  -0.68810,  -0.20882,  -0.67509,   0.87608,  -0.36089,   0.02602,  -0.81140
   0.00907,  -0.72152,  -0.69134,   0.93750,  -0.93750,   0.17912,   0.00958,  -0.37425,  -0.40062,   0.93750
  -0.43877,  -0.57633,   0.38134,   0.86290,  -0.69138,  -0.20374,  -0.13041,   0.93750,   0.06381,  -0.62136
  -0.16364,   0.33439,  -0.17428,  -0.53101,   0.75378,  -0.75462,   0.44794,   0.57497,   0.08920,   0.35400
  -0.64472,   0.60135,  -0.79594,  -0.24478,   0.83399,   0.17372,  -0.29452,  -0.53449,  -0.61475,   0.93750
  -0.06192,   0.06019,   0.22522,  -0.60696,   0.66015,  -0.28636,   0.93211,   0.29080,   0.40736,   0.07059
  -0.35708,   0.64701,   0.78271,  -0.56555,  -0.93750,  -0.42582,  -0.22793,  -0.51768,   0.47179,  -0.30451
  -0.72619,  -0.31118,  -0.83599,  -0.68348,  -0.47029,  -0.13206,   0.93084,   0.08891,  -0.07103,  -0.76452
   0.53905,  -0.16961,   0.21700,  -0.93750,  -0.66906,   0.93750,  -0.63670,  -0.77908,   0.93750,   0.18526
   0.38372,  -0.49665,  -0.93750,  -0.85196,  -0.02103,   0.84237,   0.93750,  -0.68472,  -0.93750,  -0.70096
   0.27779,   0.43425,  -0.13820,   0.60023,  -0.70952,  -0.31036,  -0.66131,   0.06668,  -0.04160,   0.70135
  -0.46554,   0.33714,  -0.58816,  -0.14464,   0.93673,   0.15596,   0.04518,  -0.30717,  -0.03631,   0.26525
   0.28132,  -0.93750,  -0.23126,  -0.53831,   0.93750,   0.93750,  -0.01087,  -0.58351,   0.76968,   0.62191
   0.85344,  -0.59595,  -0.78806,  -0.31217,  -0.43170,   0.25586,   0.06832,  -0.25478,   0.77162,  -0.14504
   0.07261,   0.82072,  -0.12179,  -0.56941,  -0.44173,   0.62261,  -0.21501,  -0.15001,   0.75833,   0.33600
   0.58560,  -0.77703,  -0.93750,  -0.92355,   0.93750,   0.75270,  -0.93750,  -0.27886,  -0.39935,   0.87729
   0.93321,   0.17655,  -0.54544,   0.05847,   0.11590,   0.31134,   0.39703,   0.68301,  -0.55708,  -0.72476
   0.93750,   0.82075,  -0.21617,   0.93594,  -0.87535,  -0.21174,  -0.03247,   0.68125,  -0.93750,   0.81694
   0.79991,  -0.79950,   0.81892,  -0.27247,  -0.13926,   0.18111,  -0.86649,   0.43302,   0.93750,  -0.82352
  -0.10257,   0.04150,   0.63142,   0.33947,   0.49733,   0.93034,  -0.35116,  -0.22000,  -0.04749,  -0.04964
   0.42529,   0.04152,   0.67338,  -0.41447,   0.59162,  -0.35657,   0.84846,   0.15173,   0.52371,   0.15654
  -0.76036,  -0.10540,   0.87132,  -0.54038,   0.91647,  -0.29620,  -0.65611,   0.35746,  -0.06823,   0.25484
  -0.05571,   0.71930,  -0.53560,   0.56049,   0.27410,  -0.54300,  -0.91931,   0.55670,  -0.42047,   0.74275
   0.17866,   0.40917,  -0.17555,   0.11832,  -0.01559,   0.47120,  -0.69338,  -0.12323,   0.08437,   0.70012
   0.56515,   0.13111,   0.82913,   0.12109,   0.61102,   0.04469,  -0.30092,   0.81342,  -0.43340,  -0.86692
  -0.73010,   0.48300,  -0.82058,   0.02243,   0.93750,   0.77800,  -0.93750,  -0.87113,  -0.88326,   0.93750
  -0.93750,   0.00165,  -0.06536,  -0.58709,  -0.93750,  -0.10558,  -0.93750,   0.22214,  -0.93750,  -0.69327
   0.16241,  -0.31562,   0.93750,  -0.40564,  -0.03659,  -0.56963,  -0.02893,  -0.14723,  -0.32372,  -0.49679
  -0.83401,  -0.67541,   0.72161,   0.58919,   0.50916,   0.54540,   0.56512,  -0.20490,  -0.57223,   0.40412
   0.08846,  -0.62717,   0.31816,   0.23922,   0.14722,   0.31471,   0.18846,  -0.81723,   0.30727,  -0.74060
  -0.31411,  -0.45297,  -0.09369,  -0.57227,  -0.51347,   0.93052,   0.39887,  -0.01504,  -0.28635,   0.15983
   0.04481,  -0.34739,  -0.06961,   0.89943,  -0.76664,  -0.04588,  -0.53304,   0.48363,  -0.38066,  -0.04526
  -0.51280,   0.43169,  -0.02504,  -0.24527,  -0.46292,  -0.47178,   0.19688,   0.93262,   0.64682,   0.06495
  -0.19756,  -0.11700,   0.87458,  -0.48319,   0.50499,  -0.25085,  -0.14858,   0.37012,  -0.26508,   0.47704
  -0.93750,  -0.14255,   0.93750,  -0.89503,   0.87866,  -0.82115,   0.16468,  -0.23814,  -0.44577,   0.71580
   0.51860,  -0.48366,  -0.01009,   0.88223,   0.69686,   0.92888,  -0.22904,  -0.60678,  -0.08679,  -0.50084
  -0.56309,   0.86669,   0.33258,  -0.18659,   0.42285,  -0.80886,  -0.64412,  -0.66427,  -0.40210,  -0.60208
   0.54976,   0.46700,   0.48949,   0.93750,  -0.82717,  -0.08674,  -0.56152,   0.13410,  -0.02807,  -0.09521
  -0.29410,  -0.93750,  -0.04967,   0.05485,  -0.52435,   0.57088,  -0.93750,   0.85294,   0.56515,  -0.13031
  -0.57961,  -0.65605,   0.45019,   0.73602,  -0.19242,  -0.21998,  -0.31323,  -0.21349,  -0.17249,   0.92098
  -0.93284,   0.40339,  -0.93750,  -0.68220,  -0.93750,   0.93750,   0.24240,  -0.35003,   0.87811,  -0.41994
  -0.56307,  -0.56835,  -0.64732,   0.03099,   0.93730,   0.59629,   0.39734,  -0.78713,  -0.91747,  -0.30943
  -0.67090,  -0.77983,  -0.16493,   0.06237,   0.77662,  -0.31528,  -0.14763,  -0.38184,   0.93750,   0.02744
   0.54079,   0.93391,   0.53691,   0.38747,  -0.57074,   0.93550,   0.35273,  -0.24058,  -0.22989,  -0.03084
   0.93750,   0.63014,  -0.79544,   0.09356,  -0.27148,   0.16659,   0.33113,  -0.24554,  -0.77008,   0.54439
