  -0.42068,   0.48341,  -0.06835,   0.44559,   0.12782,  -0.23664,  -0.18918,  -0.41671,   0.69599,   0.43689
  -0.02013,   0.87622,  -0.93750,   0.42347,   0.30452,   0.29604,   0.54776,   0.93750,   0.93750,  -0.78347
   0.93750,   0.93750,  -0.08653,   0.36993,  -0.93750,  -0.30893,   0.93750,  -0.01423,   0.93750,   0.93750
  -0.82178,  -0.20903,  -0.22899,   0.33968,  -0.74532,  -0.16260,   0.09580,  -0.26573,  -0.10601,  -0.93750
   0.38833,   0.66560,  -0.36641,  -0.64075,   0.22474,  -0.75296,   0.55294,   0.56518,   0.37676,  -0.70528
  -0.14870,  -0.16656,   0.44806,   0.22986,   0.69470,   0.74472,  -0.51346,  -0.43588,  -0.16578,   0.81333
   0.19650,   0.42943,  -0.85782,   0.27460,   0.07948,  -0.84022,  -0.25009,   0.86427,   0.32386,  -0.88389
   0.23404,  -0.28591,  -0.27728,   0.83204,  -0.45693,   0.93750,   0.27918,   0.23856,  -0.63126,   0.02466
  -0.37244,  -0.63048,   0.93750,  -0.93750,   0.93750,  -0.89173,  -0.58467,  -0.93750,  -0.93750,   0.65654
  -0.40329,   0.93750,  -0.78416,   0.60786,   0.93750,  -0.88772,  -0.39214,  -0.93750,  -0.93750,  -0.80859
  -0.57882,  -0.61355,   0.93750,   0.93750,  -0.69744,   0.93750,  -0.73545,  -0.57030,  -0.08397,  -0.40470
   0.30651,   0.61762,  -0.63096,   0.61330,   0.56021,  -0.56391,  -0.80848,   0.30338,  -0.70167,   0.28437
  -0.16207,   0.75117,  -0.11341,   0.35620,   0.53785,  -0.28197,  -0.11220,   0.82725,  -0.88367,  -0.15148
   0.62980,   0.50864,  -0.57365,  -0.38278,  -0.02355,  -0.30799,  -0.34025,  -0.16246,   0.65789,  -0.85420
   0.75016,   0.93750,   0.80361,   0.13484,   0.81648,   0.39454,  -0.93381,  -0.90441,   0.69516,   0.93750
   0.19341,   0.16323,  -0.90452,  -0.88155,   0.73852,   0.93750,   0.93750,   0.87523,  -0.87167,  -0.19746
  -0.93750,  -0.19615,  -0.93750,   0.93750,  -0.93750,   0.87820,   0.69185,  -0.93750,   0.43548,  -0.30859
  -0.38974,   0.93750,  -0.54941,  -0.59236,  -0.93750,   0.35502,  -0.80201,  -0.74059,   0.23177,  -0.57426
   0.22001,   0.93750,   0.20531,   0.88262,   0.00020,  -0.93750,  -0.38693,  -0.20410,  -0.18368,   0.81827
   0.46137,   0.11825,   0.24909,  -0.08796,  -0.02804,  -0.07164,  -0.23992,   0.50672,  -0.77802,   0.05611
  -0.31773,  -0.87987,   0.79320,  -0.93750,   0.93750,  -0.10866,   0.18347,  -0.79240,   0.67716,   0.87755
  -0.27606,  -0.60834,  -0.43354,   0.51724,  -0.81456,   0.12895,  -0.15264,  -0.93750,   0.16944,  -0.74067
   0.61057,  -0.93750,   0.93750,  -0.63122,   0.93750,   0.89254,  -0.93750,  -0.93750,   0.93750,  -0.29068
  -0.48230,   0.93750,  -0.93750,  -0.09547,   0.23108,  -0.25359,   0.93750,   0.93750,   0.46036,  -0.35561
  -0.47628,   0.66112,   0.74949,  -0.07677,   0.93750,   0.81310,  -0.21551,  -0.47799,   0.67608,  -0.11649
  -0.87185,   0.66156,   0.46078,   0.59498,   0.40716,  -0.18284,  -0.81133,  -0.79592,  -0.22295,  -0.17812
  -0.82586,  -0.78991,  -0.33790,  -0.67124,   0.75963,  -0.10862,  -0.11877,   0.93750,   0.18852,  -0.80989
   0.14533,   0.29718,  -0.40406,   0.83615,  -0.29098,  -0.05858,   0.14259,   0.11567,   0.74290,   0.05063
  -0.93750,  -0.13524,  -0.93750,   0.13014,  -0.93750,  -0.06686,  -0.77226,   0.93750,   0.09126,   0.11944
   0.73393,   0.89169,  -0.38291,  -0.34666,   0.70904,  -0.46912,  -0.54741,  -0.55944,   0.37951,   0.85491
   0.93750,  -0.74822,   0.93750,  -0.64833,  -0.93750,  -0.35163,  -0.74902,   0.59822,  -0.24863,  -0.49216
   0.55750,   0.58434,   0.05492,   0.83609,  -0.03490,   0.13286,   0.93750,  -0.93750,   0.93750,   0.54674
   0.93750,  -0.93750,  -0.06848,  -0.37978,   0.93750,   0.73624,   0.93750,  -0.23576,  -0.20908,  -0.20183
   0.73803,   0.34391,  -0.69052,   0.24025,   0.87951,   0.61025,  -0.57429,  -0.42481,  -0.75522,  -0.77541
   0.22380,  -0.23056,  -0.01405,  -0.29284,   0.93750,   0.16052,   0.93750,   0.81734,   0.88046,  -0.06890
  -0.65036,   0.29535,  -0.93750,  -0.01618,   0.13949,   0.93750,   0.93750,  -0.93750,  -0.27503,   0.93750
   0.56691,   0.87325,   0.87803,  -0.93750,  -0.93750,  -0.13447,   0.00241,  -0.15901,  -0.22222,   0.80598
   0.05288,   0.87874,  -0.56379,  -0.93750,  -0.87998,  -0.93750,   0.59656,   0.76017,   0.93750,   0.60443
  -0.19967,   0.67943,   0.80983,   0.13036,   0.44133,  -0.36437,  -0.93750,  -0.27868,  -0.05767,   0.39509
   0.93750,   0.39826,   0.93750,  -0.41591,   0.20973,  -0.83359,   0.01161,  -0.30528,   0.89100,  -0.11520
   0.93750,  -0.59751,  -0.93750,  -0.51226,   0.19478,  -0.43398,   0.35193,   0.75975,   0.93750,  -0.26528
   0.21753,   0.55656,   0.50540,  -0.69625,   0.74672,  -0.63582,  -0.07712,  -0.57007,  -0.09783,   0.71935
  -0.33976,  -0.11936,  -0.69787,   0.33694,   0.78463,  -0.35592,   0.93750,   0.02652,  -0.61896,   0.93750
   0.93750,   0.82951,   0.67799,   0.27623,   0.93750,  -0.93750,   0.93750,   0.93750,   0.26844,   0.93750
  -0.06044,  -0.05634,  -0.31308,  -0.30639,   0.60013,   0.70137,  -0.92379,   0.93750,   0.76745,   0.39013
  -0.23387,   0.12836,   0.61113,  -0.48431,   0.93750,  -0.01200,   0.15229,  -0.21537,   0.38837,   0.49550
   0.60624,   0.73519,  -0.81883,  -0.87104,   0.93750,   0.93750,  -0.01771,  -0.93750,   0.10000,   0.93316
  -0.60329,  -0.65315,   0.74050,   0.28751,   0.51432,   0.80859,   0.79449,  -0.60539,   0.16797,  -0.73355
   0.22344,   0.73440,  -0.84179,  -0.93750,   0.93750,  -0.52145,   0.75079,   0.93750,  -0.69404,   0.04666
  -0.02735,   0.93750,   0.20752,  -0.29290,   0.26712,   0.01595,  -0.63159,   0.05709,  -0.87029,  -0.87528
  -0.69820,  -0.74935,  -0.16763,  -0.06013,   0.61241,  -0.61415,   0.44358,  -0.69507,   0.30921,   0.67117
   0.06768,   0.36364,  -0.74941,  -0.83661,  -0.81003,  -0.63890,  -0.60145,   0.91313,   0.33820,   0.48658
   0.69641,   0.87113,  -0.92825,   0.14200,  -0.74865,   0.71351,   0.56895,   0.24462,   0.03439,   0.87508
  -0.69472,   0.84735,  -0.83324,   0.36817,   0.06639,  -0.38213,  -0.07518,  -0.86457,  -0.03679,  -0.54903
  -0.66026,   0.00367,  -0.15545,  -0.57361,   0.38579,   0.22244,  -0.17898,   0.46268,  -0.42868,  -0.47802
  -0.23028,   0.93750,  -0.00579,  -0.75109,   0.86655,   0.93750,  -0.87352,   0.93750,   0.15479,   0.10472
  -0.26526,   0.75389,  -0.09862,  -0.69052,  -0.52685,   0.62088,   0.41500,  -0.80492,   0.93750,  -0.46151
  -0.44035,  -0.93750,  -0.92093,  -0.57437,   0.16848,  -0.87768,   0.93750,  -0.93750,   0.93750,  -0.93750
  -0.93750,  -0.05943,   0.09494,  -0.63534,  -0.93750,  -0.43527,  -0.93750,  -0.93750,   0.33034,  -0.93750
  -0.45019,  -0.79768,  -0.93750,  -0.86768,  -0.64848,   0.93750,  -0.65659,  -0.93750,  -0.90707,  -0.09448
  -0.93750,   0.93750,   0.93750,   0.93750,   0.60670,   0.93750,   0.93750,   0.93750,  -0.93750,   0.24394
  -0.93750,   0.22452,  -0.76273,   0.93750,   0.93750,  -0.88144,   0.93750,  -0.62677,   0.20416,  -0.29796
  -0.20332,  -0.00986,   0.47746,  -0.20209,   0.67130,  -0.25900,   0.76697,   0.56011,  -0.34286,   0.37585
   0.67796,  -0.14233,   0.93750,  -0.51590,   0.81341,  -0.09275,   0.42939,  -0.93750,   0.25721,  -0.27078
  -0.48595,  -0.02936,   0.93750,  -0.75528,  -0.69517,  -0.43179,  -0.40578,   0.93750,  -0.17590,   0.03634
  -0.43488,  -0.60256,  -0.70196,  -0.59332,  -0.16306,   0.87461,  -0.39446,   0.73724,   0.91988,   0.16218
  -0.00832,   0.10193,   0.63330,  -0.67817,  -0.07951,   0.22980,  -0.30953,   0.74474,   0.62482,   0.45618
   0.70167,   0.26245,   0.93750,  -0.93750,  -0.20368,   0.61984,   0.67030,  -0.93750,   0.48687,   0.28612
  -0.10852,   0.87799,  -0.75855,  -0.47361,   0.22017,  -0.80504,  -0.22632,   0.93750,  -0.62250,   0.22339
  -0.93750,  -0.12000,   0.93750,   0.26753,   0.56510,  -0.93750,  -0.61271,  -0.93750,  -0.68863,   0.17436
   0.14100,  -0.29428,   0.82602,  -0.40046,   0.64294,   0.21658,   0.49393,  -0.76894,  -0.53293,  -0.18440
   0.93750,   0.78777,   0.92940,  -0.93406,   0.31744,  -0.07910,  -0.88098,  -0.06604,  -0.34201,   0.01948
   0.22626,  -0.93750,  -0.56307,  -0.37565,  -0.93750,  -0.83542,   0.33777,  -0.41369,  -0.93750,   0.93750
  -0.93750,  -0.86640,  -0.93750,   0.93750,  -0.74053,   0.62783,  -0.81495,   0.80698,   0.61815,  -0.93750
  -0.42059,   0.93750,   0.15701,   0.32096,  -0.29672,  -0.38471,   0.36228,  -0.88802,  -0.18031,   0.33518
  -0.30389,   0.93750,   0.03110,  -0.93750,  -0.93750,  -0.64672,   0.27606,   0.78869,   0.17305,  -0.74779
  -0.87024,   0.93750,  -0.65436,  -0.78482,  -0.93750,  -0.80313,   0.75109,   0.66520,   0.31745,   0.08164
  -0.77285,   0.93750,   0.72378,  -0.93750,   0.93750,   0.93750,  -0.24350,   0.93086,   0.08448,  -0.64364
  -0.87282,  -0.06334,   0.52619,   0.93750,  -0.18664,  -0.69062,   0.93750,   0.93750,  -0.20126,   0.56783
   0.89209,  -0.46364,  -0.93750,  -0.75120,  -0.80913,   0.93750,  -0.69426,   0.59402,   0.87338,   0.81626
   0.78162,   0.55533,  -0.14832,  -0.34098,   0.02650,  -0.10292,  -0.17902,  -0.23425,   0.67290,   0.68426
   0.93750,  -0.93750,  -0.07478,  -0.93750,  -0.93750,  -0.93750,   0.93750,  -0.88087,  -0.75088,  -0.93750
   0.37627,   0.69520,  -0.53688,  -0.09322,   0.85294,  -0.59312,  -0.43076,  -0.67691,   0.56324,  -0.81130
   0.31417,  -0.79715,   0.65058,  -0.31143,   0.93750,  -0.46823,   0.39171,  -0.69135,   0.48931,  -0.34056
   0.31001,   0.55267,  -0.74761,  -0.37492,   0.45019,  -0.55792,   0.93750,  -0.42582,   0.20185,  -0.74812
   0.60629,  -0.93750,  -0.38848,   0.93750,   0.93750,   0.93750,  -0.81881,   0.89154,  -0.69097,  -0.88236
   0.28752,   0.68322,  -0.38800,  -0.63794,   0.23235,  -0.70011,   0.44373,  -0.32332,  -0.54875,  -0.49465
  -0.72904,   0.71312,   0.17266,  -0.60975,   0.86135,  -0.13428,   0.01306,  -0.44576,   0.24725,   0.03292
   0.42054,   0.65794,  -0.93750,   0.93750,  -0.33543,  -0.93750,  -0.93750,   0.93750,   0.93750,  -0.93750
   0.81559,   0.21316,  -0.27616,   0.70749,  -0.32443,  -0.74189,   0.78703,  -0.63302,   0.22899,  -0.92193
  -0.93750,   0.93750,   0.86887,  -0.93750,   0.82287,  -0.75257,  -0.22807,   0.93750,  -0.50725,  -0.83636
   0.88143,   0.29770,   0.39414,   0.59437,  -0.93750,  -0.93750,   0.81471,   0.73928,   0.93750,  -0.23450
  -0.19772,   0.93750,  -0.87211,  -0.65729,  -0.93750,  -0.50335,  -0.80482,   0.90251,  -0.87188,  -0.50455
   0.22261,  -0.54784,  -0.08634,  -0.82372,   0.69822,  -0.89313,  -0.33130,  -0.62404,   0.65610,   0.93750
  -0.79061,   0.91236,  -0.10533,   0.36592,  -0.26288,  -0.73398,  -0.09190,   0.13412,  -0.50323,   0.02709
   0.87045,   0.46430,  -0.40060,  -0.01768,   0.93750,  -0.57694,  -0.16534,  -0.93750,  -0.57711,  -0.12328
  -0.93750,   0.15018,   0.93750,   0.29249,  -0.93750,   0.79572,  -0.54450,  -0.92157,  -0.93750,   0.30777
  -0.20354,  -0.38861,   0.14112,   0.28892,   0.33151,   0.12870,   0.29618,  -0.50366,  -0.57250,   0.29634
  -0.60277,   0.93750,   0.92228,  -0.73144,   0.57097,   0.01056,  -0.75546,  -0.73791,  -0.03476,  -0.81657
  -0.75595,   0.44532,  -0.18441,   0.93750,  -0.43436,   0.82664,   0.09335,  -0.80353,   0.81623,  -0.52497
  -0.53614,   0.10792,   0.25594,  -0.03586,   0.45956,  -0.87031,  -0.87755,   0.10629,  -0.75865,  -0.67487
  -0.93750,  -0.57765,   0.93750,   0.93750,  -0.74706,   0.66704,  -0.93750,   0.93750,  -0.09769,  -0.73343
  -0.74728,  -0.93750,   0.92330,  -0.93750,  -0.66235,   0.93750,  -0.87151,  -0.37705,   0.20420,   0.93750
  -0.54040,   0.76833,   0.75720,  -0.93750,  -0.93750,  -0.02688,  -0.05209,   0.06661,  -0.67720,  -0.45420
   0.82425,   0.21806,  -0.86130,  -0.89559,   0.64460,  -0.60610,   0.38509,  -0.27801,  -0.87510,   0.80621
   0.41271,   0.47945,  -0.93750,  -0.63164,   0.22339,   0.06383,   0.93750,  -0.53489,  -0.93750,   0.45562
   0.01158,  -0.33684,   0.12840,   0.27524,   0.93750,  -0.93750,   0.56378,  -0.93750,  -0.93750,   0.42637
   0.55782,   0.00242,   0.70452,  -0.93750,  -0.28292,   0.01058,  -0.63184,   0.93750,  -0.00939,   0.40039
   0.93750,  -0.93750,   0.75410,  -0.47030,   0.87688,   0.13633,  -0.20452,   0.22057,  -0.86744,   0.21851
   0.92966,   0.02893,  -0.37793,   0.84101,   0.87458,  -0.08640,  -0.93750,  -0.42422,   0.87308,  -0.88618
  -0.00013,  -0.47565,  -0.75703,  -0.76243,   0.55123,   0.04435,   0.93750,   0.82751,  -0.73010,   0.82245
   0.82764,  -0.79871,   0.19041,  -0.14516,  -0.32433,  -0.80968,  -0.75918,  -0.78756,  -0.49778,   0.81540
  -0.88527,   0.93750,  -0.93750,   0.47627,   0.93750,  -0.93750,   0.27610,   0.93750,   0.68663,  -0.36135
   0.93750,   0.05292,   0.37900,   0.93750,  -0.08213,  -0.44228,   0.93750,  -0.93750,   0.47621,  -0.13603
   0.55576,   0.44295,  -0.00599,  -0.59494,  -0.22150,  -0.52187,  -0.31706,  -0.81211,   0.28891,   0.91636
  -0.29042,   0.61830,  -0.62072,   0.87671,   0.57598,   0.28654,   0.29510,  -0.42985,   0.89138,  -0.32761
   0.71524,   0.80012,  -0.00009,   0.17025,   0.89416,  -0.19036,   0.39756,  -0.42076,   0.04738,  -0.37258
   0.87720,  -0.74797,  -0.73153,   0.32869,  -0.17082,   0.75436,   0.85765,   0.51093,   0.64521,  -0.79956
   0.93750,  -0.93750,   0.43786,   0.77504,  -0.93750,   0.06575,   0.93750,  -0.80602,  -0.48205,   0.31863
   0.80207,  -0.00734,   0.40871,   0.42823,   0.03325,  -0.44308,  -0.83708,   0.15110,  -0.80976,  -0.64254
  -0.04566,   0.93750,  -0.87767,   0.49755,   0.43902,  -0.80218,   0.67979,   0.93750,   0.47499,  -0.80192
  -0.39699,  -0.03856,   0.93750,  -0.40902,   0.45999,  -0.88355,  -0.56193,  -0.67939,  -0.73147,   0.93750
   0.93750,   0.93750,  -0.74447,  -0.93750,   0.09400,  -0.93750,   0.93750,   0.80694,   0.86804,   0.86630
  -0.93750,  -0.32286,   0.26447,  -0.93750,  -0.93750,  -0.90261,  -0.88399,  -0.06744,  -0.75496,   0.93750
  -0.93750,  -0.62161,   0.93750,   0.03295,  -0.21193,   0.09749,   0.13194,   0.87241,  -0.93750,   0.81195
  -0.81047,  -0.80000,  -0.93750,   0.93750,   0.03212,  -0.37211,   0.93750,   0.10959,   0.93750,  -0.38948
  -0.53349,   0.81033,   0.60285,   0.56685,  -0.89247,   0.27686,   0.10397,  -0.48082,   0.02886,  -0.52833
   0.41793,  -0.21451,  -0.12951,  -0.03021,   0.24491,  -0.53777,  -0.51121,  -0.03876,   0.82648,  -0.52537
   0.72145,   0.00101,   0.20044,  -0.30685,   0.42375,   0.33831,   0.34139,  -0.36206,   0.44073,  -0.27549
   0.93750,   0.36901,   0.05091,   0.93750,   0.93750,  -0.93750,   0.93750,  -0.93750,  -0.93750,   0.93750
   0.69098,  -0.87370,  -0.12916,   0.86816,   0.91410,  -0.81380,  -0.43806,  -0.44836,   0.37312,  -0.73013
   0.15980,  -0.02951,  -0.93750,  -0.93750,  -0.63215,   0.53065,   0.93750,   0.48796,   0.81597,   0.44598
  -0.37942,   0.09038,   0.81767,  -0.54123,  -0.93750,   0.90186,  -0.93750,  -0.93750,   0.55721,  -0.61538
   0.93750,   0.11818,  -0.93750,  -0.93063,   0.51510,  -0.74761,  -0.85874,   0.39799,   0.54201,   0.17720
  -0.60347,   0.15802,   0.16581,  -0.87676,   0.22646,  -0.46337,   0.48038,  -0.34671,  -0.33474,  -0.46511
   0.93750,   0.44757,  -0.90936,  -0.88557,   0.85830,  -0.44255,   0.75714,   0.93750,   0.66834,  -0.93750
   0.15894,   0.13650,  -0.22661,   0.64937,  -0.62478,   0.22130,  -0.72217,  -0.20542,   0.13641,  -0.36792
  -0.06813,   0.63344,  -0.93750,   0.84147,  -0.57392,   0.69421,  -0.93750,  -0.16330,   0.31909,  -0.93750
  -0.36266,   0.49675,  -0.93750,   0.28132,  -0.47675,  -0.44045,   0.93750,  -0.69061,   0.93750,  -0.30966
   0.11756,  -0.56154,  -0.70813,   0.93750,   0.16717,  -0.02206,  -0.08044,   0.93750,  -0.25508,   0.05904
   0.08080,  -0.05251,   0.76317,   0.93750,   0.48670,   0.77381,  -0.93750,   0.93750,   0.93750,   0.07825
   0.93750,   0.68444,  -0.52717,   0.71444,   0.46540,   0.39079,   0.04662,  -0.80577,  -0.82537,  -0.69555
   0.42171,  -0.11994,   0.80359,   0.45691,  -0.09284,   0.44138,   0.11260,  -0.42580,  -0.46645,  -0.14852
  -0.12079,   0.75103,  -0.18394,  -0.40810,  -0.51030,  -0.18838,   0.05812,   0.01634,   0.20817,   0.56746
   0.93499,  -0.59115,   0.04350,   0.21389,  -0.52764,  -0.64776,   0.41034,  -0.36803,   0.69269,  -0.63505
   0.41653,   0.68269,   0.93750,  -0.48111,   0.87187,   0.33016,  -0.11883,  -0.90859,  -0.93750,   0.24903
  -0.58616,   0.21837,   0.93750,  -0.00637,   0.93750,  -0.74905,  -0.37793,   0.77622,   0.15028,   0.93750
  -0.66959,  -0.68583,  -0.16487,  -0.69522,   0.62493,  -0.35278,  -0.83513,  -0.55145,   0.93750,  -0.20294
   0.67736,  -0.36183,  -0.58370,   0.93750,  -0.81391,  -0.05299,   0.93750,  -0.28197,  -0.87699,  -0.70724
   0.86456,  -0.93750,   0.54520,  -0.93750,  -0.77059,   0.60190,   0.80668,  -0.93750,   0.31787,   0.93750
  -0.24511,  -0.60984,  -0.55400,   0.55743,   0.03410,   0.08395,   0.66236,   0.71915,  -0.03040,  -0.08209
  -0.00253,   0.93750,  -0.14376,   0.42491,  -0.01487,  -0.07497,   0.17252,   0.45569,   0.53342,  -0.54668
  -0.70627,  -0.45410,  -0.74923,  -0.53791,   0.12708,   0.55673,   0.00283,   0.32804,   0.12977,   0.23685
  -0.93750,   0.93750,  -0.93750,   0.93750,   0.93750,   0.93750,  -0.70922,   0.22346,  -0.37344,   0.93750
   0.37077,  -0.15785,  -0.87026,   0.36310,   0.88013,  -0.93750,   0.87500,  -0.53918,   0.48528,  -0.74533
  -0.09043,   0.74843,   0.41544,   0.93750,   0.25841,   0.53974,   0.75534,  -0.93750,  -0.48321,   0.93750
  -0.14019,   0.76826,   0.36002,   0.74483,   0.03717,   0.33519,  -0.14870,   0.64357,   0.52746,  -0.69375
   0.36705,   0.56323,   0.20217,  -0.49792,  -0.15313,  -0.05168,   0.02236,  -0.07169,   0.88526,   0.18121
   0.58563,   0.93750,   0.87796,  -0.50053,   0.55558,   0.49597,  -0.58002,   0.56365,  -0.55893,  -0.12950
   0.58397,   0.86692,  -0.69199,  -0.34550,   0.93750,  -0.43085,  -0.88591,   0.87386,   0.93750,  -0.22428
   0.81171,   0.77620,  -0.88002,  -0.12230,  -0.32407,  -0.31186,  -0.04955,   0.39267,   0.11663,   0.36066
  -0.06196,  -0.58166,   0.28062,  -0.70425,   0.14384,  -0.62278,   0.93750,   0.02401,  -0.81538,   0.02551
   0.57204,  -0.93750,   0.93750,  -0.33469,   0.93750,   0.71671,  -0.63386,  -0.27194,  -0.86446,  -0.93750
   0.62164,  -0.30628,  -0.56701,   0.32989,   0.56402,   0.26442,   0.61505,  -0.20752,   0.93750,   0.93750
  -0.39698,  -0.29572,  -0.93750,   0.87033,  -0.41179,  -0.37689,   0.68613,   0.29961,   0.36530,   0.36585
   0.93750,   0.93750,   0.58366,   0.41872,   0.26334,   0.87441,  -0.82542,   0.91073,  -0.81046,  -0.10543
  -0.63509,   0.77942,   0.16340,  -0.62306,   0.29707,  -0.01391,   0.52126,  -0.63279,  -0.82294,   0.87941
   0.54092,   0.93750,  -0.50155,   0.49034,  -0.40365,  -0.87532,   0.36050,  -0.05156,  -0.28444,   0.45573
  -0.57723,  -0.32097,   0.93750,   0.88179,   0.75337,  -0.82215,  -0.41893,  -0.28259,  -0.84960,  -0.20954
  -0.68223,   0.79307,   0.37797,  -0.64523,   0.15430,   0.44349,  -0.93750,   0.87567,   0.71057,  -0.93750
   0.93750,  -0.25551,  -0.89736,  -0.48578,   0.93750,  -0.93750,  -0.16015,  -0.87280,  -0.75850,  -0.74430
   0.50660,   0.11685,  -0.58482,   0.81399,   0.00100,  -0.93750,  -0.43443,   0.87911,   0.82089,  -0.17264
  -0.77109,  -0.39907,  -0.38150,   0.20752,   0.69249,   0.77764,  -0.82239,   0.70735,   0.28182,   0.08416
   0.65008,  -0.23160,   0.09940,   0.18175,  -0.41518,   0.78140,  -0.30762,  -0.32616,  -0.25534,   0.29603
  -0.93750,   0.00775,  -0.56064,   0.93750,  -0.93750,  -0.85441,   0.93750,   0.24004,   0.93750,   0.46666
   0.24230,   0.87864,   0.19756,   0.40651,  -0.80959,  -0.88084,   0.58894,  -0.00733,   0.42990,  -0.87292
  -0.36999,  -0.34641,  -0.22139,   0.21668,   0.08524,  -0.93750,   0.92325,   0.26988,   0.93750,   0.75057
  -0.60547,   0.14375,   0.59180,   0.15650,   0.93750,  -0.78441,  -0.04304,   0.70132,   0.93750,   0.14610
   0.81966,   0.67379,  -0.23261,   0.23056,  -0.17120,   0.25431,  -0.25706,   0.68975,   0.87910,  -0.50689
  -0.42667,  -0.13126,   0.40452,  -0.49938,   0.45450,  -0.35390,  -0.93750,   0.76466,  -0.27914,   0.62329
  -0.38225,  -0.30677,   0.80583,  -0.16359,   0.00480,   0.39355,   0.35315,   0.77384,  -0.26327,   0.42345
   0.81128,  -0.23440,   0.93508,   0.37185,   0.91642,   0.46063,   0.88322,  -0.81044,  -0.92896,  -0.37889
   0.07023,  -0.88517,  -0.61337,   0.66829,  -0.38953,  -0.16666,   0.35241,  -0.26944,  -0.72930,   0.02175
  -0.74379,  -0.93750,   0.00801,  -0.93750,   0.93750,  -0.38001,   0.16881,   0.60886,   0.70660,   0.30203
   0.09187,   0.43242,   0.19385,   0.21070,  -0.14901,   0.43792,   0.61100,   0.24247,   0.84555,  -0.06274
  -0.75095,  -0.33433,   0.59474,   0.93750,  -0.93750,  -0.82526,   0.15636,   0.93750,   0.30671,   0.93750
  -0.87962,  -0.42857,  -0.25903,  -0.68370,  -0.46340,   0.93750,  -0.76172,  -0.40158,   0.35101,  -0.84173
  -0.69694,  -0.87203,  -0.23646,   0.51969,  -0.60247,  -0.24065,   0.74956,  -0.40547,   0.88024,   0.86810
   0.82067,   0.93750,   0.92454,   0.01762,  -0.37488,   0.14346,   0.79268,   0.31559,   0.93750,  -0.23553
  -0.06980,  -0.82054,   0.28668,  -0.71328,  -0.81562,   0.28345,  -0.21904,  -0.12602,  -0.08168,  -0.80101
  -0.86737,  -0.18866,  -0.93750,  -0.28613,   0.38979,  -0.82828,   0.03319,   0.57699,   0.93750,   0.64624
  -0.43074,   0.59794,   0.10403,   0.93750,  -0.37189,  -0.08323,  -0.38182,   0.15342,  -0.31538,   0.48474
   0.35553,  -0.09775,  -0.26199,  -0.56958,  -0.61116,   0.87620,  -0.49067,   0.41355,  -0.75574,   0.87822
   0.93750,   0.93750,   0.40268,   0.02168,   0.90973,  -0.90668,  -0.87518,  -0.66713,   0.18692,  -0.69249
  -0.38832,   0.67308,  -0.29978,  -0.52091,  -0.73224,   0.93750,   0.71234,  -0.04046,   0.16838,   0.16413
   0.87947,   0.93750,   0.53078,   0.93750,  -0.45078,  -0.87013,  -0.04048,  -0.17913,  -0.29007,  -0.93750
  -0.53225,  -0.63661,   0.93750,   0.93750,   0.81024,  -0.33139,  -0.06315,  -0.69025,  -0.93750,  -0.41687
   0.47489,   0.57655,   0.10473,  -0.86966,  -0.75623,  -0.02816,  -0.87562,   0.45116,   0.49974,   0.88250
  -0.61921,   0.45120,  -0.41763,   0.53179,   0.63058,  -0.00063,   0.20148,   0.22983,   0.12304,  -0.93750
  -0.36402,  -0.46238,   0.38027,   0.27838,   0.51063,   0.54694,  -0.45052,   0.38319,  -0.18718,  -0.66538
   0.03487,   0.14375,   0.56722,  -0.18482,  -0.56191,   0.81051,   0.66290,   0.12745,   0.23066,   0.86639
   0.28415,   0.03531,   0.60395,  -0.09644,   0.40194,  -0.30112,   0.93750,  -0.58165,   0.93138,   0.06526
   0.28734,  -0.58009,   0.27376,  -0.92874,   0.87403,   0.93750,  -0.93750,  -0.33957,  -0.13613,  -0.36147
  -0.76216,   0.62953,  -0.05819,   0.87703,   0.36691,   0.19198,  -0.57495,  -0.73604,  -0.10611,  -0.36063
  -0.89228,   0.53559,   0.88836,  -0.62831,   0.36587,  -0.39923,   0.68348,  -0.55131,  -0.59169,  -0.62450
   0.31951,   0.73451,   0.47363,  -0.13015,   0.07949,   0.02977,   0.67641,  -0.68357,   0.12609,   0.06001
   0.17129,   0.93750,   0.56417,  -0.93750,   0.93750,  -0.93750,   0.33875,   0.93750,  -0.53844,  -0.93750
  -0.19721,  -0.93006,   0.75307,  -0.89428,  -0.87159,  -0.93750,  -0.75011,  -0.87771,   0.93750,  -0.75385
  -0.80495,  -0.93750,   0.58104,   0.18765,   0.93750,   0.57532,   0.65339,   0.29471,  -0.39080,   0.93750
  -0.68258,  -0.15817,  -0.41238,   0.91040,  -0.23490,  -0.42116,   0.76205,   0.67006,   0.92714,   0.20303
  -0.54486,   0.05261,  -0.79620,   0.61512,  -0.75266,   0.60539,   0.86719,   0.37306,  -0.02576,   0.93750
   0.65735,   0.79413,   0.36212,  -0.33026,  -0.53285,  -0.02857,  -0.40518,  -0.44895,  -0.57689,   0.41739
   0.93750,   0.78863,  -0.93750,  -0.93750,   0.41654,   0.13876,   0.93750,   0.93750,  -0.93750,   0.93750
   0.30484,  -0.14788,   0.77412,   0.23584,   0.10033,   0.12875,  -0.48023,   0.62984,   0.08897,   0.50548
   0.92867,  -0.87618,   0.93750,   0.93750,   0.15432,   0.46759,  -0.50076,   0.32292,  -0.11874,   0.12313
  -0.43983,  -0.63844,   0.80744,   0.00191,   0.74214,  -0.63338,   0.43124,  -0.71115,  -0.93750,   0.93750
  -0.53640,  -0.93750,  -0.93750,  -0.89633,   0.06114,  -0.14464,   0.42885,   0.46930,  -0.60201,  -0.10841
   0.20953,   0.91855,  -0.78110,   0.18196,  -0.26422,  -0.15448,   0.89848,   0.12316,   0.21788,  -0.53828
   0.17357,   0.56874,  -0.19087,  -0.60041,  -0.19610,  -0.78657,  -0.02852,  -0.38102,  -0.35289,   0.93750
   0.74163,  -0.48179,  -0.72132,  -0.08073,  -0.81635,   0.74537,  -0.18583,  -0.82875,   0.93750,   0.69963
   0.93750,   0.87590,   0.52646,  -0.93750,  -0.24345,  -0.93750,  -0.59420,   0.63552,   0.93750,  -0.88753
   0.93750,  -0.14746,   0.06089,   0.93750,   0.93750,  -0.93750,   0.93750,   0.88196,   0.18689,   0.73380
  -0.86081,  -0.93750,   0.63553,  -0.93750,  -0.13817,   0.93750,  -0.83561,   0.93750,   0.00129,  -0.88038
  -0.73006,   0.77208,   0.08665,  -0.61005,  -0.78056,   0.35628,   0.37512,  -0.49848,  -0.51010,   0.81329
  -0.36793,   0.58355,  -0.80390,   0.05928,   0.51907,  -0.79044,  -0.12720,  -0.74906,  -0.33393,  -0.93750
   0.70390,   0.77638,   0.86676,  -0.57050,   0.93750,  -0.90568,   0.28390,   0.78717,  -0.17764,  -0.68910
   0.21777,  -0.17070,   0.28791,   0.56904,   0.13831,  -0.64998,   0.68423,  -0.31637,  -0.31610,   0.57663
  -0.93750,   0.93750,  -0.88660,  -0.93750,  -0.60508,   0.91669,   0.00748,   0.93750,  -0.28381,  -0.75967
   0.08604,  -0.88159,  -0.78355,  -0.88462,  -0.93750,  -0.70514,   0.51293,  -0.01758,   0.12637,   0.88209
  -0.56762,   0.43495,   0.39372,  -0.26145,  -0.93750,   0.85269,   0.93750,  -0.54544,   0.14128,   0.22372
   0.30442,   0.00967,  -0.57191,   0.11154,  -0.36290,   0.93750,   0.05355,   0.87383,   0.15951,   0.23417
  -0.34862,  -0.45827,  -0.93750,   0.93750,   0.86893,   0.11452,  -0.17807,  -0.53351,  -0.11577,  -0.18559
  -0.32895,  -0.18932,   0.03001,   0.93750,  -0.69868,   0.75840,   0.93750,  -0.84620,  -0.93750,   0.93750
   0.93750,   0.70848,   0.54659,  -0.20380,  -0.24661,   0.38752,   0.93750,  -0.88244,   0.05992,  -0.61004
  -0.93750,  -0.16298,   0.49079,   0.93750,   0.93750,  -0.00479,  -0.16351,   0.93750,  -0.78124,  -0.30585
   0.66309,   0.93750,   0.93750,   0.19433,   0.93750,   0.87539,   0.68968,  -0.93457,  -0.27759,  -0.93750
   0.15613,   0.55480,  -0.63445,  -0.51114,   0.93750,   0.41044,  -0.64170,   0.65955,  -0.93750,  -0.56007
   0.52983,  -0.20524,   0.23424,  -0.38430,   0.75906,   0.61816,  -0.61468,   0.67111,  -0.42819,  -0.42941
  -0.32659,  -0.53317,   0.16998,  -0.59234,   0.34508,   0.28095,  -0.46686,   0.12616,   0.43392,   0.86424
   0.93750,   0.08197,  -0.19576,  -0.93750,   0.35223,   0.93750,   0.93516,  -0.55633,   0.93750,   0.58979
  -0.38786,  -0.37560,  -0.63011,   0.62153,   0.74086,   0.59262,   0.87118,  -0.43722,  -0.01283,  -0.65829
   0.24240,   0.56667,  -0.02983,  -0.49614,  -0.49759,   0.29277,   0.38929,  -0.12562,  -0.31158,   0.83054
  -0.26034,  -0.16038,   0.39440,  -0.67854,  -0.50228,   0.45758,   0.16560,   0.43569,  -0.21055,   0.61216
   0.61253,   0.61310,  -0.83151,  -0.48551,   0.67772,  -0.03981,   0.50355,  -0.08903,   0.15995,  -0.50143
  -0.22976,   0.19068,  -0.76407,  -0.93750,  -0.22927,   0.89368,  -0.68314,  -0.57089,   0.93750,   0.93750
   0.88475,  -0.68753,  -0.24086,   0.88210,   0.44908,  -0.72336,  -0.77797,   0.67533,  -0.27636,  -0.69653
   0.93750,   0.00025,  -0.11642,  -0.43649,   0.84290,  -0.07272,   0.17803,  -0.93750,   0.20433,   0.07879
   0.80521,  -0.61104,  -0.15948,   0.93750,  -0.93750,  -0.42296,   0.93750,  -0.81158,   0.74793,  -0.44305
   0.24917,   0.73944,  -0.93750,   0.93750,   0.27625,  -0.90799,  -0.02008,   0.85057,  -0.62504,  -0.93750
   0.46497,   0.93750,  -0.86923,   0.34527,   0.93750,  -0.21814,   0.42509,  -0.12308,   0.65330,  -0.87027
   0.88393,   0.25563,   0.00304,  -0.75780,   0.68590,  -0.93750,  -0.50548,   0.22884,  -0.80892,   0.93750
   0.56586,  -0.93750,   0.86808,  -0.48228,   0.26147,   0.78561,  -0.47223,  -0.93750,  -0.93750,   0.61482
   0.85923,  -0.80708,  -0.36776,  -0.45064,   0.16062,  -0.80203,   0.93750,  -0.93750,   0.87882,   0.93750
   0.87195,   0.03917,  -0.01070,   0.04025,   0.74858,  -0.43046,   0.34571,  -0.75622,  -0.81379,   0.37815
   0.36882,  -0.32912,  -0.65942,   0.87977,   0.88441,  -0.23589,  -0.49191,  -0.02692,   0.36593,  -0.15213
   0.13876,  -0.89176,  -0.75967,   0.48059,   0.84805,   0.93750,   0.93750,  -0.69093,  -0.88897,  -0.93750
   0.37871,  -0.18163,  -0.43566,   0.34513,  -0.68488,   0.34882,  -0.22944,   0.86646,  -0.11988,   0.31671
   0.64936,   0.65121,   0.28614,  -0.11342,   0.62374,  -0.79710,  -0.52861,  -0.05995,  -0.49726,   0.21209
   0.93750,  -0.88437,  -0.93750,   0.93750,   0.93750,   0.93750,  -0.48510,   0.93750,   0.67975,   0.68061
  -0.50349,   0.43086,  -0.11233,  -0.18412,  -0.50755,  -0.28003,  -0.07285,  -0.18848,  -0.54764,   0.18984
   0.78692,   0.48558,   0.38133,  -0.28984,  -0.31954,  -0.39191,  -0.38769,   0.86472,  -0.37884,   0.52791
  -0.55204,  -0.08459,  -0.74735,  -0.82777,   0.93750,   0.19881,   0.93750,   0.93750,  -0.51598,  -0.34111
   0.68847,  -0.93750,   0.93750,  -0.72455,  -0.93750,   0.93750,   0.00445,  -0.93750,  -0.60688,  -0.66187
   0.35434,  -0.34799,   0.39182,   0.73287,   0.87508,  -0.39908,   0.27904,   0.69673,   0.40617,  -0.26446
  -0.28330,  -0.42075,  -0.74892,  -0.20459,   0.03700,  -0.65610,   0.53065,   0.56510,   0.31970,  -0.87500
  -0.73476,  -0.87181,  -0.87578,   0.55845,   0.88308,  -0.87446,  -0.74090,  -0.87269,  -0.68778,   0.88287
  -0.10605,  -0.39002,   0.09260,  -0.61252,   0.76770,  -0.31420,   0.57983,   0.64865,   0.15823,   0.18344
   0.00979,  -0.43207,   0.37033,  -0.47502,  -0.05188,  -0.42293,  -0.47737,   0.93750,  -0.68287,   0.82257
  -0.15974,   0.37116,   0.76345,   0.53006,  -0.54086,  -0.93750,  -0.82764,   0.53511,  -0.81002,  -0.93750
   0.51508,  -0.47625,  -0.92303,   0.66516,  -0.93750,  -0.93750,   0.93750,  -0.87037,   0.69541,   0.86550
  -0.93750,  -0.85420,  -0.77000,   0.93750,   0.87921,   0.87582,   0.86755,   0.18337,   0.93750,  -0.93750
  -0.31382,   0.10412,   0.90607,   0.54669,  -0.44992,   0.81954,  -0.77080,   0.38315,  -0.58760,  -0.09921
   0.17482,  -0.27745,   0.30575,  -0.09444,   0.01039,   0.59401,  -0.15179,   0.81647,  -0.78367,   0.24104
   0.31128,  -0.14020,   0.93750,   0.48450,  -0.93750,   0.79388,   0.01169,  -0.93750,   0.33081,   0.24528
   0.74958,   0.65556,  -0.93750,   0.60770,   0.00122,  -0.31787,   0.93750,   0.58159,   0.93750,   0.59808
  -0.93750,   0.87614,   0.58277,  -0.93750,  -0.87626,   0.75815,  -0.87288,   0.93750,  -0.73915,   0.73054
  -0.93750,   0.93750,  -0.81874,   0.93750,   0.22183,  -0.88145,  -0.72564,   0.93750,  -0.46608,  -0.93750
  -0.71971,  -0.48903,  -0.71335,   0.40187,   0.19822,  -0.62816,   0.09476,  -0.61377,  -0.28018,   0.93750
  -0.57869,  -0.08950,  -0.01398,  -0.37071,  -0.16860,  -0.62507,  -0.29544,   0.24147,   0.56438,   0.80538
   0.40954,   0.06867,   0.61126,   0.65667,   0.59991,   0.19802,   0.48944,   0.55715,   0.14252,   0.23076
   0.70274,  -0.15631,  -0.87292,   0.53883,  -0.93750,   0.93750,   0.93750,   0.13246,  -0.93750,   0.26629
  -0.93750,   0.93750,   0.22552,   0.93750,   0.93750,   0.93750,   0.93750,  -0.33786,   0.86710,   0.62985
   0.67369,  -0.31880,  -0.91774,  -0.69625,   0.27136,  -0.93750,   0.29216,  -0.29730,   0.54386,   0.81333
   0.69995,   0.04762,   0.73106,  -0.80889,   0.81239,  -0.47804,   0.13173,  -0.65984,  -0.50390,  -0.44819
  -0.64470,  -0.15797,   0.38564,   0.35538,  -0.03137,  -0.22942,   0.68083,   0.02805,  -0.35915,   0.89297
  -0.93750,  -0.93750,  -0.88181,  -0.93750,  -0.14782,   0.18068,   0.66932,   0.08357,   0.32658,  -0.93750
  -0.26800,   0.30705,  -0.93750,  -0.84346,   0.45273,   0.93750,   0.69206,  -0.47398,  -0.93750,  -0.93750
   0.60458,  -0.28363,   0.80539,  -0.87967,  -0.77338,   0.93750,  -0.61103,  -0.93750,   0.81974,  -0.52335
   0.20762,   0.50861,   0.67107,  -0.54980,  -0.27794,   0.01916,   0.35460,  -0.15176,   0.61216,  -0.18941
  -0.69321,   0.31692,  -0.87489,   0.29134,   0.63715,  -0.42345,   0.49518,  -0.93750,   0.47145,   0.40820
   0.92445,   0.20806,   0.44626,   0.05690,  -0.30512,   0.17781,   0.35779,  -0.32450,  -0.57148,  -0.16775
  -0.41760,   0.73435,   0.59958,  -0.93750,   0.16819,  -0.83210,   0.59924,  -0.93750,  -0.93750,  -0.93750
   0.03941,   0.31179,   0.87465,   0.88923,  -0.76025,   0.16145,   0.88648,  -0.79837,  -0.93750,  -0.81865
  -0.01783,   0.93750,   0.93750,   0.93750,   0.93750,  -0.93750,   0.88457,   0.93750,   0.86256,  -0.93750
  -0.93750,  -0.88218,  -0.86541,   0.80063,   0.93750,   0.93750,   0.27795,  -0.16736,  -0.39423,   0.07808
  -0.16786,   0.93750,   0.47318,  -0.93750,   0.25256,  -0.83839,  -0.16829,   0.93750,  -0.86239,   0.93750
   0.46560,  -0.14306,   0.81983,  -0.87711,   0.56044,  -0.45650,   0.73757,   0.87061,   0.78383,  -0.68933
   0.79451,   0.86937,  -0.75672,   0.03236,   0.62480,   0.22078,   0.82274,  -0.00609,   0.93750,  -0.87029
  -0.29074,   0.67881,   0.16294,  -0.45808,   0.01101,  -0.09398,   0.26224,  -0.30359,  -0.86119,   0.73878
   0.35434,   0.85157,   0.09379,  -0.73092,  -0.70590,   0.64559,  -0.26702,   0.39137,   0.64448,  -0.13916
  -0.01860,  -0.00267,   0.93750,  -0.84386,   0.14503,   0.40811,   0.93750,  -0.87386,  -0.88446,   0.93750
  -0.79408,  -0.93750,  -0.03337,  -0.26323,  -0.57276,   0.67882,   0.01398,   0.67568,  -0.37547,   0.07332
   0.93750,  -0.57285,   0.18523,  -0.48587,  -0.84939,  -0.88048,   0.76454,   0.68922,  -0.81308,  -0.50485
  -0.93750,   0.45946,   0.93750,  -0.64265,  -0.65375,  -0.50823,  -0.79128,  -0.93750,  -0.11069,  -0.93750
  -0.17384,  -0.20152,  -0.46559,   0.19908,   0.81183,   0.55369,   0.08697,  -0.54610,  -0.23384,   0.76197
   0.72665,  -0.44609,   0.74021,   0.72519,  -0.41950,   0.32833,   0.17536,  -0.69515,  -0.59937,   0.72634
  -0.93750,  -0.52655,   0.49470,  -0.82223,  -0.93750,   0.81528,  -0.93750,   0.83292,   0.74844,   0.61150
   0.07112,  -0.38786,   0.36260,  -0.87775,   0.93750,  -0.93750,   0.93750,  -0.93750,   0.93750,   0.43016
  -0.64356,  -0.93750,  -0.38656,  -0.93750,  -0.93750,  -0.87231,  -0.93750,  -0.87002,   0.12297,  -0.93750
   0.18755,   0.50316,   0.02503,  -0.63556,  -0.93750,  -0.93750,  -0.87502,   0.93750,   0.74440,   0.05463
  -0.87318,   0.52215,   0.93750,  -0.93731,  -0.83213,  -0.42157,   0.58755,   0.81110,  -0.63901,  -0.72147
   0.93750,  -0.93750,  -0.90616,   0.73825,  -0.61233,  -0.00461,   0.93750,  -0.50711,  -0.93750,   0.75763
  -0.41953,   0.28159,   0.87514,   0.93750,   0.04359,  -0.49121,   0.86670,   0.83172,   0.65052,  -0.54295
  -0.61133,  -0.44034,  -0.45363,   0.83042,   0.36955,   0.75913,  -0.25303,  -0.57876,   0.36527,   0.14305
   0.87238,  -0.32914,   0.82541,  -0.80486,  -0.88472,   0.52465,   0.93750,   0.93750,   0.87416,   0.06426
  -0.88014,   0.17066,  -0.87463,  -0.32580,   0.93750,  -0.93750,  -0.35464,  -0.66049,  -0.87061,   0.88119
  -0.46792,   0.88143,   0.25735,   0.58786,  -0.06269,  -0.23734,   0.26657,   0.15645,  -0.48126,  -0.44771
   0.24066,   0.54494,  -0.26685,  -0.50861,  -0.25804,   0.13988,  -0.24600,   0.88137,   0.60798,  -0.67048
   0.16835,   0.32400,  -0.02610,   0.13812,  -0.18488,  -0.23566,   0.11219,   0.66831,  -0.01427,   0.52884
  -0.79130,  -0.21015,   0.60344,  -0.29908,  -0.09992,   0.81560,  -0.82110,   0.12396,   0.46776,  -0.29265
  -0.50076,  -0.32928,  -0.58846,  -0.24343,  -0.37008,   0.49858,   0.54067,   0.56811,  -0.66475,  -0.92468
   0.75740,  -0.33174,   0.68808,   0.25268,  -0.79108,   0.44850,   0.70373,   0.04812,  -0.93750,  -0.91280
  -0.76918,   0.79649,   0.93750,   0.72718,   0.93750,  -0.93750,  -0.93750,   0.70771,   0.70604,  -0.06441
  -0.93750,  -0.11307,  -0.44550,   0.77092,   0.87444,   0.72798,  -0.93750,   0.31123,   0.88059,   0.69995
  -0.46050,   0.43138,  -0.74272,   0.37935,   0.91238,  -0.35459,  -0.68385,  -0.54166,   0.13304,   0.45601
   0.82100,  -0.22686,  -0.37627,   0.17868,   0.55443,  -0.28203,  -0.06633,  -0.93750,   0.13272,  -0.43867
  -0.30195,  -0.93750,   0.93750,   0.16424,   0.93750,   0.81289,   0.93750,   0.61151,  -0.93750,   0.60354
   0.50622,   0.93750,  -0.80659,  -0.05281,  -0.75862,  -0.93750,  -0.93750,  -0.93750,  -0.72825,  -0.56931
  -0.80775,  -0.26951,   0.35931,  -0.81592,  -0.64256,  -0.87038,  -0.93750,  -0.93750,  -0.93750,  -0.27695
   0.93750,  -0.37653,   0.63019,  -0.56734,   0.25307,   0.47213,   0.14283,  -0.65603,  -0.40566,  -0.05181
   0.59087,  -0.78003,  -0.14893,   0.87474,   0.56938,  -0.06269,   0.22530,  -0.08114,   0.19940,  -0.68717
  -0.75047,   0.65470,   0.46359,   0.55684,   0.35076,  -0.05192,  -0.62353,   0.47032,   0.93750,  -0.05980
  -0.49976,   0.93750,  -0.36133,   0.11197,   0.93750,  -0.35593,   0.52881,   0.74563,  -0.06760,   0.09012
  -0.93750,   0.61679,   0.34620,   0.93750,   0.24312,   0.70554,  -0.93750,  -0.25031,  -0.93750,   0.91175
  -0.75374,   0.00691,   0.44463,   0.41768,   0.43144,   0.39220,   0.57879,   0.08310,  -0.42575,   0.20878
  -0.53897,   0.25504,  -0.62172,   0.80555,   0.20851,   0.75493,  -0.44034,  -0.19419,   0.03377,   0.04752
  -0.25207,   0.68220,  -0.86729,   0.49679,   0.55701,   0.47226,   0.44052,  -0.04132,   0.53283,  -0.87243
   0.93750,  -0.59374,   0.01323,  -0.29436,  -0.53961,  -0.13105,   0.35855,   0.05592,  -0.87907,   0.80211
  -0.81268,  -0.63858,   0.55278,  -0.85163,   0.05029,  -0.87774,  -0.87108,   0.93127,  -0.74034,  -0.93750
   0.93750,  -0.65536,  -0.87448,   0.58557,  -0.93750,  -0.13632,  -0.71206,  -0.11518,   0.30590,   0.32316
   0.33775,   0.87673,  -0.93750,  -0.84219,   0.68272,  -0.76313,  -0.25487,   0.68651,  -0.09886,  -0.36342
  -0.12768,   0.04315,   0.17961,  -0.06268,  -0.58068,   0.56901,   0.57461,  -0.22807,  -0.43032,  -0.32201
  -0.33513,  -0.58600,   0.47440,  -0.73180,   0.93750,  -0.51168,  -0.79888,  -0.20414,   0.45432,   0.93750
  -0.45982,  -0.87227,  -0.46677,  -0.16271,   0.14943,   0.86493,   0.93750,   0.18026,   0.32128,  -0.88736
  -0.54334,  -0.31090,  -0.93750,   0.93750,   0.93750,  -0.93750,  -0.93750,  -0.93750,  -0.93750,   0.93750
   0.73942,  -0.39876,   0.93750,  -0.48349,  -0.93750,   0.93750,   0.31707,   0.49386,   0.93750,  -0.07883
  -0.69318,  -0.66996,   0.46551,  -0.12166,  -0.93750,  -0.75496,   0.55232,   0.93750,   0.93750,   0.81523
  -0.93593,   0.93750,   0.58372,  -0.06551,   0.93750,   0.60464,  -0.16242,   0.02969,  -0.02808,  -0.80622
  -0.02931,  -0.87983,   0.61961,  -0.46421,  -0.59085,   0.82782,  -0.89875,   0.48773,   0.81631,  -0.41393
  -0.68165,   0.20725,  -0.50158,   0.93750,  -0.75854,  -0.09651,  -0.32051,   0.17319,  -0.53685,   0.93750
   0.38551,  -0.69548,  -0.15538,   0.39916,   0.03219,  -0.54879,  -0.75828,   0.93750,  -0.66291,   0.29339
  -0.32635,   0.92565,  -0.87434,   0.85935,  -0.72260,   0.93750,   0.18073,  -0.06801,   0.81403,  -0.93750
   0.62478,  -0.38738,   0.39264,   0.64795,  -0.24373,  -0.12787,   0.22520,   0.50510,  -0.80943,   0.13058
  -0.60805,   0.32021,   0.86275,   0.21433,  -0.81123,   0.15331,  -0.28259,   0.63974,   0.82830,   0.28194
   0.07044,   0.47717,  -0.93750,  -0.20692,   0.75075,   0.63025,  -0.84742,   0.93750,  -0.27354,  -0.93750
   0.13809,   0.93750,  -0.42046,  -0.93750,  -0.66669,   0.38371,   0.09559,  -0.81082,   0.11045,   0.80482
  -0.57391,   0.82114,  -0.46632,   0.93750,  -0.87613,   0.82003,   0.41180,  -0.55165,   0.37044,  -0.93750
   0.29574,  -0.18867,  -0.31831,  -0.93750,   0.66498,  -0.10233,  -0.67694,  -0.17927,  -0.52959,   0.87545
   0.23825,   0.57047,   0.25479,   0.43673,   0.05455,  -0.33856,  -0.39337,   0.54936,  -0.54589,  -0.15022
  -0.47642,  -0.48949,  -0.63341,  -0.33405,   0.58092,   0.37614,   0.55753,  -0.67879,  -0.48803,   0.15663
   0.93750,  -0.42144,  -0.86422,   0.70239,   0.83636,   0.93750,  -0.93750,   0.93750,  -0.10606,  -0.93750
   0.56294,   0.44366,  -0.07921,   0.63319,  -0.93750,   0.64016,  -0.83977,   0.62356,  -0.26463,   0.58523
   0.12367,  -0.61208,  -0.41967,   0.50444,   0.69337,  -0.69701,  -0.15974,   0.73047,  -0.55905,  -0.00754
  -0.27843,  -0.39870,  -0.87538,   0.93750,  -0.81980,  -0.08190,   0.93750,  -0.00029,  -0.04539,  -0.93750
   0.90403,  -0.87811,   0.88979,   0.93750,  -0.01002,  -0.50795,  -0.53221,  -0.35727,   0.85923,   0.15366
   0.55705,   0.75294,   0.46384,  -0.65807,  -0.67975,  -0.86348,   0.93750,  -0.93750,   0.67570,  -0.24725
   0.73781,   0.87833,   0.93750,   0.93750,  -0.93750,  -0.93750,  -0.53838,  -0.93750,   0.13869,   0.44359
   0.74840,   0.29823,   0.29011,  -0.57861,   0.50687,   0.20304,  -0.53723,  -0.28060,  -0.88166,   0.70183
  -0.93750,   0.49106,  -0.81129,  -0.82507,   0.93750,  -0.87785,   0.93750,   0.06616,  -0.88884,  -0.76479
   0.38730,   0.12346,  -0.87320,   0.12862,   0.26551,  -0.93750,   0.54089,   0.34610,   0.54438,  -0.51205
  -0.93750,   0.43536,  -0.67780,   0.93750,   0.14264,  -0.60744,   0.93750,   0.93750,   0.09089,  -0.87064
   0.93750,   0.58842,  -0.85781,  -0.60994,  -0.74531,  -0.26747,  -0.23185,   0.55487,  -0.55283,   0.85123
   0.49056,   0.08536,   0.93750,  -0.29984,   0.76156,  -0.07793,  -0.67942,  -0.42461,  -0.86359,  -0.20650
  -0.93750,  -0.76225,   0.87621,  -0.69786,   0.93750,  -0.37650,   0.36937,  -0.93750,   0.91065,  -0.28303
  -0.61104,   0.43247,   0.35483,  -0.27253,  -0.14196,  -0.59397,   0.48933,   0.81080,   0.50678,   0.59201
  -0.20999,  -0.56038,  -0.06346,   0.45529,   0.67463,   0.00138,   0.41821,  -0.23616,   0.74825,  -0.74005
  -0.10553,   0.70671,  -0.37554,   0.68465,  -0.42534,   0.27337,   0.33439,   0.00058,  -0.28868,   0.27430
   0.48136,  -0.43696,   0.93750,   0.09304,  -0.92682,   0.40082,   0.87940,   0.13256,  -0.59250,   0.44143
  -0.56691,  -0.70907,   0.75428,  -0.06780,   0.45185,  -0.18219,   0.87181,   0.93750,  -0.78796,  -0.72251
  -0.30948,  -0.72133,  -0.17245,  -0.13912,   0.23169,   0.16067,   0.08470,   0.10260,  -0.41068,   0.93750
   0.25972,   0.83154,   0.39325,   0.06284,  -0.29131,   0.14613,   0.25985,  -0.51664,   0.06505,   0.22294
   0.63336,  -0.23356,   0.33075,   0.67482,   0.71670,   0.33596,   0.72056,   0.02490,   0.10132,   0.01053
   0.93750,  -0.68136,  -0.72883,   0.38439,  -0.88173,  -0.00643,  -0.86465,  -0.93750,  -0.43191,   0.08249
   0.34556,   0.35185,   0.08055,  -0.52579,   0.57992,  -0.28255,   0.37053,   0.41175,  -0.11483,  -0.40270
  -0.71450,  -0.93750,   0.43627,  -0.33745,   0.08155,   0.93750,   0.93750,  -0.93750,  -0.91233,   0.84168
   0.93750,   0.88439,   0.93750,   0.93750,  -0.93750,  -0.93750,  -0.65142,  -0.45942,   0.93750,  -0.93750
   0.93750,   0.77336,  -0.93750,  -0.59329,   0.38996,   0.33751,   0.26841,  -0.93750,   0.31537,  -0.41562
  -0.26984,   0.81911,  -0.52236,   0.42516,   0.87262,  -0.45220,   0.22993,  -0.93750,  -0.28569,   0.74144
  -0.20164,   0.50969,  -0.16509,  -0.42043,  -0.65795,   0.93750,   0.26324,   0.62115,   0.93750,   0.93750
  -0.57614,   0.19249,   0.24528,   0.49619,  -0.93750,   0.68063,  -0.49568,  -0.93750,   0.72381,  -0.86406
  -0.11818,   0.11803,   0.21941,   0.10513,  -0.68381,  -0.29624,  -0.55534,   0.93686,  -0.17030,   0.68370
  -0.12340,   0.06618,  -0.37771,   0.65498,   0.17043,  -0.88731,   0.71083,  -0.75442,  -0.82715,  -0.49950
   0.93750,   0.19352,   0.05241,   0.69739,   0.53637,   0.04450,  -0.07296,  -0.93750,  -0.79551,   0.36094
   0.78981,  -0.53829,  -0.93750,  -0.61221,   0.18061,  -0.18079,  -0.80830,   0.43360,  -0.76599,  -0.63018
  -0.39873,  -0.87671,   0.50101,   0.07875,  -0.75442,  -0.60641,  -0.68626,   0.54563,  -0.81786,   0.54190
   0.78522,   0.46033,   0.38782,   0.93750,  -0.21111,  -0.66360,   0.60871,  -0.35573,  -0.32692,   0.93750
  -0.48050,  -0.10585,   0.87342,   0.42779,  -0.05933,  -0.42712,   0.37786,  -0.86492,  -0.48219,   0.66978
  -0.88494,  -0.79367,  -0.35812,  -0.83341,  -0.64139,   0.57601,  -0.07896,  -0.93750,   0.67917,  -0.82871
  -0.65150,   0.87632,  -0.86400,   0.93750,  -0.41562,   0.63889,  -0.24215,  -0.93750,   0.35072,   0.76068
  -0.50417,   0.87384,  -0.39806,   0.24411,   0.42809,  -0.55142,   0.38658,   0.00173,  -0.30011,   0.93750
  -0.93750,   0.21487,   0.93750,   0.48018,  -0.93750,  -0.34592,  -0.93750,   0.15211,   0.87713,  -0.93750
   0.86740,  -0.59480,   0.35254,  -0.81281,  -0.32392,  -0.60853,  -0.21791,   0.60865,   0.94661,  -0.14047
   0.35239,  -0.49013,   0.67407,  -0.13829,   0.36231,  -0.31181,  -0.36981,   0.48700,  -0.14532,   0.00384
   0.15106,  -0.87613,  -0.54585,  -0.30200,  -0.91036,  -0.25325,   0.60042,   0.63188,   0.03817,  -0.73614
   0.14052,  -0.54590,  -0.63997,   0.58181,  -0.93750,  -0.06825,   0.93750,   0.74434,  -0.19640,   0.93750
   0.07893,   0.63578,  -0.78273,   0.46330,  -0.41177,   0.09261,  -0.45740,   0.30172,   0.62925,  -0.21051
   0.23599,  -0.08548,   0.39563,  -0.56792,   0.40036,  -0.04293,   0.15039,  -0.81003,  -0.80927,   0.49119
   0.07836,   0.93750,   0.07798,  -0.60665,  -0.62589,  -0.18749,  -0.68597,   0.21631,  -0.09105,   0.60197
  -0.55546,  -0.65513,  -0.81750,   0.62417,  -0.76149,   0.13014,   0.93750,   0.20208,  -0.11987,   0.93750
  -0.74417,  -0.93750,   0.93750,  -0.93750,   0.93750,   0.46421,   0.93750,  -0.93750,   0.93750,  -0.93750
  -0.79497,   0.75374,  -0.93750,  -0.84281,   0.14990,   0.17460,  -0.53029,   0.38479,  -0.62287,  -0.93750
   0.75791,  -0.51133,  -0.73412,   0.93750,   0.18155,  -0.93750,  -0.41396,  -0.23851,  -0.93750,   0.88410
   0.93750,  -0.93750,  -0.79391,   0.62882,  -0.84404,  -0.93750,   0.93750,  -0.30729,  -0.42331,  -0.14340
   0.45149,   0.78463,  -0.59431,  -0.69614,  -0.08267,  -0.67903,   0.82972,  -0.19891,   0.63705,   0.41360
  -0.45611,   0.39915,  -0.51345,  -0.90033,   0.02689,  -0.92745,   0.93750,   0.70381,   0.64435,   0.93750
   0.61106,   0.06501,  -0.73695,   0.47298,   0.63801,  -0.93750,  -0.12624,  -0.93750,   0.56419,  -0.60195
   0.93750,  -0.62540,  -0.56576,  -0.71696,   0.16134,  -0.93750,   0.57321,  -0.93750,   0.41530,   0.06925
  -0.74187,  -0.23299,  -0.67691,  -0.22423,  -0.64766,   0.93750,   0.93528,  -0.93750,  -0.76870,   0.80798
   0.93750,  -0.03332,   0.81506,  -0.78387,   0.27342,  -0.83574,  -0.39231,   0.59876,  -0.25469,   0.93076
  -0.01029,  -0.65007,   0.93750,   0.23575,   0.93750,  -0.87958,   0.93750,   0.38550,  -0.17886,   0.87707
  -0.76862,  -0.14285,   0.65869,  -0.88091,  -0.09112,  -0.93750,   0.30760,  -0.63721,  -0.93750,   0.77997
  -0.93750,  -0.71904,  -0.78650,  -0.93750,   0.19040,  -0.85136,  -0.26897,  -0.93750,  -0.22871,  -0.81918
   0.93750,   0.93750,  -0.49443,   0.93750,  -0.75594,   0.25278,   0.57423,   0.48215,  -0.12702,  -0.69869
   0.93750,   0.93750,  -0.03552,  -0.32712,  -0.25785,   0.93750,   0.93750,   0.20171,   0.93750,   0.60447
  -0.17846,  -0.33678,   0.08209,   0.93750,  -0.24553,   0.35102,  -0.57812,  -0.93750,   0.37836,   0.93750
  -0.90012,   0.01562,  -0.87016,   0.85655,   0.50538,  -0.25117,   0.67221,   0.17309,   0.25987,  -0.41682
   0.03950,  -0.02840,   0.37111,   0.56701,   0.22647,   0.01104,  -0.09773,   0.06689,  -0.04633,   0.16350
  -0.27200,  -0.42025,  -0.74408,  -0.29426,  -0.65733,  -0.36672,   0.27657,   0.93750,   0.16984,   0.67607
  -0.86829,   0.93750,   0.16250,   0.46942,   0.07186,  -0.40164,  -0.82164,   0.21121,   0.70451,  -0.02760
   0.39421,  -0.00768,   0.53210,   0.61245,   0.16781,   0.88342,   0.63843,  -0.10433,  -0.37443,  -0.59680
   0.51329,   0.72106,  -0.86655,  -0.64818,   0.81254,  -0.01001,  -0.60766,   0.04933,  -0.69314,   0.73126
  -0.05254,  -0.62031,  -0.93750,  -0.93750,  -0.87101,  -0.90175,   0.93750,   0.73110,  -0.89029,   0.63581
  -0.09958,   0.64850,  -0.73167,  -0.28014,   0.87759,  -0.18973,   0.03758,  -0.09502,   0.81457,   0.05035
  -0.21781,   0.38080,   0.93750,   0.35476,   0.81764,  -0.62870,  -0.14537,   0.34766,  -0.88995,   0.93750
   0.93750,  -0.36743,  -0.93750,  -0.21510,  -0.72471,  -0.93750,   0.93750,  -0.27988,  -0.39596,  -0.51872
   0.34274,  -0.73031,  -0.82263,   0.17842,   0.76476,   0.93750,  -0.18046,  -0.53750,   0.07586,   0.81655
  -0.88188,   0.21567,  -0.49678,  -0.24132,  -0.44710,   0.71943,   0.93750,  -0.93750,  -0.93750,  -0.55119
  -0.05893,  -0.01778,  -0.16413,   0.53794,   0.32932,  -0.75166,   0.06915,   0.86739,  -0.47452,   0.10289
   0.21877,  -0.66815,   0.93750,   0.08031,  -0.79686,   0.93750,  -0.33799,  -0.93750,   0.29131,  -0.93750
   0.55983,   0.78149,   0.23097,   0.74447,   0.10162,   0.14105,  -0.06774,   0.87137,   0.03523,   0.05468
  -0.69963,  -0.58397,   0.93750,  -0.33820,   0.93750,  -0.93750,  -0.49424,   0.93750,  -0.93750,   0.93750
  -0.42295,   0.93750,   0.87334,   0.33096,  -0.20682,  -0.74865,   0.05821,  -0.93750,  -0.87750,  -0.25804
  -0.52362,   0.93750,  -0.75892,  -0.00989,  -0.06386,   0.27080,  -0.15822,  -0.26636,  -0.68268,  -0.17937
   0.90270,  -0.69776,   0.93750,   0.93750,  -0.50094,   0.82633,   0.93750,  -0.93750,   0.48569,  -0.64423
  -0.93750,  -0.71775,   0.74947,   0.78694,   0.23280,  -0.35455,   0.00207,   0.40364,   0.02196,  -0.12223
   0.38830,   0.64482,   0.48934,   0.71291,  -0.25527,  -0.82514,   0.36042,  -0.80359,  -0.75140,  -0.26551
  -0.25323,   0.14606,  -0.86851,   0.88310,   0.10051,  -0.65032,   0.62998,  -0.19764,   0.02450,   0.44908
  -0.28727,   0.11814,  -0.86775,  -0.82867,  -0.31721,   0.72935,  -0.85160,  -0.45848,  -0.88852,  -0.81694
  -0.06836,   0.32476,  -0.59801,   0.51609,  -0.42359,  -0.21242,   0.93373,  -0.46157,  -0.20177,   0.70489
   0.53288,   0.93750,  -0.78099,  -0.80360,  -0.39657,   0.09652,  -0.36586,   0.17276,  -0.26748,   0.87725
   0.70746,  -0.17616,   0.10166,  -0.48727,  -0.58749,  -0.21991,   0.44112,  -0.35089,  -0.40324,   0.20338
   0.10726,  -0.49394,   0.12320,  -0.33194,  -0.13082,  -0.81816,   0.56203,  -0.05707,   0.52479,  -0.85926
  -0.42947,   0.73647,   0.03061,   0.50777,  -0.04641,  -0.80274,  -0.77797,   0.93750,  -0.35953,   0.25768
  -0.88655,  -0.87040,   0.75147,  -0.93750,  -0.93750,  -0.93361,  -0.93750,  -0.93750,  -0.01252,  -0.93750
  -0.26856,  -0.32386,  -0.82414,   0.67591,   0.93750,  -0.40081,  -0.58169,  -0.71208,   0.40575,  -0.21745
   0.93750,  -0.50732,   0.58948,  -0.74962,   0.44655,   0.39907,   0.62083,  -0.00495,   0.74839,  -0.83233
   0.27490,   0.60953,   0.93750,  -0.93750,   0.93750,  -0.93750,  -0.87989,  -0.60448,   0.35583,   0.88141
  -0.46300,   0.17039,  -0.20842,   0.75470,   0.41890,   0.22506,  -0.17757,   0.82911,   0.17663,  -0.68517
   0.41159,  -0.31162,  -0.93750,  -0.01944,   0.52993,  -0.91464,   0.87744,  -0.93750,   0.81545,   0.67214
  -0.93750,  -0.93750,  -0.81113,  -0.01473,  -0.16287,   0.18336,  -0.18339,  -0.02562,   0.67546,   0.14310
  -0.23705,   0.23438,   0.69152,   0.13694,  -0.43155,   0.06347,   0.93750,  -0.16988,  -0.81314,   0.85277
  -0.04491,   0.20275,   0.81562,   0.48457,   0.37311,   0.86366,   0.30916,  -0.14910,  -0.79828,   0.49307
   0.93750,  -0.75488,  -0.19359,   0.93750,   0.93750,  -0.93750,   0.93750,   0.93750,  -0.09908,   0.87374
  -0.02695,   0.15334,  -0.72755,   0.08091,   0.21141,  -0.76110,   0.84777,   0.05117,  -0.31490,  -0.37817
  -0.93750,  -0.90182,  -0.64755,  -0.90757,  -0.90395,   0.21082,  -0.69752,   0.34853,  -0.46910,  -0.93750
   0.87332,   0.50004,  -0.87760,  -0.53426,  -0.75845,   0.15649,  -0.03110,  -0.11388,  -0.66978,  -0.86846
  -0.75317,   0.47373,  -0.30631,  -0.25675,   0.15003,   0.70103,  -0.33810,  -0.27727,  -0.37967,   0.45328
  -0.57941,  -0.67773,  -0.80768,   0.46783,   0.61912,   0.10884,  -0.93750,   0.93750,   0.16268,  -0.16424
   0.11368,   0.54566,   0.21489,   0.57122,  -0.25270,  -0.30339,  -0.44306,   0.77252,  -0.64108,   0.34168
   0.93750,  -0.93750,  -0.83466,  -0.10008,   0.30064,  -0.10412,  -0.93750,   0.93750,   0.65816,   0.19784
  -0.88114,   0.33386,   0.32536,   0.71263,  -0.46166,   0.07472,  -0.71139,  -0.02589,   0.93750,  -0.28599
   0.93750,  -0.55660,  -0.93750,   0.60791,  -0.93750,   0.93750,  -0.93750,  -0.33107,   0.61963,  -0.15850
   0.93750,   0.71220,   0.65317,  -0.93750,  -0.93750,   0.83926,  -0.70672,  -0.00207,  -0.93750,  -0.87358
   0.87619,   0.46373,   0.75879,   0.33984,  -0.25163,  -0.63679,   0.29718,   0.21706,  -0.81866,  -0.77372
   0.07190,   0.93750,  -0.93750,   0.08738,  -0.93750,  -0.93750,  -0.93750,  -0.68655,  -0.93750,  -0.76208
  -0.93750,  -0.81497,  -0.08877,  -0.93750,   0.15971,   0.07974,  -0.93750,   0.84740,  -0.93750,   0.12017
  -0.60518,   0.90070,  -0.86421,   0.32898,  -0.21039,  -0.40139,  -0.74929,   0.08324,   0.64639,   0.93750
  -0.81409,   0.87314,   0.85464,  -0.82344,   0.38837,  -0.58863,   0.75843,  -0.93750,   0.93750,  -0.45174
   0.22495,  -0.88115,  -0.84272,  -0.50992,  -0.79805,  -0.93750,   0.39682,  -0.81299,   0.08194,   0.24362
   0.16822,  -0.87237,  -0.93750,  -0.13243,  -0.15760,   0.93750,   0.47959,  -0.55964,   0.10436,  -0.88427
   0.54833,   0.02041,  -0.93750,  -0.51220,  -0.93750,  -0.93750,  -0.67868,  -0.30531,   0.93750,  -0.16896
   0.50410,   0.08532,  -0.93750,   0.62303,  -0.93750,  -0.87146,   0.93750,   0.93750,   0.02412,   0.14775
   0.01512,   0.93107,  -0.02746,  -0.35499,   0.93750,   0.11712,   0.73579,  -0.41239,  -0.21589,   0.20257
  -0.63650,   0.27291,   0.87748,  -0.61675,   0.89992,   0.89787,  -0.44671,   0.13596,  -0.73642,  -0.82557
   0.93750,  -0.87279,   0.08876,  -0.59917,  -0.84251,  -0.64238,  -0.93750,   0.81980,   0.73851,  -0.31227
  -0.93750,   0.34649,  -0.87404,   0.03973,  -0.88038,   0.93750,  -0.93750,  -0.78728,  -0.60148,   0.32392
   0.93750,  -0.11871,  -0.50977,  -0.90298,   0.13551,  -0.41530,  -0.01825,  -0.39685,   0.39124,  -0.83808
  -0.75154,   0.78027,  -0.93750,   0.54847,   0.59568,  -0.41078,  -0.75386,  -0.65173,  -0.93750,   0.30200
  -0.93750,  -0.87633,   0.93750,  -0.53813,  -0.93750,   0.85309,  -0.67947,  -0.24682,  -0.93750,   0.16017
   0.93750,  -0.93750,   0.44118,  -0.93750,   0.89520,   0.08576,   0.51009,  -0.93750,  -0.63015,  -0.21704
   0.51499,  -0.13812,  -0.93750,  -0.78650,  -0.15513,  -0.89772,   0.69724,  -0.13807,  -0.93750,  -0.93750
  -0.33706,   0.74631,  -0.08854,   0.33541,  -0.81008,  -0.49903,   0.70409,  -0.13125,   0.26963,  -0.24654
  -0.69442,  -0.28123,   0.42086,   0.38682,   0.25348,   0.59576,  -0.51994,   0.30099,   0.31647,  -0.72000
   0.04274,   0.75365,  -0.08420,  -0.59916,   0.93750,   0.81598,  -0.40723,  -0.71247,  -0.93750,  -0.40628
  -0.92363,  -0.86963,   0.41043,   0.62110,  -0.63015,  -0.60466,  -0.41320,   0.93750,  -0.87216,  -0.74960
   0.82967,   0.24058,  -0.73753,  -0.56681,  -0.87505,   0.74741,  -0.12546,  -0.17138,  -0.03501,  -0.12614
  -0.74668,   0.46666,  -0.10335,   0.61309,   0.45089,   0.72208,  -0.63475,  -0.90295,   0.43579,  -0.81533
  -0.13286,  -0.40576,  -0.67974,  -0.43972,   0.93750,  -0.57264,  -0.06971,  -0.93750,  -0.12383,  -0.44685
   0.37420,   0.48726,  -0.81908,   0.93750,   0.71433,  -0.93750,  -0.93750,  -0.88154,   0.93750,   0.87467
   0.87751,  -0.28199,  -0.93750,   0.35587,   0.93750,  -0.81191,   0.93750,  -0.39998,  -0.72739,  -0.22246
   0.93750,   0.93750,  -0.08149,   0.93750,   0.53148,  -0.70578,   0.54391,   0.93750,  -0.77030,  -0.93750
   0.58742,  -0.39780,   0.82154,  -0.68802,   0.93750,  -0.93750,  -0.18099,   0.81140,  -0.02615,   0.01210
   0.93750,   0.26891,   0.10711,  -0.43868,   0.93750,  -0.81864,   0.93750,  -0.82652,  -0.88002,  -0.84830
   0.07822,   0.12440,   0.16477,   0.27725,   0.21600,  -0.65861,   0.37275,   0.93750,  -0.43835,  -0.05779
  -0.93750,  -0.90586,   0.93750,  -0.93750,  -0.26886,   0.93750,  -0.79103,   0.87216,  -0.67590,   0.02122
   0.93750,  -0.52132,  -0.76724,   0.50990,  -0.60362,  -0.13843,   0.86979,  -0.40881,  -0.70268,   0.80486
  -0.62494,   0.93750,   0.50316,  -0.87640,  -0.90737,   0.01049,  -0.27118,  -0.21746,   0.92824,   0.15140
  -0.43024,   0.87778,  -0.32346,  -0.18499,   0.18793,  -0.11322,   0.27159,   0.93750,  -0.05420,  -0.63839
   0.13811,   0.55079,   0.11768,   0.65826,   0.55262,   0.52066,   0.87065,  -0.09016,  -0.07715,  -0.74849
   0.16610,  -0.04647,  -0.24261,   0.06356,   0.04834,  -0.72082,  -0.66274,  -0.45720,   0.47493,   0.53071
  -0.93750,  -0.91971,   0.93750,  -0.93750,  -0.84897,   0.16740,   0.82027,   0.93750,   0.84027,  -0.26113
   0.88129,  -0.60792,  -0.72200,   0.34777,  -0.49430,   0.80595,   0.49903,   0.93750,   0.20931,   0.21412
  -0.30673,  -0.28978,  -0.57750,   0.17785,  -0.03247,   0.44687,   0.74026,  -0.16142,  -0.16204,   0.27595
  -0.67852,  -0.74258,  -0.45768,   0.24243,   0.32008,  -0.00389,   0.57977,   0.26356,   0.62532,   0.01636
   0.40406,   0.90615,  -0.44003,  -0.45720,  -0.54907,  -0.05880,  -0.68168,   0.72040,  -0.34964,   0.86949
   0.53011,   0.66839,   0.36244,  -0.53879,   0.33405,   0.04997,   0.42317,  -0.51472,   0.46618,  -0.33764
   0.60617,  -0.01861,   0.29959,   0.35078,   0.58001,  -0.17127,   0.01906,  -0.55690,   0.34873,  -0.51914
   0.61489,  -0.06036,   0.68594,   0.80978,  -0.51221,  -0.36199,   0.93750,   0.93750,  -0.45468,  -0.18673
   0.67217,   0.30141,   0.17505,   0.41310,   0.12357,   0.79714,   0.60777,  -0.43513,  -0.86902,  -0.56134
   0.11092,  -0.14215,  -0.12175,   0.93750,  -0.87621,   0.19941,   0.12196,  -0.93750,   0.87796,  -0.93750
  -0.93290,  -0.74020,  -0.63145,   0.51944,  -0.72507,  -0.11828,  -0.67425,   0.45277,   0.87471,   0.87905
  -0.51381,   0.60606,  -0.70784,   0.93750,  -0.93750,  -0.93750,  -0.93750,  -0.93750,   0.92135,   0.93750
   0.87607,   0.88217,  -0.15857,   0.29700,   0.02482,   0.10475,  -0.37449,  -0.58786,  -0.53296,   0.93750
  -0.72328,  -0.25526,  -0.71856,  -0.93750,   0.93750,   0.10882,   0.66676,  -0.38664,   0.81891,  -0.50563
   0.37218,  -0.20376,   0.15709,   0.23584,  -0.85184,   0.58204,   0.37729,  -0.89480,  -0.32899,   0.08590
  -0.62931,  -0.49811,   0.12219,  -0.90378,   0.48774,   0.93750,  -0.17785,  -0.38661,   0.68952,  -0.79577
   0.16258,  -0.56503,   0.69406,  -0.93750,  -0.22187,  -0.93750,  -0.80029,   0.25198,  -0.12451,   0.62285
   0.93750,   0.22241,  -0.39746,   0.17901,   0.87305,   0.59680,  -0.91284,   0.52781,   0.14667,   0.10120
  -0.31825,   0.08759,   0.83349,  -0.80912,   0.76605,  -0.93750,  -0.82675,   0.88286,  -0.93750,   0.82024
  -0.26778,  -0.20557,   0.08717,  -0.29388,   0.88028,  -0.68626,   0.76318,   0.33107,  -0.17865,   0.36611
  -0.40209,  -0.36185,  -0.64386,   0.80293,  -0.68922,  -0.02713,  -0.35629,  -0.61979,   0.02003,  -0.45805
   0.30724,   0.85033,  -0.87904,  -0.69926,   0.93750,   0.93750,  -0.81184,   0.93750,   0.93750,  -0.20223
   0.52914,   0.45518,   0.57016,  -0.57747,  -0.50539,  -0.47455,  -0.67000,   0.50628,   0.85221,  -0.07771
   0.20257,   0.62653,  -0.42778,   0.40595,  -0.07303,   0.39157,  -0.40830,   0.34948,  -0.59572,   0.63378
   0.36356,  -0.70444,  -0.78697,   0.93750,   0.31220,  -0.86385,  -0.60975,  -0.39511,   0.41590,  -0.17964
   0.28139,   0.08481,   0.45532,   0.48080,   0.65421,  -0.05613,   0.76581,   0.20218,   0.26077,   0.29573
   0.93750,  -0.25815,   0.55050,  -0.29382,   0.49544,  -0.77803,  -0.06883,  -0.29519,  -0.87962,  -0.66661
  -0.39108,   0.06520,   0.54944,   0.40756,  -0.22290,   0.48886,   0.85770,  -0.68213,   0.56045,  -0.10849
  -0.34690,  -0.93750,  -0.93750,  -0.68997,   0.93750,   0.33321,   0.90991,   0.93750,  -0.08185,   0.93750
   0.14722,  -0.89178,   0.09335,   0.56941,   0.63218,  -0.93750,  -0.90098,   0.93750,   0.60149,  -0.80110
  -0.53438,  -0.76314,   0.93750,  -0.87966,   0.93380,   0.93750,  -0.32507,   0.93750,   0.62152,   0.01501
  -0.78888,   0.41948,  -0.39814,   0.10154,   0.93750,  -0.87185,   0.93750,   0.93750,  -0.57644,   0.36330
   0.93750,   0.93750,  -0.46697,   0.93750,   0.47782,  -0.93750,   0.42580,   0.61812,  -0.70246,  -0.93750
   0.32284,   0.76160,  -0.26906,  -0.59006,  -0.39821,   0.25056,   0.06908,   0.70503,   0.85983,   0.07362
   0.08103,  -0.86618,   0.93750,   0.44065,   0.93386,  -0.93750,   0.76108,   0.93750,  -0.87044,  -0.93750
   0.48875,  -0.72258,   0.93750,   0.26652,  -0.60047,  -0.88101,   0.93750,  -0.93750,  -0.50806,  -0.37404
  -0.66140,   0.58124,  -0.16728,   0.87165,  -0.79329,   0.93750,  -0.90866,  -0.65273,  -0.93750,  -0.57364
  -0.75156,   0.93750,   0.41333,   0.76185,  -0.84701,   0.51423,   0.88143,  -0.75206,  -0.29429,  -0.93750
   0.67214,   0.31379,   0.55184,  -0.59957,  -0.55348,   0.35853,   0.24701,   0.67423,  -0.00955,   0.24512
   0.40694,  -0.93750,   0.11109,   0.08483,  -0.73444,  -0.87621,  -0.70848,  -0.61380,  -0.93750,  -0.74579
  -0.48895,   0.49854,  -0.93750,  -0.61872,   0.73793,  -0.21414,   0.68229,   0.62756,  -0.78079,  -0.67781
   0.93750,  -0.68346,  -0.53308,  -0.68851,   0.93750,   0.14811,  -0.68942,   0.82583,   0.93750,   0.68934
   0.16723,   0.74600,   0.55680,   0.40785,  -0.93750,   0.39613,   0.11575,  -0.26757,  -0.16382,  -0.62289
  -0.10192,   0.50609,  -0.55228,   0.45129,   0.63497,   0.87252,  -0.87713,  -0.93750,  -0.93750,   0.93750
  -0.22386,  -0.12454,  -0.22446,  -0.24155,   0.80409,  -0.22959,  -0.48942,  -0.88138,   0.67255,  -0.87738
   0.93750,  -0.18839,   0.33229,  -0.59097,  -0.76352,   0.93750,  -0.31021,  -0.30834,   0.04031,  -0.80436
   0.11836,  -0.09380,  -0.05029,   0.63383,   0.17342,   0.80606,  -0.52455,   0.14358,   0.12523,  -0.93750
   0.61666,  -0.22418,   0.09888,  -0.93750,   0.23698,  -0.29649,   0.93750,  -0.93750,  -0.93750,  -0.93750
  -0.45185,   0.90620,   0.83228,   0.87250,   0.34679,  -0.93750,   0.67343,  -0.83245,   0.93750,   0.93750
   0.82921,   0.87996,   0.93750,   0.93750,  -0.72470,  -0.77069,   0.32395,   0.93750,  -0.83020,  -0.07815
  -0.73867,  -0.26976,   0.86996,   0.63374,  -0.45050,   0.58416,  -0.64944,  -0.93750,  -0.24771,   0.93750
   0.93750,  -0.62138,   0.29732,  -0.38520,  -0.52791,  -0.70535,   0.14382,  -0.32089,  -0.04417,  -0.21583
   0.77316,   0.00626,  -0.93750,   0.93750,  -0.07964,   0.00744,   0.93750,   0.09250,  -0.93750,   0.74771
   0.23138,  -0.36753,   0.26351,  -0.11153,  -0.00675,   0.76307,  -0.36925,  -0.11326,   0.58047,  -0.21970
  -0.74492,  -0.01176,   0.93750,  -0.80709,  -0.23679,   0.93750,   0.88707,   0.89353,  -0.17608,   0.93750
   0.17791,   0.78627,  -0.93750,  -0.67639,   0.90941,  -0.75648,  -0.25299,   0.93750,   0.93750,   0.34425
  -0.81016,   0.67045,  -0.93750,   0.30971,   0.71988,  -0.79406,   0.70110,   0.80841,  -0.20640,  -0.78195
   0.29834,  -0.01855,   0.12324,   0.03407,   0.93750,   0.48871,  -0.15635,  -0.54468,  -0.93750,  -0.85302
   0.30057,  -0.36053,  -0.93750,  -0.82025,   0.93750,  -0.78800,  -0.62086,  -0.86558,   0.02839,   0.48881
   0.03138,   0.93750,   0.00827,   0.45740,  -0.03618,  -0.10035,  -0.70632,   0.76455,   0.00943,   0.38689
  -0.93750,   0.93750,   0.55034,  -0.82902,   0.81832,   0.81191,  -0.86864,  -0.74678,  -0.78246,   0.36416
   0.45395,  -0.72382,   0.78659,  -0.22838,   0.93750,  -0.79780,  -0.38326,  -0.72506,  -0.07174,   0.39766
  -0.82765,   0.93750,   0.93750,  -0.37353,   0.26327,  -0.29449,   0.12679,   0.02618,  -0.30324,   0.24872
  -0.65180,   0.32036,  -0.01322,  -0.37383,   0.10439,   0.32783,  -0.27076,   0.93750,   0.60669,   0.75179
  -0.28303,  -0.39297,  -0.93750,  -0.25684,  -0.93750,   0.93750,   0.93750,  -0.87335,   0.73204,  -0.08845
  -0.93750,   0.86164,   0.93750,  -0.93750,  -0.93750,   0.90177,  -0.93750,  -0.93750,   0.93750,  -0.93750
  -0.92570,  -0.61115,  -0.49974,   0.88462,   0.81972,  -0.63469,  -0.55407,  -0.24552,   0.93750,  -0.33441
   0.27163,  -0.73634,  -0.27765,   0.54173,  -0.31316,   0.68876,  -0.93750,  -0.16701,   0.69626,  -0.62249
   0.03490,   0.08011,   0.29182,   0.93750,  -0.93750,  -0.38358,  -0.49228,   0.93750,  -0.81502,   0.93750
  -0.93750,   0.93750,  -0.13591,   0.93750,   0.54749,  -0.93750,  -0.93750,  -0.84881,   0.71396,  -0.93750
   0.89510,  -0.49384,  -0.11920,  -0.49752,   0.44185,  -0.77230,  -0.54269,   0.06138,   0.02586,  -0.53337
   0.06200,   0.30550,   0.22717,   0.60109,   0.43802,   0.42923,  -0.44164,  -0.15547,   0.19935,  -0.54125
   0.67256,   0.65414,  -0.93750,  -0.93750,  -0.92030,   0.32880,   0.79950,   0.86476,   0.41404,   0.93750
  -0.75204,   0.93750,   0.36209,  -0.14838,   0.80892,   0.33608,   0.81727,  -0.62712,  -0.16589,  -0.86822
   0.18125,  -0.93750,   0.93750,   0.84949,   0.13372,  -0.93750,   0.86291,  -0.93750,   0.93750,   0.54850
   0.18707,  -0.62851,   0.54735,  -0.82363,  -0.80077,  -0.80540,   0.36002,   0.74626,   0.26588,  -0.02350
  -0.93750,   0.92642,   0.40806,   0.21358,  -0.85186,   0.93750,   0.12717,  -0.93750,  -0.93750,  -0.93750
   0.80043,  -0.48639,  -0.50445,  -0.75614,  -0.87192,   0.46577,  -0.22427,  -0.63048,   0.73743,  -0.87218
  -0.66199,  -0.93750,   0.40697,  -0.22007,  -0.93750,   0.17581,  -0.81780,   0.71913,   0.07287,  -0.87270
   0.87543,  -0.62052,   0.87805,   0.93750,   0.93750,   0.01635,  -0.80890,  -0.74428,  -0.50813,  -0.68932
  -0.29974,  -0.47497,  -0.59411,  -0.53916,  -0.16507,   0.93750,  -0.83425,   0.59541,   0.63908,   0.06212
  -0.47186,   0.93750,  -0.14551,   0.93750,   0.93750,   0.93750,   0.00187,  -0.21634,  -0.87922,  -0.87261
  -0.10009,  -0.41222,  -0.91287,  -0.31124,  -0.36079,  -0.93750,  -0.81972,   0.31380,  -0.46973,   0.93750
   0.37023,  -0.80383,   0.87755,   0.11116,  -0.51618,  -0.43547,   0.20365,  -0.18466,   0.08865,   0.89470
   0.18425,   0.93750,  -0.93750,  -0.79970,   0.27342,   0.88656,   0.87829,   0.31167,   0.87774,  -0.54828
   0.93750,   0.93750,  -0.93750,  -0.68918,  -0.93750,  -0.13838,  -0.43232,  -0.18255,   0.11278,   0.19321
   0.66174,  -0.52257,  -0.88461,   0.91988,  -0.63159,   0.69652,  -0.75414,  -0.87025,   0.93750,   0.23727
   0.93750,  -0.87649,   0.12568,   0.61431,   0.78940,  -0.27397,  -0.87427,   0.09623,  -0.86657,  -0.23406
  -0.10565,  -0.23290,   0.53495,   0.34625,   0.64379,   0.17195,   0.68358,   0.06722,   0.54431,   0.01810
  -0.88110,  -0.87151,   0.21484,   0.80291,   0.63440,   0.77742,  -0.55709,  -0.13408,   0.88554,  -0.93750
  -0.49308,  -0.65522,   0.93750,   0.18829,   0.85638,   0.77185,   0.53183,  -0.46131,   0.65459,  -0.30480
   0.93750,  -0.21704,  -0.35336,  -0.60833,   0.28152,  -0.56123,   0.32585,   0.70205,   0.08875,  -0.03253
   0.76006,  -0.31567,   0.67642,  -0.22802,  -0.28695,  -0.36230,  -0.27915,   0.88439,  -0.50501,   0.69636
   0.69571,   0.81361,  -0.84582,  -0.32136,   0.28998,  -0.85648,  -0.91747,   0.87984,  -0.70705,   0.76171
   0.71801,  -0.93750,  -0.11861,  -0.93750,   0.93750,  -0.53011,   0.75975,  -0.50902,  -0.69662,   0.40412
  -0.11389,   0.87008,  -0.12086,   0.57476,  -0.07137,  -0.34845,   0.73606,   0.92275,   0.81769,  -0.11686
  -0.66067,   0.93750,  -0.74246,   0.78656,   0.34795,   0.83648,   0.17809,   0.81620,   0.14162,  -0.69128
   0.02768,   0.41214,   0.20130,  -0.88171,  -0.11644,  -0.28340,   0.16272,   0.93724,  -0.18649,  -0.33061
  -0.44579,   0.21018,  -0.30470,   0.93352,  -0.16374,   0.13073,   0.93750,   0.93750,  -0.17527,   0.56645
   0.72648,   0.06314,   0.45268,  -0.85652,   0.25720,  -0.24715,  -0.45976,   0.24096,  -0.80950,  -0.27084
   0.23597,   0.30843,  -0.49053,   0.30658,  -0.51063,   0.30879,   0.01985,  -0.71638,   0.56051,   0.88666
  -0.80703,   0.09035,   0.81371,   0.41580,  -0.87468,  -0.57833,   0.17687,  -0.50186,  -0.28414,  -0.70336
   0.02769,  -0.68148,   0.09590,   0.93750,   0.93750,  -0.93750,   0.93750,   0.58192,   0.93750,   0.31962
   0.93750,   0.39073,   0.10311,   0.37991,   0.04574,  -0.81296,  -0.58565,   0.65452,  -0.93750,   0.09392
   0.93750,   0.93750,  -0.35978,  -0.87056,  -0.93750,   0.31560,   0.74666,   0.85755,  -0.02545,   0.93750
  -0.26741,   0.93750,   0.93750,   0.22788,   0.72145,   0.74617,  -0.26124,   0.42774,   0.07613,  -0.56769
   0.87770,  -0.81639,  -0.37275,  -0.93750,   0.10531,  -0.92047,  -0.86482,  -0.70376,   0.55823,   0.93750
  -0.37499,  -0.54939,   0.10031,   0.74288,   0.93750,   0.86224,  -0.63406,  -0.87147,   0.37127,  -0.18297
  -0.13488,   0.41636,  -0.82156,   0.05520,   0.01018,   0.15476,   0.67159,  -0.83986,  -0.61596,   0.46956
   0.45027,   0.12751,  -0.56778,  -0.68439,   0.93750,   0.82308,  -0.45673,   0.40418,  -0.43449,  -0.55802
   0.93750,  -0.36249,   0.29184,  -0.88004,   0.87205,   0.61146,   0.93750,   0.70397,  -0.49998,   0.93750
   0.93750,  -0.70814,  -0.35955,   0.21404,   0.47775,   0.93750,  -0.93750,   0.23621,  -0.42484,  -0.24412
   0.68669,   0.51671,  -0.37030,  -0.82483,  -0.43390,   0.23352,   0.60097,  -0.71606,  -0.24017,  -0.15211
   0.80226,  -0.11439,   0.93750,  -0.88012,   0.62074,  -0.93750,   0.16124,   0.45139,  -0.07506,  -0.93750
   0.87634,   0.80859,  -0.54959,  -0.13834,   0.75927,   0.80438,  -0.30349,   0.23062,  -0.42616,  -0.60559
   0.06735,   0.47883,  -0.29528,  -0.19128,   0.86880,  -0.14684,   0.63634,  -0.31543,   0.80115,  -0.72973
   0.06764,   0.10801,   0.35019,  -0.72344,  -0.34021,  -0.26746,   0.39340,  -0.92487,   0.29711,   0.68578
  -0.60361,   0.55115,   0.59701,  -0.31581,   0.86341,   0.24373,  -0.81304,   0.44518,  -0.79518,   0.44014
   0.87003,  -0.34634,   0.89181,  -0.16189,   0.93750,   0.93750,  -0.58065,  -0.86957,   0.93564,  -0.93750
  -0.36330,  -0.93750,   0.93750,   0.93750,   0.06381,  -0.93750,   0.29256,   0.93750,   0.31097,  -0.93750
  -0.81486,  -0.62618,  -0.08232,   0.73578,  -0.66661,  -0.26390,   0.18568,  -0.31507,   0.20836,  -0.37976
  -0.06961,  -0.16529,  -0.93750,  -0.15745,   0.93750,  -0.80097,   0.73362,  -0.87452,   0.71088,   0.06202
  -0.93750,  -0.45856,   0.93750,  -0.87572,   0.93750,   0.28989,  -0.89362,  -0.13048,  -0.93133,  -0.93750
   0.85574,  -0.48529,   0.75857,  -0.00578,   0.62413,   0.87198,   0.79767,   0.65106,  -0.85753,  -0.14731
   0.75298,   0.06771,   0.61372,  -0.17652,   0.29562,  -0.04595,  -0.12403,   0.60050,  -0.32892,   0.23952
   0.34725,  -0.86637,  -0.93750,  -0.41501,   0.14422,  -0.93750,  -0.70815,  -0.85283,  -0.93750,  -0.87820
   0.93750,  -0.62480,  -0.80844,  -0.57354,  -0.50146,  -0.93750,  -0.87597,  -0.26590,  -0.38406,   0.17683
  -0.47422,   0.04663,   0.93750,   0.93750,   0.83541,   0.89280,  -0.88033,   0.38447,   0.07948,  -0.50542
  -0.23128,   0.58818,  -0.93750,  -0.93750,  -0.21573,   0.76352,  -0.93750,  -0.88434,   0.93750,   0.42953
   0.24865,  -0.06052,   0.65334,   0.37719,   0.78194,   0.49212,   0.45175,  -0.46077,   0.43282,  -0.69429
  -0.93750,  -0.80654,  -0.93750,   0.93750,  -0.69777,   0.40782,  -0.05553,   0.93750,   0.27492,  -0.07923
   0.44913,   0.30178,   0.01254,  -0.61338,  -0.34690,   0.67663,   0.03365,   0.13491,  -0.19481,   0.62316
  -0.53264,   0.93750,   0.87687,  -0.20600,   0.72903,   0.02660,   0.05972,  -0.93750,   0.10287,  -0.71288
  -0.41684,  -0.93750,   0.93750,   0.18189,   0.54460,  -0.72440,  -0.78601,   0.15928,   0.45246,   0.93750
  -0.36952,   0.21679,  -0.25922,   0.68033,   0.01318,  -0.62745,   0.87749,  -0.06550,   0.54308,   0.08576
   0.13680,  -0.02245,   0.58190,  -0.77164,   0.44944,  -0.01306,  -0.03110,   0.51025,  -0.59693,   0.93750
   0.45043,   0.75758,  -0.20137,  -0.63542,   0.92230,  -0.69958,  -0.54714,  -0.23123,   0.36430,  -0.53467
  -0.82844,   0.81058,   0.18228,  -0.68892,  -0.53918,  -0.58018,  -0.78601,  -0.86870,   0.93750,  -0.87799
   0.93750,   0.38864,  -0.87911,   0.93750,   0.53636,  -0.67521,  -0.45768,   0.86667,  -0.93750,  -0.93750
  -0.44765,   0.22432,  -0.18273,  -0.35525,   0.93750,  -0.30696,   0.75350,  -0.79003,  -0.32201,   0.69861
   0.82791,   0.93750,  -0.32962,  -0.10113,  -0.78188,  -0.93750,   0.24854,  -0.58569,   0.93750,   0.20668
  -0.23311,  -0.58583,   0.68080,  -0.54227,   0.90137,  -0.26428,  -0.23048,   0.86303,   0.65159,  -0.44248
   0.93750,  -0.48627,  -0.05017,   0.56441,  -0.93750,   0.87651,   0.77381,   0.88041,  -0.93750,   0.93750
  -0.76821,   0.85731,  -0.93750,  -0.81096,   0.93750,   0.93750,   0.18635,   0.13687,  -0.11588,  -0.70102
   0.93750,  -0.21280,  -0.93750,   0.07098,   0.34045,   0.93750,  -0.62788,   0.37329,  -0.61585,  -0.82314
  -0.61207,   0.29560,  -0.00189,  -0.16320,  -0.80377,   0.93750,   0.85828,   0.46240,   0.73999,   0.71490
   0.28026,  -0.49398,   0.93750,   0.87133,   0.93750,   0.38790,   0.93750,  -0.16307,  -0.20625,  -0.62927
  -0.81229,  -0.03350,  -0.62134,   0.93750,  -0.02624,  -0.67438,  -0.77718,  -0.09997,  -0.83638,  -0.63130
  -0.20459,  -0.71228,  -0.27135,  -0.74025,  -0.76053,  -0.36191,   0.30131,   0.75276,  -0.33310,   0.68176
  -0.68828,  -0.91303,  -0.93750,  -0.47608,   0.73486,  -0.69527,  -0.93750,  -0.93750,  -0.69439,  -0.54915
   0.16604,   0.45391,   0.05816,   0.03013,  -0.02554,  -0.32806,  -0.25571,  -0.85981,   0.93643,   0.13953
   0.58134,  -0.50226,  -0.65907,  -0.35026,  -0.19034,   0.59114,   0.93213,   0.12387,  -0.34581,  -0.14010
   0.44805,  -0.81030,   0.80420,  -0.87405,  -0.93750,   0.93750,   0.36303,   0.70494,   0.23650,  -0.16653
  -0.58816,   0.55369,  -0.86099,   0.93750,  -0.72055,   0.57751,  -0.93750,  -0.10207,  -0.06825,  -0.93750
  -0.93750,   0.32436,  -0.93750,   0.77770,  -0.33325,   0.42140,  -0.88223,  -0.62360,  -0.31758,  -0.92703
   0.93750,  -0.79517,  -0.88010,   0.76563,  -0.55176,  -0.60058,   0.77570,   0.90809,   0.33924,  -0.93750
   0.40978,  -0.87764,   0.63841,   0.68914,  -0.67294,  -0.86770,   0.93750,   0.34833,  -0.79501,   0.52253
   0.31351,  -0.93750,   0.68655,  -0.08529,  -0.93750,  -0.93750,  -0.70527,   0.42018,  -0.77156,  -0.93750
   0.11934,  -0.93750,   0.93750,  -0.86226,   0.54797,   0.87290,  -0.56041,   0.57941,  -0.42702,   0.93750
   0.87388,   0.74347,   0.87686,  -0.87512,   0.93750,  -0.70454,   0.38894,  -0.30997,  -0.15438,  -0.82629
   0.06681,  -0.65713,  -0.44705,   0.87113,   0.22040,   0.31250,   0.47464,  -0.28504,  -0.12900,   0.68394
   0.93333,   0.43938,   0.46788,  -0.93750,   0.21714,  -0.32324,  -0.34901,  -0.02974,  -0.86626,   0.01051
   0.30430,  -0.93750,   0.31021,  -0.22831,  -0.26460,  -0.36855,   0.25679,   0.93750,  -0.87569,   0.41745
  -0.48341,   0.21355,  -0.21654,   0.93750,   0.93750,  -0.69117,  -0.62474,  -0.76304,   0.24630,  -0.56292
   0.28750,  -0.05479,   0.65608,   0.48242,   0.56406,   0.05750,   0.60895,  -0.39301,  -0.58535,   0.13147
   0.93750,  -0.09097,   0.63648,   0.78118,  -0.90890,   0.38444,  -0.76648,   0.66985,   0.87762,   0.86913
  -0.61757,  -0.81821,   0.53163,   0.61261,  -0.04968,  -0.14564,   0.91950,  -0.21131,   0.52169,  -0.62599
   0.50034,   0.74318,   0.48598,  -0.86622,  -0.63478,   0.48863,   0.30981,  -0.76819,   0.02796,  -0.69641
  -0.38121,  -0.14790,   0.93750,  -0.47962,   0.13668,  -0.35822,   0.81698,   0.15065,  -0.74155,  -0.43691
   0.24967,   0.06487,  -0.93750,   0.93750,   0.45940,  -0.93750,   0.86923,   0.82438,   0.93750,   0.80882
   0.93382,  -0.71185,   0.83480,   0.87020,  -0.93750,   0.18527,   0.05694,  -0.60499,   0.78771,   0.93750
  -0.74929,  -0.77528,   0.14446,   0.75409,  -0.54782,  -0.93750,  -0.89747,   0.84687,   0.31500,  -0.29991
   0.09600,   0.91107,  -0.28255,   0.88269,   0.00351,  -0.48085,   0.23382,   0.76572,  -0.81250,  -0.00489
   0.15895,   0.43599,  -0.47461,   0.33133,   0.07658,  -0.56455,  -0.91196,   0.73321,   0.21536,  -0.18254
  -0.51246,   0.54393,  -0.45460,  -0.75326,  -0.65488,   0.78888,   0.44780,   0.78999,   0.53430,   0.62542
  -0.93750,  -0.84409,   0.86376,  -0.93750,   0.31434,   0.58673,   0.93750,   0.87372,   0.93750,   0.93750
   0.72332,  -0.04629,   0.08943,  -0.18081,   0.05347,   0.56471,   0.22812,   0.10429,  -0.60380,   0.63251
  -0.47317,   0.62846,  -0.93750,   0.93750,   0.39091,  -0.50614,  -0.30781,   0.41762,  -0.40296,   0.88014
  -0.71885,  -0.86870,   0.69884,  -0.88179,  -0.34593,   0.59667,  -0.80509,  -0.87597,   0.89692,  -0.51856
  -0.32084,  -0.07130,   0.92885,   0.34562,  -0.81237,  -0.31951,   0.18307,   0.46024,  -0.88411,   0.59376
  -0.93750,   0.21185,  -0.25948,  -0.46551,  -0.93750,   0.93750,  -0.23753,   0.30157,   0.51454,  -0.93750
   0.32628,   0.93750,   0.03747,  -0.93750,  -0.51910,  -0.43221,   0.34497,  -0.93750,   0.93750,   0.93750
   0.18301,   0.64178,  -0.15841,  -0.01498,   0.25527,  -0.93750,  -0.67693,   0.93750,  -0.93750,  -0.73962
   0.39205,   0.58189,   0.23084,  -0.25004,  -0.15861,   0.49793,   0.73943,  -0.64555,   0.28223,  -0.00169
  -0.30107,   0.93750,   0.31902,  -0.24480,   0.14655,   0.93750,  -0.26563,  -0.93750,   0.45914,   0.93750
  -0.04376,   0.81155,   0.62158,  -0.85957,  -0.50055,  -0.07009,  -0.36657,  -0.68583,   0.75489,   0.45469
   0.19552,   0.25341,   0.85847,  -0.51121,   0.15444,   0.83247,   0.29604,   0.34170,  -0.46464,   0.03593
   0.51255,   0.22669,  -0.25649,   0.81591,   0.75890,  -0.54396,  -0.31638,  -0.20671,   0.78913,  -0.57178
  -0.72881,  -0.29219,  -0.68579,  -0.56906,   0.18554,   0.93750,  -0.72354,  -0.73908,   0.93750,  -0.18615
  -0.93750,   0.88726,  -0.65578,   0.93750,  -0.88739,   0.12233,   0.88752,   0.64024,   0.46127,  -0.50380
   0.93750,   0.71403,  -0.46058,  -0.46248,  -0.63098,   0.40909,   0.93750,   0.93750,   0.93750,   0.05384
   0.10551,  -0.93750,   0.43476,  -0.29119,  -0.17792,   0.23707,   0.55844,   0.72559,   0.18827,   0.64782
  -0.35624,   0.16381,   0.24538,   0.21943,   0.93750,  -0.38919,   0.09564,  -0.93684,   0.88552,   0.37705
   0.28950,  -0.88146,  -0.93750,   0.65473,  -0.69475,  -0.37380,   0.21939,   0.62723,  -0.08454,  -0.87015
   0.93750,   0.80650,  -0.15299,  -0.18274,   0.61042,  -0.59978,  -0.66917,  -0.27067,   0.93750,  -0.11149
   0.00258,  -0.42715,   0.25375,   0.42983,  -0.17630,  -0.05280,   0.70150,   0.28116,  -0.82029,   0.47163
   0.93750,  -0.54074,  -0.74000,  -0.75381,   0.07201,  -0.88007,  -0.36666,  -0.32926,  -0.86880,  -0.43665
   0.17198,   0.80491,  -0.87824,  -0.74243,  -0.84719,  -0.64216,  -0.29215,   0.16754,  -0.44217,   0.93750
  -0.29211,  -0.48882,  -0.12811,  -0.37430,   0.41497,  -0.01525,  -0.26087,   0.62677,   0.60511,   0.31353
  -0.69551,   0.04037,  -0.02425,   0.92232,  -0.61625,   0.43798,   0.43841,   0.05082,   0.93750,   0.93750
   0.03524,   0.86923,  -0.39336,   0.65090,   0.06153,   0.14170,  -0.55302,   0.52289,   0.61655,  -0.63975
   0.28690,  -0.88087,  -0.51363,   0.93750,   0.93750,  -0.93750,   0.84384,   0.22511,   0.60095,  -0.93750
   0.93002,  -0.09762,   0.05286,  -0.32946,   0.93750,   0.75521,  -0.81728,   0.49462,   0.32151,   0.93750
  -0.84945,   0.08699,  -0.85281,   0.89373,  -0.15068,  -0.93750,   0.93750,  -0.93750,  -0.83750,  -0.93750
  -0.24023,   0.10830,   0.29907,  -0.16426,   0.60914,  -0.17219,  -0.43041,   0.59001,  -0.12047,   0.60756
  -0.93750,  -0.44079,  -0.93095,  -0.81905,   0.38708,   0.40225,  -0.60661,  -0.32465,   0.52659,   0.87432
  -0.00116,   0.88105,   0.32765,  -0.11621,   0.81873,  -0.93750,   0.74907,  -0.93750,   0.15040,   0.59180
  -0.93750,   0.93750,  -0.93750,   0.40217,  -0.81545,   0.93750,  -0.74550,  -0.93750,   0.84455,  -0.66629
  -0.28482,   0.13015,  -0.93750,  -0.46680,   0.93750,   0.12920,  -0.93750,  -0.22812,   0.16385,   0.18233
  -0.81362,  -0.54336,  -0.11921,   0.10838,  -0.87105,   0.58451,  -0.40642,   0.85829,  -0.61653,  -0.93750
   0.72961,  -0.79657,  -0.61414,   0.61791,  -0.51281,   0.93750,  -0.93750,  -0.18851,  -0.93750,   0.15747
   0.18442,   0.70558,   0.39897,  -0.47359,   0.53948,  -0.34137,   0.79292,  -0.65090,  -0.35810,   0.54505
   0.75777,  -0.81806,  -0.45554,   0.52247,  -0.24343,  -0.58631,   0.16691,  -0.63208,   0.88026,  -0.57608
  -0.87974,   0.02273,   0.74896,   0.54125,  -0.87334,   0.93750,  -0.18525,  -0.87226,   0.05642,  -0.00663
   0.43264,  -0.16244,   0.09518,  -0.03547,  -0.55792,   0.16673,  -0.29640,   0.67480,   0.28306,   0.41361
   0.81246,   0.93750,  -0.93750,  -0.92223,  -0.77546,   0.63037,  -0.93750,  -0.32540,  -0.93750,   0.04413
   0.01525,  -0.69455,  -0.81524,  -0.32907,   0.87699,  -0.73585,  -0.79607,   0.93750,   0.87327,   0.62713
  -0.44400,   0.33771,  -0.67556,  -0.62553,   0.88300,   0.17604,   0.18258,  -0.93750,   0.48637,  -0.49072
   0.52029,  -0.18748,  -0.04850,  -0.40293,  -0.25089,   0.25488,   0.05045,   0.30052,   0.35763,   0.14037
  -0.87595,   0.55903,  -0.93750,  -0.60485,  -0.46675,  -0.20605,  -0.74285,   0.93750,  -0.87478,   0.93750
   0.93750,   0.84406,   0.93750,   0.93750,  -0.93750,   0.93750,   0.64417,  -0.71463,   0.32888,  -0.79971
  -0.87680,   0.93750,   0.77566,  -0.55107,  -0.60587,   0.74873,   0.30323,  -0.85789,  -0.49900,  -0.93750
  -0.54913,  -0.74031,   0.07655,   0.08358,   0.53096,   0.93750,   0.31528,   0.44832,  -0.38413,   0.31406
   0.24104,   0.26424,  -0.84310,  -0.72274,   0.70321,  -0.57576,  -0.09102,   0.87423,  -0.54227,  -0.46882
   0.38346,  -0.49637,  -0.06274,   0.45709,  -0.69065,  -0.48930,  -0.40668,   0.52943,  -0.86971,  -0.34326
  -0.93750,   0.93750,  -0.61757,  -0.60663,  -0.93750,  -0.93750,  -0.93750,  -0.93750,  -0.93750,  -0.45796
   0.33741,   0.33195,   0.87812,  -0.15516,  -0.93750,   0.93750,  -0.16668,   0.93750,   0.27954,  -0.62984
  -0.29937,   0.87360,   0.79839,   0.66995,   0.07771,  -0.02038,   0.93750,  -0.40496,   0.26302,   0.93750
   0.75748,   0.66208,   0.93750,  -0.60454,  -0.64584,  -0.45174,   0.93750,  -0.93750,  -0.22891,  -0.40173
   0.54225,   0.83302,  -0.93750,  -0.69352,   0.23763,   0.80551,  -0.65811,   0.46461,   0.46699,  -0.80737
   0.47277,  -0.55138,   0.82789,  -0.74830,   0.93750,  -0.93750,  -0.59923,   0.28006,  -0.28087,   0.86817
   0.93750,  -0.41090,  -0.01499,  -0.75948,  -0.01366,   0.17689,  -0.42527,  -0.36507,  -0.89150,  -0.54163
   0.14504,   0.93750,   0.93750,  -0.32652,   0.85248,  -0.75380,  -0.93750,  -0.34543,  -0.93750,   0.01427
  -0.68586,  -0.93750,   0.67765,  -0.93750,  -0.85880,   0.42045,  -0.87177,  -0.56817,  -0.92136,   0.34037
   0.93750,  -0.81437,   0.01968,  -0.78733,  -0.86512,  -0.63048,  -0.20097,  -0.15742,  -0.93750,   0.67811
   0.68934,  -0.80997,   0.70720,   0.74490,   0.80237,  -0.64680,  -0.67107,   0.87397,   0.60128,   0.93750
  -0.34258,   0.59486,   0.93750,   0.08528,   0.36769,   0.93750,  -0.87308,  -0.93750,   0.21772,  -0.80422
   0.93750,   0.93750,  -0.12273,   0.03752,  -0.50155,  -0.64231,   0.86713,   0.81178,  -0.76082,  -0.63214
   0.81288,   0.76972,  -0.06243,  -0.93750,  -0.81663,  -0.22266,   0.57865,  -0.27284,   0.49074,   0.55955
   0.93750,   0.82110,  -0.01673,  -0.76138,  -0.79738,   0.69578,   0.87447,   0.79175,  -0.93750,  -0.00785
   0.93750,  -0.93750,   0.83473,   0.46161,   0.93750,   0.82729,  -0.93750,  -0.56962,   0.33050,  -0.39203
   0.33299,  -0.16563,  -0.76670,   0.72134,  -0.10314,   0.46086,   0.48103,  -0.01105,  -0.38157,   0.19832
   0.40984,   0.12347,   0.33015,  -0.11333,   0.39875,   0.59700,   0.42798,   0.67523,  -0.52246,   0.24652
   0.70501,   0.54212,   0.01469,  -0.65315,  -0.55793,   0.66668,   0.77418,   0.93750,  -0.88087,   0.13239
   0.42719,   0.93750,  -0.58126,   0.56623,   0.93750,  -0.93750,  -0.93750,  -0.49010,   0.40597,   0.93750
   0.29248,  -0.87911,   0.05969,   0.01653,  -0.82207,   0.73450,   0.07423,   0.66437,   0.66637,  -0.17758
  -0.93750,  -0.51131,  -0.86278,   0.34561,   0.39934,   0.91566,   0.08676,  -0.17171,  -0.34084,   0.21331
   0.37736,   0.46791,   0.69117,  -0.53061,  -0.82767,   0.06996,   0.07119,  -0.13234,  -0.26289,  -0.75615
   0.70096,  -0.82232,   0.52259,   0.32220,   0.88737,  -0.44498,  -0.87714,  -0.43923,  -0.27687,   0.24297
  -0.77158,   0.05849,   0.21191,  -0.74805,  -0.93750,  -0.55749,   0.87497,  -0.69019,  -0.16926,  -0.93750
   0.93750,  -0.79575,  -0.35173,  -0.75183,   0.93750,  -0.93750,   0.93750,   0.93750,  -0.93750,  -0.72031
   0.42224,   0.67633,   0.44886,  -0.23026,  -0.27112,   0.64829,  -0.22968,  -0.32789,  -0.26187,   0.19118
  -0.38919,   0.93750,  -0.22124,   0.58240,  -0.62516,  -0.93750,   0.93750,  -0.83973,  -0.91789,  -0.43706
   0.90773,  -0.24806,  -0.93750,  -0.93089,  -0.53323,  -0.25721,   0.29821,   0.03802,   0.23537,   0.81919
  -0.93750,  -0.93750,   0.16831,   0.58546,  -0.93750,   0.66662,  -0.93750,   0.93750,  -0.25764,  -0.93750
   0.87164,  -0.78481,  -0.87862,   0.34465,   0.80403,  -0.72879,  -0.66497,   0.63312,   0.31969,   0.75539
   0.20901,   0.65922,   0.18204,  -0.39473,   0.40618,   0.50212,   0.83144,   0.22868,   0.65426,  -0.54434
   0.38621,   0.91834,  -0.13076,  -0.65203,   0.75699,  -0.18925,  -0.68754,   0.93750,   0.37072,   0.76731
  -0.61735,   0.93750,  -0.31684,   0.50014,   0.74788,   0.75431,   0.38139,   0.28438,   0.02350,  -0.87087
   0.77114,  -0.37141,   0.93750,  -0.20028,   0.31202,   0.40634,  -0.26667,  -0.76044,   0.37030,  -0.93060
   0.93750,   0.52112,   0.51762,   0.86613,  -0.47963,  -0.32787,  -0.23051,  -0.93750,   0.72378,   0.09698
  -0.93750,  -0.86542,   0.09110,  -0.11139,   0.93750,   0.87909,   0.87058,   0.87694,   0.35993,   0.87101
   0.93750,  -0.03048,   0.31498,  -0.93750,  -0.93750,   0.44516,  -0.93750,   0.11368,   0.59096,  -0.87518
   0.43267,   0.73284,   0.70810,  -0.31805,   0.51929,   0.51340,   0.61378,  -0.93750,   0.88160,  -0.61735
   0.93750,   0.93750,   0.26355,  -0.52123,   0.15446,  -0.93750,  -0.38007,   0.10957,  -0.80896,  -0.29904
  -0.93750,   0.29730,   0.86907,   0.11462,  -0.05911,   0.07196,  -0.93750,  -0.63758,  -0.76048,  -0.05782
   0.37877,   0.65482,  -0.62628,   0.02933,  -0.63915,   0.77013,  -0.00348,  -0.50423,   0.70673,  -0.21277
  -0.59682,   0.64180,   0.63329,  -0.59424,   0.09419,  -0.82899,   0.81145,  -0.12151,  -0.00478,  -0.60845
   0.93750,  -0.35353,  -0.79164,   0.49975,   0.48528,  -0.93750,  -0.09640,  -0.87863,   0.07548,  -0.61867
   0.92675,  -0.59993,  -0.70830,   0.14492,  -0.93750,  -0.25414,   0.73605,   0.93750,  -0.28756,   0.07840
   0.77947,  -0.14454,   0.07716,  -0.05129,  -0.52904,   0.64550,  -0.51714,   0.87567,   0.21538,  -0.09258
   0.74443,  -0.34294,  -0.67406,  -0.22341,   0.00189,  -0.80709,   0.80303,  -0.87301,   0.70093,   0.33487
   0.93750,  -0.93750,   0.07058,  -0.93750,   0.24512,   0.93750,  -0.37465,  -0.93750,  -0.88188,  -0.44401
   0.86842,  -0.22868,   0.93750,   0.09192,  -0.93709,   0.26527,   0.93750,  -0.93750,   0.93750,  -0.59427
   0.22177,   0.86643,  -0.00086,  -0.75074,   0.40078,   0.06187,   0.11802,   0.56648,  -0.01824,  -0.47695
   0.16201,  -0.45641,  -0.15806,   0.74644,   0.52615,   0.07328,   0.54177,  -0.18849,   0.16579,  -0.26051
   0.48446,  -0.86004,  -0.20872,   0.02663,   0.36859,  -0.00737,   0.00921,  -0.04276,  -0.32598,   0.10305
  -0.81529,  -0.36825,   0.69632,   0.08390,   0.23876,   0.62763,  -0.31573,  -0.39363,   0.71795,  -0.11445
  -0.10789,  -0.15620,  -0.00260,  -0.34451,  -0.81009,   0.32676,   0.43196,  -0.48745,   0.74116,   0.20330
  -0.18304,  -0.03010,  -0.66493,  -0.78126,  -0.62299,   0.82049,   0.93750,  -0.38714,  -0.15602,  -0.44027
   0.04719,   0.93750,  -0.87840,   0.01278,  -0.69430,  -0.46338,  -0.35805,   0.27888,  -0.37585,  -0.82176
  -0.67145,   0.83096,  -0.80176,  -0.51097,  -0.93750,  -0.49406,   0.56403,   0.25565,   0.25351,  -0.48993
   0.65220,   0.38372,  -0.61697,   0.80866,   0.51875,  -0.93750,  -0.12390,   0.18889,   0.75168,  -0.55593
  -0.67231,  -0.29169,  -0.74793,  -0.40742,   0.93750,  -0.41589,   0.73936,   0.54151,  -0.93750,   0.80744
   0.09786,  -0.87208,   0.10117,   0.54217,  -0.93750,   0.93750,  -0.93750,  -0.93750,  -0.93750,  -0.93750
  -0.14790,   0.48850,   0.63316,  -0.47618,   0.54028,   0.34470,   0.01146,  -0.22431,   0.66594,   0.29789
  -0.56711,  -0.04660,  -0.93217,   0.18672,  -0.22438,   0.64860,   0.31136,  -0.93750,   0.33153,   0.03801
   0.86207,  -0.14475,  -0.05307,   0.74780,   0.87609,  -0.67957,  -0.57084,   0.76457,  -0.69329,   0.02620
  -0.78500,   0.32837,   0.92903,   0.02751,   0.75849,   0.42349,   0.29296,  -0.13367,  -0.85367,  -0.73915
   0.54412,  -0.06111,  -0.60745,   0.93750,  -0.73955,   0.34135,   0.93750,  -0.74349,   0.52434,   0.47436
   0.23228,   0.45497,  -0.10627,   0.75421,   0.30741,  -0.49880,  -0.34229,  -0.50106,  -0.34892,   0.06675
  -0.73158,   0.82608,  -0.23785,   0.60949,   0.25307,  -0.93249,   0.93750,   0.15975,   0.01121,  -0.18232
  -0.69431,   0.44560,   0.74871,  -0.11965,   0.93750,  -0.93750,  -0.86433,  -0.72107,   0.86873,   0.70639
  -0.86187,  -0.30796,   0.53034,   0.93489,  -0.31504,   0.62830,   0.75103,   0.82176,  -0.18156,  -0.04366
  -0.44935,  -0.63792,   0.81906,  -0.93750,   0.07073,  -0.64009,  -0.54710,   0.93750,  -0.88135,   0.63898
   0.93750,   0.56908,  -0.93750,   0.93750,   0.93750,   0.12545,  -0.93750,  -0.92660,  -0.80313,   0.93750
  -0.52354,  -0.67289,   0.07243,   0.73456,  -0.49725,  -0.07596,  -0.19390,   0.75452,   0.78231,  -0.14285
   0.20504,   0.34516,  -0.93750,  -0.72743,  -0.86957,   0.93750,  -0.55638,  -0.73161,   0.01385,   0.18753
  -0.93750,  -0.88637,  -0.05738,   0.04825,   0.93750,  -0.88378,  -0.85044,   0.19781,  -0.84119,  -0.88550
  -0.19640,   0.80542,   0.36922,   0.45280,  -0.13117,   0.50711,   0.60214,  -0.53374,   0.58520,   0.12780
   0.35082,  -0.09419,  -0.24464,   0.18893,  -0.27530,   0.72928,   0.14764,   0.62774,  -0.67256,  -0.49263
   0.35705,  -0.14379,  -0.33795,  -0.20160,   0.01346,   0.18732,   0.62995,   0.65031,   0.85352,   0.25486
  -0.06259,   0.83042,   0.93750,  -0.69433,   0.49954,  -0.52226,  -0.93750,  -0.25579,  -0.93750,   0.93750
  -0.93750,  -0.93750,  -0.93750,   0.93750,   0.93750,  -0.10702,  -0.61777,  -0.93750,   0.29898,   0.91269
  -0.93750,  -0.93750,  -0.48101,  -0.44512,   0.93750,   0.52211,  -0.81060,  -0.64650,  -0.87018,  -0.93750
   0.75348,   0.77295,   0.93750,  -0.75983,   0.86082,   0.50152,   0.68619,  -0.15578,  -0.93750,  -0.93750
   0.93750,   0.23932,   0.74250,  -0.93750,   0.93750,   0.47303,   0.93750,   0.24809,   0.60475,   0.93750
  -0.56656,  -0.53130,   0.21187,  -0.43086,  -0.40377,   0.38776,  -0.16781,   0.82029,  -0.10846,  -0.63417
  -0.87250,   0.14730,  -0.93750,  -0.93750,   0.93750,  -0.87874,  -0.26122,   0.86560,   0.24711,   0.53743
  -0.21984,   0.78677,  -0.38921,   0.15901,  -0.54831,   0.81287,  -0.06108,   0.55321,  -0.49159,  -0.11211
  -0.24062,   0.05656,   0.88140,  -0.82060,  -0.68232,   0.12764,  -0.49221,  -0.66684,   0.75087,   0.69127
  -0.29134,  -0.47426,   0.92831,   0.29829,   0.82831,  -0.67507,   0.80009,  -0.71412,  -0.59779,   0.09488
   0.03266,   0.87427,  -0.56829,  -0.14213,   0.86982,  -0.93750,  -0.75463,  -0.93750,  -0.71577,   0.93750
  -0.20463,  -0.03037,  -0.76123,   0.08791,  -0.42974,   0.18098,  -0.23355,   0.47913,   0.73811,  -0.78220
  -0.86645,   0.93750,  -0.49281,   0.89447,  -0.87947,   0.49407,  -0.67461,  -0.79185,   0.44364,  -0.84010
   0.93750,  -0.50115,   0.87786,   0.19837,  -0.93750,  -0.27832,  -0.69856,  -0.00375,  -0.69549,  -0.93750
  -0.64329,  -0.80032,  -0.15700,   0.28657,  -0.78517,  -0.44394,  -0.20676,   0.93590,   0.88950,  -0.17414
  -0.79017,   0.67574,   0.13706,  -0.87410,   0.08305,   0.56177,   0.93750,  -0.53573,   0.93750,  -0.93750
  -0.93750,  -0.05486,  -0.51144,   0.93750,  -0.44068,  -0.78971,  -0.42583,   0.19619,   0.22459,  -0.54430
  -0.02937,  -0.93750,   0.93750,  -0.93057,  -0.79901,  -0.42654,   0.93750,  -0.93750,  -0.83893,   0.56984
  -0.35745,  -0.51594,   0.87643,  -0.88450,  -0.93750,   0.39517,  -0.38720,   0.93750,  -0.70410,   0.69034
  -0.73267,   0.27986,   0.93750,   0.47615,  -0.10481,  -0.13322,   0.82089,   0.75914,  -0.68711,   0.93750
  -0.27862,  -0.10359,   0.83165,  -0.52204,  -0.02952,   0.93456,  -0.16804,   0.69055,   0.04782,   0.49280
   0.24366,   0.72454,   0.25880,   0.86612,   0.05440,  -0.08959,   0.93750,  -0.27090,   0.69524,  -0.33778
   0.04231,  -0.09796,  -0.69508,  -0.30566,  -0.46274,  -0.17376,   0.93750,  -0.43354,  -0.04724,  -0.68661
  -0.52457,  -0.69395,  -0.88449,  -0.23294,   0.93750,   0.63210,  -0.93750,  -0.30768,   0.31197,  -0.57858
   0.38066,  -0.93750,   0.14914,   0.81824,  -0.31561,   0.43124,   0.81359,   0.35003,  -0.65292,   0.37665
  -0.93750,  -0.25770,   0.10012,  -0.76149,   0.93750,  -0.93750,   0.09824,  -0.93750,  -0.05820,   0.79610
   0.48777,  -0.36883,  -0.31326,  -0.62360,  -0.04294,   0.75413,   0.34496,   0.47789,   0.17390,   0.43288
  -0.16273,  -0.54757,  -0.88005,  -0.16505,   0.82728,   0.67326,   0.41170,   0.41119,  -0.73322,  -0.30114
  -0.40301,  -0.93750,  -0.93750,  -0.93750,  -0.93750,   0.93750,   0.74323,  -0.93750,   0.24702,  -0.93750
  -0.67435,  -0.87337,   0.26083,   0.61915,  -0.88179,   0.80279,  -0.46266,  -0.58906,  -0.59240,   0.63688
   0.80982,  -0.09361,  -0.93750,  -0.78916,   0.10660,  -0.12351,  -0.93750,   0.93750,   0.80767,   0.81733
  -0.43209,  -0.28479,  -0.39328,  -0.55451,  -0.68694,   0.16389,  -0.46738,   0.76613,  -0.33680,   0.63318
   0.46331,  -0.77200,   0.93750,  -0.93750,  -0.18748,  -0.76662,  -0.25690,   0.93750,  -0.10013,   0.35887
   0.11173,  -0.93750,  -0.93750,  -0.75932,   0.87788,   0.14567,  -0.26920,  -0.72810,  -0.29919,   0.92180
  -0.43456,   0.73918,   0.81294,   0.02915,  -0.28450,   0.69402,  -0.24175,  -0.24338,  -0.31940,  -0.39672
   0.93750,  -0.00911,  -0.69597,   0.61435,  -0.87532,   0.20864,  -0.88075,   0.14666,  -0.10053,   0.36469
   0.21207,   0.93750,  -0.57884,   0.44383,  -0.93750,   0.93750,   0.91089,  -0.88212,   0.37451,   0.85016
  -0.57468,   0.88166,  -0.36988,   0.29219,  -0.39755,  -0.24656,  -0.66178,   0.57568,  -0.75213,   0.49484
  -0.40258,   0.15097,  -0.53566,   0.93750,   0.02080,  -0.93750,   0.93750,   0.93750,   0.48841,  -0.93750
  -0.67478,  -0.49395,  -0.32728,   0.49207,  -0.60173,   0.86984,   0.80959,   0.93750,  -0.36971,   0.24086
  -0.45897,   0.16035,  -0.93750,   0.93750,  -0.20992,  -0.74921,  -0.93750,   0.17242,   0.93750,   0.00774
   0.23490,  -0.74409,   0.93750,  -0.21261,   0.93750,  -0.93750,   0.93750,  -0.93750,  -0.49745,   0.87362
   0.15526,   0.05731,  -0.93750,  -0.80559,   0.10075,   0.44390,  -0.93750,   0.41170,  -0.50704,   0.39429
  -0.42876,   0.93750,  -0.31528,  -0.56043,   0.93750,   0.31204,  -0.69248,  -0.68077,  -0.93750,  -0.80685
   0.93750,   0.27554,  -0.81899,  -0.87792,   0.93750,  -0.79943,   0.88019,   0.36220,  -0.55672,  -0.93750
   0.64033,  -0.24421,  -0.93750,   0.93750,   0.49901,   0.56395,  -0.03530,  -0.54142,  -0.41082,  -0.54095
   0.93750,  -0.29522,  -0.26964,   0.93750,  -0.93750,  -0.93750,   0.77478,  -0.93750,  -0.33661,  -0.22624
   0.21103,  -0.86655,  -0.61992,  -0.58062,  -0.05011,   0.48381,  -0.62875,  -0.79660,  -0.53442,   0.67202
  -0.87663,  -0.93750,   0.63919,   0.87056,  -0.04936,   0.27335,   0.69833,   0.11342,   0.12002,   0.71492
  -0.28767,   0.61154,  -0.35939,   0.63975,  -0.10789,  -0.44432,  -0.52495,   0.57171,   0.42240,   0.65056
   0.31881,  -0.93750,  -0.93750,   0.93750,   0.31197,   0.93750,  -0.93750,  -0.37655,  -0.68393,   0.55812
   0.56357,  -0.93750,   0.93750,  -0.93750,   0.04784,  -0.87441,   0.80927,   0.82829,   0.85802,  -0.93750
   0.64640,  -0.49917,   0.74777,  -0.68810,  -0.20882,  -0.67509,   0.87608,  -0.36089,   0.02602,  -0.81140
   0.00907,  -0.66058,  -0.82562,   0.93750,  -0.93750,   0.11438,   0.06420,  -0.48886,  -0.38947,   0.93750
  -0.43877,  -0.57633,   0.38134,   0.86290,  -0.69138,  -0.20374,  -0.13041,   0.93750,   0.06381,  -0.62136
  -0.16364,   0.33439,  -0.17428,  -0.53101,   0.75378,  -0.75462,   0.44794,   0.57497,   0.08920,   0.35400
  -0.57611,   0.91675,  -0.56204,  -0.58714,   0.31173,  -0.43993,   0.31214,  -0.47508,  -0.08705,   0.92348
   0.53245,   0.74475,   0.93750,   0.36287,   0.86039,  -0.04374,   0.86026,   0.93750,   0.63706,   0.93750
  -0.73751,   0.58786,   0.59935,  -0.93750,  -0.93402,  -0.56294,  -0.29757,  -0.68478,   0.35560,  -0.30500
  -0.31986,  -0.58307,   0.32553,   0.64739,   0.42679,  -0.32902,   0.78643,   0.85616,  -0.35228,  -0.10261
   0.58898,  -0.16961,   0.21700,  -0.93750,  -0.66906,   0.93750,  -0.63670,  -0.77908,   0.93750,   0.18526
   0.44937,  -0.47830,  -0.93750,  -0.85196,  -0.02103,   0.84237,   0.93750,  -0.68472,  -0.93750,  -0.70096
   0.27779,   0.43425,  -0.13820,   0.60023,  -0.70952,  -0.31036,  -0.66131,   0.06668,  -0.04160,   0.70135
  -0.01147,   0.90936,  -0.80959,  -0.86359,   0.58302,   0.42509,   0.93750,  -0.87843,  -0.62733,   0.73351
   0.28132,  -0.93750,  -0.29510,  -0.53831,   0.93750,   0.93750,  -0.01686,  -0.64592,   0.70543,   0.62191
   0.52928,  -0.53891,  -0.45088,  -0.09194,  -0.45849,   0.15208,   0.08343,  -0.07958,   0.58659,  -0.62459
   0.07261,   0.82072,  -0.12179,  -0.63479,  -0.44173,   0.62261,  -0.21501,  -0.15001,   0.81522,   0.39617
   0.58560,  -0.77703,  -0.93750,  -0.92355,   0.93750,   0.75270,  -0.93750,  -0.27886,  -0.39935,   0.87729
   0.93750,   0.89864,  -0.67276,   0.93750,  -0.80882,   0.38335,  -0.76233,  -0.33908,  -0.73782,  -0.14369
   0.93750,   0.82075,  -0.03922,   0.93594,  -0.87535,  -0.21174,   0.08323,   0.68125,  -0.93750,   0.81694
   0.79991,  -0.93750,   0.89404,  -0.40795,  -0.08446,   0.25032,  -0.93750,   0.54944,   0.93750,  -0.93750
  -0.80746,   0.87106,   0.93750,   0.93750,   0.58012,   0.11662,  -0.76133,  -0.61805,   0.93750,  -0.35131
   0.77138,  -0.09260,   0.60298,  -0.14558,   0.82490,  -0.15948,   0.02631,   0.61114,  -0.03848,   0.64578
  -0.30428,  -0.34532,   0.93750,  -0.93750,   0.70120,  -0.27340,  -0.93750,   0.58956,  -0.24322,   0.53054
  -0.05571,   0.71930,  -0.53560,   0.56049,   0.27410,  -0.54300,  -0.91931,   0.55670,  -0.42047,   0.74275
   0.17866,   0.40917,  -0.23935,   0.32338,  -0.01559,   0.47455,  -0.80756,  -0.05305,   0.01412,   0.70012
   0.56515,   0.13111,   0.82913,   0.12109,   0.61102,   0.04469,  -0.30092,   0.81342,  -0.43340,  -0.86692
  -0.81078,   0.48300,  -0.82058,  -0.04768,   0.93750,   0.77800,  -0.93750,  -0.93750,  -0.88326,   0.93750
  -0.93750,   0.00165,  -0.06536,  -0.58709,  -0.93750,  -0.10558,  -0.93750,   0.22214,  -0.93750,  -0.69327
   0.93750,  -0.44848,   0.51385,  -0.38575,   0.78844,  -0.04478,   0.44880,   0.38311,  -0.68095,   0.63612
  -0.83401,  -0.67541,   0.72161,   0.58919,   0.50916,   0.54540,   0.56512,  -0.20490,  -0.57223,   0.40412
   0.08846,  -0.62717,   0.31816,   0.23922,   0.12290,   0.25414,   0.25392,  -0.88476,   0.30727,  -0.80664
  -0.47525,  -0.10476,  -0.47343,   0.19570,  -0.74461,   0.32001,  -0.08451,  -0.39792,  -0.47848,   0.50717
  -0.35395,  -0.87020,  -0.24450,   0.57688,  -0.93750,  -0.76169,  -0.74747,   0.93750,  -0.49813,   0.59696
   0.39676,   0.40757,  -0.37904,  -0.40557,  -0.44384,  -0.41161,   0.48004,   0.66118,  -0.45267,   0.02984
  -0.41608,  -0.93750,   0.14367,  -0.04781,   0.76779,  -0.76438,  -0.52255,   0.67326,   0.48139,   0.38220
  -0.72429,  -0.00120,   0.12170,  -0.89473,   0.60071,  -0.64473,  -0.44763,  -0.72896,   0.23382,   0.82732
   0.51860,  -0.48366,  -0.01009,   0.88223,   0.69686,   0.92888,  -0.22904,  -0.60678,  -0.08679,  -0.50084
  -0.61709,   0.93750,   0.33281,  -0.24969,   0.59145,  -0.93750,  -0.83865,  -0.93750,  -0.70480,  -0.72645
   0.54976,   0.46700,   0.48949,   0.93750,  -0.82717,  -0.08674,  -0.56152,   0.13410,  -0.02807,  -0.09521
  -0.29410,  -0.93750,  -0.04967,   0.05485,  -0.52435,   0.57088,  -0.93750,   0.85294,   0.56515,  -0.13031
  -0.37270,   0.41853,  -0.29203,  -0.16803,  -0.26417,  -0.35340,  -0.22877,  -0.61139,   0.46422,   0.80197
  -0.93284,   0.40339,  -0.93750,  -0.68220,  -0.93750,   0.93750,   0.24240,  -0.35003,   0.87811,  -0.41994
  -0.93750,  -0.93750,  -0.44776,   0.07483,   0.93750,   0.93750,   0.59681,  -0.76352,  -0.80889,   0.00287
   0.23758,  -0.74449,  -0.28120,   0.75902,   0.65867,  -0.75399,  -0.38738,   0.22731,   0.93750,  -0.10655
   0.54079,   0.93391,   0.53691,   0.45817,  -0.57074,   0.93550,   0.23468,  -0.23550,  -0.22989,  -0.03084
   0.93750,   0.68459,   0.19121,  -0.87668,   0.58312,   0.47278,   0.47269,  -0.89342,  -0.35715,  -0.62801
